-0.76562124
0.16581133
-0.69769591
0.34355623
-0.06621999
-0.54675800
0.52080333
0.25637153
0.31494075
0.00909995
0.12197241
0.19969408
0.00075819
0.11879501
0.11558171
0.16109471
0.12097552
0.18094994
0.59825104
0.21392997
0.15718707
-0.21048930
0.33792427
0.24890308
-0.63387978
-0.56559533
-0.67764121
0.46228051
-0.27851915
0.46809369
-1.08272254
0.96903145
-0.30514124
0.68747205
0.29589781
-0.94541812
0.38219708
-0.21520740
-0.28985149
0.11345851
0.11012719
-0.50340050
-0.42846224
-0.53158522
-0.24465726
0.12490566
-0.60146636
-0.23641412
-0.37566352
-0.16142350
0.16816618
-0.41140568
-0.25895315
0.36535186
0.43524775
0.12409624
-0.08131142
-0.65340209
-0.69581038
-0.72048891
-0.03601230
0.19990841
0.50480682
0.19744119
0.05955036
-1.11140132
0.16496268
0.93027771
-0.04140915
-0.82163775
0.61625355
-0.05972897
0.02420526
0.67334777
-0.40184149
0.08362126
0.45680723
0.37590927
-0.87080437
-0.28586012
0.13013522
0.16789703
0.67829859
-0.71078295
0.45649648
-0.28185412
-0.58781701
-0.10703147
-0.56379378
0.16779059
0.08388026
-0.58782899
0.37158346
-0.35493803
-0.32626024
0.08186424
0.11893354
-0.43722284
-0.51886427
0.09890862
0.12619521
0.15902191
0.24233752
0.06322999
0.25014958
-0.01451775
0.03810347
-0.08615929
0.25683129
0.25193501
0.53857803
-0.32549372
0.13072596
-0.51898825
-0.59468150
-0.46714669
-0.21137950
-0.55399781
-0.38887689
-0.05887273
-0.45989907
0.43808666
0.59157842
-0.80484104
0.46163774
0.15338811
0.10329457
-0.17586325
-0.48912719
0.51892960
-0.14514664
-0.11217646
-1.13020587
0.27687496
0.39240012
-0.28138274
-0.14276022
0.28665316
-0.49623671
-0.04815614
0.57293987
-0.35877895
-0.59742713
0.28371543
0.22671159
0.36040348
0.41521552
-0.30819353
-0.29386693
0.43642765
-0.53742737
-0.17158000
0.06816053
0.66093147
-0.52378297
-0.39440742
-0.13755310
0.69010067
-0.71939987
0.44918948
-0.04193497
-0.41548017
0.47372600
-0.43252856
-0.37226608
0.13731103
-0.32441032
-0.07824216
0.26924941
-0.50322050
-0.22714721
0.34941491
0.59673065
0.12232619
0.33147559
-0.11108545
-0.53159118
-0.51700300
-0.34659043
-0.32674724
0.41245019
-0.39747515
-0.60658187
0.22862598
-0.15200105
0.21160673
0.39561996
-0.02088380
0.33444673
0.22754145
0.21295868
0.06327835
0.25384840
-0.02241768
-0.00149853
0.00623497
0.10996728
-0.27744600
-0.02453151
0.22998369
0.35150555
-0.85319883
-0.16165236
0.74674660
-0.02654783
-0.72305059
-0.67756522
0.86205077
-0.22573012
0.51524246
-0.02270575
-0.24690935
-0.36227888
-0.50020504
-0.34446156
0.86273348
0.13300207
-0.52821332
-0.46927118
0.24458691
0.36647829
-0.43390831
0.39180937
-0.40719050
-0.42548019
-0.48509589
-0.49370086
-0.68165332
-0.35702443
0.08702496
0.22961429
0.02565474
0.52954298
0.22800419
-0.63342524
-0.39976841
0.06229795
0.24339294
-0.67106605
-0.62235457
0.35672060
0.35643879
-0.51902592
-0.38286391
-0.38776946
-0.77824366
-0.41579160
0.24939649
-0.01268922
0.35740060
0.19549161
-0.24415018
0.18580601
0.38663468
-0.61071843
0.21500646
-0.32433975
-0.25501406
0.66864568
-0.24583653
0.18795182
-1.04266691
-0.23673560
0.38236102
0.45645899
-0.21904606
0.66969842
0.63024098
0.21834700
-1.22094417
0.65258038
-0.16567907
0.17536421
-0.10915007
-2.15270996
0.48175943
0.81014413
0.18500349
0.38967946
-0.35197592
-0.33595780
-0.74279857
0.65386623
1.11848795
-0.01557025
-0.73054171
-0.30646029
-0.45166537
