-0.02503510
-0.00272780
0.03659515
0.02476173
0.02747474
0.00581693
-0.02394264
-0.00012861
-0.03471540
-0.02462647
-0.01628289
-0.05689782
-0.08677386
-0.02893856
-0.05756225
-0.09189618
-0.07450529
-0.07593773
-0.02578605
-0.02885485
-0.02795807
0.06565270
-0.04279497
0.02344177
0.08597392
0.09689587
-0.02237561
-0.01234820
-0.00693167
-0.03045469
-0.06442935
-0.06527692
-0.01917416
-0.06249337
-0.05391432
-0.04449898
0.00005371
0.01151208
-0.03758638
-0.05629631
-0.03336379
-0.07395754
0.07390148
0.00307028
-0.07608279
-0.02661335
0.04703481
0.08380548
-0.05794751
-0.04529259
-0.01728530
0.01673105
-0.06717406
-0.01026054
0.04794735
-0.04075037
0.02959302
0.05333377
-0.01393746
0.00126813
0.04544103
0.01678178
-0.00247598
-0.06248318
-0.03991384
0.02710703
0.00609484
0.00549629
-0.04192786
0.02714791
-0.03172908
-0.02664537
-0.04553873
-0.01861111
-0.01216165
0.00924801
0.00997091
0.00515520
0.01833795
-0.01758816
-0.01514521
0.04294332
0.02710953
-0.02003959
-0.00869016
0.03050315
-0.00053145
0.07285263
0.04672254
0.00296878
0.02187604
-0.04719419
0.02042677
-0.05893483
0.10391781
0.07310243
-0.14931172
0.07910614
-0.09318577
0.00867813
-0.06048866
-0.06160155
-0.07709266
-0.09800832
0.00606768
-0.10417600
-0.10565256
-0.05250444
-0.01269579
0.01926265
0.01075883
-0.00032409
0.00557409
0.03295540
0.09921923
0.09985023
0.05834455
-0.07953001
0.07987338
0.13242441
-0.02786266
0.02925120
-0.03618567
0.06724367
0.00172107
-0.04700432
-0.00490132
0.02366901
0.06712516
0.04229267
-0.04189150
-0.00773835
0.04611751
0.01829744
0.06614779
-0.02631886
0.05705329
-0.00292825
-0.01220677
0.09500785
-0.00225218
0.02849537
0.07322579
-0.06377828
0.00646409
-0.00318245
-0.03277066
0.03468267
0.00755453
-0.01382594
-0.02056501
-0.03781348
-0.06229900
-0.01686585
0.00627963
-0.03787098
-0.01373857
0.06189273
-0.01189198
-0.03088755
0.02772711
-0.05563150
-0.01800669
0.00810049
0.01321807
-0.06206270
0.02605928
-0.05401411
0.03646272
0.04105153
-0.08326038
0.01109341
-0.01523111
0.03102229
0.03616690
-0.06263730
0.00789328
0.08530119
0.00223775
-0.00836193
0.00428119
-0.08897807
0.03597090
-0.07318514
-0.08510723
0.01437391
-0.01798267
-0.03885300
-0.01877048
-0.03875522
-0.00697340
-0.07077379
-0.02310711
-0.03807630
-0.05283190
-0.02634634
-0.07675511
-0.04254334
0.03269400
-0.01585660
0.03403522
-0.00723003
0.04685605
0.00987852
-0.06379554
0.02294361
0.00796323
-0.04213142
-0.01319766
-0.09477222
-0.01395874
-0.06460689
-0.02810800
-0.04886712
-0.08932811
0.00245868
0.01293057
0.03912324
-0.06775039
0.04646407
0.06110771
-0.03949908
0.03207166
0.08175696
-0.01915424
-0.03118371
-0.04801536
0.11746074
0.03571682
-0.05298755
-0.02129653
0.09747494
0.04244206
0.05285094
0.00761937
0.03275719
-0.09395435
0.07017874
0.06089787
-0.01297825
-0.10648524
0.01558994
-0.01933706
0.05304446
0.04135000
-0.06173209
0.10467446
0.06685147
-0.04507047
0.04751338
0.08360528
-0.01587150
-0.03321692
-0.00498164
-0.02804122
0.00975222
-0.01437698
-0.03504947
-0.05083333
-0.04559395
-0.06246395
-0.01155712
0.01017815
0.00168342
0.01219715
-0.00135763
0.03253280
0.06417988
0.02485397
0.03601522
-0.00899689
-0.08277238
0.02352276
-0.03102349
-0.09623650
-0.03923676
-0.03968177
-0.05774232
0.02112900
-0.05218212
-0.04729786
-0.05159761
0.07981592
0.01956840
-0.03691918
0.02728682
0.00509148
-0.05060295
0.00904627
-0.00332344
-0.01927832
-0.01668521
0.00928729
-0.01077796
0.04519512
0.04828060
0.00734553
-0.03692676
-0.04283457
-0.04684053
-0.00869753
-0.02891393
0.00129128
0.00108349
-0.00963303
0.00926107
-0.03651118
-0.04523253
-0.10810802
-0.01549980
-0.02843237
-0.06439935
-0.04149663
-0.04986263
-0.01266235
0.00350018
0.01578922
-0.00670504
0.01086811
0.00720639
-0.04391140
-0.03512295
-0.03601379
0.00335601
-0.05970852
-0.05620918
0.02820503
-0.04161142
-0.01723692
-0.00635289
-0.09276211
-0.06840458
-0.01059918
-0.04307116
-0.00951588
0.03718638
-0.01872694
-0.03948669
-0.00865008
-0.04271287
-0.05346714
-0.01279138
-0.02660810
-0.09221941
-0.02281072
-0.05157289
0.06188259
-0.00209288
-0.04981090
0.00714930
0.03551867
0.01613707
0.02982374
0.01153090
0.00739419
-0.01485221
0.00485772
-0.00389816
-0.01004588
-0.04122848
-0.02762363
-0.03105682
-0.03348362
-0.02565874
-0.01725286
-0.03258420
0.00339798
-0.01315836
-0.04573933
-0.00329125
0.01317433
0.05917547
0.00814516
0.06328621
0.03793657
-0.02796668
-0.02197527
-0.05861823
-0.04258149
-0.04595851
-0.04762476
-0.06128814
-0.06456525
-0.02369009
-0.01903824
0.00757234
0.00128139
-0.00867421
-0.02891877
-0.03595489
-0.00714593
-0.01373688
-0.03974481
-0.01791404
-0.00125549
0.02051588
-0.01684597
-0.06825295
-0.14939164
-0.06237923
-0.02081459
-0.05356534
-0.05651172
-0.03130306
-0.02168697
0.02897548
0.02346241
0.08037664
0.01866317
0.02649161
0.02704628
-0.03066739
-0.05271186
0.02074772
-0.02412187
-0.01918724
0.03973320
-0.01319801
-0.01827966
0.00816542
-0.05772513
-0.06848108
-0.01488198
-0.01192140
0.04892040
0.04985449
0.02498425
-0.00029359
0.05368341
0.04714543
-0.01885050
0.03687970
-0.00703059
-0.01961641
-0.06407856
-0.04586608
-0.06347770
-0.02923657
-0.01593816
-0.02113182
0.00200447
0.01411730
0.04859550
0.05800931
0.00952688
0.02441704
-0.03435522
0.01354926
-0.03818401
-0.08432615
-0.00196624
0.01036052
0.01118557
0.02633561
-0.01829205
0.01770959
0.01930357
-0.03150987
-0.07735139
-0.06679628
-0.04970617
-0.06610668
0.01597755
0.01254200
-0.01497397
-0.09909116
-0.04450856
-0.01253697
-0.01598575
-0.02478773
-0.04572920
-0.00021029
0.02022359
-0.01088707
0.04602841
0.01362099
0.00987376
-0.00494340
-0.01455369
-0.02107631
0.00634369
0.00277036
-0.03609374
-0.01904030
-0.01372678
0.02943343
-0.03764093
-0.05517153
-0.04496960
-0.06057540
-0.07624076
0.01426086
0.00613092
-0.03342872
-0.04098118
0.00307891
-0.03613057
-0.01725250
0.02025743
0.01208966
0.00990912
0.02345557
0.01372708
0.00447088
0.01230563
0.00678218
0.08953956
0.02325350
-0.00898582
0.00196411
0.01236459
-0.05832975
-0.04064590
-0.00890681
-0.05589858
-0.06923589
-0.06006646
-0.03389613
-0.00152234
-0.07222843
0.00175807
0.02428841
-0.02652024
0.02067999
-0.05742557
-0.04238446
-0.02829112
-0.07029307
0.07046280
-0.00494447
-0.01456916
0.01701491
0.02543315
-0.07731353
-0.04413530
-0.00197679
0.01052584
-0.01335608
0.01886442
-0.00617887
0.00640177
0.00012379
0.05870808
0.04534626
0.03317612
0.02555360
0.05696549
0.05134938
-0.03648470
0.03180578
0.01294498
-0.00716634
0.05043308
0.00160725
-0.02661629
-0.02243251
-0.04659731
-0.02182097
0.00750092
-0.03841073
-0.01885103
0.01057171
0.02398419
-0.00113305
0.03937912
0.04761096
0.01546561
-0.03417442
0.02217781
0.01410069
-0.01920494
0.00641437
-0.00316523
-0.00793456
0.00005901
0.00113624
-0.05301110
0.02177359
0.03575788
-0.05822401
0.05521710
0.11418001
-0.05396743
0.04827704
0.03872865
-0.00035047
-0.02081722
-0.05833068
0.01243139
0.02940898
-0.04465777
0.04502477
-0.00725542
-0.04008007
0.01394244
0.05451157
0.04020156
-0.06790521
-0.05104581
0.01590471
-0.17059435
-0.08355086
0.01782352
0.01639897
-0.05184490
-0.07459201
0.01107714
-0.04549165
-0.06127829
0.01333901
-0.00357408
-0.00511262
0.02858991
-0.02008189
-0.04900046
-0.00808003
-0.10438906
-0.19212274
0.02449027
-0.10545254
-0.10643192
0.01707841
-0.04104146
-0.08231398
0.14628769
0.04750508
-0.08240042
0.07538062
-0.00314173
0.01824302
0.02122711
0.05303419
-0.04622045
0.07219463
-0.03925663
0.01736005
-0.02378227
-0.02286221
0.00514435
-0.06480823
-0.05475854
-0.02476509
-0.01499227
0.02755126
0.05748989
-0.02460022
0.02804381
0.01019144
-0.00906744
0.00999592
-0.01310778
-0.08624638
-0.05718596
-0.00896058
-0.03314731
-0.00484822
-0.01033339
0.09344150
0.02104846
-0.05189078
0.07243873
-0.07547109
-0.08441409
-0.01396205
0.03423036
0.00132294
-0.03688290
0.01947937
-0.01122766
-0.13390683
-0.02976492
-0.06738761
0.07180212
0.06582586
-0.02433888
0.00288763
0.03119186
-0.02925560
-0.04663053
-0.02266115
-0.04277008
0.00786002
0.03106095
-0.00857509
-0.01842953
0.05104552
0.03041330
-0.01029638
0.02957010
0.00680090
-0.10105977
-0.04731606
0.00692111
0.00745210
-0.03800328
-0.12127344
0.13363977
0.07213429
-0.05904531
0.07328931
0.08045316
0.02958339
0.00714052
-0.00645969
-0.11104057
0.02883903
0.01857817
-0.02957360
-0.05164792
0.00218163
-0.00286470
-0.01358185
-0.01135491
-0.05113960
-0.00386193
0.02354493
0.05237865
0.04291903
0.10504519
0.04089464
-0.02508804
-0.03732430
0.01155268
-0.06165670
-0.03995343
-0.00871635
-0.05889346
-0.00514423
-0.02276235
-0.02024676
-0.07442803
0.01532297
-0.01781392
0.00162492
0.00701278
0.01423848
0.08681062
0.02626164
-0.00293515
-0.09791972
-0.08059616
-0.06024720
-0.06171824
-0.06624159
0.05083575
0.04871449
0.00971152
-0.02195033
0.03310493
0.01575750
0.05111589
-0.04380115
-0.07649618
-0.06795113
-0.06037215
0.00157737
-0.03934347
-0.02788430
-0.03863502
-0.03052646
-0.04210455
0.00919463
-0.07172941
-0.01003165
0.00787779
-0.00454011
-0.02581656
-0.01212522
0.00204810
-0.04210466
-0.08067054
0.02304055
-0.03292740
-0.05955839
0.03932428
0.02894225
0.01803773
-0.09519370
0.01390509
0.10405017
0.00414587
0.08646479
0.09076301
-0.03774158
-0.04545326
-0.05467103
0.02814688
-0.02987470
-0.02954328
-0.01936541
0.01180976
0.01327026
-0.01105863
-0.11453263
-0.05285911
-0.03584641
0.02672487
-0.03137968
0.08277457
0.12360545
0.04729879
0.03352188
0.07554834
-0.05237752
0.08579892
0.12505040
0.00826666
0.02490067
-0.07723073
-0.01082545
-0.08502611
0.07832592
0.12061450
-0.08153584
0.03688148
0.06076092
0.04719092
0.10078049
-0.05123219
-0.05596269
0.08575279
0.07465778
0.00220277
0.07454913
-0.03280401
-0.02166773
0.04885906
-0.04891742
0.00203615
-0.01848799
-0.05813413
-0.04351827
-0.03136040
0.01970192
-0.01402109
0.07932156
0.03203993
0.00735156
-0.02017021
-0.00184756
-0.06579691
-0.00789934
-0.04034410
-0.01943464
-0.00474284
-0.03828252
0.00355682
-0.01847164
-0.02451642
-0.01270429
-0.06834117
-0.00424048
-0.06321920
0.00040636
-0.01494641
-0.10714172
-0.15634257
-0.09879094
-0.10507774
0.01347557
0.02088431
-0.03445087
0.11526639
0.06629986
-0.00752229
0.01918218
0.00711996
-0.00055694
-0.00396530
-0.00746925
-0.00987145
-0.00301406
0.03387871
-0.02175733
-0.04093290
-0.01714735
-0.01010391
-0.03111919
-0.08217955
-0.03158543
-0.03555473
-0.07172780
-0.09521643
0.09800135
0.08872744
-0.05827943
-0.06017872
0.02931935
-0.02577520
-0.09896020
-0.07841701
0.02070224
0.01526929
-0.05407642
-0.07311832
0.04734056
0.04202104
0.03523758
0.00786452
-0.02594283
0.12559266
0.18611887
0.11423226
-0.10849988
-0.12104630
0.06462381
-0.05647637
-0.14600091
-0.13703436
-0.00521980
0.07524867
-0.00582726
0.00745635
-0.04225213
-0.03876138
-0.02042343
-0.09231450
-0.00450995
0.03960684
0.01216539
0.01180295
-0.14361587
0.01432921
0.03520681
-0.06572336
-0.16888556
-0.02175599
-0.06265027
-0.07155255
-0.05953299
0.01050246
-0.02432833
0.00004707
0.01873031
0.09904841
0.06090815
-0.15918021
-0.03118494
0.01374228
-0.00269499
-0.01028629
0.02202636
0.04336759
0.05217228
-0.02106126
0.10898497
0.13978121
-0.01557019
-0.09478582
-0.02856869
-0.02821333
-0.08682847
-0.08684505
-0.03097813
-0.05994648
-0.11972801
-0.00589187
0.02417774
-0.07428371
-0.01371715
-0.01024642
-0.12638997
-0.11119850
0.02410541
0.02974272
0.00835406
-0.01620785
-0.01625670
-0.05980896
-0.01184388
-0.07110969
-0.08196939
-0.11703772
-0.05707309
0.08463262
-0.13785498
-0.07471161
-0.00151992
0.02759477
-0.01258191
-0.03306814
-0.03147352
0.08751349
-0.00198478
-0.06890967
0.00790341
-0.00340549
-0.03940718
-0.03448324
-0.09209710
0.02464530
0.13395001
0.14280835
-0.02266608
0.07097424
-0.00953121
-0.04594975
-0.01840927
0.00010784
-0.00109616
-0.07911523
-0.02243037
-0.00532744
-0.00121319
0.01012905
0.05973841
0.07572278
-0.05987633
-0.16133687
-0.09750627
-0.05719579
0.02907554
-0.04910495
0.06093878
0.06135334
0.08330563
-0.03469361
-0.07241532
-0.09148812
-0.06927482
0.01065088
-0.02491489
-0.06709415
0.05837033
0.06439781
-0.01752791
0.05372370
-0.06861120
0.00286875
-0.08137961
0.03253206
-0.01052558
0.00091933
0.04168523
-0.05741977
0.07645170
0.16585958
0.10918120
-0.10653869
-0.00606243
0.00357443
-0.03381125
-0.12652659
-0.07505165
0.06620616
-0.04753630
-0.03444036
0.05802215
-0.02808992
-0.05081629
-0.07727494
-0.00266641
0.04265675
-0.00639199
-0.01125819
0.01613219
0.00063381
-0.00717801
0.02790756
-0.06210581
-0.05198243
-0.03213720
-0.05126669
-0.13573819
-0.08218710
0.07885297
-0.03495692
-0.07322628
0.02953221
0.08753750
0.01095786
-0.06889132
-0.04809321
-0.02826246
0.01411083
-0.01699161
0.04709987
0.07120827
-0.01881888
0.00787756
-0.09511074
-0.11343638
-0.16141564
0.02984978
-0.02975618
-0.02600692
0.14507239
0.05256410
-0.05362953
-0.01446559
0.08620749
0.12122454
-0.09337516
-0.07364949
-0.01917486
-0.00046050
-0.16975066
-0.05913841
-0.26991117
-0.26196456
-0.08457937
0.07058997
-0.02674426
-0.03797939
-0.01910863
0.04184656
-0.02774673
-0.05660795
0.00164029
0.06946760
-0.04041858
-0.06173724
-0.00735055
0.04237333
-0.10695860
-0.05348631
0.04490255
-0.08743301
-0.05209429
-0.05941627
0.07410340
-0.01415563
0.01118325
0.02536618
0.08528909
0.03076609
0.00319963
-0.01543779
-0.01479052
0.01366784
0.03367851
-0.00918096
0.01458491
0.02885074
0.06523112
-0.05992085
-0.07057259
-0.04764049
0.00642624
0.02402942
-0.03227485
-0.10762573
0.10096838
0.04778371
0.00232286
-0.10473090
0.10458251
0.09241021
0.00468641
0.00762667
0.00759046
-0.11488667
-0.11350991
-0.05844561
-0.04692414
-0.05691157
-0.01555879
-0.00339855
-0.06446381
-0.00705493
0.02166903
0.00914961
0.00286745
0.02222115
-0.00653706
-0.02855518
-0.04467923
-0.00121165
-0.04244485
-0.03722548
-0.07663117
-0.14274123
-0.08790392
-0.08495197
-0.00691229
-0.09025447
-0.03273583
-0.04418600
-0.09836527
0.04515453
0.01759793
-0.00563198
0.01041071
-0.02819983
0.01694647
-0.03074737
0.01231179
0.00240983
0.02231325
0.04345697
0.03916630
-0.00900804
0.06519463
0.00601765
-0.07864695
-0.02106531
-0.02599223
0.03214859
0.01795467
0.04510447
0.05622222
0.07504018
-0.02169833
0.04960015
0.03804290
-0.02134329
-0.00013693
-0.03857200
-0.05890773
0.01946149
0.03345481
-0.05953644
-0.05504486
-0.01874950
-0.05316470
-0.03283854
-0.06159777
0.01417713
-0.02180731
-0.01372079
0.01974120
-0.00141077
0.02835989
0.03071927
-0.02383768
-0.06220409
-0.02162555
0.03903834
0.01415831
-0.01183842
0.03360582
0.02010303
-0.00706578
0.00988454
-0.00559116
0.03815811
0.03990455
0.00723772
0.00028483
0.03582046
-0.00517783
0.04811143
0.01958185
0.01075759
0.04951596
0.02089271
0.07976882
0.00599873
0.08851450
0.00779425
-0.03800385
0.02666330
0.03434654
0.02211950
-0.00680695
-0.03788983
-0.02646937
-0.05453258
-0.06415728
-0.03950883
-0.03418086
-0.07262077
-0.03096271
-0.10083377
-0.00266906
-0.03268475
-0.02851137
0.02106469
-0.06682962
0.03485569
-0.00357161
0.03449003
0.04828859
-0.02292842
0.01271172
0.08490007
0.03159676
0.00726052
0.00461605
-0.12703495
-0.01519695
0.04734201
0.00141483
-0.02957227
-0.01296103
-0.01522910
-0.05243907
0.00395248
-0.01644465
0.06775917
0.04522429
0.01555529
0.04702031
0.08586735
0.04986927
0.09204027
-0.01214950
-0.03185869
-0.01155623
0.02116335
-0.00839351
0.01728467
0.04447030
0.01908549
0.03272975
0.02178888
0.03466773
0.06807259
-0.00222659
-0.02465273
0.06555748
0.01221640
0.04049034
0.02351549
-0.00822941
0.04450465
0.05284945
0.03525599
0.02650265
-0.03378042
0.03762871
0.03569885
0.04178257
-0.00562421
-0.08585416
-0.03314306
-0.09000774
0.00612136
-0.04837793
-0.04865549
-0.02378147
-0.03573959
-0.07906331
0.01898750
0.02437074
-0.04226740
0.00251103
-0.04211975
-0.09421601
-0.02098036
-0.04720369
0.03039981
-0.00487181
0.00016770
-0.02394484
0.01731078
-0.02809857
-0.06205753
0.01099994
-0.02821745
-0.09124345
0.01060357
0.01551244
0.03299956
0.02237986
-0.04310894
0.04356579
0.05238259
-0.03022121
0.04308394
0.01890036
-0.00783508
0.03449337
-0.02257003
0.01436630
-0.04768593
0.03215127
0.02704887
0.00782417
0.04097973
0.06516406
0.07639886
0.00939043
0.01494752
0.03357163
0.03636819
0.07614776
-0.02157597
-0.10686501
-0.05796817
-0.04755810
0.01703890
-0.07137062
-0.05725230
0.02302155
-0.08850576
-0.01822819
-0.02175365
-0.07517309
-0.00946353
-0.00773610
0.04673161
-0.02872117
-0.00333781
0.02267835
-0.04223840
-0.05369722
-0.05705801
-0.02038968
0.02061572
0.02991727
-0.05166588
0.05943605
-0.00030097
0.02829649
-0.00196745
0.01433455
-0.03101581
-0.02509563
0.03025029
-0.00046349
0.01564345
0.02953645
-0.06738096
-0.09332631
-0.01953357
0.02754801
-0.01777702
0.00282511
-0.08860303
0.01926236
-0.01125681
-0.02843013
-0.00193076
-0.00096053
-0.03545175
0.00553064
-0.03124903
-0.09558986
-0.00407359
-0.03475171
-0.03794293
-0.01839310
0.06882871
-0.02857652
-0.00206397
0.01706328
-0.06313971
-0.01943520
0.03701906
-0.02087259
0.02728524
0.04641198
0.02519696
-0.00869317
0.03322174
0.07368359
0.01756124
-0.01711630
0.00045588
-0.04563125
-0.06835595
0.00991520
0.00388510
-0.02934113
-0.01050873
-0.00468359
-0.03824356
0.00237261
-0.00262066
-0.05488393
-0.01905313
-0.01521542
-0.00636988
0.08442128
0.05544264
-0.00754901
-0.02857933
-0.03083225
-0.02361834
-0.04067532
-0.05030736
-0.00622460
-0.08312254
-0.05149530
0.01025381
0.03249481
0.03311921
-0.04869214
-0.02114753
-0.02139368
-0.03968047
0.07212539
0.03488519
0.03438851
0.01356602
0.03107682
0.00109369
-0.05256929
-0.01853638
0.00191206
-0.08081730
-0.12892991
-0.04133003
0.00049105
-0.00241471
-0.00633974
0.02437060
0.00476834
0.03208464
-0.00225624
-0.02494749
0.00495356
-0.02844690
0.00866515
0.00954634
-0.04035135
0.01834439
0.03142751
0.00763991
0.03038918
-0.00887642
-0.08646629
-0.09253968
-0.08445259
-0.00954959
-0.01566882
-0.02642490
0.05962555
0.01858481
-0.00948574
0.02645279
-0.01001422
-0.03896691
-0.00175897
0.02405047
0.03551944
0.01857891
-0.00134834
0.03360950
-0.01457829
0.00000902
-0.04645732
-0.02696115
-0.01604176
-0.00558079
-0.01942090
-0.00643312
-0.00809031
0.01254954
-0.03928582
-0.02691641
0.03180214
-0.03422172
-0.00900554
-0.03094601
0.00202828
-0.02187925
-0.04151826
-0.05865977
-0.09777010
0.02077118
-0.01460336
-0.02045421
0.06230262
0.02947638
0.03148524
-0.01224301
0.01332654
-0.00851446
-0.04317529
-0.02195733
0.08453760
-0.11050919
-0.04508026
-0.01987248
-0.02150035
-0.00130665
0.01252428
-0.05433588
0.03104861
0.02559875
-0.02665637
-0.01877339
-0.02482848
-0.07787290
-0.04550399
-0.10172398
-0.03621551
-0.01935984
0.02681303
-0.01639943
0.00200545
0.00172357
-0.11521503
-0.10394073
-0.11427498
0.00046360
-0.04535866
-0.04189369
0.05681279
0.01861596
-0.04435707
-0.00882367
-0.03456752
-0.00418071
-0.02002955
-0.02769225
0.05091095
-0.03549191
-0.00772133
-0.00037302
-0.01753576
0.00235933
0.00035824
-0.01086088
-0.03204289
0.02962839
0.00159421
-0.04652052
0.00575780
0.04180611
-0.01141788
-0.07075277
0.01500798
-0.01965603
-0.04435278
0.03184042
0.00135831
0.02678286
-0.01218003
-0.01569921
-0.02048444
-0.02351997
0.00636266
0.00502479
0.02978391
-0.02105069
0.00624301
-0.00370389
-0.00378152
-0.03374043
-0.02407899
-0.00718890
-0.00368641
-0.01405992
-0.03222826
-0.00409967
-0.05069419
-0.05167940
-0.11539688
-0.02045229
0.01543916
0.08310687
0.02763468
0.01399600
0.01543519
-0.01284205
-0.02816722
-0.07095994
0.01357362
-0.00182102
-0.03767652
-0.01769659
-0.00138411
-0.05815792
-0.04125642
-0.04059873
0.04339515
-0.02563100
0.00964030
0.04042593
-0.05262169
-0.03776134
0.01866361
0.00024719
0.03232750
0.02863248
0.00530884
0.02219168
-0.00045676
0.04827821
0.03338720
0.03923197
-0.05856620
0.01215598
0.05812879
0.01094372
0.00167470
-0.03098757
-0.04474112
-0.02301109
-0.01530200
0.01771541
0.06972102
0.07980309
0.07751050
0.02159921
0.00000309
0.04512877
0.01028644
-0.00039954
0.01942912
0.00251010
-0.04052205
0.00942536
0.00526170
0.01479436
-0.00621022
-0.03231698
-0.00418547
-0.01010346
0.01238973
0.00295792
0.01960671
0.03010196
-0.01919816
0.01864431
-0.03428857
0.02360369
0.00394425
-0.00067204
-0.07031584
-0.03011941
-0.02561985
-0.03732489
0.00136855
-0.02580157
-0.02060338
-0.01470820
-0.01180903
0.00871711
0.02636971
0.01496031
0.01283427
0.00354057
0.03072534
0.01210175
0.09538677
0.07322962
-0.00655252
0.00215848
-0.00318029
0.01894147
-0.10806040
-0.02831023
0.02196493
-0.01667888
-0.03617940
-0.01224316
-0.01888615
-0.04309390
-0.07967171
-0.00736923
0.01683761
-0.02975066
0.09442217
0.04946622
0.00557350
-0.06734945
-0.09297859
-0.02451536
-0.11850987
-0.08720089
-0.00976869
-0.10338464
-0.03636688
-0.05725582
-0.00341320
0.01894553
0.01458649
0.09286633
0.01282935
-0.00016813
-0.08163878
-0.11690239
-0.09978728
-0.04946578
-0.02900470
-0.08762344
0.06730654
0.02893286
-0.07250067
-0.05028078
-0.04893645
-0.07299487
0.01722585
0.07502045
-0.08729054
0.05255776
-0.00221680
-0.03442880
0.05783363
0.02693790
-0.02518273
-0.01024582
-0.02394660
-0.02199507
-0.09775480
-0.01837153
-0.05480075
-0.02522976
-0.00966549
-0.08689111
0.01165414
0.03301399
0.03759295
0.00039553
0.01743358
0.05357480
0.00784130
-0.03261997
-0.00077221
-0.03936713
-0.09198939
-0.06215934
-0.03154540
-0.03667795
0.00895816
-0.05865160
-0.08046901
-0.05782319
-0.05237230
0.02498523
0.00058241
0.03892020
0.07790149
-0.01452634
-0.02957321
-0.02977815
-0.06122640
0.00544650
-0.06084726
-0.07250065
0.07133727
0.11137097
0.02484100
-0.01359168
-0.06890219
-0.04066482
0.02857204
0.03639951
-0.06591759
-0.01728940
-0.05563931
-0.00336484
0.08544701
0.04076617
-0.00141849
-0.00916751
-0.06594009
-0.01711907
-0.09313833
-0.07752909
-0.03308562
-0.10995062
-0.03038944
-0.04377317
0.03808065
0.06963509
-0.08961140
0.09146998
0.05295642
0.02646548
0.04611904
-0.03787256
-0.13789737
0.05583367
0.03583166
-0.02554909
0.01912960
0.00606417
-0.01011413
-0.09124016
0.00190918
-0.01125409
0.00305820
0.05102547
0.01465063
0.05735569
0.09770293
0.02773430
0.01749076
0.00952617
-0.00331231
-0.00830990
-0.08109333
-0.02524107
-0.00045416
0.00376778
-0.00336116
-0.02683584
-0.00663994
-0.02488674
0.04679470
0.01375579
0.03454266
0.03401144
0.05575517
0.03869410
-0.04854673
-0.04167466
-0.03197092
0.02174294
0.01873268
0.00196969
0.08554608
0.10276665
0.03113943
0.01983451
-0.02904371
0.03497732
-0.03513886
-0.05008779
-0.05143770
-0.07276355
-0.03827151
-0.04799672
0.00560796
0.02017261
-0.02722161
0.01834526
0.00582197
-0.05067208
-0.02506155
-0.00001106
-0.00792121
0.00718249
-0.03510571
-0.02453582
0.00875277
0.02952754
-0.04239466
-0.02448514
-0.01975749
-0.03754918
0.02570907
0.08334588
0.01678856
0.00167180
-0.06653918
0.03124796
-0.01576683
0.13334391
0.06695224
-0.02841769
-0.01616228
-0.05188065
0.04519823
-0.00132993
-0.05279158
0.05957929
-0.03210057
-0.03732282
-0.05086213
-0.05319066
-0.02737371
0.04082552
0.03556121
0.04792326
0.11403004
0.06963246
0.00804739
0.01208083
0.01896852
-0.10119939
-0.01466756
0.02537874
0.01998719
-0.09026854
-0.04298126
0.00817897
0.14036985
0.14996420
0.13390028
0.03572096
-0.01730687
0.17280255
-0.00208432
-0.01907387
-0.01013743
0.10358858
0.09398497
0.04146157
-0.04864936
0.03727477
0.07323234
-0.07890333
-0.07961702
0.00180056
-0.03244389
-0.06280360
-0.07867531
-0.01125028
-0.01878267
-0.02023395
0.04629396
0.04680978
0.05907851
0.06454460
0.05478987
-0.04023653
-0.01643599
-0.02922974
0.00425421
-0.07494678
-0.03161152
-0.03981209
-0.02378509
-0.03862496
-0.02804232
0.02519058
-0.02943555
-0.07328480
-0.04700229
-0.02422508
-0.00976783
0.01040076
-0.03919521
-0.03324069
-0.04878218
-0.01677310
-0.04330423
-0.00386408
0.00627322
0.02676854
-0.07977170
-0.04590110
-0.04019048
0.01967937
0.06926460
0.00030329
-0.01936189
-0.00454568
-0.02650604
-0.00411568
-0.07081077
-0.08448995
-0.03178539
-0.03879194
-0.01943403
-0.07156504
-0.03205410
0.01228050
-0.04012713
-0.08783275
-0.08140691
0.00355776
0.01756597
0.05818395
-0.00323910
-0.00697269
-0.04924298
0.03622667
0.03103282
0.06065895
-0.06136616
-0.04776007
-0.04139987
-0.04028172
0.06028711
0.05324030
-0.00852349
-0.10636458
-0.06542879
-0.07776888
-0.13005635
-0.10964045
-0.10653976
-0.06209375
-0.06141117
-0.03944739
-0.09633645
-0.05224356
-0.11229619
-0.12530947
-0.09414197
-0.06577867
-0.04631198
0.00208612
-0.08322872
0.00634220
0.03566918
-0.07100957
-0.06920152
-0.05524274
0.01330198
-0.00589263
0.04300971
0.01170229
-0.02089785
-0.03322827
0.04356039
0.10542469
0.02711949
-0.01134851
-0.01678630
-0.08241767
-0.02125698
-0.00785025
-0.04857576
0.00994579
0.04849080
0.01754134
0.02043530
0.01414669
-0.05069141
0.02704098
0.06828000
0.04433683
-0.04772318
-0.07116853
-0.03974079
-0.05625791
0.01676875
0.02710823
-0.01114564
-0.09848117
-0.11578070
0.01357206
-0.04361659
-0.10280616
-0.08093230
-0.08957601
-0.04097670
-0.02592822
-0.04911677
-0.09375260
-0.05144160
-0.05907179
-0.00609439
-0.04537237
-0.02894937
0.03250946
-0.04835644
-0.03208212
-0.03558122
-0.05677073
0.05812915
-0.00441949
0.06554119
0.01390037
-0.01283670
0.01895860
-0.03388233
0.01508708
-0.04831628
-0.03302135
-0.03123724
-0.01174744
-0.01243280
-0.00308642
0.02646045
0.00446878
-0.00850972
0.01181329
0.00620161
0.01811271
-0.02679815
0.05995220
0.01728142
0.02295694
0.05363860
0.06052599
0.00750921
0.05193033
0.03712247
0.01410046
-0.04329723
0.01835756
-0.05097343
-0.01096595
-0.02392416
0.03542042
0.04593644
0.02272005
-0.00171474
0.00025702
-0.00541434
0.04162602
-0.02224028
0.00570780
0.03819503
0.00965834
-0.08844543
-0.02024522
-0.07079734
0.01328504
0.05064557
0.00665524
-0.01834578
0.05985700
-0.04280436
-0.10775853
0.02236885
-0.04556732
0.00741846
-0.01440865
-0.00331548
-0.00332964
-0.01434077
-0.01002136
-0.00872849
0.02562728
0.01271860
0.02028797
-0.04092474
-0.00926495
0.00431971
0.06334817
0.05667378
0.05497955
0.01757140
-0.02524124
-0.07296654
0.00014993
-0.05377374
-0.02009479
-0.02285310
-0.05985135
-0.04841392
-0.03495155
-0.02265627
0.02825628
-0.05890376
-0.05483631
-0.01621038
0.03346719
0.02395967
-0.00165396
0.02283161
-0.06816235
-0.00276232
0.02833405
0.00776561
0.01418154
-0.00503672
-0.01949020
-0.00033900
0.01725178
0.05575531
0.02946873
0.04788234
-0.05588186
-0.07678209
0.10421761
-0.05638158
-0.08005369
0.00110931
-0.01835316
0.01790575
-0.08029574
-0.13971028
-0.07304309
-0.17031488
-0.07685676
0.01906723
0.00725401
-0.00293796
0.01727701
-0.16348070
-0.14180011
-0.09611269
-0.00441768
-0.02331073
-0.16352850
-0.04122074
-0.06128030
-0.15482727
-0.15038270
-0.12888445
-0.07012771
-0.07011884
-0.04854279
-0.05160085
-0.05170404
-0.00333927
-0.10808725
0.04864277
0.08710737
0.04999317
0.06689075
0.04702855
0.00480600
-0.02488868
-0.05716785
-0.00742904
0.06129690
0.04176950
0.01553670
-0.02242710
0.00287579
0.01288141
0.02383693
0.07598080
0.03982059
-0.03688478
0.10465284
0.07024238
-0.01349409
-0.01520641
0.00118531
0.01005907
0.01272032
-0.02627306
-0.01736181
-0.04631142
-0.10916258
-0.00815775
0.10120934
0.03453251
0.00418194
0.03247942
0.00569273
-0.07037713
-0.02271309
0.00086459
-0.03495602
0.02488625
0.04988432
-0.04527893
0.01694693
-0.00610938
0.04092308
0.01866510
-0.08830754
0.00704010
-0.05115335
-0.04685603
0.00246936
-0.06105332
-0.08700921
-0.06264628
0.03356198
-0.00886363
0.02974809
0.01085120
-0.07318417
0.02169956
0.00111257
0.00713605
-0.01651165
-0.00741812
-0.07816919
-0.01143316
-0.01548128
-0.03335358
-0.01604285
-0.05583747
-0.06377035
0.06169679
0.05634683
-0.02835010
0.09405930
0.00439755
-0.10090341
0.07181158
0.12055580
-0.09407806
-0.01009651
-0.04889835
0.02343123
0.08881419
0.03848389
0.10897195
0.06860616
-0.01097836
-0.02746169
0.01394261
0.00815372
0.02645807
0.02364481
-0.07838187
0.03864678
0.03381185
-0.02870816
-0.00078546
-0.05860006
0.04512991
-0.01977042
0.02131451
-0.03280852
-0.03067361
-0.03660549
-0.06196958
-0.03974618
-0.01706037
0.04001657
-0.04204671
0.00375149
0.01288781
-0.06161450
0.00493103
-0.05550395
-0.02852866
0.00294717
0.00604569
0.02511914
0.00778741
0.01892493
0.02834383
0.07961037
0.05499124
-0.02268486
0.09086585
0.07257196
-0.05695511
0.00721252
0.00609605
0.07494696
0.00797899
0.07433898
0.07664689
-0.02149067
0.02356422
-0.05711312
-0.02213417
-0.00402920
-0.05425800
-0.05891023
-0.01900640
-0.02561300
-0.04502266
0.05885182
0.01854898
0.02847455
0.01715500
0.00357493
-0.02015279
-0.02643764
0.11047110
0.07298452
-0.06128632
-0.02351999
0.12550959
0.03943066
0.11045139
0.07781763
0.00989036
-0.00297487
0.02100336
-0.01704653
0.01845255
-0.00895964
-0.05874865
0.04487168
-0.02178664
-0.01198512
-0.03561046
0.00075387
0.02558299
-0.06866619
0.04225932
0.08641990
0.07738660
0.01196061
0.07530393
-0.01943013
-0.09185078
0.00839807
-0.05405962
-0.02829949
-0.04564676
-0.04453500
-0.04559553
-0.04909104
-0.02822842
-0.05774848
0.03308340
-0.03090193
0.03179761
0.05831839
0.01459572
0.01706820
0.06966826
0.00049228
0.03963435
-0.01419034
-0.04465315
0.00257721
0.03581823
0.03899518
0.01032708
0.07672559
0.01931670
-0.00872946
0.03140444
0.03263060
0.00101849
-0.01543384
-0.04985014
0.04215444
0.01550920
0.01007419
-0.05738619
-0.06180989
-0.05210175
-0.00561044
-0.03842106
-0.02448992
-0.06566745
-0.00548930
-0.02978984
0.04193301
0.02843746
0.00727588
-0.00305536
0.04224750
-0.04844005
-0.01248106
0.00633973
-0.09073805
0.00147391
0.04035298
-0.03279252
-0.03071949
-0.02948203
0.07474826
-0.03995783
0.08118708
0.07992672
-0.07296614
-0.02009404
-0.03828351
-0.00031115
-0.06346162
-0.05955001
-0.02004031
-0.08683573
-0.08955891
-0.04319569
-0.04817063
-0.00706469
0.03733743
0.08124853
0.06322591
-0.03060831
0.05387857
-0.00251293
0.03799896
0.01735848
0.00826081
0.14052895
-0.00052594
0.09016529
0.09130368
-0.02389809
-0.03526057
-0.05011773
0.02289768
-0.05054454
0.01737512
0.13266766
-0.04447984
-0.07228209
0.00093155
-0.00720674
-0.06080761
0.04343325
-0.08089310
0.09957970
0.09980658
-0.13625135
-0.01819596
-0.01422486
-0.08783778
0.03130172
-0.00357802
-0.00429238
0.00830538
-0.01867881
-0.02706853
-0.03707943
0.06140528
0.00419637
-0.06354453
-0.02073757
-0.02886570
-0.08309752
-0.00526142
0.01963811
0.01847130
-0.03014937
0.00301578
-0.06905662
-0.05245732
-0.04328834
-0.04254295
-0.14013050
-0.05109623
-0.04656078
-0.05987050
-0.08854964
-0.06561641
0.01018117
-0.07712142
-0.03530038
0.02645252
-0.08969890
0.02359161
-0.01170783
-0.10193851
-0.00921196
0.02332991
0.06393974
0.00927207
0.02849568
0.02669165
-0.10803933
-0.06860019
0.01751314
-0.04152922
-0.04114998
-0.05118114
0.01002749
-0.00791499
-0.06425259
-0.03096811
-0.02638200
-0.03824314
0.03427450
-0.00794581
0.01737523
0.00694794
0.01338503
0.02747111
-0.02569741
0.02633101
0.08349512
-0.01422353
-0.01035768
-0.09301946
-0.04377120
-0.01073785
-0.04404516
-0.08128606
-0.05815740
-0.05040862
-0.06089169
-0.03352218
-0.03015420
0.00172171
0.01151523
-0.01784461
-0.01121673
0.02050096
-0.00554766
-0.07057447
-0.01302018
-0.01385602
-0.06164925
-0.02291755
-0.02596878
0.02668239
-0.00170865
0.01842755
-0.02953687
-0.06197029
-0.00159263
-0.05343046
-0.03887548
-0.00318993
-0.08860860
-0.04621390
-0.00036184
0.01993310
0.02395870
0.03805475
0.00885575
0.03139127
-0.01016886
-0.01420345
0.01221128
-0.02872723
0.01987223
0.01845744
-0.02433231
0.01988953
0.01634286
0.02768505
0.01399211
0.02344448
-0.01584062
-0.05647697
-0.01542361
-0.03465084
-0.00165737
0.02615634
-0.02714442
-0.04652747
-0.00400368
-0.01472148
-0.03496160
0.00086718
-0.01072986
0.07272270
0.01746845
-0.01659787
0.05831871
0.06668726
0.02533187
-0.00744866
0.00230555
-0.06080439
-0.03640124
0.01018474
-0.00861084
-0.01643640
-0.05375740
-0.01056731
0.05626374
0.01940082
0.01880347
0.01176188
0.03637987
0.04571904
-0.00484474
0.04055335
0.03375624
-0.10091547
-0.00166572
-0.01890190
-0.00673407
0.00410486
0.00245705
-0.08113107
0.01457402
-0.04474768
0.00771929
0.01654829
0.02018994
-0.02039412
0.00120332
-0.02521689
-0.03672819
-0.03362949
0.00717110
0.00274740
0.00514865
-0.02730244
0.04569878
0.02394483
0.00790255
0.05679670
-0.01531462
0.01316236
0.08957963
0.05582974
-0.06850643
-0.00521910
0.02289290
0.01903129
-0.00664983
0.00529406
-0.01844876
-0.01632710
0.01872001
-0.04101488
0.01907262
0.02988280
-0.03764758
-0.07396422
-0.01096042
-0.05798531
-0.05115250
0.00519671
-0.00811426
-0.01785378
-0.03736776
-0.00036094
-0.08119316
-0.01277038
0.00911416
-0.00354212
-0.04375646
-0.03924033
-0.03675225
0.02961976
0.03498307
-0.05156088
0.02793819
0.02543100
0.00470371
0.01596924
0.03914116
-0.00206289
0.00174541
0.01624802
-0.05245246
-0.03424902
0.01199719
0.03764037
-0.00894025
-0.07477669
-0.01923665
0.01759308
-0.05564987
-0.04894099
-0.02108456
-0.03086118
0.04710883
0.06097688
-0.00301379
0.06294935
0.02052120
0.02465085
0.06429809
0.05747734
0.00309189
0.03009823
-0.00990193
-0.01568788
0.01084432
-0.01020963
-0.02296675
-0.04202523
-0.06123499
-0.01235282
0.05470965
0.08394283
-0.00293977
0.01573099
-0.00744037
-0.02676703
-0.05585416
-0.01218394
-0.04069920
-0.06493304
-0.02570991
0.05711042
-0.03953678
0.03926148
0.06953783
-0.13923638
-0.06403263
0.04414157
0.09045779
0.06611360
-0.03923283
-0.05125120
0.00766964
-0.00272821
-0.00219076
0.03818791
-0.01173809
0.02538235
0.01728641
0.05803945
-0.04285350
-0.01429162
0.01864353
-0.05053715
-0.04071861
0.03902547
0.00076531
-0.00688709
0.01666123
-0.01838657
0.02501057
-0.03130750
-0.07718837
-0.04191281
-0.05869814
-0.04452917
0.04670093
-0.00171948
-0.06712299
0.00359734
0.00706126
-0.04703717
-0.01142875
0.01483158
-0.02562205
-0.06123502
-0.01981639
-0.07489403
-0.05109908
-0.02360040
-0.11003985
-0.07859565
-0.04744969
0.03792857
0.06738936
0.01694043
-0.04481875
0.01196492
0.02255356
0.02993962
-0.00287642
-0.01617032
-0.05513737
-0.03091657
0.03458893
-0.05712685
0.03695567
-0.02460551
-0.03704998
0.00190045
-0.07127601
-0.01557379
0.00522987
-0.00562996
-0.01131081
0.00091917
-0.00434062
-0.01046105
-0.01640831
-0.03487256
-0.11393547
-0.01383019
-0.02245099
-0.07155461
0.04511509
-0.00329497
-0.06362435
0.02092541
0.02260409
-0.04994051
-0.02234849
0.00003091
-0.03378491
-0.03054448
0.00386348
-0.00369882
-0.00613646
0.07747680
-0.07114874
0.02139222
0.05290947
-0.06238751
-0.01969788
0.08781826
0.00688960
-0.00881355
0.05415609
0.04269641
0.03352009
-0.00519496
0.07431161
0.00691947
-0.05060505
0.06713687
0.05567947
-0.03184335
-0.01335754
0.00736832
-0.02554482
-0.03655148
0.01777061
-0.02967122
-0.01498740
0.02446331
-0.02633300
-0.08025796
-0.03454954
0.06500516
0.01216239
0.03864959
0.01035676
0.00670394
0.01662260
-0.05217086
-0.06262762
-0.01350207
0.04365630
-0.02605150
0.01580235
0.00495059
-0.08797392
-0.05681823
-0.00110345
-0.08755878
0.01979701
0.04492956
-0.02891943
0.00187721
0.00573266
-0.02362138
-0.00081324
0.02993997
0.01537385
0.04721349
0.04676634
0.04276183
0.06324504
0.00583778
0.02257537
-0.01656711
-0.04946349
-0.03401411
-0.01854978
-0.02119220
0.00484052
0.00438456
-0.00875668
-0.01027027
0.02103959
0.01068257
-0.06907772
-0.01335267
0.01059881
-0.02701600
0.00931954
0.01336440
-0.05352136
-0.02715661
0.01325309
0.02141770
0.02021146
0.04107064
0.04350194
-0.00798441
0.00534339
0.03401145
0.01640570
0.01898718
-0.00400498
0.00461325
0.02104726
0.00420550
0.00838558
0.03497670
0.03758124
0.02208292
-0.00870505
0.00773617
0.00197653
0.06917889
0.07440983
0.03504379
0.01389755
0.03928228
0.00451983
-0.03832855
-0.04013226
-0.04879070
-0.00876612
-0.02122951
0.01421247
-0.02771946
-0.02301365
-0.02095068
-0.04477876
-0.07154442
-0.02064418
0.07861347
-0.03371687
0.02300101
0.07619044
-0.02057212
0.00950858
0.02563706
-0.04434683
0.04128890
0.01726227
-0.03354834
0.03862315
0.01896406
0.00704235
-0.00642687
0.04060878
-0.09269759
0.00723617
0.02735681
-0.08259526
-0.01887496
0.02793070
-0.06752098
-0.01785412
0.06803519
-0.05125523
-0.02951942
-0.00820100
-0.03711915
0.00193111
-0.01025092
-0.04673717
-0.02310342
-0.06426463
-0.06356299
-0.00945580
-0.01175236
-0.03397590
-0.00858716
0.03211652
-0.01658030
0.00653424
0.00231029
-0.00044207
0.02247556
0.00685833
0.06903063
0.05497102
-0.02446763
-0.03161522
0.01910649
-0.07372874
-0.01619161
-0.03753423
-0.02533273
-0.01200059
-0.02906276
-0.03534562
-0.02688313
-0.02620208
-0.11424502
-0.01042571
-0.02350022
0.04597371
-0.02776954
0.02781042
0.03533739
-0.01764564
0.02927901
0.00251115
-0.01314400
0.02491628
0.00276827
0.02253826
0.03314580
-0.03228905
0.00923957
0.03432739
-0.00144447
-0.01734776
0.00654824
0.00289281
0.00153267
0.02232792
0.00080157
-0.00376796
-0.00262193
-0.03862493
-0.04313406
0.00960912
0.04815318
-0.07141834
0.02452559
-0.03612273
-0.02635477
0.01760350
-0.05057274
-0.05902098
-0.00889611
0.02021757
-0.03364784
0.00781954
-0.02443767
-0.08387512
-0.04285636
0.01453387
-0.01426436
0.00032754
0.00320057
-0.03599812
0.03221620
0.02082171
-0.05060785
0.01666318
0.05004111
-0.05189086
-0.05231824
-0.02000798
-0.07487828
-0.01233926
-0.04434437
-0.05571932
-0.04128192
-0.09936834
-0.01770221
-0.02840527
0.01839258
-0.06618023
-0.04349951
0.00596178
-0.06171465
-0.01196335
-0.00386789
0.00787887
-0.01807416
0.02527417
-0.04039909
0.00986330
0.01270307
-0.04584563
-0.00561122
-0.03457802
-0.03324414
0.01550434
0.00627795
0.01428744
0.02207535
0.00411091
-0.01426187
-0.00308693
0.03671122
0.03140517
-0.05287082
-0.05836090
-0.02588343
-0.03265308
-0.07870205
-0.04949183
-0.04089845
-0.10306592
-0.05043457
-0.01101142
-0.02892211
-0.04582512
-0.02206013
0.01060533
0.02687090
0.02872366
0.04825856
0.07356853
0.02960299
0.01689617
0.00287845
0.04600223
-0.01945747
0.01860250
0.00097378
-0.01330022
0.07078375
0.01429834
0.04886838
0.05300661
0.03107641
0.04902306
0.08438767
0.06126450
0.07978689
0.05668241
-0.01461782
-0.02570093
0.02247111
0.03875417
-0.01504554
-0.01067185
-0.01564794
-0.06153791
-0.03370335
-0.04105653
-0.01808009
-0.00830622
-0.00575482
0.00009173
0.03052960
0.01168990
-0.05092657
-0.04546609
-0.00793140
-0.06680951
0.00953279
0.00698171
-0.03036953
0.00093477
-0.05400891
-0.11516089
0.03883940
-0.01092067
-0.00814894
-0.02118127
-0.03212157
-0.06436636
0.00866903
-0.01894565
-0.02316307
0.02335756
-0.03487423
-0.08580975
-0.00458068
0.04872877
-0.03503776
0.03418326
-0.02125916
-0.07255560
-0.07432999
0.02688452
-0.02183682
-0.00171877
0.04359733
-0.00105596
-0.01783117
0.00803467
0.02570917
0.00281045
-0.08701739
-0.14061606
-0.04405568
-0.01815867
-0.04455756
-0.03708294
0.00742116
-0.07648558
0.05031684
0.03425064
-0.04308734
0.06463272
0.01547214
0.02411762
0.06012400
0.00689178
0.05657969
0.04089485
-0.03132544
0.02765703
0.02280587
0.02898720
0.01669485
0.03024570
0.01229261
-0.00942709
0.00982071
-0.02406338
-0.04415614
-0.00456310
0.00687985
0.01021637
0.04818206
0.03847198
0.05524605
-0.00262599
-0.03978722
-0.06191873
-0.00972125
-0.01549226
0.01503723
0.05915575
-0.00581924
0.00398423
0.05956508
-0.03638822
-0.03364271
-0.05719188
-0.01168097
-0.02389746
-0.01152948
0.03122178
0.03923431
0.02663836
-0.01479816
-0.01380011
-0.05579631
0.03288961
-0.02331405
0.00646292
0.01614689
0.05081852
0.03847829
-0.06224864
-0.06283712
-0.00579313
-0.07040753
-0.09094522
-0.02001686
-0.04513771
-0.08117306
-0.05256654
-0.00282766
-0.00457397
-0.05390803
0.00796723
0.02293763
-0.08181892
-0.02376232
-0.00889203
-0.05356358
-0.00483604
-0.01151982
-0.03305573
0.01269338
0.02321562
-0.01842926
0.03163667
0.03031173
-0.07590487
-0.05576013
-0.12912484
-0.02571307
0.00231845
-0.00532674
-0.00498531
-0.06219106
-0.04157310
0.02736871
-0.03368472
-0.02286401
-0.01328547
0.01879871
0.04409435
-0.00558053
0.01289730
0.02372895
-0.02066167
-0.01674428
-0.01995089
-0.01302329
-0.01564800
0.01183883
0.00391235
0.03277180
0.07042537
0.02085268
0.01861459
-0.00586523
0.02858050
-0.02166298
0.02772339
-0.00899600
-0.01184633
-0.01508409
-0.03582750
0.00875736
0.03437094
-0.01481846
0.01425976
0.01755569
0.02327332
0.05265920
0.02690442
0.00165949
0.02196154
0.00634831
-0.03007923
0.02799615
0.05225733
-0.04395051
0.01724925
-0.00754900
0.01012675
-0.04206858
-0.02026077
-0.03943333
-0.02220821
-0.05977749
-0.02391188
-0.04384824
-0.04203806
-0.00037377
-0.05038346
-0.06746171
-0.00768658
0.00587016
-0.01148786
-0.02951749
-0.00685905
-0.01800761
-0.03021867
-0.03380538
-0.02122353
-0.03877324
0.00649120
0.01234603
-0.07287963
-0.01488121
0.00876865
-0.03459226
0.01725532
0.02184574
-0.03572033
0.02942725
-0.00854412
-0.01795159
0.00505315
0.00537977
-0.04724762
-0.01801977
-0.01353017
-0.05706899
-0.01801500
0.00599548
-0.09245442
-0.00935098
-0.00631334
0.00089211
0.00607909
-0.01226452
0.02502043
-0.03301961
-0.02687237
0.00213407
-0.01331146
0.03331203
-0.05998469
-0.09957881
-0.03637182
-0.07286381
-0.05783433
-0.09488854
-0.08719435
-0.03143802
-0.08879452
-0.02547479
0.00701920
0.00137769
-0.00094266
0.02535844
-0.03425323
-0.02084544
0.01378970
-0.05630740
-0.06700898
-0.05505177
-0.05595572
-0.02545292
-0.06214885
-0.02498361
-0.04430273
-0.06768661
-0.10060877
-0.04888693
-0.02852876
0.02026115
0.04930982
-0.02968017
-0.03076001
0.05671186
-0.03885649
0.01649621
-0.09653490
-0.08705750
-0.06515403
-0.04997826
-0.04860526
-0.01069668
-0.02044715
-0.06590094
-0.07825549
0.04987491
0.03477437
0.05398093
-0.03555611
-0.00217420
0.05635578
0.03296589
0.02075265
0.01215081
0.05583838
0.03080271
0.01110200
0.01510917
0.00567813
0.03032953
0.01564364
-0.00024406
0.03041490
-0.06425216
-0.02177904
-0.05875677
-0.00116786
-0.03168071
-0.04217816
-0.06303021
-0.00703450
-0.06938072
0.08290423
-0.01575595
-0.03542732
0.04406251
0.01353042
0.02098068
0.03969061
-0.04868400
0.01348080
0.00099838
-0.02844179
-0.00296920
0.01296041
0.00229603
0.00328799
-0.04132647
-0.01227339
-0.03229542
-0.01595787
-0.09567886
-0.02738135
-0.01186707
-0.04661964
-0.09592213
-0.03740988
-0.01032284
-0.06003965
-0.08242576
-0.01049840
-0.00131306
-0.02253020
0.01276973
-0.04327530
0.02172294
0.02127664
0.01147324
-0.00704828
0.01590067
0.00085655
0.00537390
0.01141814
0.03150545
0.02139855
-0.00409816
0.01984410
0.02575450
0.01709147
-0.02319835
0.00916599
0.02060961
0.02579259
0.01676741
0.02746051
0.07263786
0.04106607
0.00764775
-0.01123011
0.01162803
0.01789781
-0.02375866
-0.02142547
0.03272713
0.04589671
0.06645443
0.00793117
0.02425003
0.05896176
0.00758926
-0.00115571
0.00555300
0.06289348
-0.00210724
0.01659638
0.01245559
-0.02983072
0.02126658
-0.01051963
-0.02954473
0.00255389
0.00890028
-0.05549758
-0.11396044
-0.06677204
-0.03099773
-0.09067425
-0.10087327
-0.11236420
-0.05382654
-0.03592591
-0.15482490
0.00804090
0.00406513
-0.00438467
0.01435216
-0.02651338
-0.02466717
-0.03600269
-0.00811867
0.01393952
0.01479750
-0.00770759
0.01271052
-0.00964134
-0.01530896
-0.01011060
-0.03809609
0.00366492
-0.02577920
0.06430107
0.01747588
-0.00546408
0.01497785
0.01560291
0.02017410
0.04604384
-0.00512331
-0.03816170
-0.01130717
0.04072260
-0.02313002
-0.01645857
-0.01155345
0.01788034
-0.02530694
0.02750678
0.04124277
0.08765265
-0.03510812
-0.04006635
0.06867769
0.00289527
0.00428401
0.00179846
0.05633293
-0.00256406
-0.13283381
-0.07611837
-0.06674330
-0.05376401
-0.08637132
-0.04249141
0.02896363
-0.06569605
-0.05422226
0.05025898
-0.02961322
-0.01248638
0.01577281
0.01575141
0.03072763
-0.03444385
0.03383147
0.03137700
-0.06894010
-0.08362310
0.01986143
-0.07573514
-0.00810315
0.03387425
-0.03676265
-0.00374662
0.01869117
0.01217439
-0.01459495
-0.00272098
0.01004006
0.00636430
-0.00720602
-0.01217877
0.02871459
-0.02691186
0.02336780
0.02064813
0.00825849
0.01016635
0.05803174
0.01727830
0.00667255
0.06163841
-0.05266014
-0.05689126
-0.00633012
0.02343523
-0.04802366
0.00221277
-0.01287206
-0.05616631
-0.02338003
-0.00932647
-0.00449727
0.01931236
0.06428523
-0.03115131
0.01792270
0.04596272
-0.03897577
-0.02637172
0.03739776
-0.11083880
-0.01125415
0.02573815
-0.02324627
0.02292916
0.04557083
-0.01215960
0.02900205
-0.03312562
0.01405389
-0.03803642
-0.08412766
0.00726537
0.01481232
-0.05744969
-0.05490385
-0.01478054
-0.03722700
-0.06988718
0.03553308
-0.01014368
-0.06658723
0.00349803
-0.01902218
-0.10928313
-0.02342110
-0.09768374
-0.00968129
-0.03799457
-0.00894975
-0.01893288
0.00598599
-0.00599399
-0.01385768
0.02589386
0.03705624
0.00209580
0.01986865
0.04511860
-0.09295987
-0.00323738
0.05918737
0.02835209
0.02327666
-0.01010746
0.01229078
0.05494662
-0.03420066
-0.03018448
0.05868204
-0.01876285
0.02119782
0.02417397
0.02185325
-0.05525771
0.04863132
-0.05904723
-0.08789136
-0.01347899
-0.01546255
-0.02233983
-0.03838323
-0.01776041
-0.08832265
0.00342489
0.09043927
0.05787092
0.01220406
0.01600705
-0.08790736
-0.01008724
-0.00803880
-0.01919311
-0.01537990
-0.00859881
0.07170784
0.01319000
-0.01843425
-0.03578627
-0.01314710
-0.04335898
0.08792730
0.00416293
-0.03375996
-0.04424684
0.01381939
0.01792433
0.04299273
-0.00058995
0.03404309
0.07717346
0.06598279
-0.03005712
0.07469501
0.06421249
-0.07361805
-0.00978088
0.02120578
-0.01611031
0.00320823
-0.00171847
-0.06483866
-0.06541550
-0.02538718
-0.00696620
-0.09220908
-0.02413472
-0.03280563
-0.03033787
-0.01706444
-0.07458500
-0.01223449
0.00523486
0.00312702
-0.06019785
-0.06125674
-0.06126865
0.02036078
0.03654868
-0.02159303
0.09679954
0.03923898
0.01467043
0.02221058
0.02476734
0.00915290
-0.03398512
0.01552775
-0.05264909
-0.00248658
0.00479436
0.02626841
-0.00265350
0.00532293
-0.01776343
0.04994282
0.02319492
0.03234287
0.11207336
0.00469611
0.06645610
0.07003660
0.05397625
0.05943012
0.00748099
-0.02228823
-0.04494325
0.04377108
0.02256925
-0.01846972
0.02363302
-0.00168785
-0.05700954
0.07944322
0.03114481
0.06883744
0.05402876
-0.02333484
0.05201650
0.03762437
-0.00330677
0.05471272
0.02202249
0.00612599
0.03679021
0.04701194
0.03399443
-0.03098816
-0.02206158
0.01653907
0.02245050
-0.08169693
0.04522699
-0.00535234
-0.04868571
0.06816833
0.03488995
-0.07763425
-0.03136307
-0.03406549
-0.07504722
-0.00544341
-0.00985123
-0.04810227
0.00237321
-0.03573943
-0.08696453
-0.06224355
-0.03319405
-0.00343378
0.02138468
-0.04028938
-0.01718108
-0.00740021
0.02858546
-0.04954792
-0.02981079
-0.02122936
0.03373602
0.05975639
-0.04572393
0.11727809
-0.00878400
-0.09414712
0.00018385
-0.03619299
-0.08420158
-0.04958786
0.00256716
-0.04204497
-0.04212234
-0.02856114
-0.01965146
-0.03222261
-0.02943223
0.03529510
0.08646008
0.02218867
0.09460188
0.04537757
0.03050302
0.06278569
0.07875717
0.01139120
0.06418893
-0.09350385
-0.04773692
-0.03390201
-0.05356630
0.08971028
-0.06286564
-0.07757799
0.00270916
-0.06558213
-0.01895476
-0.02095040
0.09706721
0.04544266
0.00301004
0.07801781
0.03998375
0.03222106
0.03883542
-0.12751587
-0.03095100
0.08432566
0.01877753
0.04557593
0.08335678
-0.01680317
0.02509284
0.01219218
-0.00371637
-0.00981799
0.02445316
0.00925703
-0.00548109
0.03285480
-0.02287393
-0.05909780
0.03877638
0.02185139
-0.04839505
-0.10801341
0.02546813
-0.00243536
0.02030989
-0.03149386
-0.04377664
-0.00753132
-0.04733473
-0.00053135
-0.04316115
-0.10017539
-0.05798826
-0.09160615
-0.10041324
-0.06119756
-0.06470090
-0.10036483
-0.04663311
0.09262304
-0.08601701
-0.01661529
0.03729245
0.02313212
0.03273169
0.05800329
0.01502165
-0.04034379
0.11052744
-0.06538931
-0.04793921
0.10266439
-0.04399831
0.04259957
0.07559809
-0.00215623
-0.04983491
-0.09581000
-0.03436112
-0.02067724
-0.01408454
-0.07731341
-0.05480831
-0.04468180
0.01333392
0.02595168
0.02837463
0.01023185
-0.02935599
0.05130701
-0.01622231
0.02615478
0.02293864
0.04207752
0.00105194
-0.05876102
-0.02164049
-0.05373442
-0.03823030
-0.08144330
-0.03652446
-0.01741109
0.04025936
-0.04816575
-0.14339662
0.03473124
-0.01841624
-0.07980318
0.01424005
-0.08293928
-0.09389651
-0.01991389
0.04009960
-0.05714000
0.05561985
0.10284178
0.02829572
-0.00617192
0.00109742
-0.07853630
0.03121926
0.02440834
0.07031251
-0.04215557
-0.00184471
0.02296460
-0.06606566
-0.03108816
0.01029842
0.00224702
-0.04647627
0.02922497
-0.01577935
-0.00648224
0.04487966
-0.06252608
-0.02148294
0.03156367
-0.02996287
-0.07300651
-0.00504154
-0.07098934
-0.02501988
0.00623112
-0.02132638
0.03252024
0.01009239
0.01579467
-0.01443380
-0.09084740
0.06103401
0.04064588
-0.00629732
-0.02986267
-0.05751221
-0.08839004
0.00765154
-0.13772167
-0.06452557
-0.01785273
-0.02629649
0.05112692
0.08535402
0.11500134
0.01147732
-0.03465020
0.01073258
-0.07480574
-0.01278252
0.01202890
0.01964362
-0.07320602
0.00484680
0.00587324
0.02365659
0.06875751
0.04354389
-0.01213853
0.01491761
0.05144957
0.00224772
0.05071945
0.04075443
0.03311602
0.04878197
-0.00487554
0.04250247
0.07561577
0.00469122
-0.01199271
-0.00411120
-0.07454212
0.06136089
0.01444212
0.01725621
0.02896516
-0.01542847
-0.00532833
-0.05190223
-0.03986073
0.02428306
0.04335278
-0.05607138
-0.04352459
0.01987232
0.00986334
0.05621165
0.02957843
0.04030651
0.04472599
-0.01888777
-0.05807671
-0.03312539
-0.02319756
0.00135422
-0.00552889
-0.02385607
0.05656746
-0.00466023
0.00619706
-0.07102407
-0.11488556
0.03785889
-0.04349968
-0.03064368
-0.05519322
-0.02395153
0.03607668
0.03772379
-0.02602640
-0.06820291
0.04372726
-0.03273495
0.04701992
-0.02326025
-0.01939147
-0.02075434
0.02677109
0.04649424
0.00746387
0.03102501
-0.00544777
0.02892774
-0.00061348
-0.03040463
-0.01418913
-0.02499865
-0.07297066
0.00121262
-0.08169129
-0.02864240
0.05375994
-0.03318368
-0.01046191
0.01235397
0.02830148
0.01923475
-0.06122306
-0.04941038
-0.02377482
-0.05003691
-0.07845107
-0.00961474
-0.05508849
-0.00817838
-0.06865727
0.00526081
-0.02145205
0.01007225
0.07363402
0.06238065
0.05959466
0.02710873
-0.05797358
-0.05115804
-0.04372574
-0.02711158
-0.03813783
-0.01725873
-0.06704171
-0.02507745
0.01611904
0.05138250
-0.08500271
-0.03528691
0.00909093
0.00721405
-0.00534581
-0.00548021
-0.00399516
0.06861051
-0.01457729
0.10778023
0.11976274
-0.05460433
0.04806165
0.05411607
-0.06048429
-0.01639844
0.03292314
-0.01951094
-0.11869257
0.00662531
-0.01431837
-0.07579948
0.02452095
0.02866504
0.03375852
0.05344126
-0.08253787
-0.08062557
0.05757971
-0.06155119
-0.03950510
0.06599247
-0.04421399
-0.01886104
0.07041295
0.01098072
-0.04459624
-0.02186643
-0.00781960
-0.02990921
-0.00371818
-0.06205050
0.00509511
0.00951777
-0.04997612
-0.04512570
-0.00133101
-0.01240626
-0.03537462
-0.00718997
-0.07890594
-0.05205557
0.01052767
-0.01250151
-0.02495760
0.00421610
-0.06545698
-0.04200136
-0.02317877
-0.04222661
-0.01883179
-0.04125576
0.03421616
-0.07657754
-0.01460906
-0.05955985
-0.04429194
0.04018354
-0.07218140
-0.02212435
-0.05297225
-0.01310080
0.00456403
-0.01753026
-0.00576123
-0.01034839
-0.06151305
-0.01311412
-0.00190163
0.01655529
0.03598790
-0.00192593
0.00387089
0.00550793
0.01568476
-0.03495257
0.02008895
-0.01340490
0.00132220
-0.02434087
-0.02964493
-0.05295664
-0.04681674
-0.03438362
-0.00877132
-0.05273270
-0.00645214
-0.01379082
0.02123808
0.02463266
0.01811718
0.01067954
0.01251466
0.00356761
0.03019461
0.02642915
-0.00955044
0.03369915
-0.01208458
0.07632081
0.00773727
-0.01283776
0.04971046
0.00426826
0.02380526
0.00612760
-0.02862595
0.01062692
-0.00038816
-0.02779456
-0.01593686
-0.00613635
-0.01106876
-0.02684507
0.01223420
-0.00000995
-0.06365433
-0.01522718
-0.01482856
-0.01695052
-0.00622885
0.00356456
0.03979793
0.06758289
-0.01729233
0.02999851
-0.01699507
-0.00789255
-0.01080499
0.00529838
-0.01652241
0.01926217
-0.00783742
-0.02420108
-0.01703120
-0.02900814
-0.05651655
-0.01944667
-0.01058181
-0.04758992
-0.00568421
-0.04136550
0.03539424
-0.00045614
0.05958293
0.01072245
-0.00687870
0.04172563
0.03648593
0.01329401
0.01945814
-0.04637824
-0.00812672
0.00418762
0.01275090
-0.00579073
0.03193466
0.00638823
0.03440372
-0.01245560
0.03657040
0.00272521
0.00132657
0.00305670
-0.00558893
-0.02942137
0.00316552
-0.00815318
-0.03705055
-0.01697007
-0.05023554
-0.03701002
-0.04168032
-0.03244723
-0.00819064
-0.06282238
0.00565966
-0.04151382
0.01598052
-0.01664450
-0.04628465
0.02372999
0.00935176
-0.05399822
0.04636131
-0.03866056
-0.05598392
0.00524542
-0.00097796
0.02705743
0.03012504
-0.02348960
0.02610950
-0.03156576
-0.02179324
0.02174660
-0.04588749
-0.03092534
-0.06506392
0.00782271
-0.00096164
-0.07994820
0.00616877
-0.05947452
-0.07193150
-0.02969046
-0.03784144
-0.07593352
-0.02076702
-0.02580480
-0.05909538
-0.02977723
-0.04742787
-0.04598378
0.00474490
0.02768718
0.02072188
0.03717577
0.01343993
0.01089212
0.05555141
-0.00943373
-0.01391785
0.04596035
0.02036218
0.01725328
0.07389342
-0.00453422
0.01846718
0.04000011
-0.01448035
-0.00726855
-0.00152436
-0.01313719
0.00594357
0.00380219
-0.01374012
0.01019618
-0.01020399
0.01637301
-0.01873622
0.00450198
0.01117667
-0.03462289
-0.01303907
-0.00460098
-0.00838190
-0.01906908
0.01879104
-0.00807502
0.05344572
0.02524148
-0.01748252
0.03672841
0.02732432
0.00892721
0.03074024
0.02024120
-0.04234767
-0.06979132
0.00352523
-0.08320624
-0.07718789
-0.03146906
-0.07666714
-0.02506872
-0.02327678
-0.06509088
0.00216222
-0.00814126
-0.05211420
0.00229106
-0.03027031
-0.03560838
0.01407636
-0.00756604
0.00255999
0.04883765
0.02329336
0.02644507
0.02199850
-0.01825128
-0.00251331
-0.00191355
0.01461296
-0.05104021
0.03781086
0.01200280
-0.06383478
-0.00844494
-0.04419313
-0.04941106
-0.05406287
-0.00956479
0.00678676
-0.04573577
0.01774771
0.03379083
-0.01812141
0.00640294
-0.01794507
-0.01603872
-0.02666325
0.00159479
-0.01477832
0.01038200
-0.01439223
-0.02864259
-0.00353144
0.00775329
-0.01226304
0.00970041
0.04640453
-0.01026565
-0.02248962
0.00213368
0.03803642
-0.00279945
0.02938777
0.03474862
0.02624066
-0.02046625
-0.01375209
-0.02658688
0.00098068
-0.00431559
-0.00427637
-0.01841425
0.01055460
-0.02638203
-0.04636811
-0.00805258
-0.02778643
-0.04103622
0.00248027
-0.01811072
-0.02615836
0.00010760
-0.00502338
-0.02116396
0.00356850
0.08002651
0.08134940
-0.00139527
-0.00291292
0.04867790
-0.02098228
0.03942647
0.01412544
0.03222435
0.07038892
0.08269098
0.02079381
0.05080976
-0.01274257
0.01911173
-0.02614923
-0.05671323
0.01700115
-0.11278500
-0.05988290
-0.10960203
-0.10525227
0.01642232
-0.11447576
0.01150694
0.02084193
-0.01077411
0.03019525
-0.03100602
0.00319429
-0.02741547
-0.21060385
0.03399730
-0.05441415
-0.03727308
0.02426690
-0.07381046
-0.09890622
0.00107647
-0.03623454
-0.04855879
-0.00556683
0.09315033
0.05946571
-0.01218800
-0.02833257
-0.06265970
-0.08501437
-0.13657717
-0.10585396
-0.05694481
-0.07981501
-0.00516872
-0.08910041
-0.20900393
-0.23441377
-0.18693958
-0.20177652
-0.19867268
-0.03071954
0.00309857
0.15168245
0.00217221
0.02306688
-0.13812928
0.04342145
0.00198123
-0.17559524
0.09526095
0.01984730
0.04940727
-0.01409126
0.00608936
0.13218677
0.01758735
0.04068901
0.01818851
-0.02039416
-0.00074806
-0.08288097
0.02664222
0.04365190
0.08544186
0.02905419
0.07571094
0.10166929
0.01850875
-0.03736035
-0.09249649
0.05297244
-0.00418327
-0.02890004
-0.02994188
-0.04979639
-0.00494129
-0.06304775
-0.03749264
0.01503232
0.01982166
0.03452524
-0.08255211
-0.03145400
-0.10777786
-0.22018602
-0.19566417
-0.24237257
-0.31367552
-0.03209095
-0.06862468
-0.04897527
-0.01610257
-0.01141426
-0.04305337
-0.02174261
-0.02971378
-0.00332067
0.07227722
0.00120205
-0.04136403
0.02753061
0.00403419
-0.18051508
0.01539140
0.02144706
-0.09442367
0.07553964
-0.08260264
-0.09342379
-0.07036752
-0.18822098
-0.14234203
-0.03012324
0.01386976
0.13197769
0.00354118
-0.04757678
-0.04981262
0.09682436
0.03421621
-0.00851411
0.04622766
0.09847002
0.05810182
-0.07432096
0.07522382
0.09667389
-0.04670055
-0.02871019
0.05194556
-0.09966455
-0.10964343
-0.07323961
-0.02937524
0.00873866
0.11251494
0.04655438
0.09016707
0.03969206
-0.00206446
-0.00622206
-0.06297116
0.00563051
0.01629132
-0.00366480
-0.03807908
-0.05356278
-0.00570711
-0.05161997
-0.07282662
-0.00080203
0.05793764
0.04153920
0.04125031
0.02467283
-0.05265233
0.04676379
-0.00170455
-0.01356405
-0.03273190
-0.00784450
-0.01594285
-0.11056476
-0.03872542
-0.02261472
-0.09030981
-0.02778192
0.02609850
0.02368812
-0.03551514
-0.03585640
0.04123569
-0.04659243
0.06588510
-0.03278413
0.02388116
0.02007039
-0.07668714
-0.05653143
-0.03998968
-0.07783745
-0.00254629
-0.06721364
-0.07138612
-0.06719336
-0.07894685
0.01795163
0.06443824
0.09073080
0.00322166
0.04687397
0.03182395
-0.12370643
-0.00983023
-0.17495318
-0.23114991
-0.04099163
0.00651261
0.07529062
-0.01345500
0.06080582
0.04903577
0.02221818
-0.00450696
0.00301299
-0.05876350
0.02659926
0.01040372
-0.08165467
-0.10027719
-0.05669998
0.02795058
0.00008098
0.04379597
0.00539529
-0.07573306
-0.14629796
0.05280457
-0.01332750
-0.21715860
0.05359505
0.08367898
0.02306350
-0.04740440
-0.00094274
-0.02211202
-0.05753688
-0.01574634
-0.06625280
-0.19240956
-0.15791278
-0.15459017
0.04561345
0.10255148
-0.05017553
0.04690189
0.06696386
-0.13220093
-0.02838495
-0.09882902
-0.09731916
-0.04799479
-0.00339509
0.09708593
0.00942963
0.02010111
-0.00213037
-0.04141500
-0.08336125
-0.01621822
0.09563494
0.05197982
0.04781671
0.00585584
0.04816480
-0.01422338
0.03412855
0.08026042
0.04429283
-0.03513768
0.02772108
0.01744154
-0.01229233
0.05813377
0.03243669
0.06049457
0.02766693
-0.09108632
0.03492194
0.04034374
0.06060757
-0.03472609
0.10575450
0.03829140
-0.04222021
-0.05424877
-0.04702938
0.06784262
-0.02189657
-0.02606058
-0.00290031
0.07356319
-0.02583305
0.01765692
0.03516557
-0.05888866
-0.08269914
-0.03233243
0.01039565
-0.01810551
-0.02683305
-0.02245066
0.00701805
0.01710187
-0.00305038
-0.00833946
-0.05911133
-0.06953543
0.03397290
-0.02959011
-0.09228963
-0.04681686
-0.00765722
-0.01916121
-0.01544024
-0.07611703
-0.00057699
-0.00715071
-0.01914915
0.00256142
-0.00017430
0.02721626
0.00579474
0.01484709
-0.04302666
-0.09603255
0.06073514
-0.01240779
-0.09653138
0.03114883
0.07087009
0.06567345
-0.00398095
-0.04993527
0.01213998
0.02514471
-0.05188459
-0.06074018
0.00471499
0.04015221
0.08999234
0.06175405
-0.08792324
-0.06891093
0.04896953
0.01326297
-0.08915558
0.04330601
0.05402380
0.03607955
-0.07177355
0.00673778
-0.03038390
-0.05679007
-0.01227601
0.04155522
0.01152781
-0.04577318
-0.09717671
-0.08352075
0.03508338
0.02640035
-0.09873006
-0.08221769
0.05493118
-0.05656493
-0.06531040
-0.06334058
0.01117849
0.01918543
-0.03357842
0.07725780
0.04188904
-0.04320525
0.02089188
0.07458510
0.02063188
-0.03915658
0.03222603
0.05731170
-0.03780172
0.00714406
0.02457384
-0.04877671
-0.05965388
-0.02270473
-0.01023620
0.01248569
-0.05303961
-0.05682965
-0.01505945
-0.00763399
-0.02767731
-0.02938772
0.01219521
0.00969823
-0.05835715
-0.04504295
-0.03001018
-0.02437206
-0.03385799
-0.03952100
-0.00305670
-0.04227833
-0.01735179
0.02560811
-0.00676073
0.05539725
-0.03312957
-0.05690612
0.03353936
0.02547231
0.02774692
0.00738963
-0.06205918
-0.06680402
0.02248217
-0.03172145
-0.02063885
-0.00928082
0.00084409
0.01841073
0.03398520
0.06197845
0.04505201
0.00186850
0.02845344
0.06912968
0.05241090
-0.07453013
-0.06108528
-0.01070808
0.03559847
0.03241489
-0.06559146
0.00464021
0.03144991
-0.07780369
-0.07648094
-0.05628176
-0.06241158
0.01524586
0.00713494
-0.00808208
-0.01796943
0.04971578
0.02073810
-0.01223847
-0.00962505
-0.05373424
-0.00667578
-0.01916331
0.02484257
-0.01793977
-0.02406633
0.04968955
0.01648792
0.02388186
0.02531146
-0.04183405
-0.05473220
0.06601804
-0.02152657
-0.10667837
0.01936105
0.02330641
-0.02472429
-0.07449740
-0.04908452
-0.04907211
-0.02849083
0.00977348
-0.01112935
-0.02325627
0.00457994
-0.05966968
-0.05513343
-0.06496746
-0.00381749
0.01158258
-0.02218601
-0.02316134
0.04014371
0.05332527
-0.01086106
-0.02749826
0.06921033
0.04114512
-0.05918722
0.06277435
0.01423747
-0.03056490
-0.09798539
-0.12042852
-0.05058149
-0.03395209
0.00043905
-0.02237881
-0.01885127
0.01538923
0.00176757
-0.01616173
0.01441385
0.00373933
0.05904364
-0.02829575
0.04958420
0.05804140
0.03352046
-0.04610816
-0.00269675
0.00679303
0.09061489
-0.03032058
-0.07813372
0.11422161
-0.00447600
-0.08062258
0.00255041
0.04618221
0.04623510
0.02898509
0.12109290
0.01560437
-0.09906787
0.01788243
0.04795545
-0.07912084
-0.09849289
-0.03920159
0.13357837
0.03822307
-0.04104964
0.03565000
0.03904086
-0.06442726
-0.03492988
0.00304151
-0.12203876
-0.06241088
0.00007589
-0.00833484
0.01050466
0.02050375
-0.01259988
0.02365047
0.00021998
-0.08487027
0.01997016
0.01879467
-0.00022237
0.04482448
0.01923312
0.00950884
-0.01985732
0.03389376
0.02697791
-0.06619011
-0.08669560
-0.00809948
-0.00605475
-0.04269465
-0.02135796
-0.02501432
0.02875495
0.01610900
0.04690536
-0.04022930
-0.08687292
0.01385902
0.04230179
-0.02209930
-0.07819405
0.02793923
0.04022764
0.08935173
0.05636900
0.02805971
0.09006214
0.00672896
-0.02194118
0.05453022
-0.01306381
-0.05878435
-0.08548896
-0.04110654
-0.06184517
0.00416949
-0.00449857
-0.06151455
-0.00703959
0.00172314
-0.04711852
0.08571050
-0.02009659
-0.03094220
0.04300101
0.05087408
-0.01104375
0.05574504
0.06657496
0.04601385
-0.07439437
-0.04217437
-0.05815340
-0.12165251
-0.03392119
-0.00377197
-0.08161417
-0.04492046
-0.02403397
-0.01741301
-0.04082803
0.02277773
0.07447042
0.12059713
0.02116894
-0.09558069
0.08792837
0.08080699
-0.06541913
0.01981852
0.08657675
-0.02102783
0.01674124
0.01518067
-0.08606430
-0.05723810
-0.01522814
0.02188706
-0.04016773
0.09595310
0.02797468
0.01193483
0.09721270
-0.04464656
-0.01831885
0.02146207
-0.01538863
0.02203288
-0.00255751
0.02618973
-0.00899076
0.00266741
-0.03242178
-0.03561783
-0.07033522
0.00215707
-0.03443537
-0.00672566
0.03207510
-0.00702888
-0.01866645
0.04424772
0.01821113
-0.04272043
-0.07423766
0.02485636
0.04935921
-0.02693717
0.06421286
0.09344887
-0.09419740
-0.01325706
0.02958082
-0.05257586
0.00333556
-0.03941638
-0.01724655
0.07591555
0.02203757
0.00963061
0.07196908
0.04779201
0.01730845
-0.07214946
-0.07718395
-0.01918920
0.00232932
-0.01055909
-0.00080808
-0.02855724
-0.01916758
0.06244990
0.00386658
0.00622150
0.03965094
-0.01462526
0.03195708
0.02738948
0.06162316
0.07528813
-0.14466397
-0.03081984
0.04470067
-0.06939246
0.07993282
0.06277411
-0.13512027
-0.07594048
-0.09495971
-0.00948089
-0.00517449
0.03156469
-0.00943383
0.05065768
-0.01743599
-0.11453835
-0.05194223
-0.08431608
-0.06513206
-0.03044003
-0.06670060
0.01590833
0.03562243
0.02813557
0.00636868
-0.03966125
-0.12375938
0.04457372
-0.01715893
-0.06882461
-0.01377680
-0.03211373
-0.07481894
0.02224549
0.00406594
-0.03210400
-0.02392954
0.03446994
-0.01743613
0.00663443
0.03262131
-0.01869368
-0.03214187
-0.03572791
-0.03683539
-0.04871913
-0.02047442
-0.03463883
0.00339553
0.02933247
-0.01146490
-0.04005400
-0.05507449
-0.07450974
0.04166641
0.00864030
-0.00241099
0.02238702
0.05577303
0.04365105
-0.05923818
0.00867896
0.04138735
0.00984306
-0.01452404
-0.02358100
-0.03076597
-0.05342062
0.03427630
0.01725966
-0.02510484
-0.04617300
-0.01950262
-0.03420778
-0.07762120
0.01926522
0.03252067
-0.01942939
-0.03746847
0.02519681
-0.00209528
-0.02538596
-0.02160605
0.04057253
0.00465405
0.00064949
-0.02075927
0.06384845
0.07363729
-0.01841607
-0.00392746
-0.06596036
-0.07385482
-0.01593432
-0.05696641
-0.02913743
-0.08365470
-0.05803026
-0.09191288
0.00572726
0.06068764
0.04035718
0.01672310
-0.00421960
-0.00547374
-0.03530224
-0.10291869
-0.06512125
0.04656138
0.01379864
0.10406212
-0.00454769
0.04113419
0.11679247
-0.06452325
-0.06611938
-0.10969289
0.02293470
0.02136830
-0.03749755
-0.01401398
-0.03557587
-0.11831841
0.12969443
0.05148897
-0.02515384
0.18603320
0.02208754
0.00973681
-0.03492548
-0.03139247
0.01031248
0.04888137
-0.01324596
-0.03432526
0.00151722
-0.03937166
0.00543078
-0.01007744
0.00532692
-0.00040904
-0.03188836
-0.03366641
-0.08824125
0.05363994
0.08563287
-0.01703764
-0.01383740
0.03839769
0.01226937
-0.09690095
-0.03179381
-0.03726064
-0.02284129
-0.10247673
-0.08397029
-0.03495385
-0.05758123
0.03278659
-0.01191459
-0.05471509
-0.05914535
0.05074758
0.02905603
-0.02203760
0.06792545
0.01243837
-0.03224062
-0.03261713
0.04071410
0.00951679
-0.04517746
-0.01851619
0.00065378
0.02726405
0.04884948
0.06371493
0.02044456
0.00599766
-0.01189440
-0.00662743
0.00142728
-0.04732240
0.00027901
-0.00664807
-0.05459907
-0.07567620
-0.03180051
-0.06425109
0.04463476
0.04219371
0.04690495
0.00720550
0.03945386
0.05581115
-0.01408192
-0.01238820
0.01090482
-0.02878945
0.04937901
0.00752659
0.00092521
0.00597332
-0.05000233
-0.04597714
-0.01689328
0.00169534
-0.00305524
-0.00018017
0.00896643
-0.08950371
-0.06057315
-0.04392098
-0.05347104
-0.03512535
-0.00241966
-0.01860988
-0.08021827
-0.06928046
-0.07125313
-0.07409603
-0.08378945
-0.03764527
-0.00061540
-0.07430258
0.03269944
0.04028669
0.00315050
0.02974816
0.04715107
-0.03914910
0.00052632
-0.03003275
-0.11411204
-0.01027685
-0.04628773
-0.01544411
-0.02374886
0.04369651
0.01524412
-0.01463808
0.04468954
-0.01276275
-0.03023582
-0.03426419
-0.01039083
0.00978158
0.01977657
0.03670495
0.03961141
0.01821464
0.00909967
0.05298733
0.00168809
0.02705695
-0.06502988
-0.04383038
-0.00810533
-0.05701904
0.01476549
-0.03708962
-0.03473137
-0.06594495
-0.02130261
-0.01249959
-0.05971356
0.04411573
0.00496540
-0.00617394
0.01834910
-0.00633562
-0.01759429
-0.00903927
0.00639202
-0.03233690
-0.02611668
-0.03488774
-0.00262572
-0.07966452
0.03754097
0.04254606
0.01651495
0.03826194
0.04581019
0.01524356
0.04335600
-0.00845698
-0.03051384
-0.06001223
-0.03518620
-0.08436003
-0.16369796
-0.07855573
-0.14097494
-0.13859203
-0.06100389
-0.12142647
-0.04085047
0.00646467
-0.00349409
-0.06210162
0.00479886
-0.02272297
-0.03406987
0.00737542
-0.04952844
-0.04596293
-0.07029465
-0.05608526
-0.05917092
-0.01270660
-0.02425254
-0.05705922
-0.02286199
-0.07862496
-0.03070875
-0.01910274
0.00684794
0.03408768
0.02445103
0.03013546
0.01431190
0.02269561
-0.03464117
-0.05117936
-0.10489327
-0.02768445
-0.10782835
-0.02341745
0.05715499
-0.04936567
0.03294943
0.02839248
0.00853529
-0.09556440
0.02201032
-0.04357296
-0.03128711
0.03644503
0.01379567
0.02117969
0.02544932
0.01162978
0.04936554
0.01398422
-0.02758487
-0.01299334
0.00303357
-0.00011115
-0.02682910
-0.04452479
0.05254154
-0.05338410
-0.03102818
0.05925843
0.00613505
0.01051698
-0.00624993
-0.00277548
-0.02286912
-0.02228423
-0.01977463
0.01083608
0.00327376
-0.01553472
-0.01175878
-0.00636355
0.00398565
-0.03886035
-0.03396603
0.01155893
-0.01157103
0.01304441
-0.00828988
0.02659538
0.00076955
-0.00293439
0.03730986
0.02093862
0.00094879
-0.00874443
-0.00760614
-0.04473056
-0.02349129
0.05889685
0.01986264
-0.03860328
-0.09582715
-0.10456916
-0.00397822
-0.05067985
-0.02196543
0.02274452
0.00433585
0.04315486
0.07516678
-0.03571874
-0.01150946
-0.03038944
-0.05486524
-0.01350565
-0.08449555
-0.04225656
-0.06361624
-0.14828753
-0.08432768
-0.05659213
-0.02854935
0.00347746
0.06023045
0.14027375
0.07977194
0.06156398
0.11642826
-0.04223606
-0.00495926
0.03167289
0.03862095
0.05228876
0.08108030
0.02921098
-0.03853410
-0.00895447
0.05253378
-0.04522357
-0.02125514
0.00342309
0.01216716
0.00653115
-0.02852444
0.01856768
-0.00996086
-0.06724193
0.02892952
-0.01925969
-0.02463622
0.04596621
0.03664996
0.02982970
0.00123216
0.00866075
0.04710571
0.03230764
-0.02056006
0.03509372
0.02092877
-0.04699264
0.04087889
-0.02364454
-0.08750142
0.03451273
0.05455203
-0.03981269
0.07113672
0.02556439
-0.03494785
0.09407365
0.01856397
0.02785611
-0.00044742
0.02969081
0.04095162
0.04311607
-0.00079569
-0.03749084
0.03354410
-0.04766794
-0.10116470
-0.03437829
-0.04535338
-0.00571214
-0.03546435
0.00320740
0.01092605
-0.01489156
-0.00754091
-0.06649006
-0.05327470
0.05167644
0.00213415
0.01335676
-0.01308978
0.03501414
0.05348132
0.04850825
0.06695592
-0.05485414
-0.03767289
-0.02201740
-0.00063236
-0.00754623
0.04012032
-0.00633092
-0.02746672
-0.01980166
-0.02654871
0.01148312
-0.03135315
0.00411541
0.02962729
0.01182849
0.08646566
0.07626086
0.06934950
0.09067315
0.04035687
0.11203947
0.03777945
0.01840722
0.06285626
0.00083891
-0.03527167
-0.04017590
-0.00042113
0.01317574
0.02796122
0.00513809
0.02642569
-0.01232815
0.01414852
-0.04403282
-0.03679935
-0.00600792
0.01876613
0.01249629
-0.01662567
-0.01059342
-0.00546843
-0.01382281
-0.02355474
-0.00099224
-0.04996361
-0.00940290
-0.01285323
-0.00514727
-0.03844091
-0.00766496
0.03004315
-0.02284417
0.01758337
-0.09560432
-0.03687213
0.00277861
0.05437653
-0.00783342
0.01952252
0.02650423
0.01187376
0.02625133
-0.05941301
-0.01955000
-0.03266378
-0.04565703
-0.01201202
-0.02667812
-0.00202435
0.03908146
0.02734233
-0.08465018
-0.00621650
0.02168855
-0.01598313
-0.01304188
-0.00836671
-0.00697629
0.01183771
-0.04355114
-0.07616583
0.00864719
0.02071927
-0.01727830
0.00477294
-0.00688908
0.04419087
0.03586824
0.01384186
0.09408806
0.05352698
0.10359494
0.04222983
0.02251864
0.03081908
0.00319173
-0.03353041
-0.14224136
0.01790961
0.02179929
0.03037764
0.00226266
0.03024545
-0.00500346
-0.02633240
-0.00365169
-0.03086200
0.02787799
0.00927090
0.02797871
0.00544044
0.02928606
-0.01500001
-0.03057204
-0.06910236
-0.11398307
-0.07669817
-0.02000241
-0.04740020
-0.00018179
0.00694732
-0.01299356
0.01116434
-0.05509003
-0.08233882
-0.10695453
-0.04192953
-0.03482515
0.01544340
0.02562993
0.03301192
-0.02332267
0.00157582
-0.00311066
-0.11678754
0.00178202
-0.01896039
-0.01834498
0.05652254
0.05281220
0.00736693
0.00631244
0.02163251
-0.08129051
0.03214661
0.07387686
0.02005104
-0.00632424
0.03879637
0.05024987
-0.00241257
0.03283315
-0.03153130
-0.04621375
-0.01533789
-0.02376315
-0.03605302
-0.02752664
-0.08114143
-0.04891164
-0.11186689
-0.09862298
-0.03708155
0.00884265
0.01355915
0.01847304
-0.00468868
0.02520256
-0.01926109
-0.01793798
-0.01796777
0.00349659
0.00460616
-0.00755028
0.02819232
-0.01672300
-0.06714457
0.03815117
-0.06345528
-0.09467771
-0.08270153
-0.10693070
-0.02697554
-0.05132993
-0.03866510
-0.04836674
-0.08182732
-0.04904398
-0.05283198
-0.01296701
0.01385198
0.03934685
0.02973064
0.05220965
-0.03656419
-0.02241215
0.01731951
0.10849038
0.04805464
0.10081055
0.05665326
-0.00579596
0.05476225
0.03853974
-0.03208370
-0.13252820
0.00139802
0.01926794
-0.02603049
-0.03348544
-0.00811863
-0.06353381
-0.05813139
-0.03107011
0.00221551
-0.00401903
0.02756249
-0.01502586
0.01563293
-0.05206781
-0.01827741
0.02093676
-0.00777985
-0.01574402
-0.09315215
-0.04584410
-0.05724793
0.01503674
-0.00711562
-0.03190978
-0.01116661
-0.05515214
-0.02095387
-0.04610248
-0.02604032
0.00210390
-0.00217868
-0.03020881
-0.01011243
-0.01952933
-0.03056785
-0.02621978
-0.04519476
-0.03777494
-0.02365184
-0.01056012
-0.04933232
-0.01707045
-0.07372850
-0.07113754
-0.13164480
0.01243521
-0.00461443
0.01363632
0.08084566
0.05972485
0.02277261
0.04040855
0.07430086
0.01889030
0.05971287
-0.00311811
-0.11534400
-0.00488154
-0.01593126
-0.03322531
0.01108244
0.00450141
0.03220141
-0.03732130
-0.00753786
-0.03511026
0.02070264
0.02678115
0.04370276
-0.00665889
-0.01080196
0.00556143
-0.00293432
-0.02310336
-0.03620093
0.06783257
0.02194368
-0.06559181
-0.05398457
0.01773673
0.01571236
-0.03280295
-0.00597060
-0.02379798
-0.03900552
-0.04386777
-0.00881604
-0.00555809
-0.03582275
-0.01130774
0.00742647
0.06709031
0.13003665
-0.02668432
0.15203474
0.14360231
-0.06952409
0.00730715
-0.04318814
-0.08325316
-0.04411743
0.07975445
-0.08677115
0.07796967
0.01969489
0.01061721
0.08425414
-0.04254206
-0.05499714
-0.00201580
-0.09754513
-0.06040263
-0.00496548
0.02914722
0.02663940
0.04614851
-0.00269128
-0.00296995
0.04938074
0.05470885
0.04224003
-0.00466165
-0.09580511
-0.05676815
-0.04647615
-0.00892855
0.01410773
0.01433920
-0.03702218
0.06825491
-0.01221328
-0.00617553
-0.06590634
-0.08927196
0.02453490
0.00782790
0.02253471
-0.00248380
-0.06293070
0.08267709
0.10527107
-0.09595831
-0.03197405
-0.07304368
0.08369398
0.12328023
-0.01543760
0.02830246
0.00038047
-0.05874779
-0.00588478
-0.06055424
-0.02902429
-0.01106776
-0.01611673
-0.06036182
-0.04875940
0.03093140
-0.00801234
-0.03591619
0.03668280
-0.00016778
0.03167486
-0.01570661
-0.08806068
0.03604962
0.05267252
-0.09066602
0.03785584
0.02438175
-0.03264899
0.01712599
-0.01147121
0.02507032
-0.06975380
-0.01274777
-0.01841183
-0.03031027
0.04835344
0.01443368
-0.04555805
-0.01915460
0.01689797
-0.02500550
0.03404652
-0.01034201
-0.01922485
0.01224067
-0.01715732
0.05988332
0.04157280
0.01731751
-0.02136218
-0.05184920
-0.02337081
-0.03468906
-0.03378744
0.02345411
0.01207885
0.02980589
-0.07956860
0.01383495
-0.02798379
-0.03166245
-0.06136802
-0.04248037
0.05443602
0.05830261
0.08851121
0.10199621
-0.02571506
-0.02210231
-0.02260853
-0.13075377
-0.03065410
-0.05023720
0.04062682
0.08304292
0.10345355
-0.03816453
0.01438699
-0.00598002
-0.14957646
-0.03718278
-0.02524971
0.00925876
-0.01332543
-0.02364857
0.00456280
0.09062967
0.02640992
-0.03130928
0.06724726
0.00124373
-0.01229670
-0.05193682
-0.05727930
-0.01388705
-0.01711124
-0.03298124
-0.04167509
-0.02486535
-0.01403908
-0.04488284
-0.02357533
-0.01910110
-0.06763855
-0.01697397
0.02296931
-0.05657706
-0.04019526
-0.03626445
0.03508140
0.04611390
-0.10043324
0.09629283
-0.02934045
-0.10602409
0.01616753
-0.09131774
-0.02609256
-0.02550103
-0.05708044
-0.05178013
-0.03785709
-0.05610112
-0.00569456
-0.08107319
-0.01087927
0.01096579
0.03883552
0.04397214
0.12446261
-0.04436166
0.04552478
0.00059522
-0.09811734
-0.07821005
-0.07330971
-0.02241929
-0.10367604
-0.15383810
-0.02978080
0.06226025
0.01250137
0.06238132
0.01285637
-0.02347359
0.00630791
0.05023669
0.01891979
-0.03048600
-0.04163110
-0.04761617
0.05383101
-0.00057326
0.00197581
-0.00132595
-0.03802098
-0.05588502
-0.03449827
-0.02968860
-0.04754938
0.04905292
0.04146503
0.03864963
0.04125809
0.01370629
0.03965486
-0.03269793
-0.02050375
-0.00116721
-0.05758426
-0.08243451
0.01589552
0.03076679
-0.01806151
-0.09199740
-0.04836761
-0.02402900
-0.02812181
0.02744818
0.08098677
-0.00420502
-0.04253466
-0.00521730
-0.06265160
-0.13204905
-0.02083589
-0.04120388
-0.01093887
0.02784231
-0.00065393
0.02914172
-0.03932378
0.02340488
0.02357130
0.02336225
-0.02001081
-0.04525729
0.00371955
0.00985967
0.04150600
0.01200996
0.04114866
0.02315642
0.00544910
0.01621979
0.01690685
0.02232503
-0.00507702
-0.05183225
-0.02450254
-0.07565178
-0.00552433
-0.05541451
-0.06182958
-0.06100087
-0.01435006
-0.04631556
0.02908807
-0.00275571
0.00760860
0.07638010
-0.01761572
-0.01898700
0.02403526
-0.04781216
-0.06960526
-0.06957580
-0.03891349
-0.04623792
-0.02353457
-0.03069374
-0.04120287
-0.01772993
0.00093360
0.00208642
-0.03574288
0.00039145
-0.08042404
-0.01228638
0.03562612
-0.06009660
-0.07154422
-0.01354387
-0.03112344
-0.09699932
-0.02785619
0.02067161
-0.06295329
-0.01785282
-0.06028539
-0.02871745
0.03202473
0.00101405
0.01144821
-0.04492617
0.03965208
-0.01905007
-0.03746512
-0.02547981
-0.01947177
-0.01336239
0.00660039
-0.00812080
0.00248184
0.00129597
-0.02105715
0.03659094
-0.00567077
0.01273863
-0.00180869
-0.01383900
0.01906452
-0.01741147
0.02146154
0.04855058
-0.00481518
0.00074158
0.03623959
0.01542775
-0.01171460
-0.06812464
-0.01820756
-0.04072341
-0.03018999
0.02099102
-0.02669967
-0.02940305
0.01101593
0.00085542
-0.03205749
0.00741058
0.02441606
-0.01199859
-0.03859463
0.04308711
0.00643370
-0.01789195
0.00662041
0.01756972
-0.04153348
-0.08665371
0.01636604
-0.01181705
-0.06267883
-0.04073438
-0.02752464
-0.03896906
0.04004741
-0.00739643
0.01347997
0.06412522
-0.00894569
0.03258156
0.03886795
-0.00418517
-0.04045229
-0.12455487
-0.06139997
0.08099288
-0.04931334
-0.02083569
-0.00137075
0.00847614
0.03603655
0.01818832
-0.00519098
0.02186681
0.01306325
-0.00243274
0.00232845
-0.01045039
0.02156896
-0.02539677
-0.01278644
-0.03481381
-0.01122532
0.04138680
-0.01496844
0.01929637
0.03863356
0.00901124
0.03624151
-0.01727521
0.03343245
0.00648288
-0.02494096
0.03464759
0.00611379
-0.02185050
0.06300209
-0.03591583
-0.05167428
-0.03243624
0.02406987
0.00821138
0.01688077
0.01781437
0.01496877
0.00180489
0.02571366
0.02282685
-0.02473163
-0.04681035
-0.04054529
-0.03044584
-0.02352293
0.01191093
-0.00666893
0.02450813
0.03044411
-0.00903005
-0.03491049
-0.03995508
0.02597327
-0.00806705
-0.02706401
-0.04100891
-0.01359887
-0.06805008
0.02338918
-0.03926965
-0.05543559
-0.00085736
-0.00467981
-0.04141030
0.00045205
-0.00195096
-0.01550223
-0.03441438
-0.04153632
-0.07754289
0.00100593
-0.03943827
-0.04583531
-0.04106597
-0.00518650
-0.00213205
-0.01198470
0.01180039
0.03908683
-0.01148676
0.01374595
0.05980687
0.02107026
0.04687424
-0.03076832
-0.03294757
-0.04158430
-0.02764914
0.00987266
-0.00571847
-0.06939478
0.02464899
0.01878377
-0.01243665
-0.00589338
0.01610527
0.00290015
-0.01957769
0.06245137
0.05546591
0.01254564
0.02953644
0.02910947
-0.00770147
-0.06190034
0.03163885
0.00705331
-0.00761948
-0.03818969
-0.07021666
-0.01642210
0.02803208
0.03422763
0.09877930
0.02284609
0.03766140
-0.01859735
0.09014736
0.04834735
-0.00411082
0.01403798
0.09414218
0.03993800
-0.00581540
0.04256245
0.01481016
0.01331615
-0.01939494
-0.00059556
-0.01765289
0.01424825
-0.03608606
-0.02597873
-0.04608800
0.01526030
-0.01311548
-0.02007095
-0.00509771
0.00421557
0.02927656
0.00793332
-0.00912005
0.04336524
0.02248504
0.00367208
0.01739949
0.00362234
-0.03018970
-0.03577659
-0.07667025
-0.05338955
-0.01996886
-0.04037908
-0.03472586
-0.03837580
-0.01005977
-0.00953238
0.05663791
0.05048138
-0.00835157
0.01488022
0.00512681
-0.01354335
0.03981262
0.02289438
0.03194037
0.01733562
0.00801164
-0.01260578
-0.10085215
-0.00355011
-0.07473247
-0.00471867
-0.00366734
0.02266443
-0.06028508
-0.03997103
0.03255409
-0.04128867
-0.07304806
-0.00323756
-0.09124684
-0.04686562
-0.02267879
0.02772811
0.00923132
-0.00839380
0.00564600
0.03195877
-0.04642251
-0.06542101
0.00500960
-0.02186467
-0.05599199
0.04322223
0.04054578
-0.01788782
0.01722111
0.00761301
-0.03789291
-0.02178709
-0.00323972
-0.04061667
-0.05474010
0.05270982
-0.00204668
0.02838195
0.05147479
-0.06234310
-0.07187837
0.03018312
-0.04067151
-0.03678112
0.00688971
0.01112226
-0.05415545
0.00911930
0.03486485
-0.05142941
-0.01686271
-0.04310643
0.02812780
0.05125358
-0.02401666
0.00131067
0.01289516
-0.00853549
-0.04332427
0.02865583
-0.00285829
-0.01755596
-0.00388084
0.00353869
0.04504551
-0.08191661
-0.01493841
0.02014642
-0.05231984
-0.00174005
-0.02716875
0.05056934
0.00674885
0.00490496
-0.01201128
0.00288551
0.04118878
0.00121980
-0.01284506
0.04252309
0.05591664
-0.01478935
0.03956626
0.02331496
-0.02719778
-0.05865371
0.03624352
-0.05591304
-0.10712223
-0.04307725
-0.06428006
-0.04644752
-0.02410180
0.02760411
0.04218401
-0.03048464
-0.01468657
-0.01359525
0.01984043
-0.02202098
-0.04924279
-0.06127203
-0.12089203
-0.01078830
-0.02268117
-0.00605275
0.02006910
-0.00492105
-0.01676404
0.01219590
-0.02458226
-0.01877991
-0.03440601
-0.03117269
-0.07711595
0.00328111
0.00893082
0.00162672
-0.02936961
-0.08559373
0.06252223
-0.02196459
0.02005709
-0.00585222
0.10228348
0.04379564
-0.01702277
0.02723132
0.00936588
-0.08712764
-0.03735899
-0.07630789
-0.01603439
-0.05343407
-0.03411055
0.05809515
-0.03274562
-0.01790734
0.09954381
0.03036941
-0.06126020
0.02272347
-0.04859041
0.00021401
0.06318770
-0.02408259
-0.02890159
0.04998606
0.01151130
-0.03796368
-0.01724182
-0.09945688
-0.03044782
-0.01693810
-0.02719646
-0.05877845
0.03310908
0.02274299
-0.07643950
-0.00032618
-0.15502797
-0.01289013
-0.02228080
-0.01215942
0.03648554
0.06402940
0.04168404
-0.04562655
-0.05267755
0.02322939
0.01390359
0.02327312
0.06336764
-0.02854734
-0.08416528
-0.05023312
0.02016191
-0.01246065
-0.03345990
-0.00750229
-0.07166418
0.00812754
-0.02915824
-0.01502572
0.04589862
0.03007347
-0.07244635
-0.04525775
-0.01507358
-0.01407057
-0.00523656
-0.06501189
-0.09932785
-0.02491932
-0.04120067
-0.00564197
-0.04992174
-0.02729974
-0.02177444
-0.01579291
-0.08498906
0.11016444
0.08333941
-0.04731015
-0.00147119
0.00483597
0.00847690
0.00090125
-0.00724567
0.04818631
-0.07603563
-0.01370964
-0.01598593
-0.02347341
-0.12021842
-0.09679133
-0.00694619
-0.02006745
-0.06774185
0.13574687
-0.00363399
-0.05268643
-0.02071939
0.07465766
0.08828487
-0.07195520
-0.06089715
-0.01393755
-0.00347641
-0.06984718
-0.00632020
0.04356322
-0.12652189
-0.13910444
-0.07914283
-0.11346490
-0.06625411
0.02424799
0.00564515
-0.11841857
0.00520934
0.03602028
0.06772082
-0.09768584
-0.12531510
-0.05037741
-0.01796660
0.00092501
-0.01947531
0.00932056
-0.05906879
-0.00865800
-0.03155906
0.00205363
0.00042281
0.00684261
-0.03558454
-0.01660470
0.00693867
0.06134426
0.05337160
-0.06610482
0.00270885
0.02669886
-0.05907265
-0.01577732
0.02825383
0.02599807
0.00757628
-0.01645962
-0.04444217
0.01846637
0.08009304
0.01217308
0.01231293
0.06791712
0.02374760
0.04241829
0.07875654
0.04947742
0.07877784
0.02165385
-0.01924049
0.01660793
0.02841068
-0.08964950
0.02808986
0.02515790
-0.02619385
-0.00600828
0.03581641
0.02166798
0.05352853
0.05153718
-0.05530097
-0.02381457
-0.07158706
-0.10131134
-0.09531920
-0.08177699
-0.07153907
-0.10225110
-0.02676685
-0.00500605
0.01782509
-0.02992097
-0.05132317
-0.03669905
0.01624040
-0.00832241
-0.01701153
0.00162130
-0.00014724
0.05698708
-0.02032653
-0.01911825
0.00947300
0.02436697
-0.05574699
-0.02902342
-0.04625686
0.01012483
0.02291160
-0.09604236
0.00779283
-0.15254180
-0.13618913
0.02468289
-0.08248829
-0.12914160
0.14456950
-0.01090747
-0.06972641
0.01299647
-0.02469115
-0.05196272
0.00511681
-0.10986404
-0.02441141
0.02557493
0.04129472
0.00649880
-0.00946680
0.01062336
-0.00042257
-0.03190947
-0.01153275
0.08795296
-0.08228432
-0.01223944
0.06912951
0.02264358
0.03221122
-0.02054477
0.10039980
0.03135005
-0.02745087
-0.03240675
-0.04627379
0.05900021
0.01541640
-0.01212109
0.03831396
0.05136234
0.02924836
0.03505247
0.00457298
0.04709519
-0.06782093
0.08225853
-0.07201587
0.00874033
-0.01009836
-0.03156552
-0.01615044
-0.05118388
-0.05115497
-0.01037626
-0.04981485
-0.03550532
-0.17216192
0.01668206
-0.04185510
-0.13658738
-0.03433421
-0.02176339
-0.05467576
-0.03745482
-0.06544239
-0.08996954
-0.07769646
-0.02367480
-0.01980368
0.02551068
-0.04260661
0.03386466
-0.03595554
-0.00849272
0.00030199
0.00022254
0.01876147
0.05538458
0.12062678
0.08698237
-0.09242240
0.10754534
0.03011535
-0.04622627
0.06440363
-0.04462497
-0.07271674
0.01230697
0.02428631
0.00558559
0.02941996
0.04191056
0.01850434
0.05064569
0.01437007
0.06085115
0.05650372
-0.03311828
0.00678393
0.09250277
-0.02836480
-0.09856021
0.13669902
-0.01919903
-0.01466580
-0.01096597
-0.05943283
0.09847020
-0.00320867
-0.01394297
0.03726048
0.00320962
-0.01541305
0.03030520
-0.01388203
-0.03005834
-0.00921873
0.08064103
-0.00741179
-0.06958828
0.07957210
-0.05673737
-0.10339723
0.03703385
0.01027894
-0.07496040
0.02947101
-0.01936065
-0.07385452
0.00741851
-0.05851323
-0.09089585
0.04448502
0.03334384
-0.06379604
-0.03034980
-0.10264238
-0.01338529
-0.06533135
-0.03218258
0.02127927
-0.12768525
0.00431882
-0.02415305
-0.08915994
0.03428109
-0.00875420
-0.04976669
0.02307169
-0.01832402
-0.01778124
-0.01153065
-0.02954627
-0.02937130
-0.06099975
-0.06971619
-0.14128786
-0.08255851
-0.04989894
0.00176403
-0.03509136
0.00412289
0.00083882
0.02745211
-0.00286873
0.04459174
0.05775311
-0.07920940
0.00534506
-0.02701485
0.04769921
0.02005577
0.01185726
-0.00689763
-0.07705142
-0.04974431
0.00795808
-0.00037741
-0.05922280
-0.06135369
0.11412734
-0.06756154
-0.08233780
0.02501936
-0.10552115
-0.10799164
0.05009852
0.09566197
-0.05621709
0.00741783
-0.05405313
0.05787451
-0.00418615
0.00607712
0.04171765
-0.08598181
-0.14921965
-0.02918621
-0.02629566
-0.09649340
-0.08397191
-0.05670980
-0.00804670
-0.07788252
-0.07069530
-0.02867497
-0.05073163
-0.02761064
-0.02033645
-0.06534714
-0.01386252
-0.00444732
0.00485017
-0.01857848
-0.00256907
0.01163537
0.02044436
0.00309382
0.00956289
-0.05943604
-0.03444888
-0.06755005
-0.03070090
0.04147800
0.02170330
0.01938177
0.08542117
0.05940140
0.02293747
0.02965488
0.01247499
-0.02983653
-0.03823286
0.02543948
-0.01270657
0.02958106
0.10237525
-0.09116231
-0.05889045
0.04005724
0.03581600
0.02427340
0.03964884
0.01384840
0.04742396
0.06558205
0.03115846
0.06110661
0.00060250
-0.09193481
-0.04902416
-0.09393378
0.01489386
0.00939405
-0.04257542
-0.02216065
0.01324908
0.01191640
0.02343229
0.00017905
0.02537306
0.02617324
-0.04648733
0.00150718
-0.07105402
-0.01773909
-0.09906299
-0.01198264
-0.00518478
-0.00579224
0.00384785
0.02599466
0.03265918
0.02649657
-0.01266332
-0.02257158
0.02128918
-0.02110069
0.00264392
0.00578224
0.02236962
-0.00871996
0.02242926
-0.00109150
0.01933364
0.03933321
-0.00564538
0.05374385
-0.01778407
-0.05366793
0.00485953
-0.01932146
0.04436287
0.05075920
-0.00755232
-0.07453879
-0.01445270
-0.01279098
0.00023079
-0.04020530
0.04428236
0.10333120
0.05670194
-0.02673501
-0.00008566
0.01082581
-0.01229959
0.05150639
-0.02874003
0.02186974
0.00239351
-0.04382288
-0.01122956
0.07130861
-0.04422407
0.00633061
-0.05793000
-0.05448547
0.00690997
0.01690442
-0.01164693
0.02540221
0.01040136
-0.01282607
0.04661721
0.01690781
0.03927055
-0.04620437
-0.02674264
-0.07896266
-0.00148865
0.02821208
0.00917003
-0.04163479
-0.01146319
-0.01405036
0.01177546
0.06611625
0.04916093
-0.00372701
0.07087769
0.01543829
0.04372477
0.01355448
-0.01709108
-0.02420002
-0.07206865
-0.03269456
0.00749706
0.01776771
-0.01052283
-0.00240756
0.01396146
0.01391929
-0.05079597
-0.05089263
-0.06495546
0.01750038
-0.01992068
0.04657162
0.00517237
0.04903568
0.02373898
0.01623957
-0.02435387
-0.05764576
-0.03892256
-0.03072998
-0.06286711
-0.02989678
-0.08363621
-0.06479038
0.02859340
0.06554792
0.00781794
-0.04695448
0.00678586
-0.03434303
0.00502080
0.03831315
-0.10670965
0.03909458
0.05640945
-0.01578598
0.04359466
-0.03868685
-0.05193859
0.02290534
0.00931937
-0.03021505
0.02445121
0.05507223
0.05266179
0.02055786
-0.00599058
0.02168142
0.01439789
-0.01002705
0.04841202
-0.02098806
0.00252194
-0.01280114
-0.03775331
-0.01327921
-0.05461651
-0.00206510
-0.08200587
-0.04415485
0.01887749
0.06461196
0.05924572
-0.06471839
-0.07063310
-0.03255266
-0.02338464
-0.07796536
-0.02354110
0.02213188
0.05372247
0.07094074
0.01158458
-0.04090936
-0.01581416
-0.03774453
0.02383334
-0.00673698
0.04153971
0.01288444
0.02581869
-0.01889808
0.01777587
0.00931763
-0.01089752
-0.06739461
-0.09980109
-0.04596238
-0.05719515
-0.06917991
0.02711992
0.01697233
-0.03038760
-0.02709550
-0.03060610
-0.01271211
-0.02350128
-0.05988450
0.00008437
0.04027902
0.00195269
-0.00107398
0.02157996
0.03773875
-0.05768522
-0.03708841
-0.09387542
-0.09876210
0.03586848
0.02603482
0.03010082
-0.03569071
0.00554249
0.03810738
-0.00642356
0.03831587
-0.01651349
0.01077283
-0.07253531
-0.07507674
0.01074806
-0.04287577
0.00523340
0.03959282
0.07620078
0.07036082
-0.10342783
-0.10271385
-0.03961750
-0.02747093
0.05672404
-0.07344219
0.03464140
0.05709471
-0.02296904
0.03116895
-0.01112635
-0.03146377
0.05810754
0.10082337
0.08032713
-0.00606432
0.01343424
0.07910981
-0.05138834
-0.03051499
-0.01068355
-0.01442403
0.05251732
0.08287949
-0.04525877
-0.01323127
0.01044233
-0.04785438
-0.04389353
-0.05404931
0.00766993
-0.08177610
-0.07085179
0.01688612
-0.02163416
0.03977891
-0.09424161
-0.00847012
0.02839832
-0.02730973
-0.01802022
-0.03439945
0.03502158
0.02147750
-0.00420975
-0.02159815
0.03276847
0.04077500
-0.03310752
-0.00461109
-0.00703127
-0.05791126
-0.00749808
-0.04912226
-0.01192347
0.04688568
0.03500634
0.05925361
0.01036642
-0.00815542
-0.03771927
-0.02682614
0.00373922
-0.07360331
0.02467819
0.07970231
-0.07054071
-0.00512394
0.00613220
0.03365089
0.08111759
0.03961560
-0.07083798
-0.05878685
-0.10046735
-0.07024496
-0.05090591
-0.08663542
-0.01281395
-0.09837500
-0.10359751
-0.12418391
0.00869958
0.01970659
-0.06590096
0.01962077
0.05585081
-0.03394068
-0.03942705
0.06905448
0.06080911
0.08003648
0.03143343
0.01787988
0.02790564
0.04593214
-0.04202828
-0.02940281
0.02530191
0.05309451
0.00757869
-0.12329192
-0.12183658
-0.02047460
-0.05094439
-0.14670901
-0.14770688
-0.06374651
-0.03010231
-0.09856529
-0.18489829
-0.06410504
-0.13996184
-0.08736011
-0.11905590
-0.12930112
-0.12075606
-0.01676058
-0.06153097
-0.02718930
-0.12354543
-0.00035918
-0.00621801
-0.19226517
-0.02852594
0.02710835
-0.03465049
0.01227071
0.06972674
0.03052393
0.06426273
0.04712255
0.09291007
0.05230249
0.01981742
-0.07371595
0.05823079
0.02445350
-0.04741540
0.00713631
0.01944219
0.03361121
0.04095842
0.01199088
0.06322191
0.03405458
-0.02483243
-0.04084302
-0.01964480
0.00578397
-0.12997250
-0.02655560
0.04132964
-0.16967393
-0.14162633
-0.15517122
-0.07790782
-0.02630828
-0.18262070
-0.01294107
-0.06656267
-0.04908789
-0.00562757
-0.03369751
-0.04454167
-0.04000729
-0.05400131
-0.09669313
-0.00890503
-0.05381843
-0.01890274
-0.18775193
0.02193132
0.01876194
-0.10434902
0.04847344
0.05199755
-0.01814949
0.06048249
-0.00599238
0.04872124
-0.01038002
-0.02490170
-0.00150767
-0.07329907
-0.03832773
-0.05188983
-0.11335969
-0.03410046
-0.00134416
-0.00058341
-0.00842422
-0.02834377
-0.00405562
0.08954128
-0.08545091
0.01011084
0.01445499
0.00097073
-0.05482906
0.03181175
-0.02582087
-0.05916419
0.01310779
0.00722503
-0.05483605
-0.04475775
-0.07220640
0.04521637
0.03372327
-0.04715630
-0.01926633
-0.00094834
0.00934815
0.02140621
-0.04562527
0.03821133
-0.07789060
0.00815467
0.05005400
-0.11518366
-0.03220262
0.01853443
-0.04587521
0.02435720
0.03601705
-0.02090884
-0.05863361
-0.04594252
-0.00636972
-0.08889320
-0.06744370
-0.04149278
-0.02014031
0.03534779
0.07292365
0.02332674
-0.07683343
-0.01605272
-0.01654133
0.01061132
-0.01192531
0.07708676
0.01142452
-0.00007891
0.00287144
0.03345531
-0.00475241
-0.02474076
0.04230605
0.08331762
-0.01313210
0.03026754
0.00113369
-0.07595827
0.00504223
-0.07578424
-0.03405137
-0.04073450
-0.03137702
-0.08287375
-0.06393071
-0.09839716
0.02128515
-0.03019371
-0.05785010
-0.01829492
-0.00972530
0.03009229
0.01317888
-0.02035173
0.05316119
0.02237635
-0.00812392
0.02802798
-0.01891085
0.02303380
0.03635591
-0.04072197
-0.08006223
-0.11176201
-0.02925828
0.00272767
-0.09905705
-0.05774052
-0.02171721
-0.08096341
-0.06434811
0.00561618
0.03783292
-0.06204403
-0.15557095
-0.10502894
-0.03199884
-0.11818093
-0.03066774
0.08869222
-0.36314464
-0.25727662
-0.10844840
-0.15519716
-0.05648142
-0.11222309
0.07178370
0.03146286
-0.06234039
-0.05756794
0.00801540
-0.08775843
-0.13001794
-0.00742372
-0.16200419
0.00125201
0.06921636
0.03617858
0.06764433
0.03832240
0.04369060
0.13084733
0.01855162
0.00446286
-0.06330147
-0.03455548
0.01900385
0.04517175
0.04283579
0.09467669
-0.00403674
0.05721875
0.06319411
0.04712128
0.09009892
0.09830943
-0.00266592
0.05474575
0.06422406
0.03522503
0.12202187
0.02904259
-0.07774062
0.03121278
-0.00233329
0.00686726
0.01898486
-0.02967273
0.01980045
0.07599127
0.00448081
0.02916248
-0.00697963
0.01169157
-0.00698970
0.01790504
-0.00722969
0.03482596
0.02620423
0.05510186
-0.01235403
0.03895972
0.09657387
-0.02123054
-0.03618687
-0.00767945
0.04601933
-0.02131636
-0.06349982
-0.02787228
0.00286113
-0.04727095
-0.01586573
-0.02036315
-0.00888915
0.02075189
0.00993467
0.02648077
-0.01562758
-0.05590778
-0.01348176
-0.01031881
-0.05032654
-0.05847494
0.00478587
-0.01720111
-0.05952179
0.01443090
0.06510253
-0.04615023
0.08034387
-0.01158144
0.00246243
-0.01723572
-0.10734835
-0.11328381
0.10463972
-0.03338636
-0.12430298
-0.01387862
-0.05430656
-0.02539384
-0.02892224
-0.00932338
-0.04765872
-0.02797911
0.01426109
-0.08254147
0.04466020
-0.01232461
-0.02880447
0.03169147
-0.02680898
-0.02818028
0.06621261
-0.00993614
0.02760163
-0.05186686
-0.01396252
-0.07961345
-0.04704302
0.01858011
0.06054993
-0.03398636
0.03128642
0.01939584
-0.04079676
-0.01337230
-0.01407440
-0.09550577
-0.01833551
-0.00206810
-0.04183334
-0.00353811
0.02519316
0.02654663
-0.02871472
-0.02106915
0.01836956
-0.05430455
-0.05513987
0.07823247
-0.00734479
-0.03525243
-0.00151165
0.02991852
0.03127605
-0.11310465
-0.01769292
-0.03288848
-0.01975416
0.01827618
-0.02794557
-0.00964802
0.00438898
0.00102371
0.01518319
0.00892660
-0.02387278
0.04250804
-0.05655962
-0.00974029
-0.05538284
-0.05181924
-0.01557719
-0.01795266
0.00685990
-0.01265320
0.01233365
-0.02705755
0.00640042
-0.01777259
-0.08520154
-0.05484467
-0.01805559
-0.01880505
-0.03370453
-0.01103066
-0.00314236
-0.03828549
0.06358943
0.00266464
-0.08511966
-0.04531005
0.03481582
-0.02116792
0.01235336
0.05199431
0.02197397
-0.04554202
0.02177070
-0.00707389
-0.06636658
0.00770669
-0.01962114
-0.06256987
0.09382673
0.03318455
-0.06396098
0.00937255
-0.00784722
-0.08555520
0.02451363
0.00993287
-0.01265182
0.01409629
-0.00163436
-0.07944813
-0.00506457
-0.04004806
-0.06811335
0.04651128
-0.00207396
-0.01191220
0.05363747
-0.00385754
-0.00449091
-0.00996176
-0.01821279
-0.07101337
-0.02680749
-0.02249714
0.02885007
0.01571209
0.01956684
0.02361682
-0.03513441
-0.02482095
0.07723264
-0.04506360
-0.02397132
0.05752780
-0.04193374
-0.04388233
-0.02268789
-0.02625034
-0.06352663
-0.00655216
-0.00456619
0.00975995
-0.03767912
-0.03706893
0.00017984
-0.03495997
-0.01668142
0.01060660
-0.00692503
-0.02353342
-0.03444556
-0.00820052
-0.01732919
-0.01451036
-0.05072573
0.01706542
0.03767835
-0.10421871
-0.01899201
0.04899308
-0.09170885
0.04412547
0.10229881
-0.02883498
-0.06587941
-0.03066767
-0.04778214
-0.04666441
-0.05041214
0.03258758
-0.00111343
-0.04110293
-0.11825847
-0.04972120
-0.03850206
-0.07571199
0.04526152
0.00736887
0.01709123
0.08637632
-0.00623986
0.07470923
0.00727248
-0.06776563
0.08141370
0.01614255
0.01123037
0.03821216
0.00402669
0.01194759
-0.03124618
0.10559364
0.08789967
-0.04831544
0.06136672
0.10163029
-0.02704330
0.03887323
0.00764190
0.03052689
0.08263115
0.05995947
0.09418664
-0.03454133
0.03685440
0.03728426
-0.02830743
0.02787178
-0.02373017
-0.02805366
-0.07323305
-0.05044667
-0.00323563
-0.00660741
-0.02181950
0.05072236
0.04100581
-0.07601929
0.02579777
-0.03092689
0.00427230
0.00737892
0.01567215
0.04775003
0.01024565
-0.03646123
-0.02798079
-0.06842857
-0.02813542
-0.00792709
-0.02044255
-0.05095153
-0.00159888
0.00977656
0.00781654
-0.00981938
-0.01557531
-0.09451953
-0.01997105
-0.05596241
-0.05612591
0.02068659
0.00532399
0.08466102
-0.08067859
-0.01516123
-0.01306839
0.03158214
-0.04035919
-0.09967938
0.00775072
0.02198617
0.00231852
-0.03114921
-0.01197449
-0.01894150
-0.03367891
0.00957851
-0.04631920
-0.02032557
-0.03505794
-0.01848775
-0.08931733
-0.09648515
0.00005509
-0.03912652
-0.00861945
0.07324047
0.01277534
0.05357166
-0.03419229
-0.04378889
0.01162814
-0.00578997
-0.05748031
-0.01414599
0.02271363
-0.08222662
-0.06211509
0.01327477
-0.03695480
-0.01324944
0.00239940
-0.03242711
0.02404716
0.05609175
-0.09617884
-0.04045369
0.03988371
0.02323847
0.09026694
0.01301981
-0.03437080
-0.02047655
-0.06426661
-0.01742104
-0.02434460
-0.00857066
-0.00169312
-0.05305604
0.00663000
-0.08045809
0.02383149
0.07218304
-0.01221368
0.05454386
0.01699754
-0.08295696
-0.02871040
-0.01203821
-0.02791759
-0.02959036
-0.06071851
0.05195485
-0.05761607
-0.06632579
-0.02353605
-0.02800996
-0.01566299
0.02054022
0.03535219
-0.02212057
0.00816663
-0.01522142
-0.05339363
0.01123028
0.04136243
0.07010868
-0.04713353
0.04879924
0.01829511
-0.07468375
-0.02088142
-0.01498465
-0.02707179
0.01999315
0.06054618
0.11447215
0.15807262
-0.09290767
0.05203123
-0.03966291
-0.11636722
-0.03101735
-0.01343182
0.03730872
-0.06682331
0.02324984
-0.02500200
-0.01951808
0.02400765
-0.03433540
-0.08486442
-0.02245424
0.08702742
0.00100894
0.01713414
0.06039465
0.03598869
0.09672716
-0.04564273
0.05381148
0.13732563
0.08654723
0.00165080
-0.02094243
-0.11344774
-0.03365909
-0.02561250
0.01429144
0.02641204
0.00402509
0.00251125
-0.04844647
-0.00987676
-0.02374864
-0.02355330
0.00576832
0.02518004
0.04194062
0.06719858
0.06597076
0.05509036
0.00420242
-0.08596254
-0.03035573
-0.10122254
-0.03272089
-0.05365812
-0.06954643
0.00803793
-0.00275482
0.01619921
-0.03218511
0.01770019
-0.04363541
-0.05212778
-0.00576413
0.05925644
0.01740939
0.02217427
0.02760854
-0.01241477
-0.01334042
-0.08341993
-0.07045657
-0.01930243
0.10450936
0.05816470
0.00134167
0.01835479
-0.06131104
-0.02623497
-0.14745864
-0.07877702
-0.06003671
-0.03484964
0.05779951
-0.06298404
0.01199023
0.06012930
-0.02040394
0.04409788
0.00720392
-0.12434630
-0.02302525
0.02129048
-0.06627635
-0.00921950
-0.03752050
0.03222451
0.01941591
-0.03137358
-0.03461079
-0.01476421
0.00626199
-0.07000144
0.04174132
0.01525998
-0.01116788
-0.04151160
-0.06151688
-0.00112629
-0.00632046
0.03744193
0.08324646
0.07139691
-0.06408274
0.06543842
-0.02799105
-0.15467620
0.00208993
-0.01986383
-0.03856214
-0.05106742
-0.06932425
0.02033066
-0.06384052
-0.05288939
0.00168732
0.01025604
0.11328128
0.00185561
0.08843625
-0.00653831
-0.01201391
0.01785072
-0.12806307
-0.08292705
-0.03923902
-0.00886180
0.05003203
-0.10283636
-0.00366230
0.00564085
0.03054550
0.07515462
0.02991614
-0.02797577
-0.03068923
-0.06947049
0.03675052
-0.00833733
-0.01727943
0.07347920
0.04857778
-0.01860843
-0.06695293
-0.14306764
-0.08089936
-0.02239334
-0.04488003
-0.09928381
0.03537819
0.03705253
-0.07840272
-0.05938496
-0.00257812
-0.00133705
0.02073483
-0.01287414
-0.02337933
-0.00787501
-0.08789017
0.00164185
-0.01429078
-0.03377011
-0.02692515
-0.05227275
-0.00493249
-0.02417583
0.01327974
0.00388848
0.01112086
-0.04040843
-0.04777444
-0.02496168
-0.04250013
-0.04076582
0.01141027
-0.00746708
0.02553526
0.00742318
0.01403260
0.00690186
-0.03528693
-0.01794106
-0.01689111
-0.06902883
-0.04146432
-0.04546004
-0.07321750
0.03899833
0.01739316
0.00428288
-0.03294482
0.03625663
0.02476315
-0.04225057
-0.00899681
0.01841985
-0.06457549
0.01610795
-0.06986256
-0.02790749
-0.02065584
-0.01282234
0.02200529
0.00100737
0.01935048
0.02569556
0.03134178
0.05420592
-0.05971972
-0.01882617
0.01975657
-0.00356172
-0.02396716
0.01730272
-0.05938837
-0.05180375
-0.02516409
-0.01432910
-0.02348067
-0.09707740
0.00017872
0.04167722
-0.06078106
-0.01797241
0.09724654
0.02423927
-0.06942816
-0.11697543
-0.09986260
0.12033342
0.00075609
-0.09296997
-0.05553662
-0.08364880
-0.04210354
0.05102266
0.01422640
-0.07380478
0.03851373
-0.01330779
-0.01340918
0.03031760
0.02200887
0.04277707
0.00150213
0.04952144
-0.04836282
-0.00349001
0.01110750
-0.01711619
0.02478947
0.00255789
-0.06100951
-0.00255197
0.00104995
0.04435459
-0.00043847
-0.00887756
0.03933670
-0.00665735
-0.01108660
-0.03671285
-0.05426029
-0.00844006
0.01248962
-0.00430456
0.03834714
0.03362215
-0.05320364
0.02008180
0.02385552
-0.06574564
-0.08658899
-0.09713664
0.09048380
0.02024478
-0.10069517
0.01381886
0.09210087
-0.01077100
-0.09071191
-0.04046634
-0.01274875
-0.04780867
0.03228896
0.02237722
-0.06477116
0.00357849
-0.05637704
-0.01614776
-0.00868605
-0.02796822
0.00271066
0.00143584
0.01799845
0.07409971
0.06346580
0.02583388
0.05363033
0.08856188
-0.01487143
-0.01536110
-0.04099072
0.00968622
0.01807446
-0.02651324
-0.06389008
0.03837538
0.04037310
-0.04040606
-0.03504688
0.02277835
-0.03235290
0.00764270
-0.02117667
-0.07739564
-0.04044135
-0.01209111
-0.01699667
0.02944067
0.02175602
0.01854843
0.01714163
-0.02821923
-0.05258578
-0.04520383
-0.07118710
-0.03480648
-0.07973599
-0.02289622
0.01559578
0.02012424
-0.00414813
-0.05275418
-0.06213749
-0.03544273
0.00684093
-0.03594365
0.00129106
0.04361192
-0.04770754
0.00407273
-0.00900879
-0.03777230
-0.03601864
-0.04470979
0.02174416
-0.00140261
-0.02887384
-0.10079090
-0.02323011
0.02086728
-0.09022946
-0.08542566
-0.05881264
-0.00351145
-0.02643098
-0.05051543
-0.00815303
0.05316256
0.05395448
0.01850121
0.00161524
-0.01875423
-0.00820218
0.00559056
-0.08160243
-0.00806379
-0.02221254
-0.01104829
-0.03261411
0.03026842
0.01083557
-0.03599547
-0.01158389
-0.00804862
-0.01786427
-0.04487831
0.00187400
-0.05377946
-0.06007926
-0.07848281
0.02495189
0.01938053
-0.02543566
0.03605875
0.03331400
-0.01445146
-0.04805817
-0.05388388
0.03910527
-0.09893218
0.01576070
0.06073678
-0.05488273
-0.01377940
-0.07667663
-0.06339802
-0.02680906
-0.03586237
-0.00799283
-0.00124309
0.02509133
-0.04499840
-0.02453387
-0.05120409
-0.02995955
-0.03607870
0.00215095
-0.03428083
0.00402567
-0.05541174
0.08713102
0.06995350
0.02929738
0.06279024
0.02947198
0.03056490
0.01100167
-0.02904022
0.00152024
-0.00152820
-0.01771339
0.04821847
-0.02157895
0.07323108
0.05741434
-0.05911383
0.01535510
0.07600281
0.02386645
0.03464343
0.02641210
0.03817292
0.03809388
0.07065184
0.03453067
-0.00378736
0.02945011
-0.05707697
-0.00231385
-0.02116322
-0.04254909
-0.02359576
0.00533799
-0.04508733
-0.01919498
-0.01911606
-0.05534114
0.03498010
-0.04096795
0.04619321
0.01207326
-0.05319701
0.04464850
0.05086462
-0.04533229
-0.06742950
-0.03515853
-0.08466128
-0.02525189
-0.03216305
-0.05170814
0.01872959
0.02114978
0.01556973
-0.02498407
-0.00259552
-0.06442074
-0.04835205
-0.01416609
0.00994190
0.06220137
0.01869743
0.05755927
-0.05980114
-0.03897668
-0.01396158
