-0.00412425 -0.00513876 -0.00180843 -0.00255776 -0.01757786 -0.01196231 -0.01278265 -0.00255947 -0.00216060 0.00688645 0.01269446 0.01835576 0.02396926 0.01631844 0.01425750 0.01286843 0.00693505 0.00507596 -0.00576739 -0.02119233 -0.03009676 -0.02428735 -0.01264639 -0.00249365 0.00449904 0.00415024 0.01306810 0.00175393 -0.01077347 -0.00671634 -0.00441280 -0.00737043 -0.00548629 -0.00684844 -0.00409373 -0.00634130 0.00902323 0.01028554 0.00463663 0.01418734 0.01465461 0.01119244 0.01768726 0.00028302 -0.00362564 -0.00981805 -0.01698722 -0.02538059 -0.02828361 -0.02796741 -0.00994704 -0.00568171 -0.00255281 0.01259201 0.00942481 0.01048568 -0.00111987 0.00532797 0.00009174 -0.00821547 -0.00485355 -0.00380813 -0.00457689 0.01152651 0.00155650 0.00727711 0.00256223 0.00404772 0.00878146 0.00503771 0.01498422 0.00205710 -0.00978526 -0.02026131 -0.03143729 -0.03919391 -0.03626308 -0.02309603 -0.01150664 0.00058937 -0.00016345 0.01061021 0.01117164 0.00484812 -0.01047266 0.01614968 -0.00717491 -0.00672773 0.00205187 -0.00163895 0.00136635 0.00179696 0.00793547 -0.00428503 -0.00352123 -0.00227373 0.00790702 0.00753741 0.01112249 0.00249075 -0.01413544 -0.03650976 -0.04167379 -0.03406803 -0.01646673 -0.00924459 -0.00186819 0.00346599 0.00443626 0.01040110 0.00310040 0.00520273 -0.00360421 0.00352619 0.00873168 0.00303073 -0.00043419 0.00535532 0.00618280 0.01180789 0.00909206 0.00806133 0.00168081 -0.00020969 -0.00102327 -0.00100700 -0.00087345 -0.00113137 -0.01758203 -0.03189604 -0.03188147 -0.01599998 -0.00703414 -0.00366197 -0.00057625 -0.00453837 0.00622453 0.00195539 0.00901837 -0.00318526 0.02180854 0.00447561 0.01340215 -0.00495958 0.00021928 0.00056539 0.01237707 0.00784041 0.00729389 0.00904949 -0.00628520 0.00166515 -0.00315360 0.00221911 -0.00140591 -0.01644801 -0.02601122 -0.02935703 -0.02156820 -0.01745252 -0.00924820 -0.00170602 0.00621235 -0.00101009 0.00001699 0.00384962 0.00609663 0.00263423 0.01808068 0.01140508 0.01373872 0.00340987 0.00106019 0.00190665 0.01140510 0.00264293 0.01037424 0.00561621 0.00214552 0.00318494 -0.00367282 0.00272239 -0.00239198 -0.01203685 -0.03154614 -0.02623081 -0.02769357 -0.01457403 -0.00717213 0.00404186 0.00276245 0.00087785 0.00328097 0.00226549 0.00605856 0.00847219 0.01449707 0.01015628 0.01943958 0.00853745 0.00748939 -0.00269005 0.00163782 0.01298260 0.00458990 0.01106105 0.00733305 0.00766463 0.00034199 0.00211981 -0.01000602 -0.01604922 -0.02416607 -0.02561682 -0.01228144 -0.00252307 -0.00497353 0.00046839 0.00667328 0.00653667 -0.00296514 0.00339449 0.00079825 0.00765841 0.01587804 0.01602975 0.01741313 0.00390427 -0.00402861 0.00033981 0.00243404 0.00821007 0.00272628 0.01140841 0.01458133 0.00579241 0.00142990 -0.00767373 -0.01377719 -0.01582929 -0.02026240 -0.01754362 -0.00226292 -0.00560458 0.00825734 0.00719121 0.00482600 -0.00270052 -0.00659237 0.01151926 -0.00046673 0.01861363 0.01321007 0.00134585 0.01160979 0.00877659 -0.00487922 -0.00522678 0.00205643 0.01284739 0.01598249 0.01916906 0.01517069 0.01734504 0.00502258 -0.00307562 -0.00996835 -0.01619722 -0.01895650 -0.01450472 -0.00183151 0.00604185 0.01765276 0.01049363 0.01110448 0.00393815 -0.00432962 -0.00743749 0.00118344 0.01169586 0.00623684 -0.00035047 -0.00387922 0.00653073 -0.00002702 -0.00452274 -0.00412881 0.00174128 0.01386738 0.01449967 0.01517764 0.01720986 0.01124479 -0.01800154 -0.03029968 -0.01668092 -0.01615628 -0.00849507 -0.00503220 0.00471790 0.00596987 0.00858519 0.00405745 -0.00409585 0.00246313 -0.00452624 0.00096949 0.00726552 0.00756402 -0.00454680 -0.00427993 -0.00590135 -0.00046848 0.00139594 0.00277956 -0.00083488 0.00879089 0.00334146 0.00992752 0.00906079 0.00307521 -0.01627455 -0.02854870 -0.02189231 -0.01308690 0.00139409 0.00306931 0.00955587 0.00112880 0.00576234 0.00855379 -0.00095632 0.00406567 0.00391344 -0.00275918 -0.00305922 0.01082996 -0.00168113 -0.00114367 0.00553316 -0.00155660 -0.00060910 0.00285453 0.00121794 0.01121816 0.00033374 -0.00468550 0.00965569 0.02171263 -0.01151956 -0.02830148 -0.02070755 -0.00310570 0.00361821 0.00809464 0.01134246 0.01226117 0.00517080 -0.00694705 0.00373806 -0.00432430 -0.00493518 -0.01251802 -0.00334480 0.00810311 0.00717584 -0.00370423 0.01314205 0.00002948 -0.00854612 -0.00323261 -0.00616342 -0.00840957 -0.00878464 -0.00096023 0.01760881 0.03430740 0.01567797 -0.00616262 -0.00274145 0.00307392 0.01230500 0.01716902 0.00421077 0.00072373 0.00410832 -0.00270041 -0.00531509 -0.00422080 -0.01584278 -0.01310234 -0.01175295 -0.00281921 -0.00546024 -0.00247032 0.00904866 0.00076505 -0.00330691 0.00322296 -0.00402060 -0.00512283 -0.00333394 0.00311689 0.01267235 0.03254054 0.01286253 0.00115060 0.00085093 0.01416260 0.01649347 0.00914330 0.01414171 0.00990912 -0.00419626 -0.00502431 0.00072436 -0.00848586 -0.01085835 -0.00968616 0.00339080 -0.00703777 -0.00864962 -0.01163647 -0.00525044 -0.00151474 -0.00234331 -0.00331382 -0.00633055 0.00000743 -0.00278860 0.00883762 0.01108195 0.03257976 0.01509142 0.00561053 0.00181360 0.00726410 0.00641023 -0.00363499 0.00892189 0.00870660 0.01011539 0.00415685 -0.00756264 -0.01645663 -0.00654718 -0.00441178 0.00355096 -0.02019737 -0.01162646 -0.01450855 -0.00507518 -0.00639595 0.00127458 0.00112342 0.00010464 -0.00351127 0.00217433 0.00477549 0.01513602 0.02381524 0.02961069 -0.00242271 0.00291667 0.00666907 0.00268690 -0.00387112 -0.00344878 -0.00425671 -0.00238970 0.00103640 -0.00971509 -0.02143344 -0.00833665 0.00091829 0.01374053 -0.02611010 -0.01785514 -0.01713207 -0.00407556 -0.00500215 -0.00991591 0.00223906 0.00443470 0.00087481 -0.00099813 0.00045644 0.01589577 0.03380059 0.02568660 0.00461695 -0.00280459 -0.00336932 0.00587308 -0.00198773 -0.00955875 -0.00104584 0.00494009 -0.00686601 -0.00664120 -0.01306798 -0.00576843 0.00199026 0.00593058 -0.03101739 -0.02259366 -0.00930745 -0.00754228 -0.00225022 -0.00385334 0.00032152 -0.00937442 -0.00781890 0.00933886 0.01325863 0.01713328 0.02731249 0.01872694 0.01632288 0.00421122 -0.00355714 -0.00401098 0.00251133 0.00515581 -0.00146393 -0.00522684 0.00243794 -0.00950416 -0.00139581 0.00018817 0.00057626 -0.00006795 -0.01162419 -0.01462388 -0.01031581 -0.01387490 -0.00158056 0.00414257 -0.00580605 -0.00580601 -0.00052264 -0.00637031 0.00717555 0.01053951 0.02657465 0.01220142 0.00462089 0.00256345 0.00074417 0.00401667 -0.00128597 0.00059467 0.00004183 -0.00647585 -0.00622153 -0.00149065 0.00233187 -0.00309174 -0.01016846 -0.00571404 0.00217250 -0.00493492 -0.01764605 -0.00625468 -0.00360696 0.00757340 -0.00120407 -0.00735741 -0.00908759 -0.00630493 -0.00093235 0.01527232 0.01539760 0.00307242 -0.00359880 -0.00758705 0.00724541 0.00125009 0.00292379 -0.00623072 -0.00118463 -0.00416875 0.00396844 -0.00153154 0.00263269 -0.00687759 -0.00530756 0.00173808 0.00868902 0.01628908 0.00401208 0.01154174 -0.00117294 -0.00004059 -0.00464952 -0.00114244 -0.00883661 -0.00466049 0.00050596 0.00244257 0.00279305 -0.00174184 0.00167123 0.00531938 -0.00126252 -0.00441797 0.00424245 -0.00673690 0.00287262 -0.00013745 -0.00643854 -0.00164750 -0.00597076 -0.00384735 -0.00752785 -0.01681699 0.01283379 0.01237096 0.01630799 0.00271975 0.00222889 0.00048621 0.00827736 -0.00030492 -0.00117592 -0.00652222 0.00064841 0.01020305 0.00026779 0.00718822 0.00346384 0.00339409 -0.00020000 0.00374610 0.00072567 -0.00082596 -0.00522202 0.00997614 -0.00211927 -0.00838643 -0.00446766 -0.00571098 -0.00843463 -0.02002426 0.00783694 0.00363195 0.00628436 0.00206012 0.00385942 0.00973103 0.00286218 -0.00105750 0.00518663 0.00146502 0.00165875 0.01460112 0.00911973 0.01010497 0.00781898 0.00949381 0.00688485 0.00435611 0.00064931 0.00257722 0.00269324 -0.00391771 -0.00250651 0.00094150 0.00342994 -0.00510226 -0.00443271 -0.00739455 0.00338691 0.00129570 -0.00921191 0.00327542 0.00523221 -0.00427291 0.00005796 -0.00048532 0.00253393 0.00873334 0.01949636 0.01136477 0.00526831 0.00351375 -0.00416998 0.00366567 0.00477215 0.00047578 -0.00081561 0.00365791 -0.00025952 0.01179394 0.00548827 0.00830334 -0.00146946 0.00853398 -0.00196234 0.00128051 0.00498526 0.00565709 0.00220697 0.01186461 0.00331843 0.00704796 0.00154129 0.00814039 0.00493829 0.01029247 0.00895160 0.00399331 0.01037307 0.01319314 0.00369974 0.00893800 0.00975806 0.00424191 0.00520694 0.00222842 0.00209701 0.01535762 0.00725139 0.01590615 0.00970662 0.01404644 0.00678620 -0.00259194 -0.00806456 -0.00570266 0.01063307 0.00577058 -0.00421655 0.00020139 0.01306824 0.00334686 0.00713752 0.01089757 0.00744009 0.01406021 0.00640344 0.00066049 0.00255341 0.01104965 0.00957396 -0.00237249 -0.01215566 -0.00875753 -0.00441485 0.00304349 0.00534599 0.00833459 0.01817152 0.01166100 0.01562888 0.00436750 0.00050868 -0.00635292 0.00300738 0.01379036 0.00432619 0.00287045 -0.00340145 0.00506204 0.01135668 0.01261981 0.01752151 0.01543808 0.00707501 0.01827939 0.01677600 0.00237727 0.01314253 0.00791425 -0.00489096 -0.00477923 -0.00521681 0.00596755 0.01011960 0.00570291 0.01271408 0.01469609 0.01675004 0.00030395
-0.00141165 0.01197874 -0.01916899 -0.03241229 -0.03355348 -0.02913159 -0.01284818 0.00296275 -0.00624328 -0.00507957 -0.01030219 -0.03832214 -0.04280686 -0.03085237 -0.02400647 -0.02537648 -0.00631280 -0.00116535 0.00801481 0.01256446 -0.00080507 0.00147790 -0.00236237 -0.00791290 -0.00010535 -0.02772024 -0.02106566 -0.00843108 0.02522407 -0.00816615 -0.02241645 -0.02284802 -0.04038820 -0.01667642 0.00561096 0.02326227 0.00481288 0.01933123 -0.00759419 -0.01081541 -0.02988372 -0.02611654 -0.01723540 -0.02364036 -0.01401423 0.00006497 0.00744227 0.02338761 0.00357654 0.00697517 0.01035905 0.01076512 -0.00597727 -0.01005265 -0.02014941 -0.00782418 -0.00373785 -0.03578189 -0.04463054 -0.03540848 -0.03719688 -0.01490448 -0.01268822 0.01674087 0.01185623 0.01558555 0.00553627 -0.01039805 -0.02083551 -0.02218443 -0.02741119 -0.01686310 -0.00511743 -0.00733181 0.00961600 0.02112046 0.00857249 -0.01048137 -0.01699700 -0.02791260 -0.01503037 -0.00999268 -0.00584383 0.00851168 -0.03608782 -0.05065828 -0.06441113 -0.05508246 -0.05270023 -0.01578105 -0.00042891 0.03211433 0.03020338 0.00367874 0.00942604 0.00531447 -0.00782239 -0.03866941 -0.04028498 -0.01000320 -0.00087654 0.00888669 0.01118979 -0.00338251 0.00032466 0.00316501 -0.01544937 -0.01261230 -0.00600059 0.00020044 0.00711604 0.00609370 -0.04091202 -0.04093713 -0.06729865 -0.07141598 -0.05208173 -0.02291907 0.00142430 0.02917130 0.04307447 0.03118075 0.01022865 0.01554665 -0.01976443 -0.03412672 -0.03755732 -0.00053038 0.01538369 0.01959598 0.01650065 0.00580187 -0.01274628 -0.01181915 -0.00669252 -0.01240555 -0.02041484 0.01829332 0.00790818 0.01721429 -0.01829497 -0.04164833 -0.06163065 -0.04230638 -0.01884574 0.00412898 0.01947890 0.02452074 0.02874644 0.03953336 0.01424610 -0.01154723 -0.03467211 -0.06449106 -0.05759255 -0.00272157 0.01941675 0.01282543 0.01336939 0.00133236 -0.01220721 -0.00545686 0.01569688 0.00995380 0.01599276 0.02638356 0.02048142 0.01671719 -0.02066300 -0.05901487 -0.06081944 -0.02876695 -0.01089213 0.00581981 0.03010473 0.02591587 0.04883104 0.03894169 0.03495515 0.01258148 -0.02061132 -0.07083384 -0.04657063 0.01112005 0.02852718 0.01736454 0.00761072 -0.00763456 -0.00379808 0.00263925 0.01872861 0.00713514 0.02474282 0.04508020 0.01892876 0.02161834 -0.04050247 -0.07603560 -0.07536110 -0.04138624 0.00169266 0.00401405 0.01408884 0.02417632 0.03953116 0.04260297 0.05346538 0.00987186 -0.04151952 -0.07068963 -0.02496584 0.02676819 0.01538920 0.00722521 -0.00180466 -0.00182298 -0.00564882 0.00308625 0.00532641 0.02043958 0.02744606 0.02409629 0.01533284 0.00751820 -0.07309672 -0.07525535 -0.07502834 -0.03898259 -0.02248014 0.00589677 0.00714907 0.01517507 0.02241467 0.03828502 0.05368588 0.02848816 -0.05246687 -0.07227027 -0.01640044 0.00768307 0.00950172 0.01056648 -0.01423515 -0.00886856 0.00225263 -0.00361200 -0.00453689 0.01109828 0.00874481 -0.01564495 -0.00982010 0.00382493 -0.07042000 -0.05632599 -0.05714845 -0.04579666 -0.01855502 -0.00200753 -0.00623081 -0.00556683 0.00728827 0.02517415 0.06813782 0.05192585 -0.02642985 -0.07345901 -0.02315445 0.01943505 0.01638616 0.01175337 -0.00134640 -0.00390570 -0.01508281 -0.00500797 -0.00054179 -0.00023924 -0.00890470 -0.02661009 -0.02584188 0.00518007 -0.06287711 -0.04866417 -0.03615274 -0.02841412 -0.02221173 -0.00926290 0.00115812 0.00586450 0.00619929 0.01560258 0.07043534 0.06495648 -0.01741012 -0.04805972 -0.02794311 0.01638940 0.00271896 -0.01035711 -0.00124081 -0.01700704 0.00287681 0.00556457 0.00010741 -0.00920875 -0.02361929 -0.01529996 -0.02643559 -0.03303644 -0.04466098 -0.04817082 -0.03072460 0.00130590 -0.00680337 -0.00394447 0.00641783 -0.00389934 -0.00545646 0.01067392 0.03388903 0.06484094 -0.00489308 -0.05221643 -0.02934548 -0.00155437 0.00867715 -0.00688358 -0.00108994 -0.01368121 -0.01001348 0.00424955 -0.00246536 -0.00696664 -0.02142060 -0.03296842 -0.01484342 -0.02511136 -0.04714517 -0.02288612 -0.01425606 -0.00345883 0.00010026 -0.00243687 -0.00481349 -0.01937244 -0.00425297 -0.01098321 0.02013435 0.04513556 -0.00272404 -0.04661566 -0.01585166 0.00604787 0.00093050 -0.00618827 -0.00062971 0.00431804 -0.00561998 0.00282987 -0.00371523 0.00845978 0.00166283 -0.00571849 -0.00712069 -0.01012804 -0.02785944 -0.01350365 -0.02252373 0.00131580 0.00364530 -0.00071060 0.00422550 0.00690919 0.00386830 -0.00336715 0.00950684 0.03438940 -0.00917746 -0.04298348 -0.01770976 -0.00768746 0.00589931 0.00146649 -0.01075941 -0.00710724 0.00288132 0.00043716 0.00795393 -0.00214677 0.00027775 -0.00664663 0.00784313 -0.03227311 -0.01320522 -0.01359783 -0.00849440 -0.01778569 -0.01455295 -0.00544914 0.00353130 0.00176731 0.00370444 -0.00620703 0.01502546 0.00926598 -0.02441011 -0.01572962 -0.01927790 -0.00792436 0.00276394 -0.00987506 -0.01188441 0.00104334 0.00407032 -0.00221912 -0.00214450 -0.00247348 -0.01363960 -0.01736530 -0.00125011 -0.03007830 -0.02603308 -0.01386641 -0.01859335 -0.00332720 -0.00072042 -0.00831511 -0.00099267 -0.00844582 -0.00222950 0.00321236 0.01460369 -0.00257492 -0.01228721 -0.02479641 -0.00765966 0.00248964 0.00371999 -0.01580696 -0.00701761 0.00567612 -0.00247165 -0.00687683 -0.00755212 -0.01418026 0.00489689 -0.00496110 -0.00732877 -0.02172865 -0.01537350 -0.01740247 -0.02064176 0.00440212 0.00238406 0.00425557 0.00022459 0.00077065 -0.00826554 0.00505315 -0.00038179 0.00941544 -0.01558974 -0.01056000 0.00461986 -0.01342332 -0.00440419 -0.01729936 0.00044303 0.00556100 -0.00343964 -0.00054077 -0.00418196 -0.00698416 -0.00907682 -0.00931629 -0.00503007 -0.00783579 -0.02816504 -0.02281762 -0.01534299 -0.00060768 0.01003908 0.00511677 -0.00579815 0.00237282 0.00444346 0.00989420 -0.00804756 -0.00810496 -0.01223586 0.00054327 -0.00507730 0.00477471 0.00723695 -0.01577064 -0.01060508 -0.00740499 -0.00335697 0.00534227 -0.00650455 -0.00712471 -0.01098180 0.01292024 -0.00190216 -0.00687509 -0.00684520 -0.00093798 -0.01428653 0.00901932 0.01044455 0.01726692 0.00398739 -0.00321307 0.00436810 -0.00599486 -0.00144721 -0.00784432 -0.00547896 -0.00699105 -0.00505238 -0.00711455 -0.00377863 -0.00218149 -0.00632275 0.00266886 -0.00525283 -0.00310367 0.00562139 -0.00171599 0.00832230 0.00853397 0.01035538 0.00753191 0.01969780 -0.00024058 -0.01408816 0.00749119 0.00821545 0.00336182 0.01876434 -0.00102009 -0.00771761 -0.00037560 -0.00972878 0.00518507 0.00858071 0.00494532 0.00268764 -0.00201252 -0.00374151 0.00370739 -0.00630880 -0.01301069 0.00068833 -0.00537478 0.00749406 0.01524922 -0.00350608 0.01658395 0.01553618 0.01800801 -0.00121694 -0.00105137 -0.00261682 -0.00497770 0.00063717 -0.00951312 -0.00064830 -0.00148373 -0.00142844 0.00536955 0.00353447 0.00423576 0.01161174 -0.00392972 0.00646727 0.01155282 0.00274773 0.01134529 -0.00532516 -0.00444246 0.00857942 0.01392081 0.01576061 0.01108097 0.00913357 -0.00676014 0.00815948 0.01906013 0.00347560 -0.01095773 0.00112629 0.00563763 -0.00911631 0.00263579 0.01214465 -0.00517723 -0.00384743 0.01025825 0.00291528 -0.00240954 -0.00234249 0.00866280 0.00171156 0.00163737 0.00519957 0.00013683 -0.00185870 -0.00117706 0.00601924 0.00239907 0.00018431 0.00436262 0.00563239 0.01418809 0.01704098 0.02270007 0.00650497 -0.01417601 -0.00630588 -0.00811868 -0.01446415 -0.00987494 0.00538194 0.00220190 0.00983788 0.00095562 0.00910319 0.00381731 -0.00363887 -0.00700713 -0.00659577 0.00343030 -0.00952110 0.00158419 -0.00631217 -0.00868384 0.00719288 0.00465628 -0.00014071 0.00858217 0.01192986 0.00615850 0.00912021 0.02986567 -0.02312062 -0.00422304 -0.01168399 -0.00608773 -0.01271872 -0.00023609 -0.00600054 0.00952231 -0.00063554 0.00637633 0.00737508 0.00220677 0.01577467 -0.00351787 0.00519117 -0.01495775 0.00938312 0.00525231 0.00330950 -0.00347273 0.00600156 -0.00615417 -0.00038961 0.00859578 0.01754062 -0.00071670 -0.00157459 0.00762858 0.00044764 0.00941726 0.00340340 0.00636676 -0.01666897 -0.00054562 -0.00395742 0.00317395 0.00989623 0.00706541 0.00015357 0.01404575 -0.00059397 -0.00064635 0.02282673 -0.00965161 -0.00637442 0.00641858 -0.00209442 -0.00683534 0.00132450 -0.01934639 -0.00489670 -0.01758537 -0.02009184 0.00016305 -0.00935041 0.00986218 0.00174509 -0.00019970 0.00188212 0.01871051 0.01341803 0.00780696 0.00654806 -0.00061903 0.01635889 0.00003308 0.01279282 -0.00601177 -0.00544966 0.00671948 0.00489962 -0.00201283 -0.01126248 -0.00037550 0.00253989 0.00316270 0.00544399 -0.00494799 -0.01340705 -0.02193238 -0.01229749 -0.00534134 -0.01300673 -0.00285297 -0.00776466 -0.00528310 -0.00555060 -0.01356987 0.01033914 0.00750624 0.00941204 0.01099791 -0.00379909 0.00485728 0.00084294 0.01066306 -0.00037296 -0.00446337 0.00367664 0.00980392 0.00490022 0.01169803 0.00196183 -0.01066450 -0.01148839 -0.01284304 -0.00273443 -0.01315576 -0.01295985 -0.00846643 -0.02019121 -0.02291744 -0.00929724 0.00077805 -0.01227206 -0.01345818 0.00478243 0.00022581 0.00605984 -0.00106341 0.00956470 0.00219200 0.00897338 0.01721716 -0.00375578 -0.00407134 0.00008124 0.00035814 -0.00892068 -0.01361861 0.00454146 -0.00757625 -0.00463851 -0.00564197 -0.01716701 -0.00845050 -0.01391944 -0.01691614 -0.02583688 -0.02603886
-0.00095251 -0.00175231 0.00170622 0.01428003 0.00923832 0.00661836 0.01667807 0.00489672 0.00521429 0.00205074 -0.00682956 -0.01381938 -0.00962440 -0.01802691 -0.00440079 -0.00642777 0.00135785 -0.00516712 0.00169629 -0.00491403 -0.00726774 -0.01091409 0.00327135 -0.00559451 0.00604240 -0.00346729 0.00818225 0.00900637 0.01343031 0.02384239 0.00265429 0.00804981 0.00149205 -0.00116982 -0.00289092 0.00828945 0.00530684 -0.00194307 -0.00648106 0.00537497 -0.00108526 -0.00002559 -0.00566511 0.00266337 0.00163867 -0.00049576 -0.00611632 -0.01480786 -0.01928885 -0.01091747 0.00095656 0.00821240 0.00120367 0.00162189 0.00871414 -0.00258155 0.01771944 0.01733330 0.01200767 0.00493113 -0.00469961 -0.00418683 -0.00507741 0.00100426 -0.00011464 -0.00414177 -0.00199823 -0.00226711 0.00092566 0.00746832 0.00022803 0.00867941 0.00094880 0.00020771 0.00027460 -0.00493009 -0.01678035 -0.01865468 -0.00706700 0.00125840 -0.01053706 -0.01176429 -0.00028521 -0.01324596 0.00913274 0.00489767 0.01488242 0.00866899 0.00325088 -0.00061176 -0.00863003 -0.00140951 -0.00444025 -0.00841515 -0.00606489 -0.00898475 -0.00558850 -0.00624304 0.00096512 0.00153980 -0.00085361 -0.00045284 -0.00840337 -0.01515329 -0.02153585 -0.02017423 -0.00910092 0.00385407 -0.00015033 -0.00151794 0.00308415 -0.00648784 0.00789862 0.01499952 0.01671039 0.01754874 0.01277427 0.00494869 0.00484308 0.00214862 -0.00398355 -0.01290464 -0.01845891 -0.01233843 -0.01656493 -0.01075422 -0.00355560 0.00163405 -0.00144241 0.00004126 -0.01215868 -0.01634780 -0.01473137 -0.01068834 -0.00339612 -0.00104541 0.00987844 0.00935928 0.00797928 -0.00031099 0.00113903 0.01391313 0.02385365 0.02563470 0.01914641 -0.00066566 0.00996363 0.00379594 -0.01951541 -0.01717676 -0.02397744 -0.01630638 -0.01161918 -0.01379036 0.00527833 -0.00565040 -0.00777291 -0.00055963 -0.00500070 0.00008498 -0.00088535 -0.00786195 -0.00238067 -0.00195826 0.01319924 0.01429803 0.00873134 -0.00152069 0.00216875 0.01629992 0.01637192 0.01052081 0.00812369 0.00600023 0.00207700 -0.00476086 -0.01280386 -0.02225430 -0.03104768 -0.02607614 -0.01694958 -0.00062957 0.00493538 -0.00093368 0.00586430 -0.00329023 0.00394462 0.00539045 -0.01194902 -0.01231108 0.00198301 0.00192058 0.00727153 -0.00052272 -0.00020983 0.00289287 0.01819478 0.00523372 -0.00477694 -0.00405888 -0.00522502 0.00467735 0.00135413 -0.00020749 -0.00830405 -0.03043009 -0.03241042 -0.03094152 -0.01589449 -0.00366627 0.00252885 0.00131697 0.00284437 0.00318833 0.00494077 -0.00442966 0.00094670 -0.00819532 -0.00071729 0.00372340 0.00055899 0.00846452 0.00092846 -0.00514796 0.00872810 0.00159117 -0.00888441 -0.00798997 -0.00398172 0.00645327 0.00871351 0.00344532 -0.01276472 -0.02580049 -0.03916702 -0.03717647 -0.02987228 -0.00635595 0.00755138 0.00575976 0.00409606 0.00100112 0.00469809 -0.00310430 -0.00800100 -0.00047008 0.00122016 0.00296085 -0.00205060 0.01035451 0.01218035 0.00434518 -0.00136711 -0.00261546 -0.00662063 -0.00453441 -0.00588214 0.00723832 0.00520816 0.00288355 -0.00841700 -0.02342530 -0.03733569 -0.03894947 -0.01715562 -0.00098147 0.00967385 0.00805331 0.00310674 0.00481678 0.00081205 0.00538303 0.00435644 0.00495305 -0.00039464 0.01192051 0.01304770 0.00741641 0.01308421 0.01229352 -0.00350156 -0.00650998 -0.01034956 -0.00669476 -0.00292937 -0.00281384 0.00273761 0.00295314 -0.00484516 -0.01601156 -0.03795443 -0.03820455 -0.02284021 -0.00533726 -0.00035096 0.00327869 0.00555374 0.01068917 -0.00100503 -0.00369443 -0.00160484 0.00141780 0.00210861 0.01041178 0.00572413 0.00569119 0.01082002 -0.00112699 0.00132931 0.00409393 -0.00428325 -0.00620794 -0.00440904 -0.00314684 -0.00234690 -0.00402845 -0.00121941 -0.01796251 -0.03614269 -0.02676496 -0.01626255 -0.00728883 -0.00273024 -0.00419936 0.00088245 -0.00175424 -0.00888572 -0.01977721 -0.02089512 -0.02052849 -0.01578882 -0.01524353 -0.01658220 -0.01165087 -0.01062131 -0.01873051 0.00387070 0.00038654 -0.00793179 -0.00074466 -0.00503478 -0.00449640 -0.00145439 0.00231964 -0.00102638 -0.02208235 -0.02980245 -0.02542978 -0.01064941 -0.00872562 -0.00498556 -0.00068693 0.00102045 -0.00327640 -0.01850035 -0.02385747 -0.02988442 -0.03945811 -0.03479513 -0.02895693 -0.03331772 -0.03838988 -0.03305153 -0.03232218 -0.00510390 -0.00826814 -0.00747307 -0.00116423 -0.00568049 -0.00500448 -0.00341992 -0.00139687 0.00186647 -0.00530777 -0.02009202 -0.01200199 -0.00912524 -0.00792152 -0.00718995 -0.00695035 0.00150853 -0.00483317 -0.01717495 -0.02266737 -0.03211005 -0.02522746 -0.03527687 -0.03478178 -0.03109956 -0.03381454 -0.03722605 -0.04490107 0.00088136 -0.00270386 -0.00748198 -0.00613196 -0.01893651 -0.00734699 -0.00872348 -0.00373105 -0.00423004 -0.00477018 -0.00087946 -0.00271598 0.00102857 -0.00965122 -0.00847673 0.00011098 -0.00250225 -0.00521502 -0.00266447 -0.00919206 -0.01081058 -0.02400641 -0.02009822 -0.02548319 -0.02792624 -0.02651157 -0.03765475 -0.04475052 -0.00895072 -0.00847341 -0.00163874 0.00079322 -0.01240657 -0.01020958 -0.00165351 0.00391567 -0.00095226 0.00713871 0.00254681 0.00128824 -0.00008845 -0.00239496 0.00142207 -0.00484780 0.00019912 0.00364905 -0.00430030 -0.01463772 -0.01166650 0.00117170 -0.01354285 -0.00808499 -0.00568993 -0.02587360 -0.02315116 -0.02948167 -0.00366745 -0.00153785 0.00063657 -0.00260708 0.00230859 -0.00188863 0.00969227 0.01630748 0.00632053 0.01246728 0.00958862 0.00200250 0.00432243 -0.00197161 -0.00621249 -0.00006042 -0.00172105 -0.00447686 -0.00285276 -0.00253713 0.00057318 -0.00509374 0.00420935 -0.00601068 -0.00386279 -0.00425541 -0.01708967 -0.01384752 -0.00695000 0.00804257 0.00624663 0.01046693 0.00652678 0.00732633 0.01053349 0.01278844 0.00056373 0.00620014 0.01377417 0.00980829 0.00789602 0.00428020 -0.00638027 -0.00423596 -0.00045686 -0.00457976 0.00079519 -0.00179188 -0.00149843 0.00143358 -0.00162543 -0.00525954 0.00268492 -0.00436083 -0.00905782 -0.00976478 -0.00010047 0.00795059 0.01243735 0.01215808 0.00408876 0.01153347 0.00294462 0.01201913 0.00082612 0.00280132 0.01053061 0.00642053 0.00510956 0.00163624 0.00394882 -0.00162474 -0.00159657 0.00254084 -0.00385030 0.00356843 -0.00139039 -0.00521624 -0.00904682 -0.00771678 0.00299675 0.00268542 0.00247241 -0.01450746 0.01009895 0.01329206 0.00919658 0.00721557 0.00311802 0.00679157 0.00315452 0.01051481 0.00104386 0.00275191 -0.00169920 0.00642928 0.00081153 0.00625479 0.00623968 0.01063475 0.00374918 0.00629128 0.00832300 0.00548999 0.00622968 0.00199156 0.00923761 0.00070789 -0.00259394 0.00377486 -0.00494382 -0.00871746 -0.00180041 0.00711891 0.01436262 0.00299462 0.00187341 -0.00068622 0.00727539 -0.00061719 0.00318149 -0.00049599 -0.00126385 0.00060509 0.00264918 0.00232651 0.00331756 0.01078980 0.01004281 0.01458516 0.00418409 0.00833777 0.00699315 0.00638286 0.00494470 0.00413925 0.00482971 0.00751281 0.00735343 -0.00112317 0.00542539 0.00798366 0.01006200 0.01114890 0.00310598 0.00676177 -0.00040225 0.00735039 -0.00020809 0.00577121 0.00143947 0.00422414 0.00227040 -0.00274261 -0.00364068 -0.00341372 0.00335285 0.01064481 0.00713434 0.00102910 0.00058769 0.01503543 0.01029084 0.00776749 -0.00465966 0.01057103 0.01205044 0.00273542 0.00099304 0.00417127 0.00707139 0.00978615 0.00596356 0.00216580 0.00492406 0.00538375 -0.00118049 0.00313087 -0.00004810 0.00147281 -0.00457811 -0.00279152 0.00549482 -0.00472288 0.01155862 0.00048452 0.00257927 0.00531598 0.00496512 0.01187801 0.01865861 0.00206070 0.00395725 0.00766109 0.01359607 0.00464487 -0.00428023 0.00898094 0.00223423 0.00000817 0.00229958 -0.00452407 -0.00175233 -0.00528902 0.00843624 0.01420869 0.00067019 0.00065953 0.00423250 -0.00528292 -0.00189693 0.00161883 0.00292973 -0.00339673 0.00359514 0.00321460 0.00463378 0.00402949 0.00121304 0.00210121 0.00260312 0.00346495 0.00109807 0.00157449 0.00649681 -0.00395325 -0.00460367 -0.00647740 -0.00472417 0.00918445 0.00628560 0.00189331 -0.00035817 0.00373252 -0.00563688 0.00406655 -0.00842255 0.00140268 0.00107066 0.00299715 -0.00218268 0.00296013 -0.00259862 -0.00127932 0.00091645 0.00030831 0.00045651 -0.00319135 -0.00700678 0.00421309 0.00559767 0.00406913 0.00131231 -0.01145544 -0.01034299 -0.01541587 -0.01501387 -0.00058176 0.00506275 -0.00468499 -0.00081507 -0.00763231 0.00679485 0.00050064 0.00163014 -0.00231749 0.00395212 -0.00050851 -0.00176162 -0.00177036 0.00014387 -0.00359948 0.00675720 0.00693308 0.00340980 0.00250036 0.00000414 0.00067327 0.00832474 0.00622929 0.00763060 -0.01012067 -0.01726758 -0.01065147 -0.00314475 -0.00787090 0.00529888 -0.00680423 -0.00989778 0.00000003 0.00185520 -0.00466295 -0.00898773 0.00158515 0.00546380 -0.00567196 -0.00039149 -0.00193621 -0.00124706 0.00147217 0.00183836 -0.00723773 0.00060911 0.00016824 -0.01043694 -0.01539095 -0.00591785 0.00528180 -0.00554144 0.00066863 -0.00627366 -0.00155222 0.00033870 0.00076865 0.00537370 0.00078234 0.00087336 -0.00063482 -0.00445536 -0.00330283 -0.00038347 0.00050992 -0.00734953 -0.00100047 -0.00754421 -0.00930252 -0.00772304 -0.01000012 -0.01071147 -0.00264800 -0.00263405 0.00085788 -0.00062510 0.00079954 0.00835267 0.00638663
-0.01556844 -0.00697286 0.00053390 -0.00107221 0.00111814 0.00395915 -0.00920487 0.01167910 0.01532023 0.02466304 0.03014521 0.02990627 0.01799898 0.01483219 0.01828621 0.01140241 0.01074502 0.00612390 -0.00239341 0.00906359 0.01459719 0.02599164 0.01606562 0.01179182 0.01407410 0.01469930 0.01737878 0.01088282 -0.00415298 -0.00360770 0.00088457 0.00874159 -0.00137041 0.00395671 -0.00028176 -0.00566343 0.01160650 0.01902008 0.02444726 0.00998428 0.01289197 0.01504919 0.01061611 0.01708867 0.00014732 0.00212324 0.00649062 0.01510114 0.02047640 0.01043157 0.01470948 0.01970855 0.01880968 0.02051139 0.02672131 0.00708370 -0.00337147 0.00107510 -0.00300073 0.00448132 -0.00007669 -0.00878242 -0.00635644 0.00624692 0.01441978 0.01113538 0.01880073 0.01239302 0.01377598 -0.00077632 0.00263874 0.00648602 -0.00311744 -0.00114937 0.01216900 0.00653887 0.01633643 0.00321749 0.00021809 0.01198763 0.02215326 0.01017674 0.00471040 -0.00395171 -0.01540149 0.00130013 -0.00121791 0.00105043 -0.00902369 -0.00836021 0.00076171 0.00344393 0.00886107 0.00739608 0.00963810 0.01236811 0.00495797 -0.00005501 -0.00313349 -0.00029127 0.00094176 0.00520124 0.00315152 -0.00371461 -0.00034549 0.00815449 0.01040218 -0.00408399 0.00961459 0.00988439 0.00740923 0.01523481 -0.01763724 -0.00270601 -0.00410906 -0.00527089 -0.02471175 -0.00797823 -0.00198225 0.00776029 0.00317104 0.00083733 0.01060330 0.00466403 0.00408005 0.00189515 -0.00082465 -0.00940997 -0.00262448 0.00026516 -0.00132177 0.00211472 -0.00992534 -0.00502394 -0.01095315 -0.00861553 -0.00359620 -0.00597826 0.01417364 0.01676742 -0.02832245 -0.01958022 -0.00883250 -0.00550313 -0.02345963 -0.01488036 0.00045113 0.00035398 0.00714865 0.00861460 0.00572336 -0.00802140 -0.00164018 -0.00760884 -0.01289131 -0.00754043 -0.00841447 -0.01360245 -0.00038602 -0.00753648 -0.00439345 -0.00713983 -0.01463123 -0.02109602 -0.01591499 -0.00506485 0.00260414 -0.00218897 -0.02010289 -0.00252187 -0.00228576 -0.01780861 -0.02630030 -0.01300038 -0.01061763 0.00439650 -0.01047976 -0.00238401 0.00391894 -0.01006944 -0.00994961 -0.01537183 -0.00179277 -0.01203237 -0.00316396 -0.00147919 -0.00262075 -0.01587895 -0.01370143 -0.01136737 -0.01367536 -0.01744948 -0.01425920 -0.02157859 -0.01124941 -0.00412592 -0.01228360 -0.00260525 -0.00373996 0.00069838 -0.02420432 -0.01358918 -0.01734585 -0.00498465 -0.00933280 -0.00621729 -0.00185913 -0.00335166 -0.01165747 -0.01092132 -0.00746924 -0.00993297 -0.00585707 -0.01212769 -0.01393015 -0.01258280 -0.01191702 -0.00781340 -0.01581250 -0.01266893 -0.01675864 -0.01637020 -0.00704585 -0.00609700 -0.00458036 0.00202546 0.00024182 -0.00050536 -0.01053489 -0.01238564 -0.01060733 -0.00782655 0.00051934 -0.00398845 0.00442681 -0.00534265 -0.01413514 -0.00389327 -0.00443084 -0.00628803 -0.00388649 0.00103142 -0.01516640 -0.00851345 -0.00726141 -0.00280315 -0.00499291 -0.01130296 -0.00651298 -0.01128647 -0.01495098 -0.00929972 0.00364134 0.00938017 0.00142644 -0.00415208 0.00798880 -0.00261796 -0.00831309 -0.00823076 -0.00045217 0.01044108 0.01172015 -0.00732585 -0.00699339 -0.00093425 0.00534845 -0.00600532 0.00277036 -0.00397243 -0.00224805 -0.00333292 -0.00272742 -0.01126106 -0.01097875 -0.00022800 0.00317753 -0.00902284 0.00358694 0.00081707 0.00389475 0.00039294 0.00547771 0.00085963 0.01362149 0.00685002 -0.00103177 0.00371418 0.00621054 0.01494843 0.01561185 0.00801628 -0.00612372 0.01138134 0.01272197 0.01308299 0.00822033 -0.00316573 -0.00036403 0.00264522 0.00389943 0.00586689 0.00350654 -0.00055363 0.00598645 0.00851632 0.00541299 0.01485653 0.00734150 -0.00456706 -0.00468862 0.00650141 0.01890274 0.00277835 -0.00247538 0.00864767 0.01176535 0.02073353 0.02530513 0.00978192 0.00867427 0.00805395 0.01255061 0.01857848 0.00089045 0.01021505 0.00470662 0.01628520 0.00785036 0.00455493 0.00991302 0.00099809 0.01434317 0.01393538 0.02398590 0.02913321 0.01267464 0.00014945 -0.00842736 0.01380519 0.02021473 0.01646708 0.00678649 0.00433076 0.01901414 0.01787373 0.01612560 0.00506162 0.00374726 0.01770233 0.01542841 0.00958811 0.02161778 0.00956797 0.02020935 0.01642372 0.02202380 0.01014094 0.00841288 0.00605273 0.01527406 0.01700733 0.03482779 0.02282306 0.02330346 0.01019288 0.01216626 0.01682269 0.01206511 0.01484073 0.00251935 0.00628662 0.00860417 0.01313440 0.00337491 0.00432388 0.00483298 0.01581492 0.01593680 0.01263965 0.01485608 0.02076648 0.02006013 0.02025809 0.02246326 0.01855460 0.00719898 0.01225176 0.01718409 0.01395443 0.03420546 0.01637349 0.02976135 0.01658056 0.00894260 0.00309240 0.01457618 0.00632631 0.00565294 0.01044395 0.00817789 0.01069161 -0.01024540 -0.00121986 0.00349083 0.00772587 0.00965992 0.00879078 0.00889899 0.00767759 0.00815140 0.01523014 0.02009455 0.02418909 0.01910065 0.01751290 0.01272791 0.00488574 0.02020775 0.01509565 0.02358962 0.02033900 0.00637366 0.00622193 0.01363070 -0.00049130 0.00846859 0.01358725 0.01160183 0.00030818 -0.00201791 -0.00743912 -0.00355339 -0.00167736 0.00547229 0.00434171 -0.00122068 -0.00542098 0.00198413 0.00956904 0.01042314 0.01986899 0.02504261 0.01429239 0.00739577 0.00679846 0.02248059 0.02226952 0.02158406 0.00450515 0.01198770 0.00954182 0.01284764 0.00751256 -0.00213332 0.00427368 0.00032704 -0.00290054 0.00146244 -0.00535428 -0.00829398 -0.00802614 -0.00392964 -0.00510738 -0.00317659 0.00025765 0.00388620 -0.00123734 -0.00100842 0.01641209 0.01320964 -0.00182424 -0.00500097 -0.01096395 0.00058912 0.01122277 0.00742839 -0.00696822 -0.00412072 0.00009861 -0.00712107 -0.00124380 -0.00453301 0.00238313 -0.00946200 -0.00639751 -0.00636984 -0.01412936 -0.00270667 -0.00848689 -0.01272368 -0.02073597 -0.01596035 -0.01740976 -0.01681618 -0.01224712 -0.01971244 -0.01714718 -0.01764637 -0.01434507 -0.02446828 -0.01435877 -0.00893036 0.00267525 -0.00010266 -0.00321118 -0.00547646 -0.00078371 -0.01990278 -0.02245644 -0.00939185 -0.01636524 -0.00795654 -0.00715504 -0.00593742 -0.01373250 -0.02014100 -0.01354440 -0.01885819 -0.02163549 -0.02323852 -0.01761795 -0.02075773 -0.02264950 -0.01443842 -0.02887776 -0.02428695 -0.02969394 -0.04186630 -0.02463257 -0.02008163 -0.00190220 -0.00566781 -0.01095051 -0.01443289 -0.01594913 -0.01442166 -0.02619564 -0.01340311 -0.01416840 -0.01600481 0.00010526 -0.00381774 -0.01122179 -0.01816067 -0.01052999 -0.01974038 -0.00930305 -0.00976318 -0.02252378 -0.01174043 -0.02310281 -0.01848900 -0.02370777 -0.02629016 -0.02827234 -0.02668635 -0.02455855 -0.02530800 -0.01007035 -0.00703127 -0.00242456 -0.01111261 -0.00819763 -0.01995200 -0.01907863 -0.01191582 -0.01200407 -0.01198882 -0.00923084 -0.00266257 -0.00821039 -0.01015283 -0.00375224 -0.00447391 -0.00870033 -0.01742361 -0.00876051 -0.01239966 -0.01330964 -0.01266096 -0.01509051 -0.01917636 -0.02910504 -0.01553833 -0.02235216 -0.00880972 -0.00525123 0.00270417 -0.00514436 -0.00789860 -0.01060820 -0.01279137 -0.01331472 -0.01292449 -0.01722962 -0.00583027 -0.01196215 -0.01335287 -0.01461021 -0.00820189 -0.00833415 -0.00839000 -0.01112260 -0.00938864 -0.00247173 -0.00152544 -0.01198578 -0.00638738 -0.01031880 -0.00462699 -0.01373718 -0.00826117 -0.01574646 -0.01313307 -0.00353230 0.00512731 -0.01663785 -0.01534302 -0.01084686 -0.02253378 -0.01544390 -0.01558800 -0.00950762 -0.02005761 -0.00841017 -0.01312960 -0.01207122 -0.01014378 -0.01621119 -0.00568480 -0.00244714 -0.00354780 0.00028320 -0.00415946 0.00030677 0.00137740 0.00770257 0.00912293 0.00455847 -0.01074013 -0.01162613 -0.01948746 0.00361419 -0.00863631 -0.02015942 -0.01089014 -0.01821413 -0.02069039 -0.01387325 -0.01007974 -0.00811288 -0.01604534 -0.01970862 -0.01357062 -0.01860293 -0.01318073 -0.00135916 -0.00323519 -0.00798367 -0.00873247 0.00376627 -0.00134196 -0.00642693 0.00319286 0.00268359 0.00380033 0.00792738 -0.00659633 -0.00585946 -0.01237400 -0.00124838 -0.01007237 -0.01552741 -0.01473215 -0.02025187 -0.01832662 -0.00987125 -0.00739276 -0.01405179 -0.00867670 -0.01450315 -0.00518866 -0.00817464 -0.00651592 -0.00935064 -0.00687131 -0.00597638 -0.00393761 -0.00662428 -0.00226687 -0.01505791 0.00230088 0.00774896 0.00866330 0.00608818 -0.00224465 0.00631232 -0.00078665 0.00510696 -0.00408480 -0.02209319 -0.01888963 -0.01892641 -0.01123468 0.00136380 0.00002310 -0.00703651 -0.00334559 -0.00060515 -0.01094515 -0.01195857 -0.00655758 -0.01013025 0.00396542 -0.00315662 -0.01327324 -0.00139754 -0.01142139 0.00301130 0.01007034 0.01001720 0.00433063 -0.00603279 0.00028336 0.01297558 0.01491243 0.00834699 -0.00778136 -0.02717642 -0.02937329 -0.01175666 -0.01710737 -0.00068207 -0.00502052 0.00573583 0.00457857 -0.00424254 -0.00674131 -0.00059478 -0.00199840 -0.00246731 0.00066989 -0.00072103 -0.00746883 -0.00798398 -0.01047880 -0.00359109 0.00993668 0.00006629 -0.00639414 -0.01229780 0.00326179 0.01330171 0.00693576 0.00662771 -0.00321527 -0.01509435 0.00323945 -0.00512531 -0.00637546 -0.00068674 -0.00090912 -0.01147926 -0.00278076 0.00400191 -0.00104020 -0.00233001 0.00349421 0.00194227 0.00415032 0.00039359 -0.00494901 0.00054493 -0.00093317 0.00386193 0.00265266 -0.00437061 -0.00242120 -0.00435795 0.00338403 0.01567383 0.00077305 -0.00515748
-0.00043121 -0.00100843 -0.00300873 0.00226801 -0.00089221 0.00124061 -0.01050567 -0.01350271 -0.01457024 -0.01330337 -0.00825819 -0.01304915 -0.00463146 -0.00047235 -0.01432282 -0.00786152 -0.01514861 -0.01131406 -0.01005213 0.00765279 0.00564640 0.00782579 0.00476820 0.00667819 0.01353244 0.00916188 0.00761799 0.01353487 0.00263045 0.00003450 -0.00582024 -0.00081409 0.00506313 -0.00477098 -0.00798463 -0.00900220 -0.01795686 -0.01300943 -0.01069844 -0.00015391 -0.00466886 -0.00042397 -0.00724571 -0.01332282 -0.00982666 -0.00910683 -0.00755059 0.00401168 -0.00112323 0.00275968 0.01462519 0.00703789 0.00577646 0.01088070 0.00546329 0.00069557 -0.00695642 0.00033307 0.00217504 0.00124295 -0.00851244 -0.01562328 -0.01857780 -0.02764119 -0.02391111 -0.01448791 -0.00613169 -0.00345251 -0.00872123 -0.00493506 -0.00199919 -0.00685742 -0.00705346 -0.00355952 -0.00529044 0.00243701 -0.00166813 0.00129011 0.01415323 0.01594233 0.00933081 0.00406808 0.00274158 0.00179252 -0.00593920 0.00070838 -0.00695490 -0.00590687 -0.00362386 -0.00964800 -0.02165047 -0.02754601 -0.01897913 -0.01882838 -0.00076444 -0.00321148 0.00260831 -0.00038970 -0.00378621 -0.00835580 -0.01038561 -0.00148409 -0.00495180 0.00010025 0.00380354 -0.00201351 0.01271536 0.00962671 0.01073458 0.01039388 0.00626684 0.00637458 0.00277797 0.00453079 -0.00089176 -0.00296183 -0.00004332 -0.01759808 -0.01676049 -0.02639406 -0.03021608 -0.01230711 -0.00424845 0.00195369 0.00425222 0.00159976 -0.00650659 -0.00701709 -0.00544395 0.00404745 -0.00133456 0.00639040 -0.00129538 0.00642931 0.01026504 0.01660764 0.01551506 0.00971211 0.00274539 0.00357104 0.01469704 0.00529941 0.00122593 0.00323069 -0.00300213 -0.01393409 -0.02232669 -0.02549906 -0.02741869 -0.01526433 -0.00387874 0.00987418 -0.00155860 -0.00426928 -0.00329043 -0.01057847 -0.00654010 -0.00228319 0.00331814 0.00135877 0.01207072 0.00254726 0.00051448 0.00482922 0.00266459 0.00495905 0.00661718 -0.00750822 0.01039781 -0.00119579 0.00610729 -0.00469181 -0.00949407 -0.01204682 -0.02364015 -0.03545319 -0.03569306 -0.01490171 0.00160167 0.00597607 0.00388544 0.00018735 -0.00865309 -0.01190264 0.00049954 0.00897628 0.00600028 0.00734150 0.00579787 -0.00000109 -0.00817483 -0.00772247 -0.00338020 0.00490001 0.00042615 0.00816050 0.00631981 0.00386573 0.00956800 0.00363784 -0.00765282 -0.01695908 -0.02607710 -0.03518428 -0.04212489 -0.01799047 0.00862918 0.00280250 -0.00040221 0.00462294 -0.00139544 -0.00942991 0.00193442 0.00224692 0.00780957 0.00462620 -0.00451276 -0.00982007 -0.00956541 -0.00520120 -0.00501257 0.00598084 0.01129971 0.00059350 0.00881009 0.01179654 0.00769499 -0.00132513 -0.00424747 -0.01934027 -0.03413257 -0.03979095 -0.04192811 -0.01745246 0.00384290 0.01527614 0.00507762 0.00011481 0.00013044 -0.00381814 -0.00148880 -0.00541357 -0.00021723 0.00016193 -0.00719123 -0.00678939 -0.00579704 -0.00574430 -0.00413921 -0.00093371 0.00814169 -0.00148217 -0.00037965 0.01041806 0.01123384 0.00749046 -0.00818958 -0.01791552 -0.02423491 -0.03928240 -0.03637958 -0.02067638 -0.00054483 0.00742855 0.01705332 0.00874163 -0.00128959 0.00006453 -0.00452796 0.00232738 -0.00260793 -0.00028891 0.00267312 -0.00433721 0.00157225 0.00329410 -0.00253005 0.00469146 -0.00218222 -0.00262861 -0.00073716 0.01086319 0.00086598 0.00520483 -0.00601933 -0.01637687 -0.02555339 -0.04678553 -0.03760059 -0.02019232 0.00508442 0.01615210 0.01638324 0.01273348 -0.00495806 -0.00676499 -0.01030857 -0.00125487 -0.00492360 -0.00121790 0.00330146 -0.00407602 0.00413775 0.00321211 -0.00045463 -0.00071345 -0.00564227 0.00442611 0.00439770 0.00226294 0.00572289 0.00744443 -0.00600943 -0.00619730 -0.02595322 -0.04574591 -0.03392934 -0.01527228 0.00378822 0.01848928 0.02007385 0.02321698 0.00678079 0.00198141 -0.01040322 -0.00982425 -0.00205639 0.00181705 0.00539463 -0.00316861 0.00878917 -0.00355309 0.00242271 -0.00256239 -0.00254770 0.00180330 -0.00160072 -0.00241511 0.00370962 0.00581241 0.00342890 -0.00731427 -0.02945350 -0.04135525 -0.02764111 -0.01111242 0.00433686 0.01384822 0.01898711 0.01667436 0.01737462 0.00132561 -0.00949300 -0.01064614 -0.01176875 -0.00148918 0.00276617 0.00311342 0.00860032 0.00569552 0.00610990 -0.00490820 0.00410063 0.01549946 -0.00512079 0.00281452 -0.00440596 -0.00169859 -0.00272397 -0.00998982 -0.02004900 -0.02776589 -0.01670133 -0.00037552 0.00885893 0.01482973 0.01285151 0.02084026 0.01571911 0.00439155 -0.01315657 -0.01006989 -0.00549754 -0.00658981 0.00969597 0.01262473 0.00930341 0.00746407 0.01420618 0.00790764 0.01213832 0.02113569 0.00473782 -0.00021554 -0.00346378 -0.00168597 0.00051740 0.00074377 -0.00974269 -0.01858193 -0.00755393 -0.00820450 0.00411547 0.00796226 0.01087247 0.02204666 0.01544149 0.00387334 -0.00722919 -0.00533001 -0.00568832 0.00006126 -0.00195802 0.00140559 0.00396511 0.01141554 0.01115292 0.01415553 0.00650688 0.02077521 -0.00291116 0.01204201 -0.00304588 0.00040185 0.00623660 0.00371739 -0.00411668 -0.00860196 -0.01046153 0.00531182 0.00279296 0.00906965 0.00708880 0.00856716 0.00942850 -0.00539795 -0.01008874 -0.01307218 0.00098185 -0.00216327 -0.00195820 -0.00184224 0.00435740 0.00037596 0.01297255 0.00679811 0.00380710 0.00754287 -0.01079616 0.00352709 -0.00538403 -0.00571931 -0.00435809 -0.00043730 -0.00302165 -0.00411014 0.00046484 0.00363298 0.00248564 0.00539102 0.01184370 0.00701284 0.00467971 0.00297780 -0.00256379 -0.00749818 -0.00469296 -0.00402534 -0.00779234 -0.00485069 -0.00091288 -0.00082540 -0.00326736 0.00660515 -0.00687472 0.00168372 -0.01226926 -0.00673253 -0.00617060 -0.00444797 -0.01059361 -0.00933368 -0.00990920 -0.00034534 0.00079738 0.00056326 0.00163409 0.00078911 0.00200921 0.00339685 -0.00141486 -0.00417211 0.00136696 -0.00567196 -0.00552352 -0.00574490 -0.00070204 -0.00443351 0.00269915 -0.00261855 0.00134546 0.00271286 0.00086004 -0.00280287 -0.00221936 -0.01121521 -0.01130131 -0.00602277 -0.00319561 -0.00481570 -0.00262794 -0.00284970 0.00025008 0.00651948 -0.00282253 0.00520812 0.00318002 -0.00285745 -0.00491215 -0.00781078 0.00074227 -0.00502281 -0.00475020 -0.00115053 -0.00204805 0.00065194 -0.00022748 -0.00102621 0.00557766 -0.00299877 -0.00845959 -0.00422199 -0.00144992 -0.01111675 -0.00924732 -0.00699921 -0.00604866 0.00078221 -0.00198024 0.00247374 -0.00136231 0.00038217 -0.00239005 0.00219798 -0.00088441 -0.00198423 -0.00503567 -0.00008568 0.00138025 0.00216358 -0.00250184 0.00279915 -0.00404372 -0.00325757 -0.00157943 -0.00144204 0.00168388 0.00025286 -0.00022061 -0.01337433 -0.00558623 -0.00832671 -0.01014952 -0.01786738 -0.00871595 -0.00560387 0.00222431 0.00456696 0.00001789 0.00249353 -0.00057572 0.00243080 0.00049725 -0.00090492 0.00278179 0.00224867 -0.00021843 0.00280552 -0.00288689 -0.00208096 -0.00036991 0.00316512 0.00065741 0.00387571 -0.00484098 -0.00368718 -0.00274180 -0.00436871 -0.01530467 -0.01207098 -0.01401227 -0.00617220 -0.01081918 -0.00396646 0.00181196 0.00039725 0.00257973 -0.00067947 -0.00500917 -0.00174869 -0.00385310 -0.00461931 0.00624846 0.00111708 0.00741091 0.00303826 0.00175805 0.00079505 0.00003574 0.00205430 -0.00435765 -0.00717879 -0.00204533 0.00681549 -0.00281170 -0.00796540 -0.00816878 -0.01677462 -0.01956099 -0.00621653 -0.00408959 -0.00200642 -0.00603775 -0.00442377 -0.00545275 -0.00262540 -0.00112196 0.00580905 -0.00518320 -0.00312360 0.00066901 -0.00223561 0.00203980 0.00671163 0.00715016 0.00244061 -0.00082779 -0.00612545 -0.00361439 -0.00317391 -0.00541813 -0.00431133 0.00311099 -0.00599440 -0.00113385 -0.00696966 -0.01021427 -0.01376160 -0.01202386 0.00312440 -0.00314252 0.00689109 -0.00088019 -0.00510776 -0.00368940 -0.00333579 0.00252571 -0.00129755 0.00016672 -0.00162593 0.00676958 0.01034769 0.00075767 0.00716690 0.00482230 0.00485905 0.00529702 -0.00190562 -0.00270510 -0.00481480 0.00147491 -0.00491429 -0.00665882 -0.00179480 -0.01104188 -0.01585960 -0.01921458 -0.00878516 0.00146817 0.00202409 0.00781397 -0.00059892 0.00341107 0.00200724 0.00595191 -0.00502337 -0.00169671 0.00271037 0.00308287 -0.00062726 0.01043946 0.00563026 0.00588471 0.00509739 0.00123584 0.00105362 -0.00850227 -0.00825853 -0.00950311 -0.00584786 -0.00148081 0.00021353 -0.00330534 -0.00466208 -0.01051227 -0.00515371 0.00239203 0.00808248 -0.00013834 -0.00051042 0.00349992 0.00442951 0.00158646 -0.00269549 -0.00886997 0.00160841 -0.00035603 0.01012183 0.00844415 0.01067429 0.00578921 -0.00267020 0.00547645 0.00229258 0.00307328 -0.00488414 -0.00860750 -0.01315126 0.00188715 0.00209338 -0.00455177 -0.00558298 -0.00310923 -0.00340011 -0.00087105 0.00242568 0.00187752 0.00189788 0.00179789 0.00238038 0.00077964 0.00337701 0.00563851 -0.00143830 -0.00300284 0.00577745 0.01091431 0.00226882 0.00407352 0.00568201 0.00282118 -0.00283559 0.00102415 -0.00764652 -0.00816552 -0.00782392 0.00205118 0.00249196 0.00243205 -0.00733204 -0.00454629 -0.00728532 -0.01399602 -0.01177284 -0.00837492 -0.00126635 -0.00138885 -0.00121465 0.00231779 0.00356670 0.00179974 -0.00306442 -0.00129971 -0.00151251 0.00104294 -0.00370440 0.00085528 0.00262320 -0.00345184 0.00066460 -0.01021250 -0.00900988 -0.01027259 0.00084216
-0.00591103 0.00824020 0.01041257 -0.00038931 -0.00876119 -0.00809722 -0.00608962 -0.00727065 0.00206254 0.00793241 0.00131508 0.00812700 0.01335079 0.00821776 0.00227060 -0.00365809 -0.00150705 -0.00743786 -0.00157335 -0.00381839 -0.00493519 -0.00634101 0.00018812 -0.00668932 -0.00070087 0.00047867 -0.00450854 -0.00794381 -0.00257871 0.01618004 0.01078005 0.00657806 -0.00712930 -0.00671277 -0.00388873 0.00498481 0.00167079 0.00296842 -0.00197327 0.00343392 0.00151836 0.00415036 0.00141406 0.00095005 -0.00650271 -0.00258487 0.00667078 0.00411086 0.00442367 -0.00085929 0.00674347 0.00371686 0.00228949 0.00125196 0.00062903 -0.00345585 0.00213046 0.00519223 -0.00228201 -0.00014641 -0.00073353 0.00160239 0.00250837 0.00029678 0.00079320 0.00449878 -0.00036087 -0.00099728 -0.00140778 -0.01018372 -0.00179832 -0.00137885 -0.00021068 -0.00354256 -0.00134146 0.00276694 0.00641835 0.00713752 0.00870362 0.01261952 -0.00131784 -0.00922085 0.00156427 0.00490811 0.00723434 0.00682045 0.00723077 0.00319183 -0.00405437 0.00294477 0.00511290 0.00623297 0.00677758 -0.00006141 -0.00486781 -0.00273491 -0.00517172 -0.00587203 0.00062082 -0.00572995 0.00207942 -0.00590601 -0.00390178 0.00089382 0.00414851 0.00832273 -0.00214267 0.00780242 -0.00493343 -0.00826621 -0.00173181 0.00564311 0.00937230 0.00390086 0.00170299 -0.00873847 -0.00382839 -0.00311698 0.00096846 0.00318393 0.00580906 -0.00036783 0.00561158 0.00040795 -0.00277469 0.00296338 -0.00309219 -0.00172080 -0.00649630 -0.00158536 -0.00716272 0.00126983 -0.00124869 0.00269377 0.00367369 0.00378600 -0.00367615 -0.01188931 -0.00664124 -0.00759151 0.00988683 0.00061719 -0.00495202 -0.00694842 -0.00698977 -0.00237053 -0.00126170 -0.00145083 0.00649278 0.00192881 0.00360256 0.00634496 0.00295681 0.00034027 -0.00660953 -0.00083722 0.00132235 -0.00343272 -0.00018752 -0.00288211 -0.00371936 0.00444767 0.00349893 -0.00464176 -0.00566501 -0.01199811 -0.01245596 -0.01532827 0.01242047 -0.00329631 -0.00252986 -0.00625963 -0.00009454 -0.00473037 0.00716237 0.00799572 0.00332022 0.00775054 0.00114878 0.00485926 0.00050011 0.00434265 0.00043878 0.00023492 -0.00012260 -0.00072201 0.00119445 0.00381066 -0.00464314 -0.00248967 -0.00261223 -0.00861700 -0.00754263 -0.00990543 -0.00761242 -0.00647132 -0.00184335 -0.00502870 -0.00078027 0.00094741 0.00048316 -0.00150790 0.00060997 0.00107502 0.00186061 -0.00050713 0.00548977 -0.00079033 -0.00252326 0.00053379 -0.00090108 -0.00024021 0.00298715 -0.00213770 0.00422922 0.00521686 0.00327668 -0.00527713 0.00079847 -0.00275183 -0.00954549 -0.01253635 -0.00570104 0.00084118 -0.00702226 0.00131086 0.00976965 0.00553533 0.00388842 0.00508789 -0.00162118 -0.00623562 -0.00080323 -0.00260953 0.00474716 -0.00314770 0.00617418 0.00097556 0.00268265 0.00538345 0.00250324 0.00820539 0.00990399 0.00486575 0.00491457 0.00386836 -0.00405272 -0.00916074 -0.00773663 -0.00950991 -0.00629560 0.00698881 0.00112871 0.00670616 0.00826613 0.00559162 -0.00549817 0.00097143 -0.00431341 -0.00444442 -0.00044837 0.00126076 0.00263671 0.00702818 0.00266662 -0.00209392 0.00429482 -0.00068548 0.00356811 0.00545620 0.00630635 0.00558732 0.00687452 -0.00037209 0.00176254 -0.00809724 -0.00625327 -0.00648260 -0.00775729 0.00248245 0.00578037 0.00096469 0.00586658 0.00205035 -0.00420693 -0.00281258 -0.00792609 -0.00884498 -0.00554409 -0.00054929 -0.00227184 0.00549902 0.00776496 0.00936257 0.00473949 0.00492415 0.00182418 0.00494118 0.00086304 0.00484082 0.00395164 0.00958341 0.00274719 -0.00066379 -0.00683197 -0.00224468 -0.00809146 -0.00364724 0.01233722 0.00419193 0.00326314 -0.00091678 -0.00372124 -0.00044365 0.00126484 -0.00337515 -0.00343522 0.00293220 0.00065733 0.00180479 0.00581650 0.00928542 0.00890477 0.00982524 0.00476987 0.00734108 0.00076367 -0.00397149 0.00020637 0.00086674 0.00676684 0.00068622 -0.00303465 -0.01544439 -0.00964418 -0.00664517 0.00986050 0.01025278 -0.00362944 -0.00697232 -0.00713690 -0.00686109 -0.00168811 0.00657242 0.00442258 0.01050634 0.00565551 0.00844351 0.00897036 0.00791057 0.00112489 -0.00026725 0.00131071 -0.00258390 0.00006237 -0.00555358 0.00061069 0.00370326 -0.00012372 -0.00785029 -0.00947772 -0.01426579 -0.01916962 -0.00856005 0.00166219 -0.00065346 0.00199381 -0.00813446 -0.00381004 -0.00560181 -0.00384006 0.01233098 0.01187578 0.00457797 0.00487996 0.00603578 0.00316250 -0.00159583 -0.00131197 -0.00034585 -0.00542112 -0.01267247 -0.00978148 -0.00743491 -0.00340157 0.00012915 -0.00975378 -0.01432546 -0.02739679 -0.02190511 -0.01632940 -0.01043521 -0.00066214 0.00207902 -0.00640018 -0.01479524 -0.01151003 -0.01346450 -0.00257370 0.00500192 0.01119710 0.00482400 0.00643706 0.00868421 0.00731931 0.00304866 -0.00319273 -0.00379058 -0.00362084 -0.00939736 -0.00299701 -0.00222022 0.00248591 -0.00406635 -0.01563706 -0.02349970 -0.02750999 -0.02343999 -0.01669069 -0.00372163 -0.00124692 0.00076859 -0.00378134 -0.00878830 -0.01593054 -0.02527247 -0.01831052 -0.01056640 -0.00091408 -0.00028842 0.00936474 0.00603970 0.00636358 0.00650170 0.00889845 0.00079226 -0.00030428 0.00176927 -0.00280188 0.00146889 -0.00121733 -0.00913397 -0.02296394 -0.02759938 -0.02577315 -0.02917169 -0.01784000 0.00114592 0.00475524 0.01472722 0.00877503 -0.00889951 -0.01132432 -0.01647644 -0.02140694 -0.01578197 -0.00858817 -0.00238570 0.00212235 0.00306423 0.00465059 0.00874810 0.00771956 0.00691481 -0.00168981 -0.00211884 0.00469780 0.00503173 -0.00030051 -0.02610143 -0.03324034 -0.02434917 -0.01708001 -0.01502815 -0.00526709 -0.00247347 0.01193810 0.01811683 0.01164932 0.00162269 -0.00097382 -0.00967040 -0.01020814 -0.01577350 -0.01293410 -0.01366148 -0.00623360 -0.00498557 0.00433776 0.00735481 0.00677127 0.00440758 0.00555444 0.00428671 -0.00216379 0.00423241 -0.01093920 -0.02886528 -0.03947092 -0.02598777 -0.02054668 -0.01608229 -0.00861000 0.00047797 0.01511875 0.01398817 0.01832353 0.00614126 0.00924846 0.00220401 -0.00539483 -0.01586432 -0.01745233 -0.01016025 -0.01135760 -0.00683996 -0.00296748 0.00519903 0.00973275 0.00253548 0.00828086 0.00359153 0.00062838 -0.01148503 -0.02055938 -0.03990864 -0.03291089 -0.02143090 -0.01702341 -0.01244445 -0.00637618 0.00085515 0.00456328 0.01005639 0.01179185 0.01015520 0.01340919 0.00900300 0.00444964 -0.00424546 -0.00999718 -0.00996896 -0.01273028 -0.00415106 0.00125221 0.00061765 -0.00172111 0.00004881 -0.00226914 -0.00225188 -0.00553926 -0.01832099 -0.03552286 -0.03185659 -0.03043986 -0.02416496 -0.01305697 -0.01207187 -0.00077924 0.00313980 0.00140309 0.00105933 0.00305156 0.00836935 0.00506117 0.00359237 -0.00169016 0.00002214 0.00084068 -0.00218055 -0.00465757 -0.00367743 0.00142251 0.00318062 -0.00268297 0.00081065 -0.00344522 -0.00559618 -0.01363375 -0.02071129 -0.03869661 -0.03016408 -0.02215561 -0.01690068 -0.01881073 -0.00519178 -0.00777357 -0.00135685 -0.00559399 -0.00483437 0.00213058 -0.00387374 -0.00388822 -0.00413984 -0.00598073 -0.00041736 0.00201181 -0.00085894 -0.00297862 -0.00349496 -0.00438818 0.00139701 0.00107008 0.00316217 0.00042705 -0.01119178 -0.01369664 -0.02949639 -0.03498713 -0.02481849 -0.01251196 -0.01491042 -0.00735481 0.00128780 -0.00053674 -0.00248704 -0.00633491 -0.00264633 0.00337366 -0.00525502 -0.00754042 -0.00655202 -0.00625226 0.00181059 0.00175405 0.00104067 0.00463135 0.00211721 -0.00379890 0.00163350 0.00372972 -0.00078726 0.00329578 -0.01504812 -0.02192043 -0.02659757 -0.02842584 -0.01754562 -0.01153132 -0.00912347 -0.00551381 0.00251780 -0.00103347 0.00304209 -0.00742209 -0.00804057 -0.00867248 -0.00057545 0.00053357 -0.00652517 -0.00039566 0.00013294 0.00075198 0.00404803 0.00812428 0.00532742 -0.00086056 0.00462019 0.00354382 -0.00306929 -0.00682045 -0.01706793 -0.02244768 -0.02570399 -0.01797616 -0.01324191 -0.00854117 -0.00833495 -0.00503522 0.00105948 -0.00092474 -0.00545330 0.00122717 -0.00379018 -0.00461995 -0.00504565 -0.00382436 -0.00023417 -0.00410851 0.00932314 0.00258217 0.00704201 0.00252300 0.00905416 0.00634075 0.00327392 0.00361120 0.00116937 -0.01117989 -0.02403025 -0.02467740 -0.01376233 -0.01061136 -0.00190613 0.00109270 -0.00377282 -0.00973661 -0.00963053 -0.00293408 -0.00322368 0.00439397 -0.00525905 0.00018988 -0.00223765 0.00312490 -0.00039228 0.00027496 0.00230296 -0.00042861 0.00139765 0.01155318 0.01158982 0.00660507 0.00552796 -0.00106961 -0.01262110 -0.01560006 -0.02011202 -0.01432933 -0.00994136 -0.01079384 -0.00594607 -0.00265044 -0.00531208 0.00125455 -0.00587605 -0.00058117 -0.00681485 0.00004029 -0.00250073 -0.00621488 -0.00660475 -0.00001153 0.00886615 0.00631134 0.00740095 0.00196498 0.00656109 0.00517266 0.00304848 -0.00043259 -0.01139040 -0.01057049 -0.02182719 -0.03212507 -0.02592379 -0.01748079 -0.01056834 -0.00755646 -0.00725937 -0.00588561 0.00067287 -0.00184892 -0.00360582 0.00177347 -0.00755926 0.00416846 -0.00414571 -0.00925691 -0.00859621 -0.01020329 0.00178437 0.00794899 0.00865559 0.00383947 0.00802086 0.00763341 0.00241274 -0.00812526 -0.00856459 -0.01293708 -0.01739794 -0.01792912 -0.01971639 -0.01337607 -0.01496263 -0.00617993 -0.00496831 0.00032166 0.00499525 0.00290544 -0.00730699 0.00053845 0.00278103
0.00786246 -0.00553107 -0.00490361 0.00929760 0.00175147 0.00803367 -0.00215798 0.00324929 0.01490221 0.01233179 0.00246560 0.01264080 0.01091096 0.00559789 0.00970483 0.01351382 0.01011526 0.01078616 0.00269756 -0.00454208 0.00179495 0.00477347 -0.01004952 -0.01229047 -0.00957239 -0.00668412 -0.00539220 0.00203089 -0.01092668 -0.01550011 -0.00477271 0.00479693 0.00394666 0.00827433 -0.00724269 -0.00361320 0.00698459 0.00754735 0.00474034 -0.00381489 0.00963203 0.00394212 0.01165687 0.00410064 0.01773943 0.00945181 0.00365601 0.01120055 0.01400350 0.00467845 0.00817194 -0.01731222 -0.00220961 0.00544644 0.00773408 0.00931949 -0.00358978 -0.00785123 -0.00066762 0.00711933 0.00033749 0.00867969 0.00402343 0.01123830 0.01482484 0.00258278 -0.00071801 -0.00058668 0.00894799 0.01180632 0.00847055 0.00764481 0.01355619 0.00988859 0.01138043 0.00477325 0.00974554 0.00699147 0.00620107 0.00112506 -0.00669193 0.01092754 0.00881434 0.01357532 0.00883149 0.00285546 0.00602588 0.00855829 -0.00010674 -0.00012159 0.00279278 -0.00152757 0.01291170 0.01063214 0.00696385 0.01459634 0.01223190 0.00417196 0.01049833 0.01172865 0.01164726 0.01745991 0.00585101 0.01440409 0.00290257 0.01077929 0.00846571 0.01339656 0.00151138 0.00518849 -0.00543478 0.00166456 0.00689215 0.01502734 -0.00544816 0.00129097 0.00526977 0.00748169 -0.00418533 0.00311978 0.00338706 0.01453142 0.00397201 0.01210238 0.00585508 0.00386435 0.00234882 0.01190098 0.01276447 0.00663535 0.01498766 0.01168034 0.00963390 0.00109826 0.00034334 0.01213225 0.00187198 0.00487271 -0.00666097 -0.00635998 0.00187564 0.01183334 0.00662333 0.00121224 0.00986962 0.00417298 0.00926461 0.00214765 0.00826658 0.01356962 0.00692462 0.01464617 0.00635392 0.01176260 0.00316745 0.01780801 0.00344718 0.00622543 0.01670425 0.01486736 0.00953977 0.00409882 0.01091591 -0.00071658 -0.00426294 0.00143353 0.00395864 0.00636542 -0.00085009 0.01032283 0.01274785 0.00275484 0.00008322 0.00461594 0.00907103 0.00142934 0.01076699 0.00470846 0.00338368 0.00598760 -0.00046246 -0.00113343 0.00578783 0.00072105 -0.00339693 0.00820097 -0.00199060 0.00712736 0.00787595 0.00759196 0.00759204 0.00303000 -0.00674680 0.00085581 -0.00644251 0.01383495 -0.00049720 0.00413278 0.01239687 0.00337398 0.00999297 0.01503241 0.00774358 0.00762151 0.00087329 0.01093574 -0.00034824 0.00068313 0.00293250 0.00039840 -0.00149243 0.00123743 0.00499229 0.00252202 0.00506994 0.00100184 0.00488505 0.00607728 0.01193384 -0.00335651 -0.00680970 -0.00570642 -0.01327478 0.00278803 0.00372005 -0.00362733 0.00310739 0.00832453 0.00937716 0.00787539 0.00569021 0.00412864 0.01333562 0.00848591 0.00045880 -0.00110259 0.00468765 0.00652378 0.00133575 0.00882954 0.01182015 0.00815637 0.00480330 0.00852522 0.00445468 0.00675516 0.01157049 -0.00407734 -0.00491150 -0.00855366 -0.01094264 -0.00432218 0.00053314 0.00011192 -0.00244736 0.00645725 0.00292366 0.00953346 0.00912285 0.01352754 0.00858551 0.00045385 0.00371939 -0.00111462 0.00066258 0.00901211 0.00287802 0.01423854 0.01638628 0.00399371 0.00643498 0.01794306 0.01109191 0.00578140 0.00327331 -0.00203617 -0.00965277 -0.00902333 -0.00567732 0.00299393 -0.01135358 -0.01358844 -0.00025997 0.00433425 0.00301351 0.00904457 0.01523398 0.01386097 -0.00133672 -0.00672017 0.00146231 -0.00024980 0.00416608 0.02032717 0.01242462 0.00521190 0.01283234 0.00875335 0.01320522 0.01846258 0.01846810 0.00521122 -0.00723261 -0.00710862 -0.01678977 -0.00496841 -0.00320231 0.00025069 -0.00386067 -0.00329676 -0.00525648 0.00255553 -0.00572849 0.00630907 -0.00202912 0.00276804 0.00162604 -0.00331520 0.00370877 0.00999343 0.00299020 0.00907394 0.00960709 0.00598268 0.00940703 0.02886508 0.02291860 0.01492644 0.01408508 0.00248134 -0.01053883 -0.01505858 -0.01898462 -0.02112253 -0.00785415 0.00328642 -0.00230570 -0.00969410 -0.00246613 -0.00750514 -0.00322607 -0.00655303 -0.00664739 -0.00642294 0.00277314 -0.00576227 0.00115045 0.00170389 0.00372498 0.00667705 0.01032269 0.01685884 0.02840532 0.03284000 0.02107778 -0.00378946 -0.00662224 -0.01879753 -0.02475027 -0.01695445 -0.01921632 -0.01581799 -0.01049458 -0.01061478 0.00567974 -0.00679617 0.00473245 0.00662854 -0.00127321 0.00397793 0.00244192 -0.00181425 0.00282366 0.00734398 0.00467417 0.00262789 0.00790700 0.01026812 0.01961333 0.02719300 0.02803985 0.01694762 -0.00401892 -0.01726007 -0.03337794 -0.03607240 -0.03065019 -0.01795197 -0.02257561 -0.02076275 -0.01579368 -0.01199317 -0.00592343 0.00055256 -0.00017724 0.00130319 -0.00728592 0.00668053 0.00243775 0.00233317 0.00518909 0.01113850 0.01021103 0.01134155 0.00507770 0.01955218 0.02772314 0.02576374 -0.00704102 -0.01799406 -0.03923561 -0.02846764 -0.04776475 -0.03434297 -0.02995096 -0.02324713 -0.02332997 -0.01010291 -0.02217740 -0.00948798 0.00024432 -0.00048457 -0.00312571 -0.00341505 -0.00483578 0.00578890 -0.00071332 -0.00456909 0.00433370 0.00290146 0.01583585 0.01297720 0.01856228 0.02367965 0.01139940 -0.01190102 -0.02513564 -0.02775018 -0.03300797 -0.02608001 -0.02879919 -0.02420073 -0.01350066 -0.01969071 -0.01030937 -0.01391161 -0.00204353 -0.01294281 0.01032626 0.00638609 0.00413789 -0.00375904 -0.00168189 0.00075538 0.00119593 0.00665052 0.00323005 0.00122779 0.00721756 0.00185782 0.00884928 -0.00236845 -0.02565358 -0.02561757 -0.02886102 -0.03143794 -0.01627705 -0.00047858 -0.00268337 -0.00447133 0.00392469 -0.00817978 -0.00627644 -0.00595999 -0.00378508 -0.01909034 -0.00492577 0.00063402 -0.00681472 0.00169442 -0.00064618 0.00330941 0.00458328 0.00357224 0.00826197 -0.00513562 -0.00048218 0.00295479 -0.02277430 -0.02375887 -0.02476968 -0.01717621 -0.01848028 -0.00436358 -0.00797242 -0.00386083 0.00873118 -0.00053515 -0.00094373 0.00671435 -0.00570531 -0.00406346 -0.00709351 -0.01246404 -0.00458525 -0.01415228 -0.00256643 0.00046895 -0.00116986 -0.00270420 -0.00178475 -0.00194646 -0.00487976 -0.00224967 -0.00656763 -0.01896800 -0.00839082 -0.00829998 -0.01588588 0.00191356 0.00987460 -0.00374014 0.00344930 0.00575847 -0.00267687 0.00114230 -0.00021940 0.00494582 0.01030228 -0.00568896 -0.01378633 -0.00015071 -0.00900247 -0.01628133 -0.00440294 0.00159431 -0.00429203 -0.00223831 -0.00445999 -0.00977302 -0.00851940 -0.00456012 -0.00210237 -0.01375426 -0.00618119 -0.00277650 -0.00455286 0.00671875 0.00488672 0.00462004 -0.00146517 -0.00373449 -0.00606937 0.00084803 0.00478737 0.00137230 0.00131844 -0.00135986 -0.00079878 0.01153076 -0.01489256 -0.00803174 0.00287378 -0.00602038 -0.00056609 -0.00364218 0.00151241 -0.00742414 -0.00759772 -0.00240450 -0.00782059 -0.01677801 -0.00925052 -0.00650495 -0.00314485 -0.00286189 -0.00143830 -0.00211077 -0.00608161 -0.00322677 -0.00522001 0.00206487 0.00016839 -0.00310558 0.00029617 -0.00029222 0.00382997 0.01598708 0.00069204 0.00306267 -0.00495552 -0.00458545 -0.00272478 -0.00485410 -0.00467899 -0.00554850 0.00383248 -0.01260384 -0.00998265 -0.00953985 -0.00129966 -0.00663483 -0.00301732 -0.00494627 -0.01240735 -0.00797658 0.00180430 -0.01550502 -0.00064581 -0.00954151 -0.00441290 -0.00826891 -0.00803221 -0.00261249 0.01605528 0.02290640 0.00898043 0.00343895 -0.00584917 -0.01231562 0.00098562 -0.00241073 -0.00138723 0.00031178 0.00473690 -0.00626113 -0.01031326 -0.00429761 0.00222786 -0.00331934 -0.01628644 -0.00892416 -0.00502360 -0.01424102 -0.01319687 -0.01024319 -0.00353801 0.00178367 -0.00662900 -0.00599195 -0.00223135 -0.00042445 0.01610482 0.01600631 0.00484984 0.00776625 -0.00497035 -0.00333953 -0.01471514 -0.00893662 0.00246205 0.00211927 -0.00403270 0.00028615 -0.00685145 0.00088146 0.00703595 -0.00399075 0.00209422 -0.00443969 -0.00205745 -0.00813460 -0.00691939 -0.00590789 -0.00411033 0.00206676 0.00047799 -0.01366671 -0.00132151 -0.00588599 0.00215511 0.01128240 0.00834315 -0.00608731 -0.00240177 -0.00056067 -0.00068766 -0.00067468 -0.00568033 -0.00428209 -0.00989125 -0.01796152 -0.00559112 -0.00703183 0.00888904 -0.00566246 -0.00974439 -0.00335404 -0.01178756 -0.00499930 -0.01077583 -0.00960813 -0.00555950 -0.00313615 -0.00746573 -0.01124619 -0.00101617 -0.00331359 0.00648269 0.01536411 -0.00662770 -0.00340990 0.00511739 0.00130794 -0.00450639 0.00043750 0.00826161 -0.00420773 -0.00060955 -0.01824170 -0.00884451 -0.00227439 0.00252694 -0.01269959 -0.00062693 -0.00645220 -0.00773584 -0.00026788 -0.00561990 -0.01406847 -0.01653787 -0.01406625 -0.00627046 -0.01810525 -0.01583234 -0.01100415 -0.01064826 0.00622223 0.00169399 -0.01084805 -0.00348898 0.00539552 0.00393860 -0.00433859 -0.00154751 -0.00729841 -0.00959822 -0.00350474 -0.00348787 -0.00750554 -0.00255000 -0.01027394 -0.01061097 -0.01058148 -0.00886194 -0.00658709 -0.01133168 -0.01853536 -0.01286971 -0.01380848 -0.00587305 -0.01382981 -0.01467018 -0.01656953 -0.01080344 0.00496211 0.00726494 0.00431649 0.00551532 0.00044999 -0.00310827 -0.00623648 -0.00378461 0.00813096 -0.00308472 -0.00952041 0.00848269 -0.00321549 -0.00366178 -0.01871534 -0.01678252 -0.01732689 -0.00703185 -0.01196055 -0.02587805 -0.01550383 -0.01418472 -0.01053266 -0.01260750 -0.00743806 -0.01933053 -0.01804126 -0.00798713 0.00728062
-0.00342803 -0.00817102 -0.01413481 -0.00880436 -0.00508635 0.00902384 -0.01139486 -0.01067834 0.01001209 -0.00240452 -0.00025772 -0.01911351 0.00904147 0.00877586 0.00642391 0.01022310 0.00419265 -0.00451076 0.01665906 0.01119567 0.01605591 0.01012070 0.00667193 -0.01057470 -0.02095187 -0.01119909 -0.01754734 -0.01285612 -0.01409323 -0.01167076 -0.01480875 -0.01603894 -0.01875278 -0.00776004 -0.02222308 -0.00520944 -0.00999683 -0.00690525 0.00323884 -0.00089331 0.01872602 0.00127091 -0.01171445 0.00114259 0.00031222 -0.00956750 -0.00451794 0.01442171 0.00244000 0.01422441 0.00567254 0.00252647 0.00200958 -0.00738519 -0.00389304 0.01029602 -0.01088604 -0.00066875 -0.02206425 -0.02827667 -0.02155791 -0.01844252 -0.01734217 -0.00119080 0.00442504 -0.00899478 0.00385952 -0.00459780 -0.00578297 0.00171183 -0.00373459 -0.00285070 -0.00536266 -0.00705813 -0.00950590 -0.00295494 -0.00466383 -0.01244679 0.00191936 -0.00578890 -0.00903115 -0.00469784 0.00468889 0.01223459 -0.00251935 -0.00938655 -0.00521243 -0.00596395 -0.00006065 -0.00589283 0.00280704 -0.01263915 0.00611757 0.00619504 0.00571075 0.00022772 0.01033818 -0.00330811 -0.00288040 0.00297430 0.01297290 -0.00057246 -0.00044077 -0.00559118 -0.00634515 -0.00387142 0.00882041 -0.00104080 0.00581504 -0.00772636 -0.00640739 -0.00343612 0.01194468 0.00422409 -0.01461081 0.00434340 0.01458268 -0.00016686 -0.01007808 -0.00948117 -0.00602029 0.00118579 0.00185290 0.00698061 0.00851846 0.00403770 -0.00973345 0.00509366 0.00313281 -0.00109361 -0.01046845 0.00296857 -0.00085380 -0.00273580 -0.00043941 -0.00698740 -0.00316846 0.00092153 -0.00811278 -0.01314982 -0.01152780 -0.00751597 0.00799441 0.00720363 0.00194689 -0.00262518 -0.00493447 -0.00713736 -0.00894262 0.00022074 -0.00072463 -0.00316510 0.00024533 0.00596561 0.00114330 -0.00707492 0.00118671 0.00346535 0.00066891 -0.00793117 0.00389520 0.00155661 -0.00349584 -0.00449230 -0.00764841 0.01056709 0.00800447 -0.01833813 -0.00016303 -0.00195599 0.01171244 0.01296794 0.00807916 0.00026526 -0.00971987 -0.00047161 -0.00237696 0.00565031 0.00213881 -0.00186320 0.00005935 -0.00547585 0.00856196 -0.00625053 0.00202699 0.00165035 -0.00504577 0.00410423 0.00206642 0.01691917 -0.00079299 0.00435806 0.00112694 -0.00267898 0.00544344 0.01306805 0.00758997 0.00664503 0.00629017 0.00586555 -0.00144616 0.00510960 -0.00614135 -0.00502845 0.00062659 -0.00590475 -0.00354969 -0.00570367 0.00790887 -0.00565580 -0.00520770 0.00753144 -0.00343433 -0.00449153 0.00092218 0.00207110 -0.00197808 0.00511509 -0.00010632 0.01214719 -0.00136529 -0.00564979 -0.00734112 0.00063100 0.00331837 0.01740651 0.02232661 0.00133892 -0.00241853 -0.00056998 0.00097241 0.00084993 0.00111246 -0.00220671 -0.01093158 -0.00992436 -0.00593255 0.00286062 0.00548895 -0.00151189 0.00062789 -0.00008032 0.00496428 -0.00372466 0.00458233 0.00006431 -0.00324712 0.00204404 -0.00328407 0.00312608 -0.00577721 -0.00420350 -0.00222766 0.01355564 0.00727784 0.00572429 0.00558878 0.00186444 -0.00175929 0.00056427 0.00005498 0.00515612 -0.00110894 -0.01346665 0.00283523 0.00077177 -0.00096629 0.00486080 -0.00299340 -0.00604007 0.00304975 0.00353867 -0.00711368 0.00276622 0.00364720 0.00172335 -0.00572394 0.00694061 -0.00285512 0.00118824 0.00913192 0.01070826 0.01547578 -0.00316602 0.00406764 -0.00973691 0.00817637 -0.00260133 0.01328879 -0.00110229 0.00358526 0.00201864 -0.00861941 0.00345052 0.01065653 -0.00091930 -0.00017358 -0.00500950 0.00376013 -0.00094176 0.01119200 0.00372497 0.00087850 -0.00256720 -0.00874318 0.00706021 0.00910354 0.01869922 0.00558484 0.00958757 0.00494286 0.00305108 -0.00586368 -0.00585038 -0.00121306 -0.00526762 -0.00646492 0.00094843 0.00208434 -0.00592275 0.01200804 0.00219837 0.00513825 0.00493783 0.00620739 -0.00532266 -0.00387496 0.00779908 -0.00088660 0.00739703 0.01088277 0.00506830 0.00520077 -0.00086448 -0.00400481 -0.00136213 -0.00411932 0.00356448 -0.00589173 0.00876745 -0.00169182 0.00681659 0.00366688 -0.00162031 0.00894485 -0.00303122 -0.00232444 0.00561312 0.00093083 -0.00722169 -0.00440548 0.00466417 0.00007650 -0.00166091 0.00131324 0.00830102 0.00614755 -0.00060245 -0.00048467 0.00255064 0.00001671 -0.00499448 -0.00708933 -0.00249553 -0.00573746 -0.00440283 0.00762664 0.00714827 0.00371929 0.00232299 -0.00176553 0.00532629 0.00804268 0.00290719 -0.00506261 -0.00821443 -0.00620695 0.00517160 -0.00088866 0.00812767 -0.00567376 -0.00078164 0.00597176 0.00086975 -0.00338546 0.00450044 0.00599917 0.00383293 -0.00774632 -0.01312671 -0.00417945 -0.01237927 -0.00994479 0.00156144 0.00940905 0.00125036 -0.00329428 0.00299616 0.00144725 0.00088935 0.00045401 -0.00449062 0.00441528 0.00767348 -0.00151271 0.00276727 -0.01120449 0.00170945 0.00116492 -0.00041466 0.00522350 0.01015899 -0.00879938 0.00402486 -0.00880229 -0.01700740 0.00120058 -0.02655310 -0.02345307 -0.01663998 -0.01279853 -0.00262950 -0.00102759 -0.00134094 -0.00731002 -0.00731181 -0.00265389 -0.00589215 -0.00485886 0.00006042 0.00011082 -0.00269709 -0.00314120 -0.00248106 0.00408412 0.00009024 0.00466685 -0.00281599 -0.00309050 0.00692238 0.00610019 0.00188536 0.00026103 -0.00844296 -0.00670476 -0.01612856 -0.01301477 -0.02061354 -0.00279988 -0.00478033 -0.01041719 -0.00039016 -0.00185920 -0.01147293 -0.00566493 -0.00534175 0.00144466 0.00637113 0.01338634 0.00404185 -0.00520787 0.00178136 0.00124580 0.00606294 -0.00520893 -0.00071927 0.00800557 0.00561946 0.00975067 0.00039336 0.00449899 -0.00996091 -0.00765081 -0.01423716 -0.01143920 -0.01399334 -0.01048986 -0.01417733 -0.00667319 -0.01549333 -0.00980705 -0.01288505 0.00268356 0.00373061 0.01388145 0.01743723 0.00342663 -0.00467378 -0.01755705 0.00880623 0.00202912 0.00788483 -0.01031815 -0.01248027 0.00684727 0.01455058 0.00700196 0.00364694 0.00611295 -0.00048966 0.00008352 0.00188081 -0.00487947 -0.00615462 -0.02656060 -0.01912853 -0.01955072 -0.02152808 -0.00937178 -0.00265052 0.01887238 0.01393507 0.01692888 0.01063096 -0.01128970 -0.02321578 -0.00926310 0.01624667 0.00615501 -0.00181279 -0.02237775 -0.00702239 -0.01113210 0.00444346 0.02276148 0.02003153 0.02123353 0.01209884 0.01920656 0.00570517 0.00405480 -0.00193094 -0.00775633 -0.00999737 -0.00520041 -0.01214212 -0.00015308 0.02038378 0.02857305 0.02008720 0.00730636 -0.00510417 -0.03143420 -0.02494191 -0.00017138 0.02468705 0.00425404 -0.00450899 -0.02009976 -0.02292929 -0.01315216 0.00766532 0.01788093 0.02379875 0.02988652 0.01925159 0.02927043 0.01151142 0.01494588 -0.00180422 0.00058456 0.00350101 -0.00161539 0.00114112 0.02329681 0.02791867 0.03241823 0.02112576 0.00857902 -0.02515401 -0.03426808 -0.00953646 0.01158621 0.03240328 0.01656505 -0.00910543 -0.01505456 -0.03355414 -0.03364420 -0.01179863 -0.00202043 0.01344920 0.02191467 0.02906550 0.03680941 0.02435160 0.01859619 0.01554163 0.00573919 -0.00122982 0.00121118 0.01552023 0.02718348 0.03727021 0.01866945 0.00358896 -0.01541191 -0.03401469 -0.04001329 -0.00013829 0.01992177 0.02540491 0.02557006 0.00212142 -0.02252401 -0.05567891 -0.03942209 -0.03235560 -0.02144016 -0.01289683 0.01546528 0.02547159 0.03606529 0.02583195 0.01797077 0.03026124 0.00171093 0.00671255 0.00036061 0.02278432 0.03070872 0.03806850 -0.00225679 -0.02361067 -0.04009377 -0.04895175 -0.04040427 0.01007163 0.01941456 0.01704322 0.01763646 0.02025203 -0.01911898 -0.04356687 -0.04798911 -0.03944248 -0.02767441 -0.03049653 -0.01883750 -0.00128052 0.02542205 0.02937629 0.03599975 0.03091189 -0.01551066 0.00397158 0.00735304 0.01750320 0.00430576 -0.00042820 -0.02506451 -0.05051444 -0.06875772 -0.05737115 -0.01377131 0.01826631 0.02190279 0.00785933 0.02683841 0.03073530 -0.01571761 -0.04263406 -0.04631367 -0.05619809 -0.04774844 -0.04015413 -0.02514608 0.00322278 0.00626809 0.00284321 0.02970747 0.01611054 0.00328832 -0.00082701 -0.00276856 -0.01095422 -0.02417502 -0.03009284 -0.05387220 -0.06092623 -0.04550976 -0.03448587 0.00462004 0.02307373 0.01182213 0.01905537 0.02054361 0.02869800 0.00595220 -0.02512579 -0.05047690 -0.05671845 -0.04650678 -0.04848893 -0.02730556 -0.00872159 0.00974621 -0.00553056 0.00935094 0.00203772 -0.01254549 -0.00137915 -0.01054991 -0.02233639 -0.03478550 -0.05019006 -0.05211980 -0.06706845 -0.04185672 -0.01436914 0.01079006 0.00741948 0.01998303 0.01663946 0.01371216 0.01990392 0.01869530 -0.01903971 -0.05501605 -0.05340352 -0.05962379 -0.04452683 -0.03185095 -0.01205634 -0.00452052 -0.00863113 -0.00649164 0.00780605 -0.00402347 -0.01361241 -0.01702973 -0.02981146 -0.03897839 -0.04622846 -0.05900923 -0.04995506 -0.02358708 -0.00073533 0.00628645 0.01567412 0.01593942 0.01448050 0.01004790 0.00884628 0.01623581 -0.00061710 -0.04571354 -0.04882473 -0.06110688 -0.03974282 -0.02737810 -0.01708372 -0.01528261 0.00443578 0.02292319 0.02170043 -0.01719232 -0.02089631 -0.03046997 -0.04099135 -0.03146727 -0.03773928 -0.03877838 -0.02240433 -0.01142142 0.00726762 0.01177898 0.01840682 0.00786764 0.02963362 0.01549070 0.00487384 0.00807835 -0.00256454 -0.04251869 -0.05413401 -0.05560503 -0.03398304 -0.02207943 -0.02934593 -0.00430914 0.00961838 0.00927559 0.02051761
0.00822639 0.01237067 0.01732606 -0.00160224 -0.00240817 -0.01414511 -0.01690812 -0.00498396 0.00193777 -0.00275588 -0.01265340 -0.02134884 -0.01502874 -0.02535734 -0.03752600 -0.05374007 -0.03335313 -0.00486020 0.01226050 0.01347195 0.01408465 0.00243231 -0.00151998 -0.00330464 0.00109779 0.00248759 0.00292183 0.00352936 0.01620796 0.01169356 0.00302690 -0.00726698 0.00513700 -0.00477813 -0.00800095 -0.00724329 -0.00196896 -0.00917207 -0.02340457 -0.02902468 -0.03742938 -0.03695260 -0.04598872 -0.04525746 -0.03189614 -0.00174716 0.03376028 0.01639394 0.00881811 0.00089324 -0.00956742 0.00240398 -0.00401810 -0.00854571 -0.00372986 0.00542973 0.01979973 0.00656920 0.01086881 0.00303759 0.00965299 0.01091771 0.00536269 0.01230503 0.00759483 0.00711927 -0.01863835 -0.01641044 -0.02226872 -0.03821597 -0.04467183 -0.04219111 -0.01595802 -0.00564037 0.01482111 0.02503755 0.01472479 0.00025098 0.00253311 -0.00927252 -0.01669370 -0.02018655 -0.01065683 0.00260777 0.03383394 0.02559830 0.02579499 0.02224759 0.01008448 0.03346557 0.01898960 0.02231838 0.01002261 0.00949392 0.00106964 -0.00840288 -0.00962790 -0.03470038 -0.06954231 -0.06953246 -0.01203343 0.00429886 0.02490260 0.01196469 0.01322299 0.00632044 0.00163799 -0.01071401 -0.01070234 -0.01293507 0.00512072 -0.00067179 0.03832720 0.02916859 0.01655522 0.01544649 0.01062976 0.02613822 0.02435550 0.00930867 0.01917268 0.01086070 0.00600860 0.01468825 -0.00160958 -0.03972019 -0.08577954 -0.06557513 -0.00958277 0.03661130 0.02631196 0.01899090 0.00305646 0.00009221 -0.02481196 -0.01069284 -0.01838772 -0.01451667 -0.01487001 -0.00929002 0.03782409 0.02995591 0.01901778 0.00940624 0.00570744 0.01055624 0.00449986 -0.00157355 -0.00184601 0.00377567 0.00278442 0.00677250 0.00609281 -0.03188874 -0.08723750 -0.06630263 -0.00002667 0.04735024 0.03061330 0.01274672 0.01262474 -0.00747540 -0.01246198 -0.01545899 -0.01475059 -0.01054721 -0.00780213 0.00004706 0.02225938 0.01008001 -0.00498317 0.00036382 0.01413982 0.01535062 0.00011469 -0.00479561 0.00305609 0.00185648 0.01618389 0.00992320 0.01714563 -0.02975806 -0.08396101 -0.05664469 0.01418378 0.04051958 0.02544185 -0.00075184 -0.00470254 -0.01719073 -0.02828296 -0.02267233 -0.00551968 -0.00722567 0.00438080 -0.00406213 0.02105447 0.00663957 -0.00012671 -0.00174016 0.01215611 0.01014278 -0.00472920 -0.00140411 -0.00373839 0.00306484 0.00969506 0.02847330 0.01479415 -0.03281473 -0.08291309 -0.04248217 0.02653264 0.03373438 0.01532613 -0.00136996 -0.01203740 -0.00960175 -0.01711357 -0.01883143 -0.01186801 0.00310888 0.01772260 0.02469047 0.00616485 -0.01172876 -0.00085164 -0.01213980 0.00490160 -0.00601198 0.00742158 -0.00402731 -0.01122342 0.00645496 0.00943589 0.02893256 0.02058055 -0.02903686 -0.07990073 -0.02275488 0.02652565 0.02464758 0.00441565 0.00014867 -0.00169055 -0.01295533 -0.00267707 0.00022060 0.00586752 0.00180702 0.01538083 0.02099450 -0.02288284 -0.01593354 0.00347541 -0.00566966 -0.00955235 -0.00859875 -0.00659537 -0.00799968 -0.00861766 0.00107561 0.01565326 0.02748998 0.01999717 -0.02335758 -0.06113783 -0.00789128 0.02599595 0.00951433 -0.00262000 -0.00635158 0.00850794 0.00156590 0.00263832 0.01327023 0.00292559 0.01372678 0.01199790 0.01914049 -0.01496999 -0.00194210 -0.01393341 -0.00612103 0.01284754 -0.00093883 -0.00313096 -0.00317406 0.00684479 0.00442281 0.00132225 0.02529494 0.01447119 -0.03000447 -0.04704142 0.00045635 0.02195676 0.00873729 -0.00200003 -0.00313098 0.00347511 0.00747591 0.01428107 0.00605743 0.01900941 0.02059081 0.02310953 0.02190506 -0.00453018 -0.00936095 -0.00976043 0.00771782 0.00732008 -0.00189476 -0.00166777 0.01536771 -0.00630513 -0.00071701 0.01290242 0.01478417 0.01567853 -0.02348196 -0.03814037 -0.00731870 0.00760986 -0.00035048 -0.00668863 0.00217951 0.00694116 0.00425309 0.00551718 0.00308323 0.01005944 0.00831989 0.00771258 0.00819723 -0.02210180 0.00580442 -0.00022449 0.01320805 0.00500620 -0.00176549 -0.00400963 0.00714965 0.00663128 0.00852306 0.00578821 0.01644633 0.02056523 -0.00364325 -0.02462918 -0.00913040 0.00369007 0.00532624 -0.00024219 0.00088953 -0.00416657 -0.00411410 0.00649416 0.00205217 0.00107061 -0.01418692 -0.00163075 0.01431309 -0.01047447 -0.00804806 0.00756451 0.00516664 0.00657599 -0.01096903 -0.00745672 -0.00546684 0.00390771 0.00484659 -0.00306472 0.01306824 0.00905772 0.00492150 -0.01444694 -0.00853438 0.00105400 -0.00291171 0.00143625 -0.00029547 -0.01065629 -0.00183132 -0.02123942 -0.01796954 -0.03689272 -0.04037921 -0.03142126 -0.00935385 -0.00635739 -0.02417299 -0.01268856 0.00090289 -0.00320414 -0.00934884 -0.00480514 -0.00386484 0.00266269 0.00510201 0.00459966 0.00616312 0.00105147 -0.00939212 -0.00915593 0.00187638 -0.00222720 -0.00382637 -0.00244073 -0.01045310 -0.01396841 -0.01046782 -0.02371559 -0.02931087 -0.04448785 -0.03958686 -0.04306732 -0.01517448 0.00560180 -0.02862406 -0.01873024 0.00134031 -0.01716516 -0.00769968 -0.00405893 0.00278898 -0.00571350 0.00599091 -0.00162422 -0.00548848 -0.00928194 -0.01648328 -0.00775709 -0.00454961 -0.00070162 -0.00461143 -0.01344473 -0.01155773 -0.01089864 -0.00822163 -0.02612414 -0.02495013 -0.03631413 -0.03828976 -0.03489906 -0.01932428 0.00800840 -0.01364404 -0.02192763 -0.00603948 -0.01680870 -0.01659702 -0.00260104 0.00021145 0.00515695 0.00052266 0.00969900 0.00494681 0.00511884 -0.00873847 -0.00125036 0.00031837 0.00060383 0.00230372 0.00740329 0.00488530 -0.00744498 0.00149751 0.00551962 -0.00703873 -0.00809771 -0.01934003 -0.02133803 -0.02288040 0.00549676 -0.02957734 -0.02296885 -0.01561859 -0.00813201 -0.00618025 0.00514757 0.00783182 0.00402856 0.00169720 0.00136183 0.00182912 -0.00887269 -0.00092305 -0.00725747 -0.00149539 0.00293366 0.01186714 0.01618531 0.00556710 0.00472509 0.01282722 0.01467879 0.01106648 -0.00040568 -0.00432525 -0.02961296 -0.00863403 -0.00121753 -0.01498982 0.00248920 -0.00497664 -0.00870713 0.00720232 -0.00237947 -0.00373167 -0.00901568 -0.00160109 -0.00070193 -0.00712600 -0.00564852 0.00271801 -0.00094915 -0.00179831 0.00370561 0.00690910 -0.00355243 0.01117411 0.00469774 0.00987236 -0.00247575 0.00779839 0.02211796 0.01611909 -0.01347343 -0.00530853 0.00845650 0.00247015 0.00460903 0.00504750 0.00744800 0.01304144 -0.00350654 -0.01347819 0.01189064 0.00447204 -0.00605330 -0.00155715 0.00031101 -0.00932359 -0.00615708 -0.00066339 -0.00270129 0.00763500 -0.00312567 0.00120293 -0.00147690 0.00938583 0.00707351 0.01280394 0.01087118 0.01096149 0.01738075 0.01253855 0.01741789 0.01932680 0.00166876 -0.00015745 0.00725346 0.00180575 -0.00704169 -0.01341000 -0.00145772 -0.00170429 -0.01160692 -0.00665887 -0.01173863 0.00313618 0.00337234 0.00315192 -0.00056776 -0.00507689 -0.00369964 0.00268116 0.00165330 0.00742598 0.00562728 -0.00017688 0.01812070 0.01501608 0.00710985 0.01773949 0.00351367 0.01202333 -0.00319906 0.00271218 0.00671463 -0.00626973 0.00507948 0.00378986 -0.00699664 -0.00285779 -0.00161893 -0.00890139 -0.01008814 -0.00399673 -0.00777321 -0.00824223 0.00082288 -0.00462883 -0.00460273 -0.00736541 -0.00478991 0.00221587 0.01336476 0.00592312 0.00500578 0.00807459 -0.00021299 0.00685840 0.00677656 0.01180820 0.00703994 -0.00177734 -0.01422348 -0.00972874 0.00221073 0.00657039 0.00598218 -0.00737887 -0.00582193 -0.00065236 -0.00524596 -0.00508700 -0.00777192 -0.01509185 -0.00299877 -0.00438721 -0.00151939 0.01042209 0.00779302 0.01075387 0.00068132 0.00142075 -0.01517757 0.00678635 0.00985110 0.01721502 -0.00085177 0.01441246 0.00244865 -0.00854081 -0.00479426 -0.00647876 -0.00463323 0.00391002 0.00860748 -0.01143889 -0.00145399 0.00130964 -0.00144936 -0.00465353 -0.00453274 0.00240191 0.00252957 0.01171164 -0.00067823 -0.00164503 -0.00348697 0.00533012 -0.00302269 -0.00078399 -0.02115045 -0.00414922 0.00325364 0.00387993 0.01182132 -0.01049125 -0.00810919 0.00388626 0.01361496 0.00517267 -0.00628453 0.00383797 0.00396375 0.00758953 -0.00767407 -0.00758429 -0.00428430 0.00117546 -0.00192193 0.01661545 0.00753707 0.00844698 0.00581806 -0.00050259 0.00382235 0.00553021 0.00550022 0.00660233 -0.01868934 -0.00310037 0.00366758 0.01121451 0.01428247 0.00025506 -0.00247626 0.00734703 0.01231111 -0.00367004 -0.01511361 0.00099564 0.00749911 -0.00131811 0.00086750 0.00111289 -0.00271156 -0.00695879 -0.00325220 0.00424734 0.00365648 -0.00079339 0.00191639 0.01297779 0.00290792 -0.00889085 -0.00180401 -0.00303799 0.00503680 0.00912226 0.00867267 0.00135584 0.00432895 -0.00548811 -0.00092627 0.00073506 0.00958450 0.00273810 0.00086507 -0.00535894 0.00224970 -0.00036394 0.00301264 0.00553642 0.00647456 0.00990551 0.00805136 0.00270007 -0.00098996 0.00599957 -0.00304746 0.00014225 -0.00009553 -0.00237917 0.00522971 0.00113061 -0.00653915 0.00411797 -0.00190780 -0.00146321 -0.00994169 0.00277546 -0.00743628 0.00877284 0.00846767 -0.00956760 0.00298758 0.00920407 0.01896306 0.01231366 -0.00664434 0.00498219 -0.00130973 -0.00301036 0.00642060 0.00948744 0.00405305 -0.00448470 0.00285505 -0.00016789 -0.00322715 -0.01077906 0.00566838 0.00278536 0.00208864 -0.00867928 0.00014867 -0.02003155
0.00795184 0.00723414 -0.00552208 0.00066680 -0.01341211 -0.01367969 -0.00902936 -0.00113967 0.00405163 0.00181388 0.00002176 -0.00301558 0.00443851 0.00404516 -0.00712984 -0.00492675 -0.00367851 0.00259390 -0.00096709 -0.00088310 -0.00388217 -0.00165455 0.00696368 0.00265266 0.00591536 0.01159236 0.01128382 0.00891345 -0.00223311 -0.00367839 -0.00643184 0.00347942 0.00898093 -0.00440767 0.00626434 0.00610270 0.00371443 -0.00245267 -0.00511152 0.00914640 -0.00142829 0.00025844 0.00168500 -0.00044736 -0.00019175 0.00848285 0.00069341 -0.00289669 -0.00173017 0.00301861 0.00504291 0.00206789 0.01119328 0.01638998 0.00643525 0.00326854 -0.00723306 -0.00968981 -0.00039672 0.00644081 -0.00301285 0.00550195 0.00544283 0.00625437 -0.00086551 0.00073393 0.00041054 0.00861413 -0.00457383 0.00157487 0.00691823 0.00464007 -0.00286473 -0.00202096 0.00163730 -0.00426018 -0.00548165 0.00548442 0.00801792 0.00413844 -0.00281810 0.00085279 -0.00029464 -0.00079709 0.00534724 -0.00507313 0.00253683 0.00687816 0.00628856 0.00378188 0.00684909 0.00971512 0.00225110 -0.00038300 0.00823336 0.00273528 0.00115755 0.00084865 -0.00192534 0.00548006 0.00097641 -0.00029537 0.00210498 -0.00166029 -0.00491156 -0.00756281 0.00327270 0.00089277 0.00182129 0.00365054 0.01215577 0.00598023 -0.00163179 -0.01138910 -0.00048243 -0.00188204 0.00842147 -0.00175824 0.00466871 0.00787080 -0.00223346 0.00145142 -0.00096620 0.00715723 0.00124529 0.00267500 -0.00211255 0.00500460 -0.00279976 0.00990303 0.00076548 0.00381019 0.00223597 0.00814820 0.00456569 0.00497381 0.00427434 0.00880875 0.00818328 0.00655130 0.00190439 -0.00017205 0.00386602 0.00409227 0.00596421 0.00938776 0.00696978 0.00797390 0.00995027 0.00282610 0.00433435 -0.00049404 0.00413360 0.00598388 0.00394830 0.00490719 0.00671108 0.01547899 0.01347585 0.00487513 0.01250172 0.00555198 0.01449074 0.01027377 0.01417543 0.00884206 0.00948969 0.00315996 0.00826032 0.00702327 0.00036218 0.00735643 -0.00094630 0.00922602 0.00901755 0.00890489 0.00727405 0.00934810 0.01092870 0.00548086 0.00968536 0.00004324 0.01000541 0.00962871 0.00608161 0.00957440 0.01127095 0.00627191 0.00331177 0.00731068 0.01106522 0.01039095 0.00497353 0.01414737 0.00175785 0.00825793 -0.00158208 0.01307468 0.00331381 0.00851572 0.00101138 0.00243911 0.00056580 0.00909645 0.00647264 0.00151601 0.00231959 0.00092999 -0.00229025 -0.00536267 -0.00667693 -0.00621856 -0.00208147 0.00402329 0.00891547 0.00971350 0.00629610 0.00552325 0.00060237 0.00088959 0.00721230 0.01098213 -0.00190095 -0.00487613 -0.00014644 0.00664046 -0.00058621 0.01447190 0.00748570 0.01059889 0.00548807 0.00961381 0.00788842 0.00552778 0.00308509 0.00949199 -0.00063812 -0.00368604 0.00128102 0.00402261 0.00194838 -0.00260270 0.00125423 0.00428850 0.00399334 0.00540567 0.00416868 0.00005014 -0.00180157 0.00511630 0.00122240 0.00621116 0.00883153 0.00274610 0.00800707 0.00973326 0.00929015 0.02025891 0.00901843 0.01209262 0.01258567 0.01222589 0.00915910 0.01241275 0.01263599 0.00787601 0.01349253 0.01297460 0.00917213 0.00236423 -0.00423033 -0.00380637 -0.00391938 -0.00357976 0.00416239 -0.00425570 -0.01544007 -0.00285272 0.00624343 0.01239157 0.00797467 0.00771422 0.01698972 0.00786272 0.01670668 0.01463219 0.01150250 0.01138894 0.01063434 0.01048433 0.01279692 0.01612947 0.01697345 0.02139770 0.01436028 0.01792290 0.00539346 0.00022286 -0.00056303 -0.00227816 0.00189595 0.00253088 -0.00485629 -0.00703701 -0.00387383 -0.00801990 0.00410342 -0.00025990 0.02043899 0.01196373 0.00432645 0.00695313 0.00693711 0.01294410 0.00385877 0.01011990 0.00992754 0.02055873 0.01221530 0.00491121 0.00724615 0.01285668 0.01165342 0.00298120 0.00043035 0.00599269 0.00588703 0.00499692 0.00091832 -0.00186800 0.00100160 0.00042578 -0.01370347 -0.01326920 0.00146599 0.00727931 0.02062128 0.00978336 0.00093159 0.00003630 0.00701351 -0.00015083 -0.00253478 0.00964161 0.01040712 0.00073024 -0.00969317 -0.01606949 -0.00504354 -0.00025266 -0.00284732 -0.00423238 0.00606793 0.00490765 0.00325477 0.00638834 0.00432836 0.00886783 0.00511971 -0.00435157 -0.01169487 -0.01533987 -0.01045383 -0.00058210 0.01861995 0.00913452 -0.00530136 0.00126531 -0.00354443 0.00387964 0.00080633 0.00371488 -0.00360082 -0.01067815 -0.02595011 -0.03234195 -0.02874746 -0.01704959 -0.01660182 -0.00958835 0.00227531 0.00145537 -0.00139253 0.00008728 0.00502203 -0.00041514 -0.00838658 -0.01620595 -0.01438665 -0.01779759 -0.01779943 -0.00847755 0.01558068 0.00056530 -0.00276824 0.00117630 0.00395394 -0.01032282 0.00264406 0.00183309 -0.01317129 -0.01535128 -0.03245965 -0.03474637 -0.02577753 -0.02413876 -0.01721811 -0.01546969 -0.01266178 -0.00288048 0.00180606 0.01128294 0.00389949 0.00412571 -0.01380234 -0.02378214 -0.01713310 -0.02079885 -0.01318063 -0.01256242 0.00217962 0.00224252 -0.00141763 0.00626637 0.00116794 0.00326041 -0.00235581 0.00002607 -0.00526432 -0.01092846 -0.01131383 -0.01376333 -0.01216003 -0.01269980 -0.01682681 -0.01062823 -0.01092807 -0.00640177 0.00119904 0.00524884 0.01228289 -0.00403910 -0.01490067 -0.02984742 -0.03392688 -0.02894583 -0.02632476 -0.01266817 -0.00109492 0.00817490 0.00009349 -0.00060896 -0.00045008 0.00063116 0.00757020 0.01768825 0.01089387 -0.00321351 -0.00416581 -0.00512686 -0.00271324 -0.00645956 0.00130698 -0.00637475 -0.00214403 -0.00238428 0.00079330 0.00415052 0.00113736 -0.00873781 -0.02465579 -0.02483609 -0.02887870 -0.02458733 -0.01664547 -0.01594978 -0.00281756 0.00228129 0.00740417 0.00003847 -0.00028836 0.00516442 0.01253723 0.01390837 0.01605288 0.01096676 0.00379163 0.00450463 0.00390087 0.00152473 0.00227792 0.00050580 0.00052594 -0.00286155 -0.00516958 0.00475135 -0.00356776 -0.02202624 -0.02253177 -0.03502049 -0.02977911 -0.02461606 -0.01525975 -0.01792423 0.00544982 -0.00346893 -0.01086406 -0.00913765 -0.00964628 0.00463455 0.00667646 0.00002103 0.00392873 0.00523870 0.00110982 0.00334319 -0.00410563 -0.00082219 -0.00319973 -0.00542332 -0.00330709 -0.00049385 -0.00028491 -0.00577601 -0.00812593 -0.02087428 -0.02601168 -0.02326935 -0.02525379 -0.02821035 -0.00917361 -0.01579633 0.00246275 -0.00764850 -0.00375149 -0.01523276 -0.01248136 -0.00069165 0.00139638 -0.00672202 -0.00312043 0.00047211 -0.00429690 -0.00301078 -0.00222659 -0.00264351 -0.00844608 -0.00350117 -0.00629618 -0.01318074 -0.00117276 -0.01410366 -0.02042571 -0.02809478 -0.02600317 -0.02391416 -0.02690398 -0.02653770 -0.01458472 -0.01877435 0.00567821 -0.00446161 -0.01364156 -0.01614891 -0.00965383 -0.01351476 -0.00998753 -0.01360406 0.00109207 -0.01023252 0.00116253 -0.00227371 0.00030329 0.00484796 0.00055705 0.00074639 -0.00309023 -0.00696872 -0.01853288 -0.01755239 -0.03089115 -0.03199131 -0.02232995 -0.02205265 -0.01898755 -0.02280567 -0.01758706 -0.01310752 -0.00356911 -0.00763160 -0.01875481 -0.02347361 -0.01137864 -0.01248180 -0.01455640 -0.01288733 -0.00793675 -0.00417098 -0.00936823 0.00332283 0.00501375 0.00036791 -0.00293234 0.00355256 0.00364897 -0.00696126 -0.01277082 -0.02548964 -0.02169808 -0.02330393 -0.03344488 -0.02695091 -0.01921502 -0.01237372 -0.02021011 -0.00962553 -0.01296141 -0.01030773 -0.01513299 -0.01490211 -0.01089635 -0.00663439 -0.01208641 -0.00450647 -0.01169849 -0.01457879 -0.00114218 0.00783446 -0.00037048 -0.00305393 0.00273485 0.00270348 -0.00031137 -0.00945738 -0.01350623 -0.01347709 -0.02117127 -0.02433824 -0.03035612 -0.02060991 -0.01483993 -0.01644189 -0.01374414 -0.01094761 -0.00724840 -0.01600715 -0.01464390 -0.00879593 -0.01430855 -0.01050164 -0.00606988 -0.01586171 -0.00429205 -0.00158840 -0.00674077 0.00793787 -0.00006920 -0.00129330 -0.00139453 0.00213200 -0.00824961 -0.00789460 -0.02134606 -0.02405199 -0.03311763 -0.02775759 -0.02630414 -0.01990364 -0.00534447 -0.01431599 -0.01561529 -0.01442940 -0.01653147 0.00106270 -0.00015586 -0.01221017 -0.00021908 -0.00900641 -0.00844071 -0.01321565 -0.00436499 0.00248409 0.00546381 -0.00159981 -0.00241967 0.00131654 -0.00702923 0.00279414 -0.00429109 -0.01384499 -0.02196792 -0.02961910 -0.03330984 -0.02383913 -0.03188958 -0.01929593 -0.01477025 -0.00624538 -0.01046707 -0.00191314 -0.02096879 -0.01191823 0.00269002 -0.00013200 0.00185210 -0.00317992 -0.00860396 0.00083409 -0.00300711 0.00157451 0.00861881 0.00796715 0.00335203 -0.01016982 -0.00162567 0.00227492 -0.00675951 -0.00995143 -0.02952061 -0.02447884 -0.03290417 -0.03092209 -0.02415559 -0.02161925 -0.00348216 0.00113788 0.00247967 -0.00854723 -0.01809598 -0.00917033 -0.01029919 -0.00801851 -0.00004479 -0.00620390 -0.00228017 0.00570250 0.00131631 0.01352779 0.00352420 0.00534709 -0.00083952 0.00119531 -0.00166019 0.00100381 -0.00189303 -0.01806334 -0.03184718 -0.03010063 -0.04033206 -0.02720742 -0.01802675 -0.01609299 -0.01107049 0.00165427 -0.00390247 -0.01522242 -0.00081596 -0.01476241 0.00119489 -0.00135993 -0.01162058 -0.00856140 0.00148780 0.01390146 0.00546477 0.00574921 0.00901760 0.01734921 0.00443881 -0.00252374 0.00126178 0.00500600 0.01265198 -0.00665240 -0.01673403 -0.03148754 -0.02618356 -0.02821635 -0.02119875 -0.00786139 -0.00644472 -0.00720556 -0.01108299 -0.01491458
-0.02382819 -0.00440652 -0.01514981 -0.00713007 -0.02656099 -0.02043068 -0.01196613 -0.01456998 -0.01633734 -0.00225910 0.00670169 0.01009683 0.00306091 -0.00403427 0.00145989 0.00577287 0.00161341 0.00231869 0.00130682 0.00657420 0.00394632 0.00818711 0.01728209 0.01643699 0.02955718 0.01676398 0.01041707 0.00299372 -0.01127786 -0.00064055 -0.02003185 -0.00103413 -0.01563055 -0.02651941 -0.02380111 -0.01368612 -0.02266810 -0.00466798 0.00196347 -0.00845771 -0.00215930 0.00194704 0.00451001 -0.00032686 -0.01127111 -0.00652139 -0.00790248 0.00375271 0.00876949 -0.00359077 0.00035199 0.00383905 0.01081479 0.01569085 0.01294384 0.00232332 -0.02721620 -0.01222359 -0.00480756 -0.00417434 -0.00713702 -0.01471355 -0.00403940 -0.00733369 0.00620307 -0.00567056 0.00130658 -0.00708651 0.00893065 0.00470074 -0.01496687 -0.01295062 -0.01278730 -0.00308143 -0.00027076 -0.00067324 -0.00382556 -0.00041021 -0.00816347 -0.00644588 -0.00471044 0.01207407 0.01117716 -0.00395883 -0.02199220 -0.01206842 -0.00469098 -0.01156126 -0.02085775 -0.01155763 -0.00839213 0.00740946 -0.00131735 -0.00160660 0.00260480 -0.00334211 -0.00334613 0.00721665 0.00433322 -0.00475161 -0.01215311 -0.00127532 0.00584181 -0.00064141 -0.00306349 0.00496495 0.00246897 -0.00108188 0.00376730 -0.00051564 -0.00558952 -0.01046147 -0.02028310 -0.02255648 -0.01299722 0.00093383 0.00189650 -0.00606294 0.00343808 0.00789712 0.01157488 0.01036264 0.00053072 0.00607473 0.00646736 0.00920416 -0.00558749 -0.00077641 -0.00200853 -0.01217550 0.00466427 0.00644657 0.00890055 0.00871105 -0.00786042 0.00098510 0.00224629 -0.01885004 -0.01322909 -0.02260428 -0.01174304 -0.01508870 -0.00562504 -0.00389769 0.00912008 0.00913027 0.01367304 0.00762014 0.00191123 0.00533116 0.00093486 0.00683264 0.00495154 0.01247879 0.00145725 0.00747832 0.00347928 0.00120413 -0.00342286 0.00565612 0.01242500 -0.00709311 0.00204412 -0.00220826 -0.01190364 -0.01044005 -0.01210335 -0.03499284 -0.02423639 -0.00678999 -0.00029921 0.00931889 0.00003504 0.00270348 0.00988459 -0.00762503 -0.00269263 0.00531738 0.01359357 0.00527844 0.00443636 0.01104021 -0.00073059 0.01018610 0.00411085 0.00139029 0.00712659 -0.00079659 0.00605965 0.00658963 -0.00484796 0.00129842 -0.01184776 -0.00808448 -0.00280628 -0.02405599 -0.02050283 -0.01780567 -0.00186881 0.00950827 0.00700065 0.00204038 0.00428408 0.00449278 -0.00559961 -0.00468460 -0.00342417 -0.00065477 0.00019508 -0.00650161 0.00624876 -0.00395246 0.01087380 0.00537494 0.00644636 0.00279610 0.00552776 -0.00057126 0.00311925 -0.00367545 -0.00158920 0.00066612 0.01836003 -0.00989895 -0.01450794 -0.01321343 -0.00046552 0.00311780 0.00040574 -0.00918913 -0.00813134 0.00062040 0.00766405 -0.00736599 -0.00734585 -0.00082385 0.00176640 -0.00027784 0.00453546 0.00773419 0.00636390 0.00542673 0.00347132 -0.00096866 -0.00665519 -0.00363682 -0.01279023 0.00193261 0.00431591 0.01135993 0.02069268 -0.00496058 -0.01499950 -0.00165415 -0.00301271 -0.00992017 -0.00572226 -0.00850004 -0.00067410 0.00662369 0.00646034 0.00653708 0.00748436 0.01563583 0.01050629 0.00794598 0.01519896 0.00653790 0.00246832 0.00407735 0.00214595 -0.00216056 0.00145009 0.00422127 -0.01125407 0.00115577 0.00480646 -0.00124338 0.00386217 -0.00475167 -0.00361350 0.00467866 0.00933319 0.00369838 0.00062903 0.00820437 0.00777358 0.01873740 0.02317667 0.01584825 0.01781777 0.02134430 0.01318345 -0.00449135 0.00306507 -0.00516395 -0.00511957 -0.00607526 0.00609949 0.00364999 -0.00044372 -0.00540211 -0.00342740 -0.00444685 -0.00981020 -0.01338834 -0.00583193 0.00328692 0.00361074 0.00317417 0.00302453 -0.00130165 -0.00187415 0.00335062 0.01251789 0.02180667 0.01834439 0.01704731 0.00344935 -0.02418397 -0.02937327 -0.04463910 -0.03383733 -0.01968164 -0.01571399 -0.00413601 -0.01074317 -0.00477135 0.00224910 -0.00960173 -0.00456924 -0.00336929 0.00387644 -0.00476960 -0.00651273 -0.01311366 -0.00444529 -0.01488639 0.00171954 -0.00381006 -0.00911325 0.00474801 -0.00293499 -0.00711287 -0.01052116 -0.03262563 -0.06240973 -0.06719847 -0.07265889 -0.04871949 -0.03390699 -0.02292811 -0.01611425 -0.00249917 -0.00283707 -0.00801057 0.00423577 -0.00107632 -0.00754964 0.00242113 -0.00473399 -0.00632402 -0.00220371 -0.01733524 -0.02882335 -0.03739613 -0.03900609 -0.04437825 -0.03385544 -0.04480261 -0.05303292 -0.06878485 -0.08224313 -0.08024279 -0.08409791 -0.05674659 -0.02923745 -0.01801138 -0.02236621 -0.00919625 -0.00111150 0.00358936 0.00208945 -0.00095234 -0.00906630 0.00567694 -0.00549216 -0.00115864 0.00318453 -0.00345949 -0.01241438 -0.01364464 -0.03447441 -0.05688467 -0.07149625 -0.07633480 -0.07312141 -0.07804538 -0.09705347 -0.08393836 -0.07034405 -0.05084570 -0.01846401 0.00288271 -0.00260414 0.00872324 0.00547477 -0.00049121 0.00669107 -0.00406363 -0.00280168 0.00486745 0.00975086 0.01000891 0.00693676 0.00560544 -0.00264568 -0.00038032 0.00272542 -0.00066404 -0.03402000 -0.05285104 -0.05062814 -0.06273025 -0.05751442 -0.03745062 -0.04061530 -0.01369752 -0.00442575 0.01947297 0.02613624 0.02588476 0.00680850 0.00475208 0.00953425 0.00424702 0.00487215 0.00167165 -0.00346020 -0.00389142 -0.00328204 0.00078040 0.01157571 0.01767143 -0.00132334 -0.00252889 -0.00856541 0.00859882 -0.02703711 -0.04021392 -0.02125533 -0.02030003 -0.00299332 0.00497960 0.01704611 0.01548864 0.02879608 0.01995975 0.01477985 0.00240504 0.00188934 -0.00993373 -0.00310517 0.00292408 0.00890468 0.00757619 0.00037043 0.00475566 -0.00354145 0.00596256 0.00866540 0.00722312 -0.00653040 -0.00824645 0.00601939 -0.00044915 -0.00431982 -0.00087385 0.00025579 0.00763958 0.01295663 0.01243831 0.00525068 0.00765187 0.00673567 0.00770126 -0.00187657 -0.00278744 -0.00258610 -0.00254462 -0.00265955 0.01014916 0.00733949 -0.00049109 -0.00236825 0.01325342 -0.00030646 -0.00022845 -0.00376074 -0.00208646 0.00193911 -0.00252801 -0.00575722 0.00284421 0.00066123 0.00274869 0.00666159 0.01235196 0.00615895 0.00457428 0.00247238 -0.00051337 -0.00330221 0.00279760 -0.00332578 -0.00841387 -0.00113853 -0.00262044 -0.00156454 0.00088525 -0.00015738 0.00178621 0.00591098 -0.00781641 -0.00285693 0.00792330 -0.00115761 0.00309386 0.00757522 0.01094605 -0.00098245 0.01684329 0.01525051 0.00568796 0.01947730 0.00911932 0.00808413 -0.00061652 0.00174823 -0.00120385 -0.00716401 -0.00956661 0.00768036 -0.00247850 -0.00272823 -0.00550964 0.00571301 -0.00627368 0.00454114 -0.00901004 -0.01039489 -0.00692515 0.00774754 -0.01106233 -0.00605785 -0.00280523 -0.00701425 0.00609162 0.00648002 0.00386665 -0.00265334 0.00385407 0.01270685 0.00413804 0.01011414 0.00105784 -0.00074754 -0.00080333 0.00073712 0.00595879 0.01057914 0.00162498 -0.00105735 0.00023062 -0.00116367 0.00577272 -0.00438360 0.00261810 -0.00804420 -0.00780146 -0.01068020 -0.01734637 -0.00002303 -0.01178090 -0.01655902 -0.00174803 0.00636632 -0.00026725 -0.00238344 0.01157433 -0.00324554 -0.00019872 0.00908626 0.00958330 0.01078677 0.00016524 0.00708361 0.00214117 -0.00083099 -0.01208661 -0.00155312 0.00010891 0.00347706 -0.00038376 0.00220390 0.00063066 0.00635183 -0.00538364 -0.00071663 0.00004114 -0.00891958 -0.01885087 -0.00579453 -0.00905881 -0.01234406 0.00464814 0.00556570 0.00481347 0.00964892 -0.00254401 0.00928856 0.00541541 0.01233291 0.00973563 -0.00535304 0.01398329 -0.00745266 0.00371918 -0.00200622 0.00300967 -0.00171188 -0.00125912 0.00177103 0.01380416 -0.00342696 -0.00458893 0.00296877 -0.00597730 -0.01643970 0.00062222 0.00967537 -0.00787270 -0.01415725 0.00153118 0.00716020 0.01140924 -0.00288646 -0.00440996 0.00024473 0.00087654 0.00551775 -0.00110554 -0.00146027 0.00790320 0.00428542 -0.00185567 -0.00082797 0.00417465 -0.00211638 -0.00053223 0.00003886 0.00793195 0.01031485 0.01013752 0.00347470 0.01278147 -0.00272445 -0.01420493 -0.00998327 -0.00156889 -0.00930559 -0.02042511 0.00661754 0.00244680 -0.00899135 0.00390990 -0.00310835 -0.00212577 -0.00184066 -0.00058007 0.00185723 -0.00419350 -0.00626969 0.00419018 -0.00210103 -0.00260497 0.00471626 0.00460177 0.00562432 0.00337356 0.00525918 0.00720121 0.01875637 0.01262423 -0.00471628 -0.00440933 -0.00734464 -0.01406558 -0.00723811 -0.01269036 0.03029455 -0.01193822 -0.00873699 -0.00497759 -0.00523637 0.00337135 -0.00720916 0.00656654 0.00239971 0.00498918 -0.00892205 0.00061134 -0.00276185 -0.00799154 -0.00225492 -0.00362434 0.00411095 0.00384647 0.01319956 0.01070714 0.02065673 0.02233945 -0.00131138 -0.00178779 0.00138016 0.00792211 -0.00173648 -0.01970601 0.03252479 0.02548647 0.00803054 0.01114685 -0.00236922 -0.00302977 -0.00846632 -0.00761050 0.00007703 -0.00456279 -0.00174661 0.00203415 0.00864553 -0.00047377 0.00572992 -0.00026169 -0.00263532 0.00958315 0.00618328 0.00156491 0.00013230 0.02671927 0.00045995 0.00047798 0.01237301 0.00481081 0.00053499 -0.00106277 0.02933148 0.03453476 0.01594957 0.00582401 0.01192178 0.00679846 0.00503281 0.00272112 0.00112738 0.00593791 0.00628103 -0.00777796 0.00125251 0.00382073 -0.00155048 -0.00550475 -0.00114696 -0.00230230 -0.00057521 0.00690275 0.00305883 -0.00501546 -0.01399261 -0.01976508 0.01037255 0.01474278 0.01145235 -0.00207895
