-0.03662304 0.00269115 0.00230073 0.02748916 -0.02155907 0.01653871 0.03086118 -0.02614159 -0.03294413 -0.01312047 -0.03431670 -0.00215150 -0.00237008 0.00374051 -0.03467078 0.02952901 -0.01679829 -0.00102535 0.01328811 -0.02427579 -0.00919993 -0.02567497 0.00262479 0.00743016 -0.00127039 0.00521353 -0.02454488 0.01436078 -0.01945583 -0.02070703 0.00951850 0.03199285 0.01594799 -0.00630155 -0.00695337 0.00826619 -0.00512208 -0.00105278 0.03078599 -0.02960954 -0.01766714 0.00363335 -0.03707437 -0.01054960 -0.03953270 -0.02855891 -0.02211989 0.01513727 0.01227331 -0.02217436 0.02147322 0.03251573 -0.02724090 0.02845994 0.02454676 0.02771539 0.01470592 0.00447580 -0.02091265 -0.02276069 0.01262598 0.01207028 0.01139091 0.01195532 0.02720586 -0.01858845 0.00595009 -0.03113331 0.03432130 -0.04381197 0.00703288 -0.05692562 -0.04742093 -0.01278790 -0.00401741 -0.05291230 -0.02351716 -0.02240983 -0.00036640 -0.02928144 -0.01505770 -0.03553649 0.01251283 0.01411879 0.03316507 0.01715040 -0.00761051 0.03214740 0.02100722 -0.03337280 -0.01975959 -0.01208330 -0.01070842 -0.00627185 -0.01186849 0.07255365 -0.00943824 0.02810995 0.13040717 0.04937964 0.06283640 0.00424649 -0.04614744 -0.05908162 -0.02887737 -0.03805787 0.00001164 0.00885891 0.01483022 -0.02396966 -0.03645073 0.00978548 -0.01801819 0.00763546 -0.01052973 -0.03755670 0.02134025 -0.02083855 -0.00579367 -0.02709697 0.02402012 0.05508978 0.01739965 -0.01789799 -0.03142738 -0.01305303 0.01952961 -0.01649924 0.04527351 -0.02408387 -0.06801061 -0.02184477 -0.00324271 -0.02134235 -0.00201177 -0.02106449 -0.00867328 0.00422371 0.01002937 -0.02009288 -0.02373518 0.02119721 0.03264125 0.02095550 0.04571227 -0.01400498 -0.03334397 0.05938924 0.08327935 -0.01671778 0.02966911 0.02590560 0.04275317 -0.03797893 0.04910498 0.04121287 0.01077146 -0.04321845 -0.01281545 0.00267732 -0.01750192 0.02189659 -0.05900452 -0.02996537 -0.04808228 0.01023819 -0.01505445 -0.01362113 0.01304420 0.03270135 -0.02569685 0.04078143 0.06754141 0.03278442 0.01134357 0.05965722 0.02637897 0.03427218 -0.04610422 -0.01911293 -0.00082612 -0.00672827 -0.04731995 -0.03080778 -0.00834336 0.02362299 -0.05418066 0.00843402 0.01753921 0.05449849 0.02598274 0.00074813 -0.04249808 -0.05311237 0.00150339 0.00520582 -0.00336163 0.01563013 0.01010446 0.01975394 0.04898235 0.04293459 -0.01968191 -0.02394419 -0.04211231 -0.05134489 -0.03944138 0.01145332 0.02833986 0.02575912 -0.04274883 -0.01418515 -0.07917445 -0.05393800 -0.00515814 0.03841048 0.04947774 0.00774993 -0.02115403 0.04228959 0.04472255 0.03400945 -0.01372208 -0.02461313 0.00858652 -0.03911604 0.01876979 0.05565305 0.07244062 0.02199098 -0.02973244 0.00628957 -0.00251487 0.01300397 -0.02845554 -0.00057146 0.04828042 0.08201652 -0.06348775 -0.05643531 -0.07581981 -0.03302793 -0.03011404 0.02892205 0.01146892 0.06185807 -0.03447058 -0.06765702 -0.01002471 0.02061177 -0.00679007 -0.03889033 0.01634366 0.01573255 0.02696764 0.04708058 0.00265720 0.03340959 0.00917074 -0.01696485 -0.07863876 -0.03015599 -0.03677932 0.02178268 0.04575352 0.01794005 -0.04851534 -0.10161416 -0.05577898 -0.06010046 -0.00422095 0.11253506 0.14604852 0.09735215 -0.06941235 -0.05805403 -0.11483251 -0.05423314 -0.01562273 0.03035956 0.01105334 -0.00511751 -0.02883583 0.04660316 -0.00386200 0.00935134 -0.04485537 -0.10080084 -0.13375869 -0.08324543 -0.01941189 -0.02017502 -0.02856730 -0.03431133 -0.09440964 -0.12309919 -0.11263787 0.03088534 0.07122945 0.08225930 0.04196659 0.04554535 0.05487573 -0.06225778 -0.15063915 -0.14595640 -0.04104758 -0.03960638 -0.02247600 -0.02717487 0.00989629 0.04333393 -0.01165140 -0.01461199 -0.02430135 -0.03137210 -0.01140392 0.00443346 0.00992758 -0.01687780 0.00565268 -0.06480272 -0.10890643 -0.02916618 -0.00547619 0.01864357 0.04731099 0.08214911 0.07238299 0.03693599 -0.00012881 -0.03871816 -0.13020986 -0.07962320 -0.02660160 0.01597342 -0.03511006 0.00539840 -0.04245742 -0.00570481 -0.07418048 0.08216815 0.02569734 -0.02146272 -0.00197402 0.04409722 0.00671031 -0.00002003 0.01270167 -0.00605925 -0.06742602 -0.01173270 0.08593738 0.09076149 0.04802496 0.07877990 0.02277800 0.04113865 0.01923336 0.08599170 0.01099310 -0.08952587 -0.02941559 0.02045072 -0.00925876 -0.02637125 -0.02875187 -0.02063696 -0.03300844 -0.01143984 0.02094522 0.00146309 0.02729753 0.03540442 0.04857768 0.03053277 -0.02507092 -0.00444202 0.02444853 0.11850428 0.10531393 0.10281858 0.09649668 0.06742407 0.01092620 0.08930907 0.08809826 0.05746234 -0.02736772 -0.06575814 -0.03179712 0.01344719 -0.03715006 -0.02089172 0.00663150 -0.05092877 -0.04425782 0.04594593 -0.04625842 -0.04573668 0.08711499 0.03811857 0.00492958 0.02854136 0.03523050 -0.01222111 0.06248908 0.04945883 0.03202880 0.07205419 0.08477885 0.08636338 0.07022867 0.07625613 0.02908356 -0.07640071 -0.09299972 -0.04826904 -0.01660820 -0.02470666 0.01064494 -0.02719370 0.03274872 0.03407764 -0.06314896 -0.00872593 -0.06603447 0.00941758 0.10387942 0.01141637 0.03495949 0.03785484 0.01570129 -0.01250774 0.09893719 0.05367096 -0.00170002 0.01003836 -0.01547516 0.11084693 0.08107588 0.06492043 0.09076602 0.00625261 -0.08338519 0.01100290 0.01869619 0.02780408 -0.03056075 -0.01280849 0.03440176 0.01761724 -0.03389445 -0.05517108 0.02513555 0.04492819 0.09644543 0.09339639 0.03087883 0.05766953 0.06023595 0.07293451 0.07965262 0.03784706 0.00889880 -0.01320104 -0.03134394 0.06917059 0.04788841 0.03218336 -0.02011818 -0.03369622 -0.07569777 -0.04902029 0.00754528 -0.03329905 0.00673844 -0.00260773 -0.02212315 0.01686536 -0.00851303 -0.09438899 -0.02403945 0.06811471 0.06770961 0.05601254 0.08722428 0.04210935 0.05798087 0.07407806 0.03363500 -0.03708541 -0.02442288 -0.00848143 -0.10865747 0.01870443 0.02042951 0.01801488 0.02859081 0.00379439 -0.04340015 -0.00644168 0.00304541 -0.00184895 0.00302201 0.01046232 0.03021944 0.01063329 -0.01226305 -0.09914771 -0.05257863 -0.01453784 0.07525123 0.09097660 0.07928804 0.06441315 0.12160026 0.09662696 -0.00571941 -0.03363914 0.00654258 -0.04016406 -0.10389623 -0.00423077 -0.01711291 0.06471683 0.02523791 -0.11111115 -0.11360279 -0.03197501 0.01488650 0.00639519 0.02691427 -0.02660295 -0.01793545 0.04019078 0.02236358 -0.03743953 -0.08031262 -0.00668550 0.02958270 0.06640992 0.06456915 0.04067471 0.06646603 0.02770991 0.03220762 -0.07353396 -0.06892520 -0.04816670 -0.06574985 -0.04657955 0.03907511 0.09678287 0.02190978 -0.16694649 -0.11774668 -0.01171779 -0.02254254 -0.00576988 0.02158415 -0.02797371 -0.04286746 0.03457442 -0.00494580 -0.01473786 -0.09461016 0.01001307 -0.02269574 0.02681191 0.03567515 0.02395912 0.00944608 -0.04156768 -0.01803855 -0.06727257 -0.05247166 -0.05462066 -0.03608073 0.02200445 0.03573101 0.03106546 -0.05935026 -0.10702313 -0.06564383 -0.03340029 -0.02921579 0.01634343 -0.01393972 -0.03227200 0.02518268 0.00358712 -0.06563381 -0.03545371 -0.06021081 0.03388643 -0.01269667 -0.00369151 0.03179087 0.02196646 -0.00386859 -0.00673618 -0.04059814 -0.07184024 -0.07666671 -0.01310063 -0.06726268 0.02083221 -0.06258742 -0.01996432 -0.02368344 -0.13121490 -0.07573548 -0.03453000 -0.00630252 -0.02757012 -0.01896956 -0.02579503 -0.02988212 0.02307086 -0.00231799 -0.03347442 0.01547175 0.04750505 0.02350293 -0.03920723 0.03683416 0.03628170 0.00843907 -0.00553446 -0.05966216 -0.02852873 -0.05413643 -0.03928963 -0.04612966 0.00660996 -0.05420567 -0.00200513 -0.02217898 -0.06623242 -0.07187295 -0.05396125 0.00509704 -0.00951994 -0.01560175 -0.03491202 0.00713879 0.04139172 0.00557120 -0.02343000 -0.02666836 0.02776537 0.03886351 -0.06752294 -0.01502851 -0.05167096 -0.06665845 -0.00600203 -0.02438016 -0.04945673 -0.06932987 -0.06022852 -0.00256673 -0.04400809 -0.02799726 0.03607038 -0.03487619 -0.05593837 -0.03329680 -0.01034384 0.00308100 -0.01680222 -0.00967668 -0.01396143 0.02571728 -0.00808730 0.04538296 0.06046959 0.07640402 0.06322916 0.01492323 -0.02975260 -0.03280891 -0.00418920 0.02019019 0.05125256 0.01278544 0.01934283 0.03284460 -0.08705925 -0.10803047 -0.07285421 0.00088601 0.01503432 -0.01869022 -0.03343109 -0.03217342 -0.00036691 0.02857385 0.01504878 -0.01553026 -0.03252942 0.01077472 0.00645118 0.00509994 0.03000274 0.06318073 0.04239628 0.01415371 0.02089770 0.14809027 0.06021704 -0.04242543 -0.02791119 -0.02700551 -0.08620866 -0.06972858 -0.10394844 -0.09389902 -0.13775009 -0.06234263 -0.07756779 -0.05096819 -0.02750336 -0.04485516 0.01323769 -0.00573171 -0.00467393 -0.02170461 -0.00355108 -0.01703302 -0.02560914 0.00654572 0.02505768 0.04036034 -0.02143718 -0.02153997 -0.01925203 -0.02961293 0.00436150 -0.02275757 -0.06970934 -0.06653904 -0.09217519 -0.12568444 -0.04679466 -0.07720319 -0.08505014 0.00573380 -0.04219892 0.00235558 -0.01904341 0.02665941 -0.02068720 -0.03725870 0.01193841 0.00947295 -0.03462287 0.00440033 -0.01266019 -0.03129833 -0.00798096 -0.02170480 -0.01760981 -0.01328025 -0.01564964 -0.04687738 -0.02905319 -0.00878160 -0.00073764 0.01957357 -0.01384635 0.02110698 0.02412960 0.02834638 -0.01116821 0.00217065 0.02011961 -0.03575188 0.00329157 0.00147456 0.01141037 0.01801509 -0.02282625
-0.00000765 0.02045222 0.01330684 -0.00390697 -0.00465757 0.04777234 0.01791364 0.05037595 0.04893122 -0.01235742 0.03570332 0.02115690 -0.00594349 0.01983381 -0.02047276 -0.00504511 -0.00061045 0.03383138 0.03454619 0.01116165 -0.01169384 0.00171130 0.04874453 0.00697314 0.01949043 -0.00904843 0.01270283 0.03410446 0.03220800 -0.01805434 -0.00797346 0.01332737 -0.01483765 0.03214575 0.04983927 0.02387408 -0.00051429 -0.01178589 0.05810940 0.05737747 0.02530326 0.02142661 0.02073677 0.02953754 0.03467540 0.03189534 0.03302368 0.03075092 0.02325306 0.00262369 -0.00904284 0.02348961 0.02378457 0.01839904 -0.01865104 0.04548238 -0.00388062 0.00399958 0.01092235 0.04190396 0.04122963 -0.01904816 0.05562810 0.03473686 0.01051624 0.04067015 0.05905937 0.10012004 0.04843700 0.09968452 0.10346422 0.11822236 0.07093905 0.08786910 0.09928369 0.05868220 0.03619346 0.02582740 0.03229979 0.01732107 0.00727155 0.03878271 0.03099070 0.02659000 0.04155729 0.04364230 -0.01881308 0.00191407 0.01151376 -0.02053355 0.07951526 0.07275256 0.03710853 0.08020367 0.04588439 0.04408833 0.05443742 0.04084274 0.05307834 0.05865435 0.06755756 -0.00826027 -0.01157766 0.02188045 -0.01514144 0.04205388 0.01738150 0.03362832 0.01781460 0.04135073 -0.01543974 -0.01288159 0.01836552 0.00815886 0.01757902 0.01200901 0.02905982 -0.03853805 -0.01374765 -0.02892002 0.05523175 0.06384759 0.04838776 0.04110762 0.03249535 0.02381658 0.07419040 -0.08168008 -0.07446700 -0.14930697 -0.12834482 -0.03100288 0.00427815 -0.00180470 -0.00316103 -0.01055608 -0.00956595 0.00739147 0.05338367 -0.00918982 0.03203163 -0.00684271 0.00085876 -0.01803116 -0.00521367 -0.06011500 -0.02604522 -0.03777014 0.06981985 0.01409033 -0.00843930 -0.04117842 0.07775810 0.05808811 0.08494042 -0.01066136 -0.05119223 -0.13947935 -0.15602918 -0.11397406 -0.06663896 -0.03172352 -0.01343510 0.02174898 -0.00266532 0.06142326 0.02823915 0.04194151 0.00394992 -0.02054796 0.03091200 -0.01523262 -0.00158847 -0.02085285 -0.04013687 -0.07151207 -0.08391047 -0.10999759 -0.07704387 0.05605131 0.03537124 -0.03819296 -0.01555703 -0.11562639 -0.22560047 -0.13044873 -0.13134985 -0.06115847 -0.08854986 -0.12865740 -0.04446914 0.03700949 0.07570959 0.03468466 0.04759082 -0.00290247 0.02668596 0.00004995 0.01458252 -0.01354271 -0.01503736 -0.06647513 -0.12443042 -0.01549951 -0.08515509 -0.00779296 -0.02056002 0.00100768 -0.08102529 -0.09886228 -0.14057608 -0.18712695 -0.27927130 -0.10563310 -0.02094385 -0.11091384 -0.08402117 -0.08309741 -0.10736272 0.04325415 0.06012523 0.05496925 -0.01403024 0.04265698 0.00255727 0.04490853 0.01034126 0.03848612 0.04553324 -0.01481939 -0.06090781 0.03520863 -0.02960137 0.00522218 -0.07849991 -0.04307796 0.02763586 -0.13293834 -0.14594974 -0.19767351 -0.23324668 -0.13200308 -0.11890459 -0.15601498 -0.01926026 -0.06083683 -0.17607625 -0.01396657 -0.00163124 0.03787933 0.02618366 0.04189107 0.05033582 0.00330386 0.00354420 0.03587862 0.01657420 -0.03878533 0.01553049 0.00511541 0.05099326 -0.10849779 -0.16632408 0.03584940 -0.01487283 -0.13582242 -0.12456471 -0.20586602 -0.15670033 0.00953230 -0.03113786 -0.10003298 -0.05118689 -0.01562945 -0.12038990 0.01225374 -0.04396415 -0.00401553 0.02607664 0.00605553 0.04623701 0.00091882 0.05751979 0.02409574 0.00067179 -0.03768471 -0.02351816 0.01013178 -0.00767268 0.01111400 0.00325383 0.05154066 -0.00129280 -0.03618347 0.00818342 0.03687303 -0.06119374 0.05214719 0.04837579 -0.05530829 -0.03214476 -0.02693150 0.01355098 -0.02532445 0.03760544 -0.00237044 -0.01497997 0.00647763 0.00446340 0.02811331 0.05858093 0.01381407 0.03283959 0.00173022 -0.04094028 -0.01163765 0.02777505 0.07951038 0.03399915 -0.00479170 0.00253354 0.07373970 0.24725376 0.10641214 -0.04166583 -0.04601401 0.06991722 0.03917494 0.00644011 0.04860404 0.11979501 0.04410917 0.01615215 -0.02936981 0.01795389 -0.00642017 0.01352437 0.05274193 0.05313186 0.05306329 0.04700762 -0.02650400 -0.04989397 0.03187221 0.03053185 -0.00581987 -0.02507006 0.00455305 0.06557012 0.21170923 0.26584640 0.04911656 -0.08226656 -0.00081736 0.06079039 0.07495411 0.06453922 0.12894624 0.09332062 -0.00834274 0.09365382 0.05847143 -0.01491999 0.04969046 -0.00763494 0.04447668 0.02869600 0.08422302 0.09418498 0.02243566 -0.04098328 -0.06867906 -0.08851043 0.01030144 -0.05159713 -0.01263072 0.06254454 0.13748483 0.09525834 0.00702365 -0.06636141 0.05527031 0.16095725 0.17114137 0.10907231 0.15454504 0.06142992 0.10979134 0.13312712 0.02220228 0.01623711 0.03908459 0.04312072 0.04606109 0.00551196 0.06561739 -0.03232853 -0.00989251 -0.02760887 -0.06278092 -0.04507933 -0.02467273 -0.06799539 -0.06679580 0.09907011 0.15272631 0.10980058 0.03112469 -0.04531894 0.02821779 0.09746139 0.07970367 0.08605797 0.08753279 0.13544425 0.13024344 0.04846073 -0.03808270 -0.02457508 0.01912125 0.00415646 -0.00426359 0.05093504 0.04595996 -0.11801566 -0.11444933 -0.05115901 -0.00254988 -0.01286492 -0.03816788 -0.04994942 0.08981291 0.11690390 0.21779864 0.14234029 0.02208981 -0.03881446 -0.00809742 0.06205834 -0.01099442 -0.00611693 0.02711700 0.05209812 0.08989451 -0.00179156 0.00965915 0.00396496 0.02541015 -0.02034115 0.02729156 0.03723317 -0.00373640 -0.06876708 -0.08340303 -0.05170109 -0.02599425 0.01154359 -0.05449826 0.00414377 0.11429787 0.15464842 0.17856838 0.12844920 0.00833392 -0.08146001 -0.02810271 -0.03335716 -0.00666598 -0.05595245 -0.06588808 -0.04982871 -0.00025199 0.01033989 0.03103483 -0.04866071 -0.01903248 0.01325185 0.01137432 -0.02154636 -0.03913441 -0.01986110 -0.09347205 -0.07261333 -0.06734414 -0.11322715 -0.15088616 -0.05251523 0.12840220 0.13989784 0.12207434 0.09510857 -0.01968328 -0.04026567 -0.01928561 -0.05640788 -0.01370546 0.02623291 -0.07749853 -0.03456884 0.02741845 -0.00782475 0.04671711 0.03593326 -0.01657347 0.01806235 -0.01656627 -0.01226177 0.01358588 -0.01466407 -0.05871833 -0.10408229 -0.06629431 -0.09635644 -0.13575713 0.01252906 0.07831216 0.18123280 0.10098829 -0.01044579 -0.04806352 -0.07269435 0.00119243 0.01757893 0.03650915 -0.04269863 -0.12772675 -0.07805175 0.00058556 0.03154717 -0.00689994 0.00684251 0.00523449 -0.01914275 0.04318267 0.00581171 -0.01804904 -0.01117430 -0.11245825 -0.06899087 -0.03780094 -0.06038558 0.01609487 0.07513792 0.15525077 0.16635464 0.09070565 -0.00020782 -0.04621796 -0.09669629 0.00258785 -0.05562254 -0.08905534 -0.11865623 -0.14170092 -0.09616194 -0.04017017 -0.02579484 0.01863254 -0.00101099 -0.01686275 -0.01316387 0.03842809 -0.00018596 -0.02638669 -0.04039820 -0.07299525 -0.05163451 0.03510818 -0.09412894 -0.06396267 0.09079449 0.16647577 0.13541400 0.08535616 0.02252607 0.00981387 -0.03819836 -0.04714430 -0.04425192 -0.07429085 -0.03558056 -0.04926085 -0.10838782 -0.11815904 -0.04678636 -0.00938790 0.03541593 0.04553029 0.02308613 0.01261350 0.00595577 0.02415522 -0.02771157 -0.06945036 -0.07377924 -0.05767866 -0.09955214 -0.03298992 -0.01335493 0.04803136 0.09777699 0.13058968 0.08626278 0.00988025 -0.00992404 0.03597610 -0.00085160 -0.04477000 -0.06943153 -0.05918059 -0.03539314 -0.08777097 -0.09138249 0.04017704 0.01049534 0.03122223 -0.01841053 0.02976039 0.01755093 -0.04542240 -0.02653835 0.01749742 -0.08110400 -0.12471813 -0.14695567 -0.09382849 -0.03814914 0.00158803 0.10124360 0.07518925 0.04734159 0.01867568 0.11033735 -0.03114569 -0.06107245 0.00119167 -0.07766211 -0.05249232 -0.08661505 -0.10328369 -0.10003450 0.00930748 0.03360639 0.00747737 -0.01205297 0.00874370 -0.01601872 -0.03532759 0.05737058 0.02090994 -0.01493789 -0.14152628 -0.25280482 -0.06210961 -0.10178643 -0.03292924 0.09523481 0.06283258 0.04675410 0.02514990 0.08768316 -0.00393824 -0.15059568 -0.04866766 -0.19141604 -0.06716172 -0.00789804 -0.07433318 -0.03814149 0.00053739 0.04720904 -0.01182459 -0.00607908 -0.01844374 -0.01808340 0.04707016 -0.04561103 -0.06983013 -0.06647141 -0.15292299 -0.30804607 -0.16973862 -0.11399588 -0.01221723 0.04375831 0.06437636 0.08022211 -0.05677302 0.01739024 -0.17149857 -0.15506984 -0.05240587 -0.09881000 -0.04290532 0.01496016 0.01092097 0.01598636 0.01082802 -0.01961787 -0.00952042 0.04830186 0.03506278 0.02013852 -0.00433462 -0.04059609 -0.05639034 -0.03572603 -0.06087313 -0.16245495 -0.17287867 -0.08198326 -0.12342468 -0.11537647 -0.11609881 -0.16879500 -0.09188882 0.00265886 -0.01167776 -0.09140133 -0.02229347 0.01449648 0.06336488 0.07492520 0.02888704 0.04364168 0.00048577 0.03601113 0.03740232 0.01883914 0.02783812 0.00650690 0.02095617 0.02507918 -0.03459112 0.00163802 -0.04544801 -0.01092050 -0.00048898 -0.07650120 -0.08199403 -0.08689909 -0.11043281 -0.20724455 -0.05615483 0.02731353 -0.01430809 -0.05897282 -0.03442017 0.02276810 0.00383508 0.02852687 -0.01858843 0.03010067 -0.00300613 -0.00206275 -0.01595677 -0.01966093 0.03340387 0.01873802 0.04839426 0.03583451 0.01127448 0.01219927 -0.00246438 -0.03671749 -0.01547237 -0.02040575 -0.00201441 -0.02556740 0.03001892 -0.01662387 -0.02635313 0.06208430 0.00478835 -0.00439313 0.04518094 0.03907808 0.04118387 0.01916873 0.04431011 -0.01218530 0.04364392 0.03297238 0.01600298
0.02543373 -0.01813886 -0.03925581 -0.00717820 -0.02661064 0.00861462 0.00163271 -0.01535548 0.02822735 0.00701802 -0.00283002 0.02026970 0.01318137 -0.03837704 -0.01792523 0.02461958 -0.03557668 -0.03712226 0.01295663 0.00882478 0.02671202 -0.02612050 0.02214549 0.02114609 0.02931990 -0.00182861 -0.00131726 0.01321479 -0.04000470 -0.01718429 0.02163691 -0.03969286 0.02772867 -0.00491365 0.02756993 -0.00631014 -0.00409831 0.01460351 0.02244115 -0.01046660 0.02873805 0.00515633 -0.00288542 -0.01419077 0.01097422 0.03454313 -0.03293679 -0.02003869 0.02041445 -0.03242222 -0.01245050 0.02757816 0.02429524 0.02144313 -0.02384726 0.02754440 -0.02232988 -0.01628385 -0.03865859 -0.01235449 0.00807647 0.00955930 0.01946084 0.01978137 0.00892774 0.00485002 0.03515176 -0.01342695 0.05056790 -0.01447424 -0.02668201 -0.07814800 -0.09330647 -0.06310549 -0.03448395 -0.10022261 -0.00243163 0.01820643 -0.02514479 -0.00594516 -0.02289428 -0.00360444 0.00985575 0.01876611 -0.01732035 -0.02077787 0.01206374 0.02829716 0.02569410 -0.01276774 0.02719756 0.01987626 0.04578783 0.07459071 0.08912209 0.06170239 0.02613548 0.04118423 0.00378774 -0.04411337 -0.07475283 -0.08391941 -0.05923492 -0.08811558 -0.07943600 -0.03651533 -0.02855943 0.01029457 -0.00175692 0.01524634 0.01311378 0.02646837 -0.00084791 0.01586212 -0.03255571 0.00896509 -0.03392925 -0.01121176 0.08083367 0.08817019 0.15805970 0.19676210 0.18477462 0.17916784 0.09117636 0.02528148 -0.13043147 -0.15124848 -0.10830024 -0.06901456 -0.07794067 -0.10020750 -0.04725413 -0.07162754 -0.06604327 -0.02028136 0.02038379 -0.02928319 0.01421952 -0.00960324 -0.02579021 -0.00560485 0.02598220 -0.00061935 0.03014910 0.01835977 0.06930643 0.17524691 0.15444221 0.14182602 0.14880121 0.05229513 -0.05609380 -0.02990201 -0.02102208 -0.06088854 -0.02787632 -0.04464462 -0.04111333 -0.07393273 -0.05581068 -0.04677860 -0.05004830 -0.06624711 -0.00744378 0.03925432 0.02890551 -0.02042383 -0.02693963 -0.00769225 -0.01944948 0.00765961 0.03566658 0.05583521 0.11473883 0.09794034 0.11217229 0.06782106 0.10728332 0.05409810 0.02441233 0.06940961 0.04711268 0.04079397 0.01240056 -0.01549747 -0.01154026 0.08549887 0.08621497 0.05603037 -0.04438459 -0.06029626 -0.04716423 -0.02600623 -0.01604254 -0.03754772 -0.01805291 -0.02412934 -0.02671444 0.03574367 0.07519919 0.07654716 0.09043650 0.04807463 0.01262241 0.04206641 0.05930911 0.09700043 0.10983329 0.14773878 0.09528403 0.10418643 0.07374591 0.05026214 0.01845198 -0.01694249 0.06592694 0.02996564 0.01872439 -0.06281774 0.01218306 -0.01195065 -0.00990112 -0.02530546 0.02043697 -0.01048520 -0.03582656 -0.01217172 0.08456083 0.01007459 -0.03308819 -0.03830504 -0.02730007 -0.02475890 0.11576369 0.12019912 0.19848892 0.18076082 0.13013066 0.05613101 0.00733657 0.04650787 0.01362233 -0.08250518 0.01381006 0.00300317 0.04151137 0.05024429 -0.06460016 0.02074463 0.02147216 0.00311412 -0.02766022 -0.01305491 0.02299432 -0.00986631 0.05118130 0.00556854 -0.06851437 -0.06018737 -0.06361835 0.00621109 0.04925915 -0.01039213 0.08165006 0.07249286 0.03291947 -0.02034502 -0.02215673 0.05374826 -0.06418934 -0.07238294 -0.03975426 -0.01151462 0.02432818 0.10996496 -0.01115252 -0.02503674 -0.01844683 0.02862866 -0.02135260 -0.01136661 0.00410472 -0.01005921 -0.02861073 0.02508898 0.00483903 -0.02774375 -0.00462327 -0.01983394 -0.05166922 -0.14117897 -0.16908994 -0.21671835 -0.24038026 -0.18180199 -0.04699535 0.09158361 -0.01580927 -0.10147116 -0.06410228 -0.03768761 0.06315944 0.02420784 0.03380308 -0.00313490 -0.01503323 0.02367106 0.01144380 0.02945928 -0.01476340 0.01990470 -0.06391377 -0.06097075 -0.08734221 -0.04546712 -0.09900186 -0.14306578 -0.09428684 -0.13106315 -0.15464126 -0.20354889 -0.15255027 -0.12506765 0.01191979 0.04259906 -0.01369865 -0.05277978 -0.09593909 0.04267981 0.03516086 -0.04112839 0.05350538 -0.03576823 -0.04227937 -0.02293327 -0.03141127 0.01664606 0.01592658 -0.02386176 -0.06172541 -0.08455408 -0.22078331 -0.24078290 -0.18960364 -0.29490003 -0.15729406 -0.16421984 -0.12248514 -0.09950930 -0.02309470 -0.02345456 0.05615882 0.06285726 -0.01801486 -0.02976645 -0.02936636 0.08518352 -0.04918960 -0.08713181 0.05529439 0.00010969 0.00035862 -0.03578814 -0.03387592 0.01085492 0.00773140 -0.05152695 -0.09559644 -0.20247632 -0.30192077 -0.32617119 -0.33644006 -0.33569443 -0.16014591 -0.09768666 -0.06656474 0.07441241 0.00782496 -0.04837715 -0.06841084 -0.04576738 -0.02754174 -0.03943003 -0.06972222 0.03267360 -0.03085646 0.01974090 0.04396332 -0.00112074 -0.02525892 0.01794197 -0.01185484 0.02311828 0.01132869 -0.06215360 -0.06529403 -0.15862653 -0.23961362 -0.29844984 -0.27062550 -0.22066082 -0.02563764 0.02682457 0.04675855 0.03606587 0.01326736 -0.00335841 -0.09253237 -0.05873395 -0.09430762 -0.04185087 -0.03596649 0.03564415 -0.04862320 -0.06939867 -0.00152565 -0.00831856 -0.00677312 0.01719269 0.02230524 -0.01045085 0.00576769 -0.00124221 -0.07077263 -0.13921574 -0.22055806 -0.17116244 -0.08935770 0.00064662 0.12457564 0.09004130 0.01549089 0.05984483 -0.05801543 -0.02247993 -0.08468053 -0.08156238 -0.09984870 -0.06379482 -0.06015601 0.03057511 -0.04753775 0.02022100 0.10091802 0.00587727 -0.00821662 0.03194514 0.00737013 0.01154583 -0.01686703 -0.02987597 -0.05402269 -0.07087738 -0.08989101 -0.04895486 0.07522696 0.12636629 0.13115239 0.05624386 0.10134199 0.03500774 -0.02365287 -0.07878290 -0.05248620 -0.04320974 0.00162883 0.00175496 -0.05577839 -0.00133779 0.00385769 0.09525707 0.05121084 0.02697790 0.03239175 -0.02526275 -0.02252587 -0.00009461 0.02658562 -0.00733096 0.03669462 -0.06008099 -0.03232931 0.03232653 0.06067996 0.12655205 0.06443828 -0.00360606 0.10089828 0.00869288 -0.05775347 -0.07183248 -0.04692133 -0.00069015 -0.02166631 0.02257166 -0.11543388 -0.09435595 -0.01060599 0.08761329 0.02123451 0.03367553 0.01767500 -0.02782805 -0.00227143 -0.00981994 0.02576172 0.08156354 0.08120028 0.00651763 -0.00121360 0.06188886 0.06049005 0.03291524 0.02307911 0.06516477 0.07846545 -0.05706222 -0.12949137 -0.03006979 -0.01699227 -0.01207155 -0.01851994 -0.02277847 -0.05158514 -0.05856399 -0.03013578 0.05108895 -0.05056703 0.01326698 0.00489270 0.03098438 0.00566583 0.03081277 -0.01889479 0.06953163 0.11016389 0.03095613 -0.07564741 0.02974716 0.04448335 0.00014721 0.08165887 0.08850139 0.00237656 -0.02010286 -0.06257159 0.01198708 0.01659750 0.08185686 0.01633971 -0.03494898 -0.06370488 -0.08830827 -0.04302229 -0.06884345 -0.09153172 -0.04536635 0.00425938 0.01298177 0.00252128 -0.01186198 -0.02790829 -0.00367903 0.03742180 0.01644193 -0.05395583 0.02606714 0.04624322 0.01396994 0.07557899 0.08093461 -0.01006898 0.00084615 -0.00356994 0.05539610 0.02097546 0.04802887 0.01549072 -0.03357026 -0.04409825 0.01590105 -0.05665071 -0.03242686 -0.05335280 -0.00229851 0.03280944 0.02445935 -0.01346328 0.00960077 -0.00732301 -0.00842287 0.05095542 -0.08018168 -0.04452530 0.00378584 -0.07363427 -0.10499728 -0.02208569 0.00118077 0.00976950 0.08691259 0.10905210 0.03553771 -0.00226491 0.01879359 -0.01525856 0.00181987 -0.03024847 0.03262794 0.06290175 0.00267363 0.01864637 0.02756609 -0.02128826 -0.00355845 -0.04009974 0.01629498 0.01422585 -0.01024093 0.02013322 -0.07509827 -0.01162828 0.00657461 -0.03973235 -0.12314707 -0.08893175 -0.01438293 0.04992531 0.09582686 0.04442348 0.03057048 -0.02651037 -0.00721921 -0.03792467 0.05755788 -0.01274602 0.02722354 0.08695292 0.05518883 0.01530929 0.02448867 -0.03371881 -0.01438253 0.02143505 -0.00392634 0.02536289 -0.00935357 0.00470683 0.04212566 0.11335108 0.05541511 0.04958569 0.06611650 -0.02726470 0.12541686 0.05121624 0.14301041 0.06314749 0.04720619 0.01449849 -0.03098433 -0.01142182 -0.00606585 0.00202134 0.03114268 0.03762680 0.03949016 -0.01710132 0.02266137 0.00563392 0.01585516 0.01564535 0.00829582 -0.02977674 -0.02841007 0.02961879 0.09195596 0.18205446 0.16356720 0.08393567 0.05997686 0.07599452 0.11492322 0.11325724 0.11199123 0.12330134 0.07938055 0.03778533 0.05570604 -0.02959975 0.02684933 0.00439220 -0.00338308 -0.02354327 -0.00001812 0.05134378 -0.01652438 0.01042065 -0.01095580 -0.02845112 -0.02330638 0.00395141 -0.00373839 -0.00971462 -0.00870588 0.08610431 0.15438579 0.08792800 0.15485552 0.23071559 0.16673571 0.12180100 0.06253874 0.12119515 0.12384237 0.19391689 0.04887612 0.00557066 0.00443458 0.03374570 -0.04956505 -0.04052451 -0.02728840 0.02366935 0.02987224 0.02647287 -0.00339536 -0.03528585 -0.00558321 -0.03407197 -0.01489487 -0.00888713 -0.04766336 -0.04407544 -0.00690893 -0.00349965 0.02140664 0.02295974 0.01275359 0.00434242 0.03086743 0.05681917 0.11329498 0.06406938 -0.03687938 -0.00204704 0.00293385 -0.03456294 0.00762123 -0.00846487 0.02756388 0.00349898 0.02410869 0.02613527 0.02818321 -0.01325249 -0.03419253 -0.01361536 0.02940002 0.00799555 0.00139186 -0.02128994 -0.03251361 -0.01640267 -0.01578723 0.02251996 0.02913514 0.01365326 -0.02490093 0.00932514 0.01271199 0.00564626 -0.01190310 0.01533110 -0.01339970 0.00191864 -0.02002467 -0.04109685 -0.01335973 0.00039647 -0.01290579 0.00574629 0.01354735
-0.00469401 0.00735233 -0.00592251 -0.02191553 0.01145686 -0.02412806 0.02704486 -0.00740808 0.00984000 0.00517033 -0.01230400 0.03295679 0.03884011 -0.00668435 -0.02366842 0.03678778 -0.00326424 0.01676863 0.02406124 0.00645424 0.00783231 -0.01924211 -0.02130557 -0.00269234 0.00085966 -0.00215302 0.01054980 -0.00802943 0.02080637 0.03870751 0.00429218 -0.02377448 -0.00894568 -0.02044333 0.00101729 -0.01430643 0.03371104 -0.02571060 -0.00841927 0.03138481 -0.00746896 0.04305268 0.00771030 0.00700196 0.05158737 0.01500162 0.03444632 0.02131661 0.03032528 -0.00286009 0.01696318 -0.01268708 0.01785675 0.01390770 -0.01819421 -0.00883963 0.02641197 -0.02841761 0.01564374 0.01399075 -0.02483410 0.00623041 -0.01121700 0.04999302 0.00706056 -0.00272784 0.00868412 0.03683629 0.03315175 0.08948725 0.07356909 0.06136893 0.09991525 0.03023125 0.04766440 -0.00724544 0.02798107 0.03406001 -0.00873157 0.01142401 -0.02146137 -0.00845562 -0.01196672 0.02263310 0.02233397 0.02385668 0.02660494 -0.00652007 0.02839831 0.04680336 0.07455911 0.04410569 0.09605218 0.00301455 -0.00854929 0.05454556 0.03778863 0.08564257 0.10323302 -0.02704798 0.05089139 0.02414112 0.00639926 -0.03700233 0.03867372 -0.01061381 0.00493501 0.03545604 0.01133099 0.03185829 0.03158784 -0.01230983 0.03885800 0.01773467 0.01834869 -0.02219879 -0.01946117 0.02531497 0.02829063 0.04540095 -0.00004116 -0.08226835 -0.08209371 0.01312773 0.06068851 -0.00417318 -0.12510523 -0.14416076 -0.17688437 -0.11801441 -0.14707035 -0.08365750 -0.02499631 0.00869795 -0.00303515 0.00683098 0.01996719 0.02338072 -0.00839252 -0.02519770 0.02118837 0.03894535 -0.00983488 -0.00944921 0.05528003 0.01884506 0.04833169 -0.04150853 -0.07829405 0.03242815 -0.00371568 0.03591817 0.00242519 -0.03096535 -0.11096265 -0.16209836 -0.10331173 -0.13525668 -0.09344969 -0.03302434 -0.06284574 -0.09157900 -0.05351973 -0.00106226 -0.03839117 0.01923979 0.02786937 0.01555511 -0.00656891 -0.01724773 -0.01283298 -0.00471337 0.05858538 -0.01275829 -0.01021905 -0.01747580 0.01462728 0.10333215 0.01165086 0.04789975 0.00013376 -0.00547001 -0.03971609 -0.04266175 -0.01674582 -0.04637874 -0.07208257 -0.09278875 -0.08589002 -0.11401407 -0.17721660 -0.08218284 -0.11380566 -0.04171992 0.01478229 0.00316201 -0.00843946 -0.02322995 0.04321558 0.02369036 0.01127144 -0.00869161 0.09306527 0.06044195 0.08841097 0.03799930 -0.00682930 -0.00512203 -0.02488789 0.01238643 -0.00165344 0.01093950 0.01232865 0.00754610 -0.04937772 -0.05969117 -0.04610355 -0.11320104 -0.18096964 -0.15980488 -0.09074359 -0.06811897 -0.04169561 -0.00612417 0.02437212 0.02805611 0.00985460 -0.00233477 0.08871999 0.01972984 0.04340691 0.04982635 0.07499453 0.01846396 0.03060956 0.06833377 0.03625314 0.06795787 0.02674166 -0.01130688 -0.03209180 0.01590962 0.00024927 0.02304837 0.07324828 0.10084914 0.03331889 -0.12448730 -0.12163372 -0.09972642 0.01032097 0.01142047 -0.02889733 -0.01530401 0.04084852 0.05581754 0.11841136 0.06773927 0.01421880 0.06685541 0.08311608 0.09190642 0.06522118 0.10906519 0.05394956 0.08132394 0.02220997 -0.03531020 -0.01703023 0.01645727 -0.01529108 0.02252339 0.09990802 0.05948212 0.06889943 -0.04417156 -0.16393052 -0.10368754 0.01036916 0.04344413 0.00342069 0.00909798 0.00937788 0.09485784 0.04536034 0.07396012 0.03257152 0.10181313 0.03321788 0.06296076 0.00159354 -0.00501220 -0.01332923 -0.04109324 -0.09857869 -0.07049681 -0.07852516 -0.07817406 0.01460253 0.08262818 0.10680646 0.04841121 0.01966370 -0.00234016 -0.11040482 -0.00812690 0.01094185 0.00429291 -0.00055792 -0.00009522 0.00654076 -0.00109725 0.00616512 -0.00276415 0.01564082 0.09460816 0.05031526 -0.04574302 -0.13606645 -0.10818561 -0.16393222 -0.20183140 -0.08891520 -0.06887847 0.00492736 0.03868973 0.04965550 0.13104078 0.17153965 0.06369356 0.11622798 -0.00951475 -0.15557764 -0.07050598 -0.05884535 0.03055406 0.00121014 0.02827339 0.01657093 -0.00913853 0.02061962 -0.03044681 -0.02877975 -0.05462042 -0.06875364 -0.15425925 -0.11530153 -0.15357630 -0.23278421 -0.06903557 0.08436191 0.09969819 0.05023526 0.05782851 0.12985051 0.12445593 0.07550317 0.03993157 0.03748685 0.01755010 -0.10266710 -0.03903643 0.01371522 0.01210517 -0.01057397 0.01506574 0.03655786 -0.06630287 -0.04360429 -0.07903813 -0.08185019 -0.04363103 -0.01919793 -0.14962283 -0.07028101 -0.11074882 -0.03046276 -0.01010575 0.10742132 0.08085356 0.09247611 0.04345217 0.11377226 0.08989636 0.02010020 0.07729086 0.04587089 -0.01006134 -0.01488425 -0.04864034 0.03432761 -0.02060493 0.03601476 0.00649614 0.01644980 -0.02138576 -0.04513406 -0.12036905 -0.09259704 -0.01234851 -0.01901755 -0.07056043 0.01297219 -0.02008047 0.05693513 0.08583442 0.02189443 0.04164543 0.06441095 0.06095527 0.03892336 0.09308185 0.10935164 0.02996167 0.04925444 -0.02133902 -0.07697225 0.01078239 -0.03043357 0.04069563 -0.00586728 0.01612356 0.01188502 0.00428116 -0.02042661 -0.04847619 -0.00398616 -0.04921716 -0.01169830 0.01246262 0.03645712 0.04588984 0.03637587 0.14697464 0.13138352 0.11569948 0.00330144 -0.01121400 0.07938065 0.12479413 0.14102727 0.11710996 0.07279272 -0.05055177 -0.11137632 -0.03533621 -0.03891599 -0.01811597 0.01474457 0.00369641 0.00867512 -0.03174892 -0.01542281 0.04279795 0.02831393 0.03832283 0.00175972 0.02628197 0.03817628 0.10836213 0.08249887 0.07659490 0.06039361 0.02723265 -0.05790374 -0.02343584 0.01198153 0.06160053 0.01950205 0.02810242 0.01698539 -0.01331537 -0.03158013 -0.04684605 -0.02409414 0.02533752 -0.01671507 -0.01122925 -0.00062104 -0.00011979 0.00380034 -0.01838196 -0.00498303 -0.02332957 -0.03973501 -0.03732283 0.06448510 0.04504930 0.02663440 0.03629197 0.01117916 0.06109607 0.00999393 -0.02581306 0.02857144 0.04461049 -0.08704001 -0.05533332 -0.04369455 -0.08979858 -0.12650153 0.00921997 -0.02880423 -0.02765186 -0.02476661 -0.02922460 0.03353342 0.06859654 0.09514679 -0.08531714 -0.02711770 -0.07150592 -0.12902252 -0.12074189 -0.06560098 0.01625163 0.04020685 -0.00710545 0.05165501 0.02195141 -0.00658888 0.07612551 0.07756753 0.07450236 -0.12378054 -0.05880153 -0.02994542 -0.11287165 -0.09045526 -0.00405026 0.02751024 0.00863301 -0.01559021 0.00093170 0.00218203 0.03394281 0.07868044 -0.04492933 -0.08738645 -0.05824899 -0.12938893 -0.16779934 -0.16205266 -0.12385672 -0.08751100 -0.04597022 0.09544045 0.08840012 0.05563457 0.09404728 -0.00750514 0.03597625 -0.06957801 -0.08907684 -0.07371391 -0.15509297 -0.10443509 0.02605170 0.01239974 -0.00800129 0.02252683 -0.01141622 0.00209906 0.04196299 0.06658006 -0.04306474 -0.06256644 -0.02691322 -0.13306063 -0.16049163 -0.21320598 -0.24464516 -0.15436384 -0.00627471 0.07895723 0.02304187 0.05102503 0.02944848 -0.02926267 -0.06615818 -0.05687817 -0.07232394 -0.13491565 -0.11584927 -0.06162715 0.02290044 -0.01406870 -0.00787642 -0.00270022 0.01028064 0.03862558 0.06970681 0.07420904 -0.03753015 0.01256057 -0.09419022 -0.03543220 -0.11265252 -0.13451289 -0.13187179 -0.04915113 -0.03853023 -0.03699452 0.01248869 0.01922831 -0.07868500 -0.13758491 -0.12697177 -0.08324794 -0.06534215 -0.10390577 -0.10786725 -0.05654167 -0.05027572 -0.04296209 0.01511915 0.04159870 -0.02641970 -0.01502201 0.02871641 0.05493623 0.04593290 -0.06476530 -0.10233976 -0.11442343 -0.11152164 -0.03340460 -0.00717020 -0.04295829 -0.05864816 -0.04775352 -0.01696824 -0.10175475 -0.14178704 -0.16795747 -0.12638502 -0.11168107 -0.14647904 -0.06709266 -0.08547559 -0.06212248 -0.01788846 -0.01766316 0.00962609 0.03384716 0.03089287 0.04012408 -0.00745993 0.05107349 0.04972575 0.05510498 0.02449016 -0.14745671 -0.09111550 0.01715837 -0.00474214 -0.04133646 -0.00374566 -0.04159126 -0.10040648 -0.21894865 -0.16664663 -0.14626688 -0.08675399 -0.07312027 -0.07886410 -0.04450435 -0.07982275 -0.04657780 -0.02546711 -0.02971172 0.00694710 0.00381453 0.02926250 0.02198431 0.03461854 0.10810230 0.05915511 0.00607612 -0.00543614 0.03164534 0.02131460 0.04444394 0.01379002 -0.00945450 -0.04534386 -0.02034728 -0.07998376 -0.11452955 -0.00853699 -0.09956196 -0.07530570 0.07376290 0.02210493 -0.01937305 0.00308067 -0.02782095 0.03459540 -0.02048711 0.00369891 0.02065519 -0.02130625 0.04117021 0.02387035 -0.00137287 0.04768804 0.02626926 0.03067558 0.10745198 0.08586832 0.02886665 -0.01911525 0.08826426 0.04688080 0.07393759 -0.00807366 0.03190024 -0.01593227 -0.04802751 0.01058544 0.01307570 -0.00840388 -0.08094444 -0.05093143 -0.07233914 0.02442184 0.02979501 -0.02545698 0.01536043 0.01366175 -0.02420272 0.02753990 -0.00161102 -0.01221832 0.04594331 0.02187282 0.08224724 0.09584113 0.16525930 0.04081580 0.00721928 0.07597354 0.18695363 0.14477986 0.12091684 0.10791154 0.08232974 0.04613416 0.06863350 0.09581133 0.04876284 0.00123814 -0.02257242 0.00422404 0.01182101 0.01987982 0.00370225 -0.01725033 -0.02460935 0.02602230 -0.02033979 0.00807909 0.01696142 0.00595659 -0.00206254 -0.01242161 0.01302910 0.01738634 0.03910139 0.00016070 0.03077769 0.03604589 0.01346682 -0.01206677 -0.00091242 0.01602294 0.01276423 0.01442228 -0.00158934 -0.00696330 -0.00861909 0.02784695 0.04122809 0.02894603
0.02574485 0.02485915 0.02630427 0.01557756 0.01693554 0.01723891 -0.01096700 0.01259928 0.04656352 0.00691989 0.01222645 0.01058961 0.01986822 0.01777670 0.03930122 0.02238307 0.00578226 0.01230832 -0.01483912 0.01224141 0.04025196 0.01992274 0.03034764 -0.02176628 0.04281486 0.00201058 -0.02178274 -0.01964828 0.02502553 0.02583749 0.03159898 0.04035027 0.02350941 0.01681165 -0.00920454 0.02335457 -0.00666939 0.01230894 0.03302450 -0.02349584 -0.01385815 -0.01797524 0.03812278 0.03189280 0.02764804 -0.00848074 0.02558483 0.01726815 0.04026356 0.03368773 0.00521057 0.02513867 0.00503194 0.02807848 -0.01560929 0.04139499 0.01689372 -0.01586666 0.03004702 -0.02195113 0.01308918 0.02676538 0.03118708 -0.03025890 -0.00851906 -0.01522859 -0.04923601 -0.00356038 -0.03123246 -0.06270655 -0.07469530 -0.02979526 -0.00559703 -0.00848410 -0.00230759 -0.01918755 -0.01013904 -0.01466317 0.00544037 0.02536242 -0.01425768 0.02426785 0.03877781 0.01991041 -0.02080701 -0.02059439 0.02119570 0.02055320 0.02506890 0.02783433 0.00481619 0.03638228 -0.03683386 -0.03611314 -0.08111257 -0.02223322 0.00327514 -0.07693189 -0.06616678 -0.06736904 -0.07637969 -0.00943009 0.03437047 -0.01202046 -0.06141107 -0.05104190 -0.05319893 -0.00342463 0.03787111 -0.00800609 0.00988485 -0.02228431 -0.01964638 -0.01575285 0.02160285 0.05251596 0.00664279 -0.01445922 -0.02445428 0.02529066 0.01355204 -0.10761535 -0.00853340 0.02078619 -0.02917184 -0.09439276 -0.04288530 -0.08385164 -0.04348794 -0.04880950 0.01846271 0.05572198 -0.02756365 0.02425306 0.00885710 0.02784029 -0.03108856 0.00381409 -0.02333467 -0.00706096 0.02316546 0.04521405 0.03923588 0.04530207 0.00189005 0.08349820 0.11868086 0.07573152 0.02099567 0.01159939 -0.03190505 -0.04582996 -0.07879298 -0.05236181 -0.04756423 -0.01765065 -0.04936181 -0.05615109 -0.07923567 -0.01172639 -0.10645356 -0.06376258 -0.04173575 0.05387719 -0.03319389 -0.00311574 -0.00991411 -0.00473721 -0.00590395 -0.01046522 0.02178995 0.00325614 -0.00616281 0.05985356 0.10251389 0.10274580 0.04756453 0.06946900 0.00902692 0.08316219 0.03448413 0.07791501 0.04155160 -0.04887495 -0.01270062 0.03304552 -0.05959881 -0.07891460 -0.00217482 0.02973734 -0.03926786 -0.04650585 -0.01967730 -0.01098622 0.02529549 0.03928447 -0.02239349 0.00710874 0.00961539 -0.00149821 -0.00132026 -0.01351277 0.02216796 0.02787600 0.02567548 0.03382752 0.02290509 0.05085672 0.04137709 0.03411323 -0.01394261 -0.12062616 -0.07224003 0.00375341 -0.06293523 -0.04224377 0.01079392 -0.03001591 -0.10725145 -0.03955754 -0.03035583 -0.05425750 0.04333687 0.01863242 -0.02147776 0.01562680 0.00995054 0.02678333 0.06161920 -0.06054494 0.02851247 0.07436904 0.05019966 0.02686496 -0.00397563 0.03322650 0.02547327 -0.04898827 -0.05541264 -0.01571491 0.01809998 0.06053797 0.05392596 0.01181518 0.01571382 -0.02497537 0.01332149 -0.07754063 -0.01592159 -0.03498146 -0.01013434 0.03166524 -0.02158249 -0.00753378 -0.00288907 0.07184230 0.07232188 -0.03919425 0.08417759 0.09573980 0.10189135 0.02672419 -0.00639357 0.02429660 0.01600868 -0.00876110 -0.02740587 0.05672447 0.11861934 0.19052082 0.09064362 0.04494713 0.06139601 -0.04999028 -0.04155413 -0.08059578 -0.00011007 -0.00223136 -0.02094290 0.02929858 0.02263993 -0.00666898 0.01102910 0.06462336 0.03110716 -0.04354128 -0.01957916 -0.00693067 0.00695843 -0.04811626 -0.07023329 -0.00324291 -0.04652413 -0.04092986 -0.05071729 0.03098672 0.08254223 0.12047212 0.08514210 0.01930725 0.10063565 -0.02009435 -0.00407305 -0.02912872 -0.04075982 0.07078556 0.01747338 0.01795911 0.01895425 0.03884779 0.01145035 0.01757190 -0.00855738 0.00544911 -0.03673670 -0.06421392 -0.04268710 -0.05390577 -0.04111609 -0.05318605 -0.15155955 -0.11317093 -0.00290227 0.04140022 0.01832770 0.09467706 -0.00033811 -0.00490272 0.07925776 0.07245578 0.07865615 -0.04315081 -0.06974994 0.00737833 0.02555357 -0.01117716 0.00718656 -0.00031256 0.00068050 -0.00842836 0.01296684 -0.04616195 0.00322750 -0.08770043 -0.11099220 -0.14421302 -0.02503385 -0.08775978 -0.07409292 0.03449289 0.13060583 0.07982410 0.01570139 0.00187477 0.02769721 -0.03148656 0.07968128 0.04670473 0.00858651 0.04249488 -0.05056437 0.01688380 -0.00339912 0.01273781 -0.02065537 0.03934918 0.00688588 -0.03974034 0.02850871 -0.01927845 -0.01814147 -0.01049867 -0.06553007 -0.03099885 0.02561790 -0.02781935 0.01166642 0.07643173 0.09614260 0.08852937 0.00195153 0.05507109 0.02648492 0.03014091 0.05306764 0.03763017 -0.07983366 -0.09677441 -0.06909689 0.00186556 -0.02044387 -0.01973712 -0.01771561 0.02128337 0.03633141 -0.02455657 0.00635166 -0.04587441 -0.14147967 -0.05220283 0.00077016 0.13923241 0.04406265 0.01442850 0.09876024 0.06327428 0.06063971 0.08577500 0.06340797 0.09016683 0.07569855 0.05807327 0.08260781 0.04095883 -0.03419508 -0.08050244 -0.10434188 -0.04193335 -0.04520689 0.00801706 0.04721805 0.04683711 -0.01144536 0.03464080 -0.02446940 -0.09282579 -0.17784530 -0.12255387 0.00429027 0.11879163 0.10923126 0.07071292 0.08776652 0.07810575 0.07597517 0.08709078 0.02392038 0.02237584 0.06738149 0.00487248 -0.02042653 0.08479680 0.01874378 -0.05659517 -0.11797503 -0.07299151 -0.01999883 0.04061417 0.03675129 0.02043687 0.03341808 0.01565192 -0.06151110 -0.10021026 -0.13285773 -0.05705985 -0.02995558 0.01029038 0.09530306 0.11252680 0.18871363 0.15339479 0.08484379 0.06420834 0.01775108 -0.00380575 0.02736282 -0.07525805 -0.10823268 -0.06011930 -0.08432196 -0.07164283 -0.09072077 -0.10856985 -0.05360806 0.01146872 0.04522369 0.00233332 0.05031856 0.00960939 -0.11089670 -0.17212179 -0.23682769 -0.23349412 -0.29491431 -0.17819992 -0.13926993 -0.10489335 0.04669805 0.03366654 -0.00149896 -0.00038352 -0.07781471 -0.07439149 -0.05976837 -0.04928671 -0.13283810 -0.06609130 -0.02397703 0.00878877 -0.06760362 -0.02440028 -0.02709171 0.03861876 0.00889591 0.03395914 0.03908311 0.02667498 -0.14066109 -0.24916121 -0.32427895 -0.35696116 -0.43559185 -0.43392345 -0.31225413 -0.20177849 -0.10664863 -0.07956776 -0.05938747 -0.09184263 -0.05926147 -0.10901208 -0.06265494 -0.07618799 -0.12951443 -0.03583897 0.01245278 -0.07680235 -0.13008970 0.01505905 0.00520924 0.01264830 0.01089475 -0.00629683 -0.02611488 0.04363224 -0.04322722 -0.13889933 -0.19560923 -0.26678315 -0.37793764 -0.38863388 -0.34734514 -0.26959375 -0.25605762 -0.20243540 -0.12747727 -0.12347987 -0.08647104 -0.09702218 -0.02752761 -0.12037449 -0.09846744 -0.02713726 -0.02272688 -0.11527349 -0.12476693 -0.03179265 0.04482166 0.00685422 -0.00119709 -0.00961427 0.02168986 0.02118674 0.04502150 -0.11001674 -0.08771724 -0.06031736 -0.17204347 -0.11192832 -0.16787779 -0.14984308 -0.16318308 -0.14954056 -0.07462122 -0.13084579 -0.06509268 0.03694196 0.07788008 -0.08411702 -0.07447321 -0.01625069 -0.05408535 -0.05796531 -0.07328849 -0.04710565 0.02280966 0.03928336 0.00423149 0.00186678 0.03399108 0.06031254 0.12354698 0.04379620 0.09558995 0.13543984 0.07013281 0.02161526 0.12820670 0.00345807 0.05166230 -0.04348708 -0.06636050 -0.07304629 0.02451952 -0.00020360 0.00628949 -0.08540524 -0.08561420 -0.03777772 -0.06645106 -0.04801598 -0.04099093 0.01979538 0.02349882 0.02674661 0.02699318 0.04549683 0.01366613 0.03750359 0.14687712 0.18333969 0.18536161 0.17210902 0.12632750 0.12738803 0.15231231 0.07106144 0.00991245 -0.04674744 -0.09275436 -0.03852062 -0.05527619 -0.08335412 -0.02886466 0.01000147 -0.02195483 -0.11506430 -0.09840345 -0.04774456 -0.02752710 0.02310298 -0.01472259 -0.01937773 0.01763677 -0.01840343 0.03947824 0.01789893 0.14730643 0.17904812 0.16094603 0.20646702 0.12679434 0.06864207 0.10115512 0.03076219 -0.08395738 -0.03303391 -0.09991817 -0.05929058 -0.12329304 -0.10465269 -0.03537834 -0.04037958 -0.07337169 -0.07422309 -0.07000823 -0.01934644 0.02327600 0.01888201 0.00018409 0.02432721 -0.00647375 -0.02390483 0.02407933 0.04948851 0.14288200 0.22645843 0.16237675 0.08382296 0.02213624 0.01888677 0.07092723 0.00062489 -0.09306110 -0.05198138 -0.06534988 -0.11547749 -0.09819695 -0.11667749 -0.09059989 -0.08223486 -0.00683246 -0.05674688 -0.02273849 0.03626311 -0.04116566 -0.00033477 0.02556671 -0.01264635 0.01784096 0.01283066 0.00541298 0.01963501 0.05759344 0.19638909 0.07330742 0.07676650 0.14196299 0.13039735 0.03516390 0.00268137 0.07409640 0.04405908 -0.02618600 -0.13076653 -0.08724280 -0.15089272 -0.03494722 -0.02479688 -0.03273927 -0.02312859 -0.01261421 -0.01090122 -0.03339289 -0.00446262 0.00684106 0.01421240 0.03259880 -0.01405043 0.00224361 -0.01645462 0.01269460 0.05551396 0.06723328 0.05271716 0.00818033 0.03110962 0.07058355 0.06034957 -0.01676441 0.03099625 0.09610038 0.09526493 0.05691700 0.05888082 0.03139561 -0.02558070 0.00476670 0.01957640 0.04718125 0.01385922 0.01604627 0.03494352 0.01402270 0.04030862 -0.01092085 -0.00484376 0.00988989 -0.00866475 0.03726839 -0.00482729 0.02988957 -0.00552199 0.02941540 0.00803811 -0.01259405 0.03707919 -0.01658406 0.04284254 0.00087794 0.04236722 -0.01015228 0.04431018 0.04007663 0.00235392 0.02689045 0.04717170 -0.00703670 -0.01107658 -0.01356623 0.02267419 0.04174525 -0.02163978
0.04856953 0.05200591 0.03368257 0.03682794 0.02176220 0.05204256 0.02902906 -0.01295336 0.00312280 0.02800328 -0.01149105 -0.01122878 -0.01123702 0.02330843 0.00037438 0.01180717 0.04193185 0.05535577 0.03869288 0.02162025 0.05503290 0.00432092 0.01328735 -0.00228432 -0.00420961 0.04836924 0.01769571 0.00993949 0.02958568 0.01510338 0.05321807 0.03352089 0.04020010 -0.01026567 0.04229910 0.04626412 0.02731063 0.01416383 0.02013346 0.05233593 0.05507235 0.02976551 0.04399085 0.06267476 0.04963592 0.07220092 0.04695987 0.02166295 0.05955871 0.06847031 0.01929667 0.01088252 -0.00991503 0.01605339 0.03560686 -0.01314863 0.02466256 0.03804664 0.05149965 -0.01365446 0.02903533 0.05515369 0.01443088 0.05911277 0.02046503 0.03175373 0.04714918 0.02671255 0.03440619 0.00199352 0.03765472 0.07618457 0.12161164 0.10999297 0.10555395 0.08838727 0.05731951 0.10079686 0.08532166 0.08058067 0.02411648 0.01759767 0.01882198 -0.00219661 -0.00952212 0.03590205 0.02228978 0.03235424 0.05596634 0.00254241 0.02961368 0.11531962 0.12624878 0.05923408 0.04476272 0.09475939 0.05733477 0.10545485 0.04833121 0.03873461 0.04487418 -0.00086245 0.11548891 0.14309208 0.13742021 0.04471784 0.00684578 0.01617489 0.05120337 0.01917071 0.05643065 0.01821718 -0.00055210 0.03902972 0.03780137 -0.01500928 0.05680700 0.02953292 0.02856680 0.07165561 0.04426888 0.03589310 0.05223693 0.02523364 -0.09868897 -0.08915503 -0.06836610 -0.04146447 -0.02779730 -0.00908746 0.07093375 0.13152045 0.09317148 0.00812413 -0.01976793 0.00292622 -0.02450211 0.01040211 0.04287382 0.05729445 0.00460452 -0.00248506 0.00549455 0.00995963 0.00534817 0.03148596 -0.04126769 -0.06507353 -0.07384816 -0.02387939 -0.08862036 -0.06055669 -0.10484228 -0.06941324 -0.03472590 0.01877825 -0.04451004 -0.02375999 0.01061086 0.01177371 0.10325686 0.03323839 0.04284512 0.01446266 0.02948849 0.01647992 0.05809818 0.05942523 0.02995356 0.02998205 0.02860722 0.04627607 0.04357459 0.02503701 -0.03040520 -0.08459076 -0.07269437 -0.10206130 -0.10667233 -0.03430055 0.00764251 0.05452310 0.01731190 -0.04823083 -0.08669958 -0.06841585 -0.04742206 -0.05994007 -0.08090091 -0.08146784 0.03959917 0.00448370 0.09536994 0.03119361 0.03031534 0.05795174 0.04701696 -0.00880784 0.02493595 0.05107149 0.01860989 -0.01805641 -0.02627305 -0.00953082 -0.02171276 -0.03578681 0.00430897 0.01112382 0.03704780 -0.02521021 0.00126826 -0.08078402 -0.03458937 -0.04197058 -0.07516951 -0.12602690 -0.11501445 -0.12295393 -0.04935800 0.02901659 0.00143039 -0.00316240 -0.00008313 0.00221838 0.02752917 -0.01078707 -0.01963490 0.00282908 0.02303745 -0.00170520 -0.06556436 -0.03945690 -0.02871434 -0.05756294 -0.02379314 -0.05087470 -0.06031592 -0.06385092 0.01377383 -0.04846181 -0.02908861 -0.02852030 -0.06648681 -0.14043471 -0.03191550 -0.00490302 -0.03051841 -0.00003244 0.05031829 0.01052039 0.03539374 0.03005299 0.00943130 0.01919340 0.02786475 0.01895668 0.02654398 0.04317937 -0.02876803 0.04051174 -0.02948859 -0.09783960 -0.03559954 -0.02322896 -0.08903015 0.00675461 0.07397576 0.04361497 0.04743792 0.04714143 -0.02238509 -0.09510437 -0.00171097 -0.03302613 0.01961375 0.04277692 0.09663354 0.02684379 0.01681146 -0.01654404 0.05433655 -0.00025630 0.00978772 0.03035673 0.04124253 -0.01500465 -0.01388720 0.02136650 0.01104372 -0.07983962 -0.04219556 -0.03324788 -0.00545576 0.06726617 0.06695647 0.10838903 0.10038786 0.06847905 0.03001948 0.02876636 -0.01115338 -0.02917540 0.00953104 0.06084756 0.08984758 0.04385801 0.07105656 0.03753523 -0.00259931 0.04985779 -0.01914324 0.01217012 0.02275817 -0.00730620 0.01658183 0.03644333 -0.06039606 -0.08140736 -0.10231768 -0.01332730 0.04281516 0.06622584 0.03594848 0.04817914 0.02477646 0.09213342 0.04653059 0.00343991 -0.06278743 -0.01546350 0.01077821 -0.05467922 -0.00697774 -0.01917373 0.00819397 0.00027962 0.05289084 -0.00904752 0.00888610 -0.01056928 0.00075868 -0.07821728 0.03201841 0.03207183 -0.04747763 -0.03574130 0.00368439 0.06728662 0.04450458 0.08431281 0.05165550 0.03081420 0.00427878 0.02339323 0.02960171 -0.00848192 -0.03475234 -0.03603762 -0.01110563 -0.03292643 -0.01962431 -0.04062916 0.04122716 0.05026834 -0.00321290 0.04252288 0.01524294 0.01275424 -0.02831970 0.01271840 0.07012016 0.01642524 0.05405800 0.04234101 0.05331138 0.06340051 0.04008163 0.03489885 0.00689469 -0.06070746 -0.07625111 -0.03118366 0.07369919 0.07543609 0.01149507 -0.04072501 0.02516915 0.05472887 0.05091656 -0.04079358 -0.03220364 0.02142706 0.01132069 0.01082121 0.00960932 0.01098490 -0.02265255 0.06971176 0.06223126 -0.00986858 -0.00138765 0.07172977 0.04211051 -0.00477776 0.02657381 -0.03858490 -0.06822649 -0.05601621 -0.08106523 -0.04811644 0.02861983 0.06998429 0.09920777 0.07722857 0.08064295 0.05060688 0.11279299 -0.03910626 0.01400561 0.04091366 0.03576340 0.00621574 0.01293424 -0.04073776 0.06654038 0.10612513 -0.02261188 -0.03888030 -0.04526132 0.00699865 -0.03026798 -0.06737132 0.03846707 -0.02006651 -0.09054494 -0.08330099 -0.05085581 -0.00587579 0.10032640 0.06803755 0.08083129 0.14684112 0.11278728 0.09683575 0.04981568 0.00533341 -0.00868695 0.01514063 0.03145753 0.04091157 0.04287437 0.02389229 0.11255718 0.10029119 -0.04563524 -0.03995051 -0.06314171 -0.08929013 -0.06947473 -0.07726057 -0.04370823 -0.05744721 0.00941693 -0.05078816 -0.00998100 0.03092796 -0.01127515 0.01205867 0.12777473 0.15232460 0.12657875 0.03835350 0.06416923 0.04189535 0.02705973 -0.01198886 0.00821226 0.05534684 0.00575396 0.06738541 0.07018168 0.08547150 0.01128964 0.00497206 0.01204574 -0.10549806 -0.02368025 -0.01284894 -0.01192363 0.03815833 -0.02722780 0.00453676 0.03530391 -0.00059464 -0.04336716 -0.01609197 0.08523557 0.13156661 0.08989073 0.00119666 -0.10686699 0.02554417 0.04152750 0.05315308 0.01768724 0.03142477 0.01782838 0.11248329 0.03303612 0.08337651 0.04650618 0.07487337 0.10279582 0.01066806 0.04252519 0.05514937 0.06570480 0.10868074 0.11766423 0.14736325 0.08394730 -0.03674392 -0.04957061 -0.03571488 -0.07976097 -0.00120007 -0.05467982 -0.06908696 -0.10409432 0.04561868 0.01505860 0.01052097 0.01103969 -0.00530039 0.01179342 0.11814959 -0.01435469 0.07820344 0.08881564 0.12106934 0.04988299 0.06130765 0.05533218 0.13513584 0.20299442 0.18227209 0.18370380 0.14072582 0.03556508 0.02542600 -0.00532043 -0.11055820 -0.04355647 -0.06687984 -0.07753740 -0.07080281 -0.09937182 0.02211460 -0.00628885 -0.00593319 0.00670213 0.02713333 0.03533451 0.05481092 0.02685645 0.04847097 0.00091347 0.02244874 0.07495007 0.13063306 0.13145284 0.16817299 0.19391911 0.19858220 0.19112270 0.11971591 0.03266302 -0.02044100 -0.00330975 -0.05246266 -0.06334172 -0.10141481 -0.03355401 -0.11112171 -0.05914121 0.03631403 0.00072828 0.02725122 -0.01188506 -0.00905569 0.00958717 0.01835722 -0.14037992 -0.07846072 0.00103043 -0.01280115 0.01459232 0.03813644 0.07446600 0.11263200 0.10162816 0.11490209 0.10235253 0.05231031 0.03440899 0.03882558 0.03104524 -0.10561045 -0.16316074 -0.13894314 -0.12269562 -0.08476224 -0.07891992 -0.00102853 0.06800117 0.01566458 0.04423328 0.00208979 0.02044167 0.00811012 -0.11128039 -0.03192748 -0.09347585 -0.06810633 -0.01790422 0.04297711 0.06596651 0.07307854 0.01589488 0.04678221 0.04864147 0.08623249 -0.01139364 -0.00361494 -0.08877632 -0.19253750 -0.17539389 -0.13854192 -0.04934551 -0.08258999 -0.10026417 0.01109021 0.02856609 0.02675528 0.01120195 -0.00031383 0.04185991 0.01561487 0.00604871 0.01564205 -0.04021381 -0.12384842 -0.09521347 0.00757757 0.05704013 -0.04107461 -0.01775654 -0.04006234 -0.03503762 -0.03274435 -0.14846300 -0.22333275 -0.17651848 -0.20311950 -0.10500418 -0.09763943 -0.03023008 -0.04729307 -0.06755393 -0.00921098 0.02368126 -0.00032740 0.05584636 0.05543808 0.00194051 0.05718904 -0.01049871 0.00691139 -0.06304489 -0.14234535 -0.20491987 -0.10822357 -0.23034357 -0.22612949 -0.19588682 -0.18245889 -0.11963505 -0.02674720 -0.19032444 -0.12878461 -0.00589569 -0.04433332 -0.09060112 -0.00073107 -0.05020647 0.03699902 0.05624282 0.05466441 0.02461794 0.04533640 0.05430561 0.04447549 -0.00757210 -0.01426423 0.04274730 -0.04532551 -0.04874862 -0.09345629 -0.16240081 -0.13769449 -0.22228897 -0.22091345 -0.20376880 -0.20455231 -0.13713326 -0.07837595 -0.07911260 -0.05933589 0.00351229 0.03462690 0.02709878 -0.03723157 -0.01481099 0.01495437 -0.00756210 0.04240941 -0.00182022 0.04782640 0.05270553 0.03697718 0.05058914 0.04455872 0.02313554 0.03201947 -0.00462388 -0.04020376 -0.04979463 -0.06831581 -0.06718935 -0.02168154 -0.00756405 -0.02383164 -0.05323382 -0.02690483 -0.01838155 -0.01036156 0.01679958 -0.00444617 0.00326164 -0.00822684 -0.00605142 0.04705329 -0.01010142 0.00795670 0.01647411 0.00825601 0.04743898 0.03740013 -0.01193227 -0.00615061 0.03179911 0.01567628 0.04324483 0.04227584 0.04959461 0.00213204 0.04847188 0.01442716 0.01954052 0.03260218 0.02401782 0.01914911 0.03345297 0.04002053 0.00284834 0.00590063 0.01269018 0.03641317 0.04398855 0.03734753 -0.00743966 -0.01400295 -0.00828343 -0.00388896
0.02290540 0.02500469 0.05004494 -0.01534531 -0.00047948 0.04203345 -0.01351781 -0.00000123 0.05417708 0.02852738 0.04290367 0.05409750 0.00993744 0.02820611 0.04752571 0.05517922 0.04299997 0.03239201 0.03304112 -0.00464086 -0.00814391 0.00030105 0.03320753 0.03465640 0.00245675 0.02206670 0.02643836 0.02428507 0.01269853 0.03185901 -0.00106925 0.03432390 -0.00570624 0.02032812 0.00555181 0.00270962 0.01112039 -0.00653530 0.04762926 -0.02401530 0.02069751 0.00467004 0.03184534 0.04405046 0.00441174 0.00614974 0.04555359 0.00192417 0.03634401 0.03223762 0.01067467 -0.00396905 -0.01230524 0.02792467 0.01204148 0.02248950 0.04919404 0.00148575 0.04572202 0.03071649 0.04432172 0.00794166 -0.01155154 0.01821895 -0.00149405 0.01690292 0.00085699 -0.00502540 -0.04292825 -0.04411593 -0.05173222 -0.02448189 0.00516834 0.04359587 -0.01317878 -0.01540406 0.01176411 0.01878875 0.04035515 0.04655688 0.03268653 0.01996761 0.04033631 0.02465969 0.01427539 0.00111255 0.01224488 -0.01426730 0.04531598 0.02238973 0.00645544 -0.00664257 -0.01425439 -0.00806930 -0.03243104 0.02428124 -0.06704397 -0.06308278 -0.10749017 -0.05793493 -0.05122391 -0.09859496 -0.02232674 -0.01054143 0.00430975 0.04274055 0.04962854 0.06321145 0.01159571 -0.01029860 0.00628705 0.04522921 -0.01184635 0.03044220 0.01988588 0.05082363 0.03945475 0.05818200 0.02422336 0.04638111 0.01919005 0.01827459 0.03720140 0.05662423 0.03836048 -0.00759459 -0.05776947 -0.06659818 -0.12116560 -0.04490772 0.03216296 0.02595779 0.08910124 0.04622727 0.08243740 0.04662520 0.00383476 0.00498828 0.00408828 0.02910970 0.04099460 0.01640359 -0.00893450 0.01181748 0.01578738 0.00592813 0.05703950 0.09061254 0.08064587 0.07631978 -0.01284923 0.02697697 0.07039625 -0.04481322 -0.06705549 -0.05493002 -0.06717553 -0.08102216 0.05946616 0.11477184 0.07914705 0.10683341 0.05071251 0.03690653 0.04215835 0.05571517 0.04152764 0.01280274 0.05498707 0.02754893 -0.00813632 0.00766246 -0.01719640 0.07275897 0.06625322 0.07128139 0.04858050 -0.00260296 -0.04984289 -0.05630859 0.03007164 0.02581097 -0.04050246 -0.06624401 -0.14205763 -0.14534095 -0.06716764 0.06446929 0.10419633 0.10362213 0.08658707 0.05962372 -0.03446501 0.03475047 0.03673835 0.05264330 -0.00201627 0.05419379 0.02074112 0.00099482 0.01958907 0.02318099 0.03707521 0.00658286 0.02262436 -0.01809977 -0.04366883 -0.03424370 0.03505467 0.03885176 -0.06915431 -0.13900566 -0.17483674 -0.09148392 -0.00756259 0.04360823 0.06812782 0.09990117 0.08613829 0.05246557 0.05659727 -0.02260827 0.04145216 0.01984154 -0.01257537 0.00086816 0.00968849 0.07137586 0.07655460 0.00429008 0.00221267 -0.02043528 0.02309253 -0.00602235 0.01728050 0.06792986 0.13513649 0.10706189 -0.02798173 -0.11635880 -0.11073726 -0.06286879 0.01945041 0.04526736 0.05034079 0.03982053 0.04266731 -0.00646115 -0.04296312 0.08061980 0.02448115 -0.00492913 -0.00650883 -0.00060313 0.03254372 0.05017395 -0.02489692 0.02689258 -0.01336781 -0.01808180 -0.02002759 -0.03350832 0.02459060 0.13104504 0.12669978 -0.00561040 -0.06053314 -0.10463690 -0.04624872 0.06406049 0.05198728 0.06874830 0.05792979 0.04660254 -0.03407735 0.03895506 -0.04594516 0.05038257 -0.00071533 -0.01117255 -0.00514239 -0.00695771 0.00763328 0.04587537 -0.00855708 0.02361173 -0.01030685 -0.04072357 -0.03248047 0.03303407 0.09411278 0.15589042 0.05043932 -0.02576498 -0.10634449 -0.14639562 0.03496618 0.12454008 0.10443989 0.01301108 0.00316841 -0.04742709 -0.07975636 -0.03308448 0.00227702 -0.04071647 0.02548326 0.04580129 0.01441286 0.03532871 -0.00963793 0.05020811 -0.02949842 0.05965463 0.03430711 0.03135667 0.03127366 0.05137890 0.06699546 0.04546564 0.00086870 -0.02283728 -0.11225844 -0.10098979 0.04707771 0.10619365 0.04999867 -0.02956590 -0.06841016 -0.09202882 -0.01583639 0.01558239 0.03822357 -0.04089952 0.03912083 0.02543013 0.01758519 0.04061221 0.04617321 0.02239986 -0.07715082 0.00390460 0.07782475 0.04064703 0.00529153 -0.00889910 -0.07419077 -0.06865010 0.01416459 0.06359055 -0.04485110 -0.01568888 0.07096877 0.12359726 0.02806665 -0.01312683 -0.03702959 0.04156809 0.10762133 0.05168636 0.06475966 0.01831829 -0.02515656 0.03823122 0.02706970 0.04186485 0.00900885 0.00775159 -0.03235946 -0.03488075 0.02679771 -0.01617389 -0.03995322 -0.01117489 -0.06991924 -0.03414717 0.00179618 0.06139090 0.04158494 0.15034129 0.10304729 0.03888091 0.07617483 0.01928652 0.04615369 0.14047945 0.15257289 0.06405117 0.04190078 0.03397837 0.02818805 0.03754701 -0.00319730 0.01492278 0.03883494 0.06103547 -0.01986413 0.00716643 -0.01985495 -0.07379462 -0.10370579 -0.15456541 -0.11797184 -0.04294259 0.06428676 0.05301382 0.09069965 0.07062242 0.09696224 0.08933935 0.00462453 0.06598283 0.05738670 0.06972694 0.02882879 0.02220873 0.02828316 0.02381143 0.01970581 -0.00974370 -0.01444837 0.00465329 0.02489093 0.10637964 0.08412922 0.00952069 -0.04795633 -0.10472813 -0.11988254 -0.12593298 -0.06976064 0.03851486 0.03884797 0.10374195 0.12120598 0.07674063 0.10871023 0.01948145 -0.01795760 0.03506276 -0.00663056 -0.04146403 0.01444694 0.06499019 -0.05247918 0.02452251 0.03487811 0.01287947 -0.00249638 0.04347076 0.04725581 0.06402027 0.04755945 -0.06386848 -0.05469437 -0.09290298 -0.13409597 -0.03234470 0.02344522 0.01573391 0.05553805 0.08813063 0.11602619 0.06120544 0.04502921 0.00399665 -0.00418439 -0.00768907 0.01636053 0.01289252 -0.02917600 0.00209951 0.00167444 -0.01792995 0.05406275 0.00929047 0.03230919 0.00632976 0.03613664 0.03621176 -0.00421167 -0.04499887 -0.10843273 -0.10114042 -0.03357451 -0.00891097 0.04775493 0.04932855 0.03911001 0.03339095 -0.01427341 -0.01660518 -0.03033154 -0.08980715 -0.08931901 -0.06823362 -0.04430251 -0.01054213 -0.05174821 0.01776578 0.01366253 0.01916210 0.00974008 0.04511787 0.04475381 -0.00470480 -0.00968911 0.01948477 -0.04940344 -0.07937000 -0.10441332 -0.09407605 -0.02473436 0.04646776 0.06147808 0.05011764 0.03976783 -0.03436745 -0.07494543 -0.11358503 -0.00307783 -0.08997033 -0.08734010 -0.06748765 -0.04839386 -0.06567085 -0.06281084 -0.01598770 0.06318348 0.07698693 0.02037081 0.00967253 0.03339044 0.05234930 -0.00198516 0.06311500 -0.00717144 -0.07633663 -0.06988743 -0.03184192 -0.01870104 0.07904192 0.04529822 0.03630647 -0.01260486 -0.05266438 -0.05073929 -0.04076392 -0.03964947 -0.07777309 -0.07525983 -0.04973514 -0.00719253 -0.05329192 0.01167453 -0.02086344 -0.01728163 0.00700139 -0.00485672 0.02682762 -0.00010572 -0.01615426 0.01549579 0.05737974 0.03295819 -0.08950079 -0.01633500 0.05959183 0.01278108 0.04071475 -0.00858126 -0.01295922 -0.04004029 -0.06127333 -0.03841005 -0.00548175 -0.05019658 -0.07197565 -0.09646134 -0.04744203 0.01254653 0.03212762 0.01639473 -0.01879196 -0.00769813 -0.01351836 -0.00473849 0.04796509 -0.00269188 -0.00058074 0.00745145 0.06467579 0.06572527 0.01119708 0.00790927 0.05118022 0.07787833 0.03484172 0.05882487 0.06514143 0.01270098 -0.07660130 -0.07094782 -0.01357330 -0.08313531 -0.09933857 -0.07892022 -0.03842051 0.01081865 0.04449825 0.05767268 -0.01621612 -0.01073963 0.00210461 -0.02601527 0.02233441 0.04575323 -0.00855139 -0.01224110 -0.03850330 -0.02059112 0.05918074 0.10390084 0.09508945 0.12137672 0.07086326 0.04408023 0.04214223 0.03963666 0.00234690 -0.05535145 -0.05093046 -0.09768640 -0.09901865 -0.02676591 -0.01815160 0.04716666 0.05060552 0.04587309 -0.05434442 -0.03455274 0.03319236 0.03285976 0.02665084 0.02841412 0.01733932 -0.00224736 -0.04324645 -0.02420520 -0.04676003 0.02363501 0.08712146 0.08730855 0.07900115 0.05233035 0.09937818 0.09259554 0.10255544 0.00675980 -0.01866063 -0.04081169 -0.09423757 -0.04356022 -0.01716519 0.07307126 0.09888852 0.04260961 -0.01026941 0.02462893 0.03962512 0.05184476 0.04700330 -0.00084749 0.03910159 -0.01027567 -0.00563826 -0.01385256 -0.08433143 0.08069908 0.02291469 0.00463460 -0.04571949 0.02700427 0.11030838 0.03039550 0.03606980 0.05353941 -0.05048211 -0.03309208 -0.04457539 0.00264618 -0.02348932 -0.01742283 0.05446878 0.01442568 -0.00687783 -0.02274019 -0.01035534 -0.00443840 -0.01131037 0.01753069 0.01202479 0.04305019 0.04584520 -0.02447897 0.01775495 -0.00345557 0.01146517 -0.05461656 -0.00423261 0.05041730 -0.00060207 -0.01796965 0.00069048 -0.01652506 -0.00018346 -0.04608150 -0.06391463 -0.01550093 -0.06473210 -0.09876366 -0.07941314 -0.03954541 -0.00960411 0.01034323 -0.00202241 0.01045030 0.04534034 0.02108041 0.05448288 0.02289758 0.03798236 0.06041271 0.00238555 0.02003791 0.01103873 0.04061317 0.00662188 -0.08482711 -0.09318024 -0.04336178 -0.05866116 -0.11255622 -0.09043775 -0.10660187 -0.08075333 -0.01409193 -0.02549237 -0.04132823 -0.02271548 0.00059876 -0.01644994 0.01407928 -0.00102787 0.01654594 0.05544614 0.02265109 0.02079045 0.04726071 0.04537516 0.01351679 -0.00559327 0.03309006 -0.00101047 0.02505543 0.00831632 -0.01575184 0.00286141 0.00533113 0.05000469 0.00044228 0.00658695 -0.00319868 -0.01358334 -0.00029046 0.02917559 -0.00861172 0.02093716 0.00516329 0.04923048 0.05271272 0.03434514 -0.01276171 -0.00443063
-0.03259366 0.02320109 -0.01510744 0.02417559 -0.04374269 -0.01255156 -0.04363171 -0.01938936 0.01816674 0.01230593 -0.02359646 -0.01529539 0.00582687 0.00198896 0.00035364 -0.02640280 0.00631633 -0.03490718 0.01606075 0.02492575 -0.02504212 -0.02575761 -0.00234909 -0.01386925 0.00931813 -0.03208260 -0.02849505 -0.01694250 0.01744781 -0.00755135 0.00285877 -0.01612103 0.00604870 -0.00336348 0.02701827 -0.00186487 0.00620969 0.02665108 -0.01090905 0.00215450 0.02710194 0.00675422 -0.02294224 -0.01925630 -0.01475894 0.01530890 0.00905466 0.00801260 0.00122890 -0.00219228 0.01151169 -0.03881329 -0.04098575 -0.02467515 0.00249898 -0.00672692 -0.02236211 0.02339490 0.00197538 0.02324700 -0.03896807 0.01795910 0.01224663 0.02891019 0.02227277 0.02141772 0.02854563 0.03356447 0.04902500 0.05391684 0.07482753 0.07884045 0.09497570 0.01540417 0.00389658 -0.01382791 0.02634009 -0.00955631 -0.02828101 0.00871729 0.02775719 0.00452090 0.01748987 0.00190863 -0.02187358 0.00310437 -0.00535437 -0.03408336 -0.03104575 -0.00760636 0.04069723 0.04935073 0.05374444 0.06526388 0.07345339 0.07938790 0.10988866 0.10792056 0.03687901 0.05065202 0.05626122 -0.03739918 0.04481890 0.04113436 -0.00182227 -0.00801608 -0.01934235 -0.01130925 -0.01595227 0.01594508 0.00131533 0.01542963 -0.02104651 -0.02636845 0.01814190 0.00777076 -0.03866918 -0.02974886 0.05729215 0.01276293 0.11862317 0.13073936 0.14057092 0.13635637 0.08457929 0.07409354 0.04978313 0.05376267 0.07342761 0.01045260 0.02294485 0.06197364 0.02861589 -0.04209957 -0.05904457 -0.03514884 -0.02526124 -0.00894084 0.02471161 0.01662769 -0.00904621 -0.01848078 -0.01218730 0.02158977 0.02266714 -0.03879914 0.01580758 0.01745143 0.01489938 0.01065497 -0.01546041 0.01775507 0.08106535 0.05896964 0.00152421 -0.00225081 0.01687487 0.00406704 0.02182659 0.07757966 0.03352150 0.01533154 0.00283678 -0.09314101 -0.07981326 0.02738364 0.01269818 -0.00723532 0.01451235 -0.02691528 -0.02826794 0.02899888 -0.02928283 -0.07688985 -0.08828122 -0.05582232 -0.08684143 -0.04871826 0.00958562 0.04254689 0.05058284 0.08317453 0.03446495 0.04416298 0.04098459 -0.00357675 0.00095901 -0.03251863 -0.05577853 -0.06510976 -0.06771013 -0.12893066 -0.10429242 0.00727388 -0.01582107 0.01907578 0.01654775 -0.03539271 0.00164780 -0.00940326 -0.03533013 -0.09393255 -0.09372456 -0.09190582 -0.03043693 -0.07618418 -0.04241048 -0.00940279 0.04784639 0.09602386 0.12399822 0.08760484 0.03221213 -0.04043994 0.01152532 -0.05338649 -0.11334104 -0.05847606 -0.10249210 -0.12337121 -0.06871904 0.01490470 0.02362060 -0.03046537 -0.04373688 -0.02794437 -0.00060220 -0.00388087 -0.03405151 -0.11390258 -0.11402112 -0.07465765 -0.00609502 -0.08617676 -0.02164022 0.00395643 0.00623978 0.07491409 0.05078241 0.03192141 -0.00249927 -0.03628217 -0.05658368 0.03245087 -0.12533957 -0.06655947 -0.10579479 -0.07052897 -0.08247374 -0.03685763 0.02588561 -0.00478469 -0.01577944 0.02091330 0.02241010 -0.00450982 -0.05563442 -0.11071345 -0.03310214 -0.01058532 -0.01529779 0.00861547 0.04421198 0.01769586 0.01272366 -0.05777819 -0.07411280 -0.09622361 -0.10934186 -0.06969196 -0.00213284 0.09198899 -0.00928633 -0.02621157 -0.00912388 -0.05749696 -0.04617170 -0.01950954 -0.03943459 0.00785509 0.01978403 0.02682323 -0.03298114 0.00535413 -0.03923340 -0.06337450 0.00677021 0.01382827 -0.02518814 0.01179485 0.03546818 0.04627789 -0.04539435 -0.10147354 -0.12057240 -0.19712746 -0.09190932 -0.07592472 0.04435553 0.14325923 0.08203540 0.00150652 -0.01192638 0.00968907 0.00081908 -0.01063063 -0.04058271 -0.01604390 -0.00340536 -0.04050739 -0.03092739 0.02459482 0.03489234 0.05986918 0.07831471 0.02342273 -0.00209207 0.01414893 -0.04326200 -0.06407344 -0.07439966 -0.07171959 -0.04234663 -0.09769151 -0.01759464 0.02313597 0.11061245 0.12311865 0.08799577 -0.00319460 -0.03343554 0.07423066 0.06866715 0.06859618 0.01264976 0.00987800 -0.03466115 -0.00751034 -0.00707543 0.08018056 0.03782992 -0.01843487 -0.00531077 -0.03736525 -0.00890705 0.01011815 -0.04236370 -0.07319975 -0.11684801 -0.08106531 0.09268761 -0.00933378 0.01974833 0.02420353 0.01862453 0.08634704 0.00036879 -0.01669315 -0.04051446 0.01975191 0.04986982 0.06267294 0.00339764 -0.01548319 -0.04366757 0.00380240 0.01250241 0.05353908 -0.01006130 -0.06439060 -0.03908642 -0.04084205 -0.05195920 -0.04620486 -0.05551022 -0.06105823 -0.08430447 0.02254112 0.04505673 -0.01175716 0.02680737 0.03817789 0.04557198 0.05896974 -0.00940764 -0.06816320 -0.04000090 -0.03751766 0.04333430 -0.01594430 0.01026547 -0.00613870 -0.00465479 -0.00367511 -0.03163556 0.02073278 -0.04565817 -0.14422558 0.00058248 -0.03063145 -0.03960229 -0.04454582 -0.01001465 -0.03132964 -0.06589120 0.09544200 0.09858060 0.03184101 0.02881008 -0.00406933 -0.03725835 -0.09369233 -0.08648787 -0.08708766 -0.04089062 -0.07094123 -0.03713493 0.04959890 -0.01342633 -0.00056966 0.00502568 0.02016498 -0.02607674 0.00385671 -0.06119082 -0.01267054 0.03013733 -0.02756591 -0.04111940 0.01517950 -0.00699790 -0.02945012 -0.00205042 0.05344048 0.10588891 0.02076504 0.04681442 -0.02620696 -0.01739118 -0.03630136 -0.06810516 -0.04385948 -0.03903584 -0.09643552 -0.00503616 0.03768149 -0.02294303 -0.02574628 -0.01891020 -0.03462445 0.00006259 0.02709890 -0.04394373 0.05256461 0.04133210 -0.02036890 -0.00228642 0.03069240 0.02887931 0.06133983 0.04410728 0.07618801 0.04600024 -0.07343290 -0.04409713 -0.00379732 0.01290792 -0.02623104 -0.07397478 -0.07688536 -0.02401459 -0.04191622 0.03117028 0.06947044 -0.00934304 -0.02840843 0.00616367 -0.01714962 -0.00074463 0.00176864 -0.01208474 0.02371806 0.05336577 -0.00560964 0.00039402 -0.02399499 0.04232653 0.08187926 0.09282969 0.05112797 0.00986878 -0.03963824 -0.02865501 -0.04666050 -0.11136835 -0.09243491 -0.09090322 -0.08151283 -0.10030754 -0.02825064 0.00679758 0.06865019 0.00512634 -0.02554162 -0.02109141 0.01838798 0.00006147 -0.01393995 0.04076032 0.02823899 0.06558095 0.01605728 -0.01735527 -0.03226604 0.06248938 -0.01948907 -0.01322344 0.04406905 0.02776352 0.00207811 -0.06387559 -0.03246517 -0.10167097 -0.08387030 -0.04842063 -0.05967337 -0.01387092 0.01639869 0.00477020 0.07195850 -0.02900400 -0.02695350 -0.03518431 -0.02034848 -0.02640820 -0.04406611 0.01220579 0.04610843 0.01607967 0.04784691 0.02544826 0.04020235 0.05209861 -0.01093185 -0.00172686 0.05156175 0.02674219 0.01041321 0.00348160 0.00808473 0.00654444 -0.00110481 -0.07106751 -0.02200093 0.11850631 0.07717182 0.04235648 0.05239887 -0.01418678 0.02762519 0.01758759 -0.03144376 -0.03614713 0.00401287 0.07575987 0.03568536 0.05614388 0.02631063 0.02490904 0.01982099 0.01449796 0.00918408 0.00624965 0.08112968 0.03854253 0.09444439 0.04740005 0.03430271 0.05766097 0.00232948 0.00727446 0.05326312 0.11326268 0.07409675 0.09459740 -0.00332594 0.02118788 -0.00933168 -0.01228426 -0.03740536 0.03514954 0.07452808 0.05440722 0.00995187 0.02727245 0.07771009 -0.01425392 -0.00624516 -0.00322764 -0.00535969 -0.00066029 0.10766637 0.10917389 0.00730811 0.00083048 0.04724363 0.03974680 0.08209793 0.08582542 0.05202205 0.12766688 0.10597724 0.05035485 -0.03138312 -0.05099624 0.00236067 -0.03527109 -0.03306444 0.00091903 0.02832576 0.02761466 0.02022613 0.03869903 0.01244856 -0.01536959 -0.00104777 -0.00870435 -0.05538876 0.00717233 0.00873222 0.02671845 -0.03991712 -0.00073176 0.02832559 0.05523551 0.03083916 0.09883688 0.07818938 0.04046299 0.02898729 0.03498373 -0.03211736 -0.01792000 0.01915736 -0.02740329 -0.04251304 0.01997141 0.01442988 -0.04488016 -0.06690871 -0.13301301 -0.10276671 -0.05431154 -0.05958203 -0.07054371 -0.06666423 -0.04845826 -0.02584731 -0.05600354 0.02054557 0.01406465 0.05178564 0.07909382 0.07839528 0.07761215 0.01500933 0.12486258 0.05550697 0.03916305 -0.03077505 -0.01671666 -0.03975873 0.02120118 -0.00687284 -0.03684584 -0.03739203 -0.02129411 -0.08559798 -0.11267323 -0.13473660 -0.10936594 -0.08674807 -0.10220344 0.00185288 -0.02761477 0.02463619 -0.03037094 0.03483533 0.08870557 0.05779324 0.13582221 0.09389415 0.02484239 0.01639866 0.05760476 0.03685367 -0.02130463 0.01350920 0.01840444 0.02423515 0.00074208 -0.04114303 0.00913630 -0.00124395 -0.02829883 -0.05533391 0.00081838 -0.07470868 -0.05267954 -0.05429343 -0.04786880 -0.00580372 0.07465924 0.09114150 0.05973247 0.06557541 0.08162387 0.12654342 0.12406538 0.11158253 0.10977846 0.05569703 0.00640248 -0.01177685 -0.02188235 0.01742812 -0.00517027 -0.03602455 -0.01386216 -0.00439744 -0.01958970 -0.03841037 -0.00974114 0.00644888 -0.00170158 -0.01415766 0.03027368 -0.00325813 0.07207305 0.07172003 0.14204903 0.10471942 0.08874432 0.00923812 0.02775532 0.10101075 0.08617861 0.02154543 -0.01219994 0.03738299 0.03164783 -0.01207336 -0.02510949 0.01105038 0.01532539 0.01259305 -0.02362665 0.01588742 -0.01347172 -0.00481401 0.02414615 0.02009643 -0.02678519 -0.01955469 0.01009867 -0.00482093 -0.03039578 0.02838188 0.00596436 -0.03037872 0.02097990 0.01977960 -0.03724620 0.01891625 -0.03985271 0.01616670 -0.01950220 -0.03482343 0.01699750 -0.00018303 0.01158921 -0.01766025 -0.01820572 0.01473035
-0.02048774 -0.00093819 0.03313962 0.00364154 -0.00881025 0.00769210 0.03013603 0.03052209 0.03339586 0.00199110 0.00174583 0.03022908 -0.02426649 -0.00079892 0.02614249 0.03308633 0.02198061 0.03578297 0.03586997 0.01386852 -0.00043487 -0.02040369 -0.02394404 -0.01008824 0.02989743 0.03399255 0.01697752 0.01210185 0.01390643 -0.00061767 0.03019303 -0.01954588 -0.01367902 -0.02957948 -0.03073052 -0.02707240 0.03461600 -0.01062564 -0.02117016 0.01586685 -0.01229960 -0.03350237 0.02139622 -0.01855909 0.00057456 -0.02844161 -0.01199755 0.01338269 0.02006201 0.01899891 0.02288253 0.00781168 -0.01911679 -0.00721178 0.01627144 -0.00219947 0.00227298 0.03269066 -0.00221726 -0.00694372 -0.01622575 -0.01402888 0.03643344 0.02894964 -0.02254245 0.01623753 0.00182418 0.04930122 0.03134082 -0.03933220 -0.03522395 -0.02502321 0.00030626 0.03919682 0.03212117 -0.05943987 -0.04564919 0.00796478 0.00224613 -0.00957823 -0.02848489 -0.00362700 -0.00521744 0.01404433 0.00170634 -0.00350260 0.01261731 -0.03070235 0.01006210 -0.01412077 0.03387139 -0.01728155 0.05889580 0.05927385 0.09632481 0.10019641 0.09258474 0.03076941 -0.02110451 0.08350198 0.03830691 -0.03463344 0.04691865 0.06120039 -0.00459178 -0.07841174 -0.09892406 -0.01850971 0.01288074 0.06847826 -0.01954210 0.03258693 -0.02565572 -0.01217022 -0.01836786 -0.01752707 0.00561543 -0.02576456 -0.01323968 0.00670193 -0.07673350 -0.06205473 0.03340563 0.06789397 -0.04812625 -0.02521468 0.00142444 -0.01786194 -0.04679859 -0.05689910 0.04913352 0.02967301 -0.00202042 0.02808214 -0.08097903 -0.05566031 0.06745217 0.04693642 0.00273050 -0.03831597 0.00301852 0.00951548 -0.01159743 -0.01102283 -0.00041147 0.00518653 -0.00523132 -0.04643263 -0.05807287 0.03363266 0.01740332 -0.00043643 -0.02129122 0.01210219 -0.03205967 0.00091383 0.05749379 -0.01100116 0.02203091 0.01272037 0.05591034 0.02952614 0.03253902 -0.01332266 0.02277250 0.00348354 0.00956864 -0.03765468 0.01140075 0.01530858 -0.00008425 -0.01876621 0.01987422 0.07819667 0.05422020 0.01861871 -0.01949670 0.05924843 0.03964691 -0.05131252 -0.00932695 0.01445817 0.04613371 0.09824736 0.16138379 0.08199521 0.12558436 0.09189831 0.03145509 0.01635098 -0.02960562 -0.00613078 0.07449325 0.04697433 0.02129643 -0.00283440 0.02902787 0.02641073 0.03773298 0.01628475 -0.00239022 0.02094220 0.05486849 0.00540037 0.03210200 0.05928594 -0.01069268 0.05608454 0.05680924 0.03479264 0.09762890 0.04145741 0.06747109 0.05273881 0.03850031 0.10366735 0.06142129 0.02759395 -0.02960002 -0.02925088 -0.01249091 -0.04139767 0.04867166 0.00702627 0.00199815 -0.02166737 -0.00040701 0.02274853 0.01576137 -0.02830153 -0.06708093 -0.01381559 0.07700249 0.03462742 0.01368339 0.08435189 0.03811378 0.04751575 0.11939631 0.04862051 0.02454459 0.01689589 0.08118827 0.06185213 0.07943357 0.06844227 0.05737096 0.01067873 -0.00616962 0.05857723 0.00455182 0.01198985 0.01942243 -0.00334029 0.02233431 0.00949434 0.02800562 0.01465017 -0.07408768 -0.08477322 -0.04342819 -0.01358735 -0.07712878 0.04559131 0.05464384 -0.07927286 -0.07730936 -0.01740420 -0.00570337 -0.01506449 0.05094514 -0.04924823 -0.03541596 -0.05747024 0.04114729 -0.09014352 -0.11713979 -0.05163446 -0.04087847 -0.00354747 -0.00200858 0.01914005 0.03216573 -0.01315086 -0.01816188 0.02746048 -0.00168063 -0.07601450 -0.11423046 -0.08624390 -0.09875920 -0.09142798 -0.13785446 -0.13394278 -0.16679108 -0.06929307 0.05374784 -0.04522170 -0.02313902 -0.05721664 -0.16840219 -0.11359039 -0.12722641 -0.17079942 -0.15367311 -0.01220670 -0.03209892 0.00370181 -0.02794256 -0.01125444 0.02588067 0.02627314 -0.04520948 0.02337806 -0.03761337 -0.15585446 -0.18113141 -0.14841622 -0.09198197 -0.16237411 -0.19714327 -0.18452893 -0.07187296 -0.03401040 0.03916256 -0.03499556 0.00376786 -0.10068066 -0.13478553 -0.09710553 -0.11658776 -0.12361613 -0.14547294 -0.01883148 -0.04945264 0.02032106 0.02906013 0.01359731 -0.00001278 0.03194191 -0.04975055 -0.06768278 -0.10596237 -0.21997945 -0.14163364 -0.16227543 -0.14342028 -0.20864567 -0.19116016 -0.08163128 0.01724947 0.04613956 0.06256188 -0.00742135 0.05588653 -0.03799708 -0.13643530 -0.09189813 -0.13567612 -0.15529323 -0.06276395 0.03061795 0.00309148 -0.03392101 -0.03401991 -0.02235891 -0.00668279 0.00546837 -0.06262229 -0.15880212 -0.14554372 -0.15473239 -0.13909520 -0.13798024 -0.07952779 -0.12234803 -0.06078287 -0.00886319 -0.00336435 0.01168424 0.08735514 0.04068789 -0.00395846 -0.03639608 -0.07726095 -0.05210388 -0.08480517 -0.13490453 -0.03299125 0.00735962 0.02557184 0.01179569 0.02596859 0.02554375 0.02534294 0.01239426 0.00410420 -0.07829568 0.03427084 -0.03845371 -0.14252859 -0.17823674 -0.04958142 -0.11589240 -0.07577351 -0.00053081 0.03772190 0.02956147 0.08459443 0.01048377 0.14382204 0.06702919 0.00953291 -0.06085231 -0.10337728 -0.04642417 -0.00467232 0.05290747 0.03503625 -0.01669708 -0.02716692 -0.01721410 0.02215608 0.03261143 0.05597001 0.10655531 0.18628125 0.02007684 -0.11909984 -0.21772155 -0.10772917 -0.12663522 -0.13599843 -0.02145251 -0.09308214 -0.03524774 -0.03591268 0.03261435 0.02513803 0.11656685 0.12959188 0.01030161 -0.15624504 -0.11747298 0.06395156 0.03816436 0.03505580 0.03119476 -0.01584733 -0.02001509 0.01187042 0.03416817 0.13221991 0.17466530 0.16744271 0.11420242 -0.01272805 -0.05485773 -0.06942184 -0.15679920 -0.09228457 -0.07559652 -0.06537569 -0.06023331 0.00450462 0.05031503 0.01377070 0.12403557 0.06510954 0.00099652 -0.04020877 -0.12183470 -0.02345843 0.02368602 -0.00819315 -0.02063643 -0.01432137 0.02439459 0.02120138 0.03579905 0.07909696 0.10394134 0.22424084 0.15749766 0.24350467 0.14951687 -0.00055223 -0.02392537 -0.09103169 -0.11335261 -0.06159795 0.00526926 -0.01979462 0.04374624 0.04137732 0.07776551 0.01270101 -0.08132093 -0.13649867 -0.12651245 -0.05412244 0.04396103 -0.01165774 -0.01773879 -0.02192903 -0.02535700 -0.04059799 0.08927307 0.10699038 0.17765769 0.21240760 0.23391680 0.24125351 0.23061404 0.17648913 0.15708797 0.08335209 0.07527482 0.03860402 -0.01636008 0.06008189 0.10332626 0.06946891 0.08052105 -0.02752833 -0.03699809 -0.14354734 -0.11801236 0.01664701 0.01172626 -0.00447730 -0.01983438 0.03057457 0.01884176 -0.01045101 -0.00657569 0.05475603 0.10155413 0.04838292 0.13300340 0.19240089 0.21414301 0.21296230 0.22283593 0.11378745 0.07136200 0.01171447 0.03457115 0.04856643 0.10600547 0.02795512 0.02368257 -0.00704977 0.00277971 -0.07270724 -0.02615188 0.03152017 0.00069963 -0.02463042 0.01990785 -0.00789089 0.02811152 -0.00805994 0.05575211 0.04251819 0.06153966 -0.00963592 0.01207547 0.08698226 0.08922639 0.07484401 0.07451187 -0.02029198 0.02327933 0.00732585 -0.03937547 0.07380182 0.04275538 0.03177063 -0.02975798 -0.04682965 0.01311817 -0.01456240 0.02837818 0.08406579 0.07486520 0.00284429 0.02920746 0.00962141 0.01450104 -0.00804833 -0.01473038 -0.04045944 0.00120386 -0.06431686 -0.00838574 -0.01979381 -0.02595254 0.00672657 -0.08458646 -0.04167714 -0.04141016 -0.04448908 -0.00014249 0.15171738 0.05438553 0.02804051 0.04847899 0.01087452 0.04078069 0.07498350 0.04546513 0.13968238 0.04415805 -0.05832291 0.01727940 -0.00779278 0.01297063 0.01678209 -0.00265468 0.01080844 -0.07072221 -0.09779651 -0.07859105 -0.11650144 -0.09791843 -0.12003829 -0.14029518 -0.15665415 -0.13871084 -0.06062457 -0.01880802 0.09772279 0.11441166 0.05822697 0.02718893 0.06682292 0.05730449 0.00676639 0.05532694 0.15441702 0.03803936 0.00501152 -0.01338497 -0.01607595 -0.01478478 0.02988876 0.05781450 0.04857600 0.04272347 0.06773730 -0.02503262 -0.14752668 -0.11686974 -0.12365410 -0.10808302 -0.12144015 -0.05939534 -0.02951175 0.02179682 0.06555192 0.05639203 0.03714937 -0.00399107 0.00669669 0.04091768 0.07843684 0.12817682 0.09063869 0.05746046 0.03225103 0.02372350 -0.02614331 -0.00598374 0.02471239 0.02278565 0.01408707 0.05901959 0.07119636 0.08465890 0.00043700 -0.07695198 -0.11584590 -0.03381028 -0.07492892 -0.08039430 0.01580177 0.00031962 0.05731235 0.21250094 0.05286847 0.03796794 0.05095633 0.10213144 0.11054444 0.01264830 0.00680527 0.04200516 0.02234975 -0.00995617 -0.03031943 0.02320769 0.01784713 -0.00791581 -0.01477919 -0.01379699 0.02094458 0.07891113 0.03682141 0.04100434 0.03464098 0.01741813 0.08978947 0.09380387 0.03419622 0.12869386 0.12627374 0.13818373 0.01823584 0.00388037 0.07521986 0.10000477 0.08050676 -0.02364318 0.03684028 0.00157215 0.01067589 -0.01464924 -0.01910154 0.01063431 0.02382075 -0.02221966 0.01664346 0.01199297 -0.02345042 -0.02767348 -0.00470669 0.00987851 0.03265496 0.04396452 0.00116339 0.06500733 0.04416690 0.07394806 0.09504542 0.02591927 0.02961221 0.02332744 -0.00710123 0.03041359 0.02458134 -0.02464099 0.03089252 -0.00679791 0.03384185 0.01061537 0.03163091 0.01554565 -0.02645178 0.00767159 0.01010418 -0.02789416 -0.01789001 -0.03087381 0.02681085 0.00869824 -0.00582960 0.03329181 -0.03481738 -0.01358900 0.00050280 -0.00807157 0.02526757 -0.01057267 -0.00528200 -0.00347385 -0.00307625 0.01830516 -0.03008839 -0.02519574 -0.00344985 0.01412986 0.00302534 -0.01865803
0.03415925 0.03816716 0.03766413 -0.02527663 -0.01780940 0.01702731 -0.00591580 0.03740343 0.03657715 -0.01892522 -0.02578503 -0.01001171 0.01643062 0.03395278 0.01214379 0.01336857 -0.00429056 -0.00139514 -0.02890510 0.03167680 -0.01246125 0.00144158 0.00264211 0.02946103 0.00918762 -0.01438757 -0.00647444 0.03583467 0.00328883 -0.02181023 0.01574800 -0.02385390 0.03346340 0.01746216 -0.01141442 0.00726605 -0.00924746 -0.02546151 0.02176543 0.04441770 0.01671446 0.02192682 -0.03436901 0.01770497 0.01578704 0.02377531 0.01614263 0.05167414 -0.01532677 0.02168151 0.00194984 0.02437952 -0.01169077 -0.00536191 -0.00171253 0.00233060 0.01377586 0.03554879 0.00294630 -0.01736719 -0.01291457 -0.01647757 0.03703918 0.04138696 0.00990706 0.00743570 0.08911502 0.07441709 0.08001779 0.02745512 0.10934622 0.11462393 0.09823829 0.04462143 0.02090275 0.05287885 0.00315136 0.04472833 -0.00370680 0.02962828 -0.01404673 0.00532697 0.00800654 0.00837258 -0.02529059 0.00204440 -0.01273596 -0.01478888 0.03053035 -0.01717898 0.01227229 0.03610421 0.08827256 0.04393391 0.03811467 0.10336973 0.05991497 0.11702375 0.06037209 0.05861514 0.06868615 -0.00699043 -0.02334705 0.04209925 -0.04948480 0.01226517 0.03749657 0.00018915 0.01577693 0.01894225 0.00031787 0.01134058 0.00482079 0.00188893 -0.02140024 -0.01311136 -0.00565095 0.01545760 0.07049844 0.05885870 0.09746978 0.07994046 0.13673304 0.00837009 -0.00243876 0.00695614 -0.07386822 -0.09166036 -0.00326248 -0.02737119 0.00240068 0.02428817 -0.01720331 -0.04794836 -0.05996512 -0.03829822 -0.03353239 -0.01919102 0.03041191 0.01762087 0.01872886 -0.01344141 0.03754045 -0.00158901 0.01877590 -0.01228555 -0.05513037 -0.05396068 -0.03919019 -0.08236606 -0.01766135 -0.08785989 -0.11776788 -0.11873005 -0.01298232 -0.03402956 -0.01396093 -0.03906270 0.00191064 0.09471488 0.08535577 0.04054357 0.00865183 0.03617836 -0.01832944 -0.04525937 0.01520446 0.02347608 -0.01278550 0.03470983 0.01741937 0.05768795 0.09215503 0.00146505 -0.02122009 -0.04945948 -0.04214490 -0.18184243 -0.18965989 -0.12027172 -0.17617910 -0.11892066 -0.06077353 -0.03407043 -0.00163210 -0.10737769 -0.07841459 -0.07828796 -0.05172339 -0.08460036 -0.03107828 -0.04433866 -0.05088192 0.01767071 0.01342058 0.01204332 -0.02454429 -0.00969297 -0.02150074 0.02597507 0.05680640 -0.12218527 -0.08710673 -0.02060598 -0.08241703 -0.12548175 -0.14873117 -0.08781531 -0.11808848 -0.12785274 -0.03144844 0.04421351 0.05911740 0.00621207 -0.04894189 -0.10431338 -0.06622669 -0.04515483 -0.04127309 -0.12124716 -0.06885567 0.00371216 -0.00991519 -0.01278017 0.01203279 -0.01116984 -0.01956452 -0.01978175 0.01010698 -0.02011020 -0.03986959 -0.08230105 -0.11357443 -0.11363593 -0.04679137 -0.08790282 -0.14601807 -0.08626320 0.06365488 0.09824952 0.04157369 0.09880664 -0.01934347 -0.03409585 0.00374724 -0.06470565 -0.04048345 -0.10065571 -0.12806763 -0.04730799 0.01189428 0.00128665 -0.00592798 0.01175890 0.00336516 0.00681848 0.01182268 0.04660738 -0.01587293 0.00202310 -0.05497865 -0.08894677 -0.06922551 -0.14408092 -0.09249973 -0.02334116 0.01146826 0.09634235 0.11001851 0.06617752 -0.00303583 -0.08456244 0.00055690 -0.11038074 -0.05987309 -0.11369988 -0.03862920 -0.07100046 -0.00266075 0.02254715 -0.01650981 -0.02927038 0.03924775 0.06709599 0.08223805 0.05914989 -0.04119314 -0.00236018 0.01364312 -0.07908431 -0.05197646 -0.10067336 -0.07906670 -0.06427196 0.02499370 0.12301588 0.10096608 0.04787615 -0.03542420 -0.05695787 -0.04201696 -0.08823161 -0.13323890 -0.06581292 0.02771354 -0.05350174 0.00172996 -0.03616009 0.00237916 0.00199388 0.00103917 0.00997300 0.04107346 -0.02147941 0.00762968 0.04913452 -0.00001351 -0.07361183 -0.13561872 -0.18320327 -0.19712542 -0.10866583 -0.02054570 0.06142133 0.08608519 0.04195366 -0.03715147 -0.00254133 -0.03145469 -0.04637823 -0.07391205 -0.01963173 -0.00304470 0.01456684 -0.00965404 0.00229178 -0.02441189 -0.02216506 -0.00031679 -0.06711182 -0.01237492 -0.04451412 -0.05856143 0.01503922 0.01649677 -0.08210671 -0.04274934 -0.10782704 -0.08275239 -0.00427335 0.02801922 -0.05239250 0.02902175 0.03261144 -0.03553890 -0.03155516 -0.01733075 0.01384807 0.02227765 -0.01335469 0.02743891 -0.01364903 -0.02869958 0.01758497 0.02356339 -0.02664817 -0.02152878 -0.02846963 -0.06310543 -0.05152998 0.05465103 0.00359269 -0.00349567 0.00465214 -0.04581591 -0.05366641 0.01917233 0.06872858 -0.05400845 -0.06611163 -0.01392585 -0.04035858 0.00953718 0.00321132 -0.07222755 -0.03062332 0.07907984 0.05177198 0.04829096 -0.00009277 -0.01821629 0.00788695 0.02569230 0.02767716 0.00740010 0.03519854 -0.03401294 0.02046268 0.08386251 0.07787068 0.09013672 0.11119911 0.04114180 0.00539324 0.06965529 0.07892630 0.00702573 -0.00857361 -0.01869703 -0.00558893 -0.02630473 -0.03632601 -0.05865306 -0.01473205 0.07521868 0.11516260 0.13094504 0.09984752 0.03896695 0.03086673 0.00148702 -0.00958903 -0.00748007 0.04095466 0.02541314 0.09569654 -0.00664408 0.05640018 0.06502406 0.13056725 0.01433149 -0.05972404 0.05783355 0.05072738 0.00906410 0.01111083 0.06659445 -0.01824089 -0.04261086 -0.00281268 -0.05083676 -0.04276650 0.07311770 0.10692600 0.15249790 0.12995036 0.03317256 -0.02090600 0.03366089 -0.00460341 0.00509806 0.10074669 0.08471893 0.02186656 0.01663008 0.04448737 0.00213138 0.01564531 -0.07740904 -0.05464488 -0.02406867 -0.04471097 0.04692356 0.02071466 0.03250249 0.10346796 -0.03654813 -0.01357147 0.02657147 0.07615042 0.09429312 0.16953561 0.12679054 0.17492743 0.02759446 0.03116938 0.02289051 -0.02490098 -0.01029507 0.09706596 0.06712541 0.04827303 -0.01536466 0.00963230 0.03111001 0.01691361 0.01980837 0.00033817 -0.01796813 -0.02305730 -0.00988881 0.05505170 0.10075307 0.05590950 0.00620624 -0.03643413 0.04319981 0.10942120 0.07606888 0.01157757 -0.01577071 0.10393956 0.02631654 -0.01190419 0.02364593 0.01301263 -0.01795382 0.09639648 0.07272334 0.00178576 0.03169227 0.05670887 0.06382634 0.04554074 0.01769034 0.00268563 0.07196204 -0.00738266 0.08523726 0.16127868 0.16113260 0.04483609 -0.00823441 -0.04866315 -0.00247747 0.00557269 0.02689509 0.03036031 -0.02753971 0.10033152 0.01419662 0.03170864 0.03905166 0.02129421 -0.00744446 0.09212886 0.05753226 0.09427877 -0.00545836 0.03186176 0.00057261 0.06066594 0.05056318 0.03451406 -0.03116636 0.09587345 0.15391916 0.22746921 0.20772798 0.12438251 0.06352894 0.00661260 0.02886894 0.05425893 0.14730960 0.12558568 -0.06127748 0.05205307 -0.01275760 0.01220550 0.01243742 -0.00694713 0.03125643 0.09823368 0.09747138 0.03600284 0.00969357 0.05288900 0.02885525 0.08121357 0.08707262 0.08637898 0.07943199 0.07988210 0.10612933 0.18643625 0.15259375 0.10283684 0.18977103 0.09498456 0.13725744 0.12476389 0.06561865 0.01690063 -0.07140496 0.00091507 -0.01284086 0.02371409 -0.01242250 -0.01997386 0.01228751 0.08635936 0.06095933 -0.03194128 -0.02806836 0.04553091 0.03790640 0.07804504 0.05725824 0.06463543 0.03391804 0.06390829 0.05186540 0.01471124 0.05036715 0.03724790 0.11048935 0.04400208 0.07791983 0.05478047 0.06821714 -0.04032893 -0.05626770 0.04017172 -0.00661421 -0.01451399 -0.01146907 -0.02011820 0.06533971 0.05141353 0.07669297 0.06087126 -0.00681262 0.03727534 0.04450433 0.05115424 0.08292561 0.05126850 -0.02661898 -0.06257234 -0.16282977 -0.13545908 -0.14552498 -0.10815208 -0.04357307 -0.10223019 -0.05911855 0.00892982 -0.02044309 -0.03890801 -0.09172281 0.04537400 0.02025683 -0.00928695 -0.00254410 0.01211231 0.02439618 0.00442542 -0.00610272 -0.00453293 -0.04613887 -0.06753983 0.00173456 0.02013019 -0.01437098 -0.06089299 -0.16769691 -0.26229250 -0.21319517 -0.26032665 -0.26095337 -0.19755882 -0.08975422 -0.13576639 -0.06200192 -0.01801315 -0.07511166 -0.07166205 -0.06180912 0.03055270 0.01554299 -0.00989975 0.00924634 0.02955209 -0.00407860 -0.00092657 -0.04011035 -0.06572483 -0.10178524 -0.13862135 -0.13482653 -0.05253009 -0.19952723 -0.23284742 -0.29127303 -0.35621393 -0.25913131 -0.19285344 -0.26755282 -0.17911842 -0.05950332 -0.09671577 -0.12643704 -0.04114451 -0.12760314 -0.05636203 0.02827585 0.03875919 -0.00392040 -0.00203301 0.00011736 -0.02408218 0.00318625 0.02960176 0.00245789 -0.03673599 -0.10403451 -0.14154449 -0.21121027 -0.20070471 -0.31381008 -0.31646362 -0.27645129 -0.29822984 -0.29092705 -0.15902075 -0.17724882 -0.16447091 -0.06154577 -0.01320284 -0.09221737 -0.11750007 -0.08771881 0.02527250 -0.01032094 -0.02307804 0.03979762 0.01869818 -0.00543291 0.03433972 -0.00832199 -0.00504464 0.00779721 0.00019338 -0.00364337 -0.05398101 -0.08254365 -0.04227331 -0.09632706 -0.05906254 -0.09376173 -0.06074826 -0.12850109 -0.05565742 -0.02412760 -0.03893920 -0.03793451 -0.03586600 -0.08484056 -0.06001354 0.01558853 -0.03348621 0.00521704 -0.02388350 -0.02207961 0.03594648 0.03526073 0.02621477 0.01453911 -0.03078990 0.02923437 0.02107172 0.01227829 0.00916575 0.03186028 0.00434890 -0.03610720 0.01604493 0.01396699 -0.02212610 -0.02165553 -0.02118212 0.02911303 -0.04117068 -0.01527384 -0.01787191 0.00914534 -0.02070464 -0.03855040 0.01583627 -0.01819898 -0.03088416 0.02382016 0.03700012
-0.02727525 0.00896953 -0.01087776 -0.03043956 -0.01371998 0.01571369 0.01721142 0.01831271 0.01254292 0.00371222 -0.01185762 -0.00531694 0.00217465 -0.02454703 -0.02413171 -0.01733331 -0.02602889 -0.02758383 0.03769335 0.03991500 -0.01216252 -0.02561217 -0.00788142 -0.02953953 0.01957730 -0.02913815 0.02002479 0.02579470 0.00925710 -0.01642455 -0.00597158 -0.01812622 -0.02046004 -0.01572452 0.03469999 -0.02389555 0.03265261 0.01004757 0.02340072 0.00978845 0.03249289 0.02235042 -0.01067829 0.00147945 0.01641794 0.01160018 0.00330904 0.04124978 0.05412386 0.02656528 0.00587691 0.02623716 -0.01827081 0.03174314 0.00466635 -0.00546129 -0.02620589 -0.01927121 -0.00165928 -0.02133480 0.03114631 0.01528299 -0.00194986 0.04939284 0.01580937 -0.00257578 0.06790271 0.09195347 0.01742732 -0.01879208 0.09145872 0.10151572 0.09613843 0.06524684 0.06987181 0.09514979 0.01464127 0.05006283 -0.00188742 0.03900658 0.03049849 0.00677956 0.02627159 -0.01674342 -0.01268366 0.01588137 0.03928307 0.02209259 0.02958604 0.00897100 0.04532967 0.02754534 0.05906234 0.05248068 -0.00526508 -0.03901264 -0.03525226 0.07157841 0.12725559 0.15944476 0.10698567 0.12029479 0.10161713 0.12933716 0.03130966 0.03373710 0.05236936 0.05877149 0.01205428 0.01445632 -0.01191890 0.02006384 0.02659283 0.00313147 0.01908978 -0.00566018 0.00811358 0.04879544 0.00849358 0.02022250 -0.00398733 -0.01073323 -0.05123349 -0.08599739 -0.06752578 -0.01520008 0.05674539 -0.00095582 0.03962263 0.00008552 -0.00317745 -0.04809232 -0.00463327 -0.04638862 -0.06469819 -0.04808084 0.00266166 -0.00113290 0.00330912 0.01508566 0.01008943 0.00900255 0.00511040 -0.02259414 0.03340223 -0.01318162 0.02359451 -0.05424721 -0.02559140 0.02508040 -0.00746375 -0.02039658 -0.01524832 0.04966913 -0.02775919 -0.05964643 -0.03274597 -0.01220113 -0.05316867 -0.08022749 -0.12423691 -0.16451561 -0.11393823 -0.06769606 -0.02218939 0.00685105 0.03391353 0.00738402 0.01419883 -0.01201080 0.02952206 0.02549626 -0.03125558 -0.05905868 -0.05643736 -0.04500708 -0.05956416 0.02957696 0.01234449 0.03096646 0.01569171 0.05645500 0.04533728 0.01349669 0.03783635 0.01973266 0.06269093 -0.02410901 -0.09488074 -0.18639858 -0.18240163 -0.19071312 -0.09608855 -0.06649249 0.01610542 -0.01224304 0.00296748 0.01788654 -0.01568149 -0.01513558 -0.08517563 -0.08491686 -0.06193703 -0.15449186 -0.05432392 -0.02641303 0.02156590 0.02403613 0.02666270 0.06809667 0.06597079 -0.01004847 -0.03546199 -0.08429301 -0.04831775 -0.09212776 -0.12216806 -0.08542086 -0.18276098 -0.19352163 -0.10879936 -0.04715336 -0.02907490 0.02783146 -0.02467640 0.00865385 -0.00681269 -0.04358069 0.01486209 -0.06762058 -0.06174816 -0.05942155 0.07367611 0.06320879 0.00817651 0.05344069 0.05300453 0.04177399 -0.00545431 -0.12590706 -0.15749867 -0.20414002 -0.09910069 -0.10064033 -0.12159983 -0.01012139 -0.12057561 -0.16086058 -0.10506736 -0.06333554 -0.03888741 -0.01197348 -0.02122719 0.00865569 0.00662905 -0.01864982 0.02115223 -0.07473428 -0.02433734 0.05862002 0.11276784 0.02507914 -0.00297898 0.04380229 0.02016259 -0.00555319 -0.07376735 -0.09353990 -0.18260996 -0.12479527 -0.05276039 -0.05196754 -0.05672765 -0.02844138 -0.09075964 -0.10104971 -0.07593135 -0.02860560 0.03084281 0.00871712 0.03557821 -0.01009187 0.02809779 -0.04730477 -0.03755727 -0.04397380 0.03436353 0.01922756 0.06905904 0.03056277 -0.08837011 0.00298619 -0.01627440 0.01030007 -0.15551282 -0.17281134 -0.07348797 -0.07095311 0.04117446 0.08780045 0.05951589 -0.00602061 -0.02995098 0.03564387 -0.01885874 0.03203178 -0.02056947 0.00327577 0.01250683 -0.02858793 -0.00383248 0.01870906 -0.01292131 -0.05473923 -0.00842275 0.01640026 0.05325459 0.01704087 -0.01762046 0.06239284 0.03787318 -0.05796199 -0.09622810 -0.06018398 0.06205898 0.13240471 0.12032899 0.15056339 0.17009720 0.10217712 0.11077926 0.04386459 -0.06169711 -0.05969696 -0.00659650 -0.00922245 -0.00161024 -0.01835099 0.00550849 0.01256766 -0.00330490 0.01821553 0.03350515 0.06355463 0.03673312 -0.02049350 0.01240104 0.06534966 -0.05972570 -0.12365208 -0.06098221 0.07472505 0.17395364 0.07944446 0.14157929 0.08495159 0.08335132 0.10335779 0.11217651 0.10997161 -0.01055775 -0.00246308 -0.02420069 -0.01072261 0.02431750 0.00153390 0.01497029 -0.00189979 -0.02767538 0.01803738 0.02206400 0.11707557 0.04268961 0.02392279 -0.00278842 0.02664597 -0.08740059 -0.00822234 0.01828439 0.14000385 0.13679948 0.03220760 0.05005491 0.05532921 0.00140664 0.12531222 0.03835367 0.04402884 -0.04416804 -0.06841903 -0.05321414 0.00760785 0.00003601 -0.02714872 0.00426776 -0.02735648 0.01070122 0.04718333 0.01691262 0.05745469 0.02329829 0.01607755 0.03051377 0.00537600 0.00730186 0.03098849 -0.00615444 0.07194316 0.09562205 0.02716122 0.07090562 0.01758774 0.02912257 0.03107209 0.12553719 0.05439761 -0.12146135 -0.04255012 -0.00026654 0.01213423 0.02538994 0.02924145 0.00205781 -0.04708871 -0.01599165 0.03542328 0.03027509 0.01841443 -0.02205965 -0.07845367 0.01036831 0.00095931 -0.04679409 -0.05110937 -0.01778828 0.04741836 0.01291046 0.07336044 -0.01972917 0.01286736 0.05261428 0.03985335 0.03711259 -0.02995580 -0.07307681 -0.03620236 -0.03904232 0.00389132 -0.02735600 0.00987080 -0.03496890 -0.04947857 -0.04143465 0.04325911 0.06104793 0.00263315 0.01569143 -0.09075168 -0.05973129 -0.03592125 -0.08211947 -0.04849432 -0.00069156 -0.00724391 -0.01776822 -0.01561817 -0.00635609 -0.03142236 0.01321974 -0.00787233 -0.03989989 -0.05076916 -0.05414776 -0.02523068 -0.01184335 -0.00873650 0.03247119 0.02018580 -0.03614712 -0.07927421 -0.01323562 -0.01758625 0.01572556 -0.00900257 0.02191696 -0.03014576 0.02617712 -0.06231713 -0.13387692 -0.01522693 -0.01096894 -0.03283185 0.02839081 0.00056184 -0.04726666 -0.02753430 -0.02282231 -0.01647983 -0.08844564 -0.07626200 -0.05400906 -0.02525611 -0.02800167 -0.00157003 0.02890006 -0.01996906 -0.00856561 -0.01681441 -0.06619074 -0.04272430 -0.08430542 0.02820610 0.02632996 -0.01497378 -0.03419407 -0.11846942 -0.04754511 0.02439287 0.05126838 0.02165938 -0.01891413 -0.01299724 -0.01471403 -0.05048930 -0.05897289 -0.02781331 -0.10454742 -0.11915059 -0.09915189 -0.03025350 -0.02609568 -0.00557520 0.00586529 0.04015354 -0.01381551 -0.00694641 -0.04851432 -0.08802178 -0.06602630 -0.03822951 -0.03833247 -0.03576697 -0.06488153 0.00298385 0.05071487 0.05260812 0.05807634 -0.03992638 -0.06458391 -0.08700717 -0.05463507 -0.02885231 -0.04077433 -0.05208302 -0.10887634 -0.06885044 -0.00286526 -0.03198642 0.02107639 0.00801054 0.03016049 -0.02875545 -0.01781351 0.00609777 -0.00981113 -0.01920665 -0.08328331 -0.07597608 -0.10916721 -0.08545882 -0.04503900 -0.00434781 0.00923976 0.07024346 0.03939216 -0.04571940 -0.02572674 -0.03738688 -0.07633857 -0.08980598 -0.12431803 -0.12711188 -0.05129049 -0.01198508 0.04094891 0.04149370 -0.01574227 0.02430834 -0.02189003 0.03348302 -0.03205747 -0.01955662 0.00432760 -0.06156066 -0.00594346 -0.06529726 -0.06880951 -0.08944302 0.00520017 0.03473424 0.07553319 0.03809907 0.00136607 -0.08404768 -0.05263452 -0.02279261 -0.00259821 -0.12345348 -0.14737017 -0.06339053 -0.06973001 0.00402919 0.01993978 0.00175324 -0.02591520 0.00295756 0.02732124 0.00669146 -0.00115338 -0.03398846 -0.01441364 -0.05167482 -0.09160821 -0.01592865 -0.03733637 -0.02038415 0.11492524 0.02070113 0.04638173 -0.04421382 -0.10743383 -0.06414632 -0.09666903 -0.03411168 -0.04947054 -0.17894174 -0.09240478 -0.09376492 -0.01882620 0.02954940 0.01361259 0.00396101 -0.01433718 -0.00198558 0.02226060 0.02884606 -0.03100025 0.00982417 -0.02620126 -0.07342737 -0.02058148 -0.01521741 0.02263109 0.02631094 0.06217933 0.00156018 -0.07230926 -0.10007482 -0.11250345 -0.20980372 -0.22562753 -0.15521802 -0.05365725 -0.05694385 -0.03079261 -0.02070511 0.00771939 -0.00732323 0.05334745 0.02933797 0.02326227 0.00109147 -0.01791686 -0.02719941 0.01769907 0.02938402 -0.00694264 -0.01685335 0.01428166 0.06581298 0.06483649 0.14055768 0.13663495 0.11719751 0.07869063 0.02282366 -0.09650122 -0.08449692 -0.09181678 -0.08039898 -0.09712421 -0.06084120 -0.01242018 -0.03244701 -0.01586735 0.01630436 0.01331204 0.03203923 -0.00589774 0.03061480 -0.02959752 -0.02978650 -0.00004873 0.00755302 0.02873436 0.00237112 0.01033426 0.01316543 0.04548071 0.08794119 0.04610097 0.13217242 0.11029632 0.04171021 0.05886089 -0.03648378 0.01264475 -0.01827108 0.00441406 -0.01125711 0.01193073 -0.01321152 -0.00367307 0.02883985 0.02831460 -0.01351026 -0.02397088 0.01066160 0.01183183 -0.01618694 0.03293457 0.01446192 0.02281217 0.04907139 0.02851437 0.04671092 0.03628182 0.14425977 0.09519913 0.07723493 0.08790489 0.09174038 0.14901362 0.09299596 0.09199434 0.09936840 0.11170046 0.04591913 0.07464478 0.02558040 0.01753998 0.00204078 0.01271351 -0.02624234 -0.01794836 0.01316804 -0.02701225 0.01604235 0.02366045 0.00344994 -0.01877954 0.02674384 0.03136199 -0.00718120 0.01308188 -0.00421186 0.04870431 0.01820128 0.01434552 -0.00848985 0.03245377 -0.00571046 0.03460022 0.02682123 0.03408711 -0.00152786 0.00636217 0.03264095 -0.01767858 -0.01163574 -0.01709567 0.03848338 -0.02932596 0.01216688
