-0.02380412
-0.03365761
0.02117514
-0.00656348
0.00988088
0.01024721
-0.03614348
0.03266483
0.02624142
-0.00070698
-0.00335490
0.01466046
-0.02631736
-0.02448253
0.01814424
-0.03033879
-0.01129031
0.00045109
0.01956758
0.01100953
-0.02304345
-0.01505450
0.00016059
-0.00613671
-0.02752833
-0.00038944
0.00861789
-0.01204752
-0.02046351
-0.01631481
-0.01276772
-0.01115345
-0.00934547
-0.00682675
-0.00889014
0.03698296
0.01632434
-0.01863603
0.00026810
0.00294901
0.04647024
0.00058993
-0.03843490
0.03503312
0.01138466
-0.01536130
-0.01651983
0.00949597
-0.00114876
-0.05571691
-0.04984392
0.00172150
-0.03333097
-0.01980794
-0.01279744
0.02473733
-0.00440709
-0.02985528
0.00045410
-0.00416539
0.00147733
-0.02498433
-0.03650548
0.02690865
-0.00119312
-0.01263998
0.01142602
-0.01602781
0.02793899
-0.02907640
-0.03891551
0.01917375
-0.01160291
0.02088551
0.01470619
-0.01148280
-0.01717799
0.01071943
-0.03923663
-0.01072973
-0.03875881
-0.00839051
-0.00471986
-0.00650565
-0.01469161
0.01343411
-0.02307256
0.01243429
0.04087874
-0.00502181
-0.03505802
0.02921953
0.03717236
-0.02055313
-0.02602567
0.03066785
-0.01031000
0.01990133
0.02054952
-0.01638833
0.00273242
0.00453213
-0.00697079
-0.05130010
0.03951618
0.00287758
0.00168445
-0.03024703
-0.00003933
0.02322589
-0.01898737
0.01061499
-0.02708299
0.05147313
-0.01048313
-0.00845347
0.02744740
-0.02847509
0.04702095
0.00209840
0.05520241
0.01408566
0.01360785
0.00661185
-0.06668515
0.04087619
0.00832023
-0.03917098
