-0.30503911 -0.02265028 -0.06770491 -0.06207263 0.07620655 -0.13301896 -0.26476839 0.06263561 -0.35228616 -0.02613585 -0.09242520 0.06658052 0.04760842 0.15696821 -0.10076776 0.05059470 0.04782834 -0.05768356 0.00509270 0.06392484 0.09960900 -0.06121466 -0.39254233 0.05632401 -0.06856140 -0.14012878 0.06414893 -0.19090889 0.03780506 0.05526001 -0.21342412 -0.04298459 -0.13085042 -0.29579166 0.02026753 0.08958900 -0.08360044 -0.02223434 0.12578206 -0.05700274 -0.15015140 0.01120924 -0.09679598 -0.07266285 0.06584328 0.00254153 -0.04210173 0.02537620 -0.13143088 -0.30969056 0.02527221 0.04590780 -0.01185057 0.08998109 0.10583020 -0.07854046 0.04533496 0.21089786 -0.25202364 -0.03800176 0.04122543 -0.47461259 0.00047414 -0.08539995 0.09645007 -0.07327507 0.15973428 0.08320031 0.05093542 0.14618081 0.05444711 -0.17266579 -0.08925273 -0.04687743 -0.06695329 -0.22578798 -0.05068874 -0.01453020 0.03371260 -0.02273623 -0.26694915 0.14531329 -0.19126777 0.02799579 -0.03435661 0.17161633 -0.20161225 -0.01276862 -0.06365088 -0.18842825 -0.02602156 0.01995916 -0.43682382 -0.10887473 -0.45566228 0.00554607 -0.24494004 -0.06887657 0.16504796 -0.04057952 0.00426180 -0.34501377 -0.25532517 -0.10708025 -0.03595038 -0.39430749 -0.14133579 0.14152902 -0.00265781 0.10134222 -0.27866215 -0.19669975 0.07317214 0.01631904 0.08065367 0.08992741 -0.07875244 0.03911599 -0.12079265 -0.06177935 -0.37527007 -0.09154680 -0.10961757 0.10426495 -0.21233861 -0.20926186 0.04806639 -0.03450033 0.02433506 -0.45704663 -0.06525698 -0.08053993 0.06435634 -0.10435583 -0.01488986 0.09259655 0.06815109 0.03573762 -0.18179266 -0.05351860 -0.26831600 0.09546293 0.15650810 0.03227698 0.07718368 -0.42689225 0.05431585 0.07834084 -0.03437136 -0.17767201 0.08387361 0.09051257 0.03364244 -0.02354397 0.12368385 -0.03876172 -0.00348071 -0.04308840 0.16264735 0.00916986 -0.13218492 -0.17077537 0.00068692 0.22303629 0.11493779 -0.02116949 -0.29518712 0.27147976 -0.05345294 0.07881010 0.13001907 -0.18842769 0.07651796 -0.12168588 -0.06202013 -0.23430669 -0.01058888 0.10276659 -0.25724146 0.00869842 0.08861126 -0.17403060 -0.52388179 0.27373710 -0.06124449 -0.01472584 0.14871362 -0.12123236 -0.06220404 0.14773174 0.02090155 0.14908148 -0.06843898 0.12466168 -0.33690304 0.12465326 -0.35188556 0.01286192 -0.03780246 0.19199403 0.18764678 -0.19031741 -0.44387558 -0.07877135 -0.03891019 -0.04191520 0.25858948 0.03863234 -0.16139346 0.10607012 -0.35131937 -0.08578289 -0.04534870 -0.13071682 0.06442666 0.02327192 0.09209510 0.07869867 -0.10520836 -0.03264939 -0.18802254 -0.15859200 0.00224860 -0.54883581 -0.21555704 -0.15883309 0.06014126 -0.18702082 -0.07082064 -0.13974571 -0.23757936 0.15112793 -0.07817312 -0.07129336 -0.16602370 -0.06285684 -0.05546030 0.03589325 -0.05937421 -0.24920416 -0.29039061 0.01208177 -0.32118943 -0.07504606 0.13865823 -0.02798792 0.03707671 0.07984088 0.01742369 0.17245021 0.05643798 0.08850748 -0.61271453 0.14385043 -0.06384994 -0.19523409
-0.08086219 -0.06233375 -0.18087623 -0.12009170 -0.07008389 0.03489037 -0.02705605 -0.43295795 0.03277622 -0.04135687 0.04061012 0.05228253 0.01327744 0.05239145 0.06351475 0.08486500 -0.08849524 -0.11443401 0.03449321 0.04564212 0.17428705 -0.13982819 -0.15608342 -0.15775564 0.07670389 0.01557663 -0.00783471 -0.06886709 -0.00333852 0.15234759 -0.02613089 -0.20766793 0.18322828 -0.06528053 0.01106558 -0.07127558 0.00886726 -0.20567596 -0.05938152 -0.04283173 0.02810096 -0.23751831 -0.19814579 0.08743900 -0.07221667 -0.04994618 0.01984905 -0.10456619 0.04777487 -0.07049908 0.06403991 -0.04898056 0.05494503 -0.07243185 -0.15357348 0.06215107 -0.39727867 -0.32140458 -0.02991414 -0.49937803 -0.05852067 -0.05128973 0.04574141 -0.01182403 -0.35139474 -0.10466793 0.01655594 -0.18486761 0.07207935 -0.02148597 -0.02983352 0.11030386 -0.01954110 0.01355681 0.04454456 -0.26603687 -0.08110780 -0.50540286 -0.02072653 0.00172442 0.02748614 -0.16247289 -0.01804056 -0.07221554 -0.04496254 0.12279608 -0.27396226 -0.09706111 -0.06345281 -0.12323856 -0.26753703 -0.06579176 -0.08452826 -0.01441198 -0.38609448 -0.00718496 0.08623637 -0.12125186 -0.27395540 -0.54526770 -0.04900840 -0.06093059 -0.06227609 -0.05872399 -0.00411549 -0.04875657 -0.09157345 -0.03457803 -0.09773847 -0.24067965 -0.24963461 0.06530013 -0.15068039 -0.03987784 -0.15322241 0.03350648 0.12709279 -0.09472061 0.08747634 -0.08673362 -0.06080998 -0.12511608 -0.23379977 -0.45842639 -0.10436041 0.00994124 0.10562225 0.08371187 -0.51204181 0.06054158 -0.11251497 0.03873501 -0.23490426 -0.27237099 -0.07317287 -0.25760752 -0.29506546 -0.05362062 -0.18990259 0.02453940 -0.02247831 -0.22400816 -0.20369470 -0.09485935 0.09046504 -0.15491670 -0.07310436 0.10225456 -0.09914393 -0.14830028 0.02733135 0.11867357 0.01651427 0.04999666 -0.16971758 0.06128708 0.06179373 -0.14963423 0.01077884 -0.07752574 -0.22345677 -0.17349936 0.05413880 -0.16359955 0.11908148 0.04112029 -0.05039738 -0.15170109 -0.00344239 -0.03713521 -0.08918820 -0.05669405 -0.52743405 -0.02317584 0.06655045 0.01216020 0.05735949 0.02584532 -0.02919939 0.04845564 -0.05506583 -0.05345488 -0.10496765 0.11180934 -0.03509044 0.06334554 -0.01418139 -0.09507192 -0.15178446 -0.27972448 0.01210431 0.05567377 0.04222117 -0.09557829 -0.15773465 -0.23319964 -0.29796696 0.06198561 0.06970847 -0.06844438 0.16204758 -0.36796862 -0.18491554 -0.05104869 -0.08934326 -0.02934644 0.22659865 -0.01103855 -0.16854557 -0.16088134 -0.30881712 -0.07697109 0.02598999 0.02515646 -0.12420227 -0.03808351 -0.11106949 -0.05993309 -0.20943061 0.07092558 -0.19934884 0.00860426 -0.06157612 -0.06797425 -0.04639034 -0.09020342 -0.12393853 0.03757900 -0.12710638 0.15094708 -0.08953559 -0.16792564 -0.49566105 0.05176123 -0.20169795 -0.26545686 -0.13811922 0.02002722 0.07954100 -0.22123419 -0.07761480 0.05420061 -0.14861901 -0.09795411 -0.22173193 -0.05368221 -0.07115251 -0.09325749 -0.08148737 0.24827191 -0.11151886 0.07543904 -0.01981368 0.21636046 0.06380531 -0.01627705
-0.04676450 0.03068515 0.12008651 -0.00595892 -0.00107856 0.15227769 -0.47493744 -0.30641168 0.02615107 0.03040399 -0.07094998 0.03583967 0.00819493 0.20946185 -0.07559036 -0.05384418 0.00811606 0.00857089 -0.22149155 0.03675332 -0.03343844 -0.51844108 0.00570341 -0.17087041 0.00159403 -0.13634327 -0.08005449 -0.42369723 0.02262682 0.14552619 0.19689707 0.09030178 0.11855465 0.13297935 0.09359076 -0.02125570 -0.13438964 -0.21348217 0.31343773 0.07550269 -0.07625966 -0.16498141 0.11856375 0.03802559 0.05602365 0.01105928 0.03692901 0.07786653 -0.12763301 0.04762694 -0.09326201 -0.03713950 0.14250879 -0.20384687 -0.07007367 -0.06986669 -0.16234851 -0.34385738 -0.07714145 -0.09364434 0.15108202 -0.21344841 -0.23549598 0.06556866 -0.02629414 -0.06437317 -0.15606318 -0.07547458 0.03011722 -0.18603955 -0.03565649 0.06812333 -0.02314911 0.10911262 0.15994839 0.15996180 -0.05029722 -0.23115909 -0.12474016 -0.33099148 -0.21609394 -0.28882745 -0.10949999 -0.12712373 0.00039150 -0.04831836 0.02226664 -0.00291632 0.07132105 0.06802700 -0.22804898 -0.10110322 0.11674286 -0.02955529 0.00332388 -0.01326828 0.01165369 -0.01175486 0.09460835 -0.44359237 -0.02939819 0.00074606 -0.09375358 0.01909345 0.11287306 0.12304875 0.09121863 -0.21838026 -0.02054685 0.07659896 -0.02075224 0.11748129 0.00962193 -0.02488776 -0.00954250 -0.14998655 0.18809544 0.01130387 -0.13207902 -0.02106939 -0.06906828 -0.35683635 -0.05287815 -0.31029689 0.14012779 -0.05633044 -0.11594149 0.23625463 -0.36293939 0.01846619 0.00637706 -0.11467449 -0.30717731 -0.31969643 0.06640071 -0.21983685 -0.00056355 -0.07652475 0.03757120 0.10394656 -0.30675280 -0.30560389 0.08449720 0.13091730 -0.17807390 0.05823440 0.13312776 -0.00248281 0.02208736 -0.18162863 -0.00243278 0.09028829 0.13801265 -0.00268738 0.00835505 0.14187184 0.09969841 0.02388722 0.13391043 -0.08496689 -0.12324888 0.06117474 -0.05953806 -0.00660212 0.12475190 0.03466382 0.09925192 -0.18318966 0.05117692 -0.06174995 -0.31004682 0.18968250 -0.32651091 -0.23406430 0.09219588 -0.13061231 0.02008175 0.02434603 -0.02897420 -0.23490115 0.10929652 -0.11947677 0.10637642 -0.04108172 -0.02447571 0.05035413 0.00743623 0.06475843 -0.00209559 -0.10830066 0.03563665 -0.17834567 0.13097790 0.05348834 -0.40276000 -0.11350665 0.03400410 0.10490323 0.06412115 -0.10079110 -0.19284628 0.09321228 -0.24518965 0.07035295 -0.00507518 0.03340624 -0.06913813 -0.01619513 0.05145096 -0.28962296 0.02298551 0.05463346 0.12767383 -0.00678734 -0.03523559 -0.04779323 -0.01536518 0.06716172 0.01598345 0.07162411 -0.15817270 -0.16853674 0.04343837 0.07296715 0.00048019 0.02368314 -0.08580139 -0.15816881 0.02321451 -0.06889299 0.06278958 0.15442212 -0.36230743 0.12902224 -0.08232817 -0.11283214 -0.03876979 -0.01363280 0.00246149 0.06701492 -0.05848112 -0.04275726 0.07948600 -0.14206523 -0.12269983 0.23137940 0.17360570 -0.16528675 -0.05727826 0.06570391 0.04911537 -0.02092451 -0.02361919 0.04006697 -0.01987241 0.00793007
-0.05174331 0.02651999 -0.29228044 -0.05162292 0.05117888 -0.07555205 -0.02784351 -0.04582536 -0.17880873 -0.01612693 -0.46258718 -0.17020714 -0.14133099 -0.11258396 0.06469186 -0.32692495 -0.00838522 -0.18094598 -0.11153267 0.12029641 -0.01108123 0.04393741 -0.26373792 0.00569325 -0.44124708 -0.10322259 0.09452780 -0.08010838 -0.10443441 -0.04726866 -0.11429096 -0.27203414 0.06281473 -0.29982388 0.12243253 -0.07512394 -0.00716785 -0.09862057 -0.08567379 -0.00348551 -0.35409915 -0.09763740 -0.23201688 0.01732663 -0.18071331 0.01333350 -0.00078025 -0.08745386 -0.32763615 -0.06882667 0.11583828 -0.22857380 0.03237648 0.00145674 0.01220006 -0.29577982 -0.10210250 -0.02516052 -0.30097416 -0.24108608 -0.03031164 -0.01717621 -0.25985092 0.00673364 -0.06011594 0.04241138 -0.04510977 -0.05112585 -0.13415359 0.20157698 -0.05791754 0.01399171 -0.14642866 -0.19801244 -0.02720329 -0.04776533 -0.00108042 -0.02457508 -0.05784435 -0.06760686 -0.05529939 -0.14830257 -0.16646546 -0.05972071 -0.00914338 0.17406882 -0.24477468 -0.02156972 -0.00913835 -0.00204231 0.03871191 -0.07130392 -0.22579753 0.13205224 -0.05893428 0.17930120 -0.19405739 -0.10562772 0.09246016 -0.04310350 -0.05972407 -0.12702037 0.09664673 0.14830999 -0.29700738 -0.09016920 -0.02942260 -0.10859317 0.07995549 0.04210646 0.00698686 0.01146428 0.00520712 -0.09182944 -0.25162083 -0.00627806 -0.09096614 0.04785317 -0.02831686 -0.03773893 -0.14015850 -0.13815711 -0.02185498 -0.22491434 -0.07821126 -0.03550358 0.12389616 -0.34634700 -0.04447779 -0.06079309 0.09662217 -0.08814422 -0.19435120 0.03830231 -0.30244258 0.02095724 -0.15853964 -0.05457068 -0.01081492 -0.14141649 0.05901071 -0.36575186 -0.07478535 0.15915482 0.09708605 -0.24720633 -0.05925193 0.08842028 0.01578690 0.10061026 0.05926840 0.16616566 -0.12731636 -0.02596028 -0.01196272 -0.33611605 -0.21243039 -0.07088373 0.15702508 0.06582552 0.14942303 -0.18720129 -0.03173875 -0.13890147 -0.17157865 0.03809361 -0.02203813 -0.11675943 -0.21445087 0.12748024 -0.16555911 -0.18289907 -0.02597970 -0.06234450 -0.04034699 0.08359522 -0.03321181 0.09328513 0.09094376 -0.46775514 -0.02757117 0.03753434 0.04697469 0.17468742 0.16820867 0.00330963 0.22963700 -0.06553317 0.11555136 -0.09710316 -0.00708064 -0.06328548 -0.15120608 0.08604205 -0.07610174 -0.01200636 -0.27801004 -0.18004085 0.03507968 0.19856450 0.05102244 -0.50078171 0.03487834 -0.03448420 0.08662497 0.08775456 0.15858127 0.02257665 0.00310418 0.04165783 -0.11172157 -0.43086052 -0.00126669 -0.30268914 0.01825831 0.04148360 -0.08689416 0.03721051 0.06911175 -0.26326311 -0.06519347 0.02626989 -0.10788094 0.02128890 0.19924511 -0.10330170 -0.05707103 -0.04710997 -0.20909777 -0.26308376 -0.21068053 -0.21026744 -0.00658350 0.05723523 0.07575161 -0.10848212 -0.01608801 0.08582088 0.03564188 -0.28935558 -0.18898776 0.15660614 -0.16444129 0.05158171 -0.12160383 -0.12468202 -0.05909541 0.04062914 0.04026801 -0.00559284 -0.01294186 -0.04568063 -0.04776526 -0.13598602 -0.32529879 0.16271113
0.08143702 0.13120173 0.11058018 -0.00424241 -0.04083188 0.08949887 -0.04777149 -0.01281868 0.15073234 -0.10708239 0.30442610 0.15915051 -0.09914164 0.05445782 -0.13061900 0.15608186 -0.39476350 0.22380987 0.06988669 0.01542306 0.08322860 -0.12865642 0.16372895 0.05241555 0.15708546 0.08492491 -0.01364541 0.04841019 -0.10994210 -0.22965246 0.13394690 0.10882253 -0.32202312 0.11036184 -0.05876452 -0.12504973 0.04267944 0.02995715 0.05338925 -0.07419677 0.19908613 0.06967194 0.01904305 0.04841027 -0.27685848 0.00131937 -0.00465004 0.03253002 0.16657799 0.03267197 0.12121041 0.15870631 -0.35197935 -0.27053636 -0.02575862 0.19527872 0.05745357 0.05484539 -0.11222124 0.03966726 0.10495038 -0.01541872 0.08113440 0.08554065 0.10854685 0.03904846 -0.04784483 0.11909661 -0.05072084 0.04794496 0.00190454 -0.00153036 -0.02331826 0.10029563 -0.05580558 0.12114462 -0.40622443 0.13160552 -0.09783981 0.04679121 0.19009896 0.08411440 0.07339290 -0.35065174 0.03590302 0.06295265 0.08102967 0.07841219 -0.23189662 -0.04228495 0.11404014 -0.06402010 -0.02421417 0.02958149 0.07631575 -0.20827436 0.17817797 0.27010921 0.04811083 0.08858025 0.06048860 -0.23558712 -0.13122635 -0.02188047 0.27450207 0.11276224 0.05522064 0.12590519 -0.10260770 -0.19718552 -0.09752559 0.12358958 -0.30792606 -0.18955924 0.15675162 -0.00498172 -0.17461446 -0.05421884 0.05799592 0.06374280 0.12292799 0.04851792 0.06607198 -0.06588611 0.08748328 -0.02744797 -0.02215986 0.04523520 -0.01813383 -0.00233973 -0.14584544 0.10232473 0.06274947 0.04500126 0.20907383 0.03132642 -0.16706051 -0.12981935 0.05044959 0.03658708 -0.02353388 -0.04393756 0.11023822 0.08623140 -0.02324120 0.19035950 -0.08057091 0.14602762 0.15444313 0.09062184 -0.12213584 0.08522220 0.08351187 -0.01617649 0.03908489 -0.04667811 0.03928346 -0.01748161 0.00451785 0.20519796 0.04536315 0.16173409 -0.08311258 0.03824929 0.05120336 -0.08127715 0.08967024 0.06542850 0.12713741 -0.21363059 0.02439831 0.12610140 0.09582405 0.15095676 -0.10993283 0.03112451 0.03261668 0.01197730 0.01438537 0.06776648 0.12480885 -0.06901696 -0.05995227 -0.01536855 -0.00109048 -0.05407013 0.05332769 -0.01538241 0.00684930 0.06653831 -0.20057738 -0.03838865 0.20282008 0.06744345 0.00174878 -0.19428243 0.31465644 -0.14766134 -0.10245243 -0.30766594 0.12297336 0.02656740 0.14763203 -0.06543708 0.03158607 0.04057844 0.04968883 0.02449255 -0.03110971 -0.10428851 0.03972030 0.13953288 -0.03873325 0.12425171 -0.00464021 0.06600124 -0.00329853 0.02511299 0.09948980 0.24490730 -0.00959397 -0.03654032 0.12296683 -0.00177048 -0.13108510 0.12980238 -0.03159197 0.05095289 0.16706936 -0.03482180 0.16758041 0.09236281 0.04566378 0.11472763 0.07781550 0.10230870 0.03066511 0.00016997 -0.00404859 0.25079864 0.06975007 -0.02198860 0.12394350 0.02577547 -0.01494299 0.30604845 0.11675350 -0.11420331 0.08890579 0.10723342 0.15862228 -0.37080011 0.19910604 0.13682772 0.29590440 -0.01346517
0.00986798 0.09926634 0.05318650 -0.05775247 0.03605588 0.03614245 0.01491306 -0.02244356 0.18622230 -0.18447241 -0.13968226 -0.14491442 -0.06240321 -0.00199023 -0.16286542 -0.13788287 -0.11439098 0.11999128 0.11127407 -0.04454414 -0.16138938 0.13731536 0.12543723 -0.24864607 -0.17381427 0.09904369 -0.22980535 0.03010135 -0.02376190 0.00742202 -0.01127892 -0.08015218 -0.01587884 0.11847259 -0.24842772 -0.03936198 -0.09392247 -0.02618308 -0.02214750 0.03959472 -0.02988758 0.07070120 0.09184209 0.14791885 -0.10362220 -0.21190630 -0.00315285 -0.02698959 0.01991463 -0.15377137 -0.23760746 -0.02766124 0.07247365 -0.24216320 0.07367080 -0.29705510 -0.07036001 -0.03238462 0.11513025 -0.02286615 0.01889871 0.05196998 0.12761618 0.00617408 -0.12614398 -0.19001485 -0.07466821 -0.34488779 -0.09068245 -0.10915293 -0.00530977 -0.18073499 0.00670935 -0.03419924 -0.03161915 -0.00853574 -0.14083219 -0.03234966 -0.37482569 0.00263052 -0.05040191 -0.17078508 0.01435851 -0.13599105 0.11609350 0.01714418 -0.03011469 -0.02939323 -0.03811541 -0.16184919 0.01334456 0.00754270 0.10478083 -0.14425169 -0.10410149 0.08224303 -0.29543442 0.09217432 0.08809617 -0.11608882 0.07143571 0.02763452 -0.08543701 -0.07880991 0.01206676 -0.09146685 0.01461189 -0.22226943 0.01835921 -0.07070474 -0.02004572 0.01161188 -0.16882721 -0.15548231 0.04133089 -0.06212235 0.07125733 0.12982196 -0.10185485 0.08414277 -0.13708657 -0.06503309 0.04587113 0.07047734 -0.16784500 -0.17382510 -0.31014401 0.05575558 -0.05543096 0.05360931 0.00880786 0.06218050 -0.24562375 -0.03851439 -0.35381770 0.02371001 -0.07233653 -0.11832208 -0.05181749 0.01290946 0.04164656 -0.22589880 -0.02196800 0.03270246 -0.01554921 0.10149261 -0.01428924 -0.51079738 -0.05201881 0.03690635 -0.05445168 -0.19847977 -0.25136411 -0.03736495 -0.13079689 0.07572766 -0.18733959 -0.06524196 0.06843099 -0.17187037 -0.15079792 0.08520110 -0.04565918 -0.05454576 0.04571983 -0.01998111 0.05488147 -0.17219350 0.04171091 0.04955936 -0.28429118 0.05870178 -0.06567837 -0.03416458 0.01014290 0.06508214 -0.03732928 -0.08377699 -0.07845709 -0.02091612 -0.17253819 -0.28310087 -0.19378781 -0.05255945 -0.20348272 -0.04102569 -0.11767228 0.03571161 -0.08916067 -0.10851939 -0.09742933 -0.06068540 -0.39975902 -0.18445624 -0.04901241 -0.05639914 0.10479224 0.11958730 0.01666912 -0.05825492 -0.12734333 0.11348160 0.01825570 -0.00480909 -0.20710585 0.09040617 -0.09202882 -0.23841432 -0.04882355 0.02697295 -0.02893413 -0.03332656 0.02971997 -0.22691202 0.08447066 -0.18281126 0.02446301 -0.39577353 -0.18450652 -0.47664171 -0.03566312 -0.12438986 -0.18867494 0.02253703 -0.00663132 0.04970825 0.00571521 -0.00904379 -0.13049519 0.06056936 0.02606836 -0.09319402 -0.04906181 -0.01280079 0.00726618 -0.26365259 -0.24027413 -0.27872652 0.06397215 0.07606055 0.10605139 -0.08434321 0.11270572 -0.08519997 0.07269915 0.03841813 -0.01055247 -0.17322178 -0.09207739 0.07250518 -0.00167082 0.11435217 0.07817979 -0.24421018 0.06735858 0.00051186
-0.03637503 0.02080615 0.13396426 0.05947126 0.11477955 0.01031260 -0.00072253 -0.05435590 0.08115710 0.04347075 -0.28126451 -0.23853026 -0.10034116 -0.03409756 -0.22127509 -0.10813893 0.02452236 0.06893075 -0.02867065 -0.09972587 -0.16154519 0.04205063 0.05737808 -0.13242589 -0.21917476 0.00367933 -0.19784805 -0.10394617 0.12664112 0.05393894 0.04485727 0.05050207 0.00723860 0.06878584 -0.19530147 0.05533317 0.01271538 0.12224916 -0.03124804 0.00525982 -0.00204056 -0.01186728 0.15085116 0.04080828 0.05383920 0.04227777 -0.03063908 -0.08035944 0.15858129 -0.16326270 -0.22624446 -0.12706876 -0.03332696 0.10295311 0.14082092 -0.16194771 -0.02364097 -0.00866112 -0.11202902 0.08805092 -0.06819098 -0.30271339 0.05339796 -0.04857928 -0.03423381 -0.21574458 -0.22293426 -0.17045471 -0.04235026 0.00218524 -0.18447204 -0.10894797 -0.12583372 0.02919461 -0.09704430 -0.01262619 0.03906846 0.03620148 -0.15066065 -0.16932303 -0.01647286 -0.09456944 -0.15825428 0.11781922 0.08215523 -0.05415716 0.19357364 0.06862681 0.04406385 -0.16961631 0.02496116 -0.24291556 -0.08130338 -0.18076789 -0.03775470 0.13325019 -0.32145944 -0.04840707 0.02292563 -0.05093634 0.10805119 -0.07757058 -0.00284590 -0.24339876 -0.05384509 -0.06540673 -0.03126476 -0.04625351 0.06318735 0.16422704 -0.05676635 0.04831391 0.05338411 0.03494940 -0.01900969 -0.05293678 0.08594120 0.07314617 0.00786401 0.12493309 -0.03621642 -0.08411926 0.00316501 0.02241770 -0.07525478 -0.18296118 -0.32728770 0.03784481 -0.06346177 -0.00735410 0.15861584 0.07054553 -0.14930761 0.01924259 -0.30286503 -0.04439178 0.17314723 0.05162600 -0.09486680 -0.03505753 -0.04461696 -0.22971709 -0.00301980 0.02172131 0.00176190 0.04679475 -0.03218066 -0.29028654 -0.00090596 -0.02819054 -0.11833015 -0.21070470 -0.08216458 -0.29105330 -0.00315414 -0.12015878 -0.08864683 0.04894845 0.06122370 -0.03857086 -0.05236838 0.09567896 -0.11650304 0.11250221 0.06271131 0.00625636 -0.35856423 -0.01485218 -0.18254450 0.07739079 -0.16371749 -0.04915389 -0.05546819 -0.23373866 0.04866389 0.02422572 -0.06318824 -0.17414005 -0.06967802 -0.27148286 -0.09573697 -0.09845763 0.02370396 0.00747750 -0.17668729 -0.04638739 -0.15004449 -0.00363532 0.05060637 0.01233384 0.08501431 -0.11358944 -0.29770136 0.09255102 -0.05169445 0.09276360 0.10705076 0.05116832 0.00121852 0.06705856 -0.19346036 0.14780098 -0.05979262 -0.00103081 -0.02165443 -0.00218914 -0.13284114 -0.29509339 -0.06836701 0.01008649 0.14742354 0.04962738 0.01365170 -0.12188699 0.12659575 -0.17039284 0.08671200 -0.15875988 -0.08630361 -0.31071368 -0.00475658 -0.06592894 -0.11819133 0.00487228 -0.11576045 0.06812502 -0.00994796 0.01149628 0.06959577 0.00117238 0.04951338 0.02066371 -0.05875107 -0.01511344 -0.14988372 -0.11051587 0.02827417 -0.25110075 0.07936516 0.08612037 -0.00684440 -0.12429968 0.04682606 -0.10278197 -0.01407752 -0.01437269 -0.03179245 0.06436905 0.01649959 0.05123714 -0.00371800 0.04051844 -0.06231900 -0.03790757 -0.04121679 0.07990836
-0.04757357 -0.05249691 0.03322253 -0.00788543 -0.03531593 0.08421905 0.03787993 0.02901869 -0.04052426 -0.16157907 -0.15134740 -0.09637912 -0.14916076 0.02972110 -0.08110774 -0.23415998 -0.03183137 0.05275122 -0.02836383 -0.18871163 -0.04183418 0.14073828 -0.00903892 -0.26048282 -0.28990448 -0.08526263 -0.24506460 0.13129172 0.02388875 -0.01146477 0.07668986 -0.00742024 0.04255941 -0.09108271 -0.29478472 -0.06897320 -0.03477325 0.09982061 0.01229098 -0.05028782 -0.25456879 0.17233332 0.02488113 0.04819917 0.02390579 0.06226683 -0.03704187 0.02891002 -0.08222356 -0.09041353 -0.36716264 0.01339037 -0.10441488 -0.05099376 0.00034659 -0.25597590 0.03665514 -0.09198046 0.07823329 0.20955047 0.06960265 0.15185416 -0.01020134 0.01825176 -0.02548210 -0.06908673 -0.03701482 -0.28334513 -0.05141687 0.00307870 -0.06693511 -0.18240868 -0.02842253 0.03225081 -0.07270970 0.09927741 0.05572967 0.08216186 -0.25378639 -0.01988880 0.13723578 -0.12284230 0.09203813 0.02040530 0.01346374 -0.21182746 -0.06044558 -0.03928492 -0.16980955 -0.02093529 0.09352897 -0.20345722 -0.03315042 -0.01074205 0.00214193 0.07572414 -0.33197358 0.07418436 -0.00534942 0.03411966 -0.00016056 -0.09338532 -0.14522673 0.02237213 0.00155686 -0.02231369 -0.06475172 -0.22866647 -0.00365160 0.00225416 0.11787865 0.01459590 -0.01055666 -0.02611366 0.01334501 -0.06464935 0.02507621 0.14169669 0.01397257 0.01974297 -0.03111465 0.04056183 -0.01601262 0.11847231 -0.17750102 -0.20601259 -0.36237395 0.12682292 -0.04493476 0.00948146 -0.10936122 -0.00008278 -0.17438568 -0.03831266 -0.34424508 0.03244480 0.02921111 0.05717146 -0.00511144 0.00406903 0.10681593 -0.24943507 -0.06668836 -0.06923693 -0.13701190 -0.06194352 0.01374818 -0.42418152 -0.12953268 -0.02815750 -0.18558644 -0.23070285 -0.16181034 -0.10120333 -0.06230846 0.06111086 -0.29623920 -0.04482447 0.07770782 -0.03225682 -0.11548656 0.03783671 0.02101996 -0.00263946 0.06773709 -0.07561486 -0.00878925 -0.02048914 -0.05281193 0.05019948 -0.24290074 0.09021902 0.04244866 -0.05046230 0.04386576 -0.01626659 -0.06688826 -0.03950772 -0.06681469 -0.18871421 -0.09267114 0.02493345 -0.00311236 -0.08781096 -0.00872115 -0.07877711 -0.19569555 0.02832902 -0.01354223 -0.04050265 0.04175868 -0.07926618 -0.38595411 0.07701422 0.08644640 0.03714270 -0.04916910 0.05288183 -0.05064839 -0.02580782 -0.02399134 0.06062636 0.06714328 -0.06559613 -0.07826090 0.09785172 0.05570675 -0.39002582 0.12384587 -0.14257310 0.15038857 0.01499898 -0.08592846 -0.35310739 -0.01350301 -0.29249579 -0.00855051 -0.24696600 -0.21410640 -0.52822560 0.04248639 -0.33848277 -0.11885869 0.02972580 -0.03126150 -0.01645662 -0.02311369 -0.01693810 0.00847317 0.00385301 0.01100805 -0.03133622 0.00858486 0.00782496 0.15213948 -0.21124311 0.01003277 -0.16260064 -0.05132258 -0.06920071 0.12269487 0.03873118 -0.02576977 -0.29016572 0.05803775 0.05051076 0.19122317 -0.04136437 0.03306154 -0.09924687 -0.04974448 -0.00509672 0.14372857 -0.28753877 0.07669199 0.04393662
0.08473121 0.10729099 0.00435528 -0.20317972 -0.12634499 -0.03334688 -0.00302374 0.10748307 0.15586464 -0.00083503 0.10108875 -0.11294583 -0.11946065 -0.15961376 0.03897628 -0.00726425 -0.21752688 -0.05005027 0.17340058 -0.02734072 0.13726695 0.14873993 -0.04772519 -0.11759225 0.04026894 0.24848449 -0.15930629 0.10326824 0.05616758 0.02230111 -0.01042429 -0.09553719 0.09142184 0.06116555 -0.00865481 -0.07135061 0.07371429 -0.14682157 -0.00362050 -0.21141188 0.07471848 -0.21105994 -0.09826623 -0.03273937 -0.19999206 -0.10323803 0.06027732 0.01082021 0.24939436 0.02331765 -0.10233159 0.08714553 0.02819553 -0.02072073 -0.08945557 -0.00547849 0.10737135 -0.08238821 0.05355613 -0.01177481 0.00701528 0.24859448 0.03706782 0.04129186 0.01965360 -0.12392756 0.07604600 -0.01970106 0.06411155 -0.01096849 0.04482117 -0.02086115 0.10427865 -0.14701876 0.09675336 -0.49003255 -0.08965158 -0.16012457 -0.17989598 -0.04212345 0.06824382 0.17845659 0.04587658 -0.09974977 -0.00104845 -0.06864432 -0.12817636 0.12233534 0.04472074 -0.38491666 -0.11740346 0.03899330 0.19139776 0.12866570 -0.38757014 -0.07258183 0.04172375 -0.00378598 -0.16547029 -0.01449454 0.20744215 0.00500551 -0.07566901 -0.18912561 0.00832683 -0.17969249 0.02321451 -0.14909351 -0.03591110 -0.07297092 -0.19067660 0.15835817 0.01491364 -0.10157143 -0.03220518 -0.04389033 0.12107019 0.01332064 -0.13490999 -0.04078659 0.16577929 0.00072212 -0.17909515 0.03288782 -0.15291774 0.00254072 -0.14954740 -0.06996980 -0.01364821 0.18105794 -0.06082771 0.20329899 -0.04059108 -0.04288965 0.03072799 0.08807946 -0.11874404 -0.04368822 0.07547738 -0.01757822 0.12675761 0.19216745 -0.10383992 -0.08134291 0.14995289 0.11821927 -0.04313564 -0.07936464 -0.21310118 0.07445429 -0.11379167 -0.28782278 -0.10702488 0.01747214 -0.13411023 0.00329317 -0.08435200 -0.23484029 -0.26074079 -0.11617026 -0.15522648 -0.10330291 0.15636060 -0.10096758 -0.47170049 0.14090757 0.05511403 -0.25450334 0.16555715 -0.41904581 0.03388021 -0.06554267 -0.00783839 0.12991507 -0.07287709 0.03083318 -0.01973075 -0.03627250 -0.12276956 0.23479785 0.18769704 -0.25217164 -0.27234524 -0.11704038 -0.11622967 0.13636167 -0.13044639 -0.08178961 -0.20560864 -0.20949233 -0.05812436 0.26043329 0.08667882 -0.13353835 0.17812394 -0.13903545 -0.01879498 0.18964165 0.10119271 -0.38100186 0.10878659 -0.01930853 -0.10534911 0.12819193 -0.23780596 -0.25365138 0.21336675 -0.08987761 0.01631130 0.01539382 0.04280817 0.16884452 0.00216481 -0.04314005 -0.03556522 -0.11424006 0.02352122 -0.19499022 -0.12517521 -0.14758602 -0.19487947 0.10790437 0.06628146 0.09027989 -0.21407449 0.13645494 0.01962470 0.10155299 -0.19622000 0.08972377 0.12529513 -0.13102770 0.06683882 0.04443033 0.01644501 -0.16474706 -0.28259477 -0.11624430 0.05868519 -0.11784121 -0.00181082 -0.19348997 0.04813270 -0.08693894 0.06712549 -0.12299205 -0.32563758 -0.22533183 -0.10051164 -0.25796807 -0.21245465 0.12988189 0.28744462 0.01674455 0.05759824 0.14782839
-0.01704881 0.00067500 -0.10817558 0.06583844 -0.12934573 0.00035676 0.05996665 0.10761946 -0.03076984 0.04182477 0.01927572 -0.03657732 -0.00980694 -0.08889069 -0.04529548 -0.02255027 0.08272317 0.07196563 -0.10744385 -0.05325364 0.10216958 0.04633023 -0.04019384 0.06477831 0.00737545 -0.02702731 -0.02213967 -0.04303778 -0.03450701 -0.15471065 -0.11203788 0.17805281 -0.19927195 -0.04461868 -0.00995753 -0.01809629 0.01713547 -0.06145697 -0.07015009 0.03367499 0.12189139 0.05058262 0.01539534 -0.04373008 0.13022280 -0.08419187 -0.37566671 -0.06854981 0.01455736 -0.06910588 -0.04002804 0.08332670 -0.25195348 0.07221934 0.04700907 0.08654541 0.05047169 0.02993932 -0.01099959 0.14377174 -0.11030380 0.03174688 -0.12883514 -0.27464971 0.07604956 -0.04745058 0.01951016 0.06882489 -0.18413298 0.03774822 -0.04310105 -0.22972941 -0.06229160 -0.10996480 -0.21981268 -0.13110238 0.08497972 0.03745057 0.01568136 -0.04950421 0.14893225 0.09471232 0.02198358 0.23698309 -0.02344284 -0.01982951 -0.04574252 0.03785782 0.10124347 -0.07677812 0.05069009 -0.02806935 -0.17572200 0.01960440 -0.13263126 -0.00631945 -0.06257003 0.03983990 0.03820635 0.07496995 0.06867219 0.00034863 -0.00635458 -0.04237034 -0.00467050 0.01120295 -0.27318287 -0.02767248 -0.05423398 0.02467307 -0.07723474 -0.13474908 0.01348158 0.19858409 0.09042829 0.04040438 -0.01983640 0.07528321 0.08446917 -0.05470286 -0.20566000 0.06452978 0.04082408 0.08685479 0.06839642 -0.30006519 -0.09936081 -0.32505426 0.08044456 -0.03756951 -0.05240699 0.04681839 -0.00756059 0.08557006 0.05015891 0.00162071 0.12080033 -0.13937373 -0.23730974 -0.01070038 0.01306281 0.09897955 -0.16707361 -0.22779010 0.00356220 -0.03958681 -0.20811221 -0.08426527 0.02580112 0.02508625 -0.04077585 -0.10925211 -0.04189961 -0.00956448 0.02574722 -0.22502455 0.04075901 0.09391092 -0.18982689 0.08914825 0.04389905 -0.06436298 -0.02860767 -0.02053993 0.04416461 -0.43255284 0.06712577 0.00550149 -0.05361085 0.04193224 -0.04781852 0.00934653 0.08029257 -0.04668832 -0.45802480 0.01314721 -0.27082542 -0.00709402 -0.14491455 0.01316410 -0.07051457 -0.04226314 -0.09480467 -0.02022005 -0.01258765 -0.43679866 -0.06884753 -0.02225957 0.09919432 0.00832055 -0.19599333 -0.00153902 -0.06050922 0.09005783 0.09945589 0.03415516 -0.04001406 -0.15397008 -0.40285757 -0.07242046 0.05882585 -0.02708082 0.07210910 -0.27804288 -0.01458606 -0.04760578 0.02370859 -0.00747359 0.04923072 -0.03616853 0.16091305 0.05178923 -0.46958223 0.02880935 -0.04109721 -0.02585196 -0.19480653 0.06939801 0.06077154 0.06372011 0.05727943 0.05708319 -0.01238694 -0.01642831 -0.09675844 -0.03864479 0.02046120 -0.07101314 -0.00794132 -0.07685165 -0.08234430 -0.00085500 0.09757700 -0.31747925 0.05217126 0.04257168 0.04819309 -0.02797612 -0.13484196 0.03011633 -0.00280015 0.00062298 -0.06759439 -0.03560678 -0.00143367 -0.11600595 0.01134863 0.02063468 0.03038789 0.02803496 0.03501318 -0.10778034 0.02507683 0.10318198 -0.08353071 0.03499705
0.05990273 -0.01049696 -0.00823488 -0.27740866 0.07010666 -0.07503094 -0.09483015 -0.01064870 0.03357391 -0.24804179 0.13590673 0.13549758 0.13187796 0.05266338 -0.09931624 -0.09118461 -0.12559448 0.01706639 0.13113400 0.06197070 0.24820125 0.04412565 0.10657948 0.02617102 -0.02322045 0.08030864 -0.06013970 -0.03679618 0.11188585 0.10481851 -0.07233237 -0.05314442 0.16031541 0.01324975 -0.01322033 -0.03327914 0.09259675 -0.01923833 0.28772062 -0.20527297 0.01366579 -0.01398053 0.10303380 0.01067195 -0.25426880 0.12240018 0.05332197 0.11860757 0.07417033 0.28147390 -0.03970310 0.12019803 0.09217143 -0.07842171 0.08801340 -0.08700845 0.15613170 0.04899747 -0.09181087 -0.05148590 0.04430575 -0.05964023 0.12238800 -0.02253947 0.03333264 -0.29606667 0.06892703 -0.01621278 0.11946524 0.02082011 -0.06198886 0.09114537 0.03751094 0.13016494 0.17173360 -0.05148580 -0.10144634 -0.00887696 -0.11724602 -0.02845644 0.04977500 0.11069909 0.06555624 -0.00386108 0.08184785 0.04002806 0.04134222 0.09736977 -0.11653312 -0.12692741 0.10127854 0.06972663 0.04391551 -0.22271697 -0.28702775 -0.00496139 -0.10837904 0.05800503 -0.02982117 0.00599901 0.08823684 -0.08304669 -0.21417794 -0.14593178 0.04865358 -0.41339242 -0.19206177 -0.02783181 0.02635159 -0.18163718 0.09181955 0.07309895 -0.09922788 -0.01364898 0.21227750 0.12957343 0.14106481 0.05169324 0.02811747 -0.03541370 0.12936288 0.08845763 -0.02017851 0.01240422 -0.23067419 0.11691678 -0.02593365 0.06773745 0.00921043 -0.28789511 -0.05029942 0.05522468 0.07637732 -0.04031295 0.00977117 -0.00033346 -0.28721297 0.24518101 -0.11714601 0.08910955 -0.03562166 0.10212435 0.22809790 0.04188434 0.06740505 0.05401698 0.11545665 -0.09079648 -0.00007035 -0.08005361 -0.13443251 -0.07047916 0.16835555 -0.02424391 0.02904693 -0.00727919 -0.07821370 -0.37182403 0.11728914 0.12155968 -0.27180341 0.13676047 0.12693082 0.14716561 -0.18026847 0.02070050 -0.09910148 -0.06367617 0.02518185 -0.12112407 0.05572558 0.09286714 0.01720817 0.00511561 0.03884511 -0.15721023 -0.00988722 0.08153582 -0.39566749 -0.05257811 0.11130369 -0.28013617 -0.48122782 0.02754112 -0.32016116 0.16338979 -0.11554877 -0.02240669 -0.45907235 0.06436072 0.04665964 0.11283128 -0.15985206 0.03294069 -0.07065892 -0.19588061 0.08630193 0.18905540 0.05511502 -0.16541985 0.12411433 0.10390501 -0.04950031 0.12415835 -0.19419807 -0.14703131 0.13506404 -0.06837668 -0.00958676 -0.12564605 -0.44039482 0.12636992 0.13550520 -0.03010383 0.05613391 -0.17713735 0.01334533 -0.10997284 -0.11132078 -0.06411249 -0.02836808 -0.15376550 0.09164339 -0.13299954 -0.04070855 0.02436090 0.03359014 -0.00768073 0.07650267 0.03597382 0.03219974 0.08786166 -0.04412879 0.12774697 0.09877829 -0.08840623 -0.14164546 -0.14390673 0.01731900 0.10451102 -0.10526713 -0.01997286 0.00998947 -0.06802431 0.16254731 0.17762411 0.03792031 0.14749652 -0.30391338 0.10157973 -0.01657484 -0.03472961 0.02295404 0.07244868 0.12885049 0.05281268
0.05936745 -0.01989838 -0.14409851 0.01895376 -0.06884262 0.11302073 -0.21743210 -0.44646582 -0.05890624 0.11662408 -0.09626751 0.06063386 0.10872726 0.10212310 -0.07609567 -0.05355454 0.10529044 0.05253370 -0.34999222 -0.08858371 0.12458060 -0.25802067 0.07949314 -0.28470987 -0.13041507 -0.07853075 -0.02015023 -0.39381161 0.13734084 0.06570891 -0.03387185 -0.24180596 0.04571167 0.04034356 0.06539235 -0.04926002 0.03913210 0.17692424 -0.03130586 0.18059398 -0.28081498 -0.07370154 -0.02114283 -0.34422347 -0.03652510 -0.04384454 0.00312760 0.10198118 -0.17841412 0.04622496 -0.16516723 -0.00905818 0.12244871 0.06828876 -0.01073814 -0.08340618 0.03516325 -0.28884879 0.01638484 0.13168438 0.12659550 -0.30159786 -0.21388571 -0.36494842 -0.02288795 -0.02890208 0.00527822 -0.06595579 0.05078086 0.07894210 0.04228493 0.07281386 0.10954955 0.21152329 -0.03696688 0.03096909 0.05399923 -0.18428607 0.02483675 -0.17230658 -0.18409811 -0.12612994 0.06930335 0.10250036 -0.10860110 -0.15173750 -0.06712277 -0.12944533 0.05860674 0.10661882 0.00925798 0.07229462 -0.08795537 0.10170227 0.10586370 0.05724630 -0.12286928 0.01925292 -0.03589026 -0.55013043 -0.11102530 0.05561848 -0.00915316 0.08827033 0.01181269 0.04457611 -0.06877496 -0.12218917 -0.03009557 0.08489203 -0.03641650 0.00231954 0.10019999 -0.01714127 -0.10408316 0.07295353 0.19593954 -0.06833225 -0.03534233 0.01271632 0.04704778 0.14145276 -0.30309144 -0.30721742 -0.14866674 0.05561145 -0.03267967 0.04544148 -0.49508786 -0.33503976 -0.02441019 -0.00634307 -0.04778033 -0.47330087 0.06012713 -0.26728559 -0.03495315 -0.01260669 -0.47339395 0.14660653 -0.06681000 0.07675587 -0.03397599 -0.06206439 0.03745511 0.11600024 0.27316743 -0.04502330 0.03101801 -0.27769151 -0.01004266 -0.05148821 0.02407170 0.05042719 0.01846924 0.12297940 -0.08348380 -0.06575391 0.03780479 0.03019281 0.06713585 0.02400372 0.00350639 0.04155496 0.07153842 0.06930362 -0.04304611 0.09927001 -0.09648405 -0.03394292 0.05697502 -0.02784061 -0.53955507 -0.24223262 0.10461217 -0.15637894 0.07146901 0.01807167 0.03523127 -0.03807583 -0.09208383 0.04674524 0.13931963 -0.13295262 0.06430958 -0.04220228 -0.05545548 -0.04303172 -0.22728014 -0.24769975 0.06356993 0.03321874 -0.05190690 0.00160673 -0.07824508 0.03001536 -0.00368895 0.16176258 0.01975682 0.00303320 0.01493704 0.07464799 -0.22896785 0.05451789 0.08474983 -0.15846407 0.18952759 -0.00560478 -0.20270307 -0.11243661 -0.05479784 -0.21986693 0.01975006 0.03302952 -0.09117761 0.00240089 -0.02277811 -0.10685597 -0.10108368 -0.00436728 -0.11739586 -0.19276206 0.08369024 -0.20251623 0.15310016 -0.11761077 -0.15535957 -0.02465148 -0.04722445 -0.00789541 -0.01948973 0.11103970 -0.50604069 0.05670553 -0.11813772 -0.11867093 0.11096706 -0.08325345 -0.01134140 0.00870182 -0.15578549 0.00183670 0.05399280 -0.09422773 0.07284702 0.16197884 0.16466689 -0.00739484 0.04623045 0.09918489 0.01350833 0.04146354 -0.17435423 -0.07694096 -0.25592902 0.09498006
-0.05067338 0.03723669 -0.08517246 -0.04837376 -0.09446001 0.01519024 -0.02066647 0.03941500 -0.02607708 0.07409935 0.13778627 -0.15606484 0.02634741 -0.09172349 -0.05468414 0.01052893 0.02514613 0.00023990 -0.15240586 -0.08761546 0.05615796 0.04506343 -0.09922145 0.15838833 0.02887455 -0.01310867 0.00762959 0.01646070 -0.10896520 -0.22290666 0.01846066 0.04310383 -0.14870735 -0.04393123 -0.07906216 -0.08718234 0.00302129 0.08194942 -0.10839032 0.00779614 0.05794633 0.00053481 0.00456879 -0.04260638 0.08541474 0.04654227 -0.24577476 0.05257485 -0.07819235 -0.05907738 -0.04309921 0.07536126 -0.34896582 0.04855547 0.09758965 0.06064259 0.03168726 0.05957269 0.17820299 0.09793670 -0.09043203 -0.00662673 -0.16509420 -0.24693955 -0.03357664 0.01968097 -0.02257336 0.13135308 -0.19223820 -0.00831522 -0.08903782 -0.08048590 -0.07971817 -0.20280106 -0.31438005 0.03418078 -0.02619931 0.08759750 0.19182472 -0.05679891 0.02216836 0.16042322 -0.06935554 0.22103129 -0.07141012 0.08192186 0.03556212 -0.06757662 0.04042204 -0.00399058 0.05729001 -0.00592377 -0.06746729 -0.10151707 0.14273047 -0.03574070 -0.04575065 0.06460202 0.00945779 0.11757699 -0.02389328 0.08441033 0.08593690 0.08375967 -0.14848575 0.01197807 -0.11664656 -0.00478820 -0.11456621 0.06070850 0.14778808 -0.12988967 -0.01697050 0.09484991 0.05043767 -0.13684216 -0.14453544 0.01587303 -0.05465603 0.01311974 -0.09484159 0.13056159 0.00964128 0.00774636 0.05484122 -0.17758536 -0.04091961 -0.31943405 0.07356369 0.05548070 0.00005957 -0.06290097 -0.01829143 -0.00608124 0.07624994 -0.02846640 0.01266011 -0.03828083 -0.25533852 -0.06837641 0.04781762 0.14104337 -0.22165729 -0.23622468 -0.05660028 -0.09448040 -0.00332631 -0.01705034 0.01684099 -0.08700703 0.02783799 -0.02419058 0.00201966 -0.01075865 0.08050471 -0.19177026 -0.07279157 0.02119973 -0.04899770 0.07033713 -0.02396298 -0.03488158 0.03145926 0.05814597 0.14435388 -0.52076858 0.14969352 -0.00185721 -0.06351770 -0.02108612 0.10241831 -0.03381471 0.11437705 -0.02087566 -0.51616120 -0.03833900 -0.24409333 -0.11296251 0.05393291 0.01578376 -0.02720033 0.05308913 0.15115114 0.04792767 0.03833650 -0.27708521 -0.00831637 0.06209609 0.05490367 0.03566210 -0.20745851 -0.01597365 -0.05092129 0.10039421 0.08319038 0.03095340 0.00318268 -0.07144814 -0.38512421 0.02938031 0.04207444 -0.07167290 0.09334100 -0.32598156 0.00048547 -0.01912304 -0.01564268 -0.05474203 0.04858123 -0.07737625 0.13400109 0.05996730 -0.45972356 -0.01396296 -0.02572666 -0.03937191 -0.29747617 0.14553913 0.08599728 -0.02396027 0.09947092 0.09293124 -0.12341519 0.02892368 -0.06841797 -0.07912575 -0.01035969 -0.06643943 0.09925247 -0.20518178 -0.06482801 0.03813025 0.05094734 -0.22517517 0.04916802 0.09207045 0.02932479 0.02685067 -0.14518876 0.01456138 -0.04896045 0.00051316 -0.15539858 0.02873022 -0.07172539 0.00883980 0.02330184 0.03236665 0.09911530 0.05071418 0.05272351 -0.15889670 -0.08542357 0.05397613 -0.14056084 -0.02153867
-0.01619584 -0.14867336 -0.01805261 -0.01565941 -0.05388763 0.03020979 0.08011262 0.01576211 -0.23757505 0.02971351 -0.29453000 -0.17676158 0.07410195 -0.03184890 0.02956349 -0.31539801 0.10477520 0.02901437 -0.37484875 -0.06826620 0.04228068 0.13234089 -0.06742492 0.06212226 -0.44729617 -0.12932149 -0.06677133 0.09556751 0.07489239 -0.15661450 -0.38129324 -0.05398094 0.01436082 -0.08994259 -0.11508614 -0.00571099 -0.06609066 0.03265965 -0.22465274 -0.02003556 -0.28378269 -0.02360855 -0.02951336 0.04996883 -0.06664467 -0.14887773 -0.08225156 -0.23078938 -0.21802087 0.27146873 -0.12760177 -0.01266813 -0.12340425 0.04614189 0.08915479 -0.25252807 0.09168390 0.01868232 0.02049878 0.16882010 -0.07130811 0.08201883 -0.22091842 -0.30429730 -0.06838514 -0.01476000 0.03691658 0.00268862 -0.29387659 -0.15610485 -0.04024576 0.10612039 -0.15807427 -0.07844696 -0.13858370 -0.01453608 0.13347034 0.01720916 -0.00756477 -0.22706078 0.05691423 -0.02246697 0.14777012 0.24834631 -0.18883324 -0.07014828 -0.11817814 -0.10807271 0.02374660 -0.11099598 0.08563568 -0.10152084 -0.22241400 0.03095453 -0.10859559 -0.04262656 -0.50944096 -0.08103807 0.14439669 0.06081466 -0.14116906 0.06372477 0.05526195 -0.04593150 -0.12554134 -0.11320058 -0.51311296 0.17113124 0.03910349 0.05822192 0.24016908 -0.01926607 0.04980552 0.04105445 -0.07089289 0.11015514 -0.05734877 0.04411077 -0.03761699 -0.17811303 -0.01048480 0.08930206 0.00748633 -0.00620690 0.06691124 0.12026544 -0.17916237 0.05497054 0.07929753 -0.09151876 -0.01878248 -0.07689962 0.07784783 -0.00011124 -0.24698713 0.07227524 0.11856640 0.01749660 -0.36649007 0.04455455 0.11991441 0.01931103 -0.01605512 0.01658710 -0.06374396 -0.00816976 -0.08006485 -0.29856446 0.00562163 -0.07561608 -0.13406470 -0.21484567 -0.33154154 0.03544373 0.03888012 -0.04805600 -0.50525093 -0.01561306 -0.08758970 -0.14457896 0.09357783 -0.15758830 -0.07552097 0.01117164 0.03190721 -0.18623857 -0.11529795 0.07756980 -0.02337807 0.12652780 -0.09417917 0.17378277 0.05147694 -0.03868371 -0.32411566 -0.03079510 -0.03890284 0.02577512 -0.28973216 -0.24483697 -0.18830569 -0.00242359 -0.22385672 -0.08935121 0.01250583 -0.20102370 -0.07636766 -0.02287593 -0.15133704 0.02557880 -0.20794027 0.00943387 -0.49815124 -0.06738164 0.15595248 -0.01424694 -0.09895448 -0.11085569 -0.05366923 0.12685871 0.05767854 -0.08862216 0.07295190 -0.15113920 0.13005562 0.02942204 0.10170295 -0.15852082 -0.00144655 0.00560673 0.13222691 -0.30005658 -0.16778046 -0.39313164 -0.08359859 -0.10094294 -0.13175142 -0.07564177 0.08304221 -0.46606791 0.02823570 0.03414133 -0.26381907 -0.10735324 0.05131989 -0.13214049 -0.06693032 -0.14676473 -0.22958019 -0.07356858 -0.11143269 0.04543732 0.01697997 -0.11209002 0.07685238 0.17626938 -0.03989539 -0.08484957 -0.12465797 -0.12360345 0.01408595 -0.11984842 -0.02746284 0.10980810 0.14113471 -0.01096538 -0.00501068 0.06706945 -0.01559010 -0.09097973 0.05997085 0.01700911 0.03897772 -0.23444621 -0.26932558 -0.11881515
0.00822832 -0.00785495 -0.25319552 -0.04243099 -0.06237680 -0.08072393 0.02817029 0.08565044 -0.12467428 0.03470428 -0.12119523 -0.03372299 -0.04184077 -0.12451327 -0.02707155 -0.02378322 -0.13750176 0.01353011 -0.01248628 -0.06483655 0.04715407 -0.02199371 -0.04491311 -0.09519098 -0.01798346 -0.01265292 0.07163397 0.03556367 -0.27765617 -0.33910254 0.00006277 -0.09345926 -0.37346375 -0.11564057 -0.03473333 -0.04394089 -0.09570115 -0.02425397 -0.05297952 -0.01610107 -0.06224868 0.13209106 -0.05475294 0.00780595 -0.04912310 -0.09221153 -0.19871688 -0.10275339 -0.04607189 -0.25822914 0.00197500 -0.06818696 -0.51769233 -0.02905778 -0.00229978 -0.02018000 0.03411399 -0.07723483 0.14081362 -0.02872358 -0.11116517 -0.08285878 0.03301323 -0.23752815 -0.09862401 -0.01178565 -0.06167803 -0.01412775 -0.16366614 0.04966864 -0.07677887 -0.34301075 -0.04393763 -0.20230967 -0.49215496 0.01683993 -0.10465586 0.04763923 -0.00569684 0.03387112 0.09057638 -0.04951663 -0.02348522 -0.13646348 0.07448171 0.06179713 -0.01024972 0.10046501 0.01963176 -0.02100752 0.11302372 0.07775289 -0.21678993 -0.03216392 0.00575620 0.03202367 -0.02813008 0.02833896 0.00379507 -0.03628851 0.06788509 0.06537930 0.11322770 0.03751437 -0.10878589 0.00730462 -0.12361694 -0.20584504 -0.05236082 0.02526139 -0.10939697 -0.31557631 -0.05273649 -0.07876378 0.05574325 -0.07524101 -0.20179483 -0.06040869 -0.00318273 -0.15843514 -0.25221670 -0.03391329 -0.02668171 0.15325782 -0.03620644 -0.41750187 -0.09217735 -0.19666630 -0.03942261 0.05253283 -0.00822872 0.06260464 -0.13724603 -0.04333000 -0.06698003 0.12698562 -0.08007247 -0.09247705 -0.12747560 0.00569564 -0.04423990 -0.02516379 -0.24198484 -0.16545378 -0.03806010 -0.04367415 -0.08645646 -0.00738266 -0.04930059 -0.02180801 0.01133090 -0.03711767 -0.01538403 -0.03598164 0.03513805 -0.13953723 0.01553535 0.11971717 -0.02371868 0.02924404 0.00675499 -0.05119492 -0.01588803 0.04401625 0.00292191 -0.28105676 0.10186491 -0.05876715 -0.01206243 0.14632349 -0.07754757 -0.00510380 -0.01282539 -0.03976042 -0.19310483 -0.09400704 -0.42462668 -0.07339472 -0.10634179 0.00204007 -0.13163528 -0.05283431 -0.03341200 0.05367176 -0.00949204 -0.49715737 0.05149220 0.04573670 0.12664595 0.00386354 -0.11201046 -0.03262266 -0.05957065 0.02095721 0.08037540 0.01614899 -0.02567853 -0.17803386 -0.21571942 -0.05689154 -0.03104092 -0.06184772 0.04797323 -0.51874995 -0.00231080 0.01083162 0.01461877 0.05175119 -0.09691633 0.01641006 0.09777536 -0.12917265 -0.16994257 0.04820823 -0.09129290 -0.02825565 -0.29081586 0.04627839 -0.01136695 0.06483095 -0.02550716 0.09605714 -0.04431124 0.00839340 0.04570443 0.05781786 -0.01006750 -0.13304663 -0.02533497 -0.19683906 -0.20828135 -0.03908430 -0.00794792 -0.24292511 -0.00225746 -0.06193842 -0.04549318 0.02054990 -0.09432157 -0.10810131 0.07522269 0.06315252 -0.01569035 -0.01442783 -0.05835867 -0.09263408 -0.01693682 -0.09829114 0.16766350 0.03322970 0.06989637 -0.18934797 0.05437890 0.02129551 -0.04360815 0.01913368
-0.06603294 0.04115463 0.01306425 -0.19860363 -0.06530844 0.04799989 0.00255046 -0.19818330 0.09754914 0.11012601 0.01233800 -0.19711533 0.04442225 0.06334545 0.03301749 0.03380484 0.06289127 -0.21206895 -0.03712340 -0.29044536 0.01951972 -0.03277044 -0.03171763 0.07626919 -0.11477540 -0.12095777 -0.18217750 0.08705755 0.00627721 -0.05908402 -0.10452250 -0.16939725 0.14367320 0.10091641 -0.07200576 -0.16208519 -0.05045967 -0.07976833 -0.27156803 0.04544292 0.07734272 -0.08305463 0.06960672 -0.36826152 -0.03250266 -0.24258757 0.02989201 -0.30053198 -0.03499678 0.17812462 -0.10945492 -0.03838420 0.14273410 -0.07576080 -0.45221755 0.16281113 -0.43742326 -0.15012543 0.24251415 -0.00686838 -0.03498041 0.24827401 -0.03145754 -0.14575255 -0.14192855 0.02591202 0.00827122 0.19624829 0.15321539 -0.22430682 0.05834469 0.14687411 0.06700572 0.02380199 0.02382031 -0.13942455 0.07851829 -0.14686801 0.13755849 -0.14175871 -0.02492588 0.20054610 0.08507473 0.02123978 -0.22002508 -0.01572611 0.06573728 -0.07154532 0.22408020 -0.01997141 -0.08467577 0.01728493 0.23152834 -0.17690638 -0.05689650 -0.20948891 -0.13811710 -0.26074883 -0.06815580 -0.25649071 0.02939482 0.21752419 0.21485329 0.08323528 0.01418960 -0.09658156 -0.14127444 -0.15420730 -0.16349204 -0.16315523 -0.05798471 -0.05094877 -0.13692723 -0.11839034 0.03165090 -0.08930061 0.05623723 -0.06225551 -0.08602472 -0.03989731 0.15850206 0.11874046 -0.01153986 -0.04499949 0.09482815 0.06267643 -0.19938532 0.30638894 -0.31227481 -0.04626727 -0.08836307 -0.09896037 -0.19210841 -0.45024520 0.03342857 -0.33683306 -0.06322436 -0.03275314 -0.58549386 0.13738002 -0.09032952 0.28362462 -0.23101792 -0.23975785 -0.07835755 0.01918863 -0.07316617 -0.23678850 0.10267856 0.14572649 -0.09243186 -0.12729497 -0.03046528 0.01994980 -0.01033096 0.20894784 -0.13463359 -0.10099665 -0.49180660 -0.08151087 0.04075842 0.00983516 0.01844697 -0.10926677 0.01145925 0.09402999 0.07593402 -0.12206256 0.18939555 -0.32791293 0.07308826 0.06402515 -0.33381909 -0.03298382 -0.03346770 0.06724244 -0.04195272 -0.10944512 -0.01553466 0.32161590 0.04885758 0.02201253 -0.05525273 -0.24448456 0.06430080 0.06836323 -0.23295578 -0.14117387 0.00295180 -0.03191309 -0.16614628 -0.10948229 -0.14716494 -0.23312327 -0.01633617 -0.17551687 -0.03708192 -0.00069513 0.12582500 -0.43160054 -0.04067055 -0.05755372 -0.26268882 0.04997396 0.09165410 -0.02955763 -0.10586260 -0.12742697 -0.01807605 0.06418386 0.18163787 0.07322579 0.06925705 -0.07877973 -0.00769101 -0.14538239 -0.25553843 -0.19549060 0.03229120 -0.18645668 0.13695875 0.07212349 0.02734654 -0.02568670 0.07528528 -0.08745209 -0.18314297 -0.05149287 -0.12491091 0.02352226 -0.10334153 0.05336244 -0.31716540 0.14823678 -0.18388967 0.01461475 -0.10790231 -0.25214559 -0.16850784 -0.16963983 0.11184878 -0.08287914 -0.02323216 0.09581641 -0.09768030 0.00170339 -0.04979927 -0.23745595 -0.16127874 -0.03939034 -0.05142815 -0.09571875 0.09885114 -0.16435103 0.02809880 -0.10860950
-0.02052960 0.01825883 0.01315772 0.01682596 0.12548378 0.00077298 -0.32590011 0.06620749 0.08550931 0.08970701 0.00413883 -0.18620604 -0.01500237 0.10762681 -0.27010539 -0.04695708 -0.01777946 -0.03368425 -0.08213796 -0.04127402 -0.13259864 -0.07032859 0.00086041 0.14111938 -0.05472442 0.01710531 0.03137981 -0.42006677 0.01052965 0.00370616 -0.21108203 0.08940093 -0.10395527 -0.05808396 0.11889278 0.03649012 -0.02386920 -0.09745738 0.16062330 -0.08500478 0.12161718 -0.11630887 -0.00784251 0.01126841 -0.03217008 0.11473730 -0.12211408 0.04439477 0.03229971 -0.05647116 -0.05496877 -0.02848118 -0.27923009 -0.01842503 0.14431067 0.00825904 0.00508857 0.10904146 -0.12417931 -0.19366638 -0.22043115 -0.68401784 -0.07455382 -0.13105325 -0.22654422 -0.14874274 -0.18239076 0.08951984 -0.12295128 0.11839680 -0.19262229 -0.23317486 -0.25076416 -0.13919850 -0.20275366 -0.13212526 -0.03593376 0.10697472 0.22646876 -0.09350038 -0.39687914 0.03094501 -0.31891331 0.05632576 0.06772240 0.16202596 -0.10440548 -0.01487207 0.10443410 -0.15328869 -0.16485181 -0.05065600 -0.21741652 -0.10865927 -0.15623866 0.02851116 -0.03495235 0.02200875 -0.00980206 0.09228832 -0.16067959 0.00011473 -0.01880605 -0.05736890 -0.07540730 -0.00228082 -0.11703761 0.13707577 -0.00838942 0.00133762 -0.07704413 -0.10780012 -0.04672086 -0.00325595 0.09309573 0.04444973 0.05269684 0.02779077 -0.04945802 -0.04341606 -0.46853361 0.02299958 0.03623061 0.01833531 0.13919212 -0.07244638 0.03392820 -0.14940333 0.09572814 -0.07255458 0.03192105 0.15974914 0.12119343 0.11870693 0.15475157 0.00631929 -0.03972807 0.00280706 -0.06349419 -0.04457168 -0.27879524 0.06396498 0.09067956 -0.04218312 0.13741063 0.08300193 -0.09717149 0.15309364 0.08389896 0.05419745 0.01787996 0.10470297 0.09680878 -0.09143259 0.11801174 -0.29615042 0.07045855 0.02910162 0.31366375 -0.16334613 0.19525091 -0.07763734 0.04978905 0.02368672 0.04425308 -0.20598119 -0.09077370 0.02015396 -0.08875992 0.15039915 0.26128185 -0.18828009 0.03395930 -0.40627155 -0.01649740 -0.06962231 -0.12404106 -0.02114633 -0.02772218 -0.07901266 0.00052054 -0.12824759 -0.14496434 0.42659009 -0.12716350 -0.23841116 0.09318643 -0.02493025 0.05962060 0.02976087 0.03352103 -0.00750612 0.01048755 0.13180718 -0.50638640 0.05990114 -0.07030454 0.03034029 -0.11658046 0.14640470 -0.13063429 -0.01406434 -0.00496047 -0.23601557 0.13939169 -0.02206756 -0.03240331 0.06742463 -0.10940089 -0.06804273 -0.09119746 -0.27766445 -0.07867105 0.08521239 0.03531158 0.04208994 -0.03637526 0.15906386 0.15217412 -0.03988232 0.13911982 -0.05986045 0.07498058 0.06718867 0.11748460 0.11014143 -0.02360635 0.12850839 0.14992915 -0.01437747 -0.04002165 0.08262273 0.10042245 -0.05892693 0.06818723 0.19416009 -0.18550800 0.07178874 -0.03679899 0.04412426 0.04035106 0.04581545 -0.01616087 0.25284335 0.12774473 -0.06858408 -0.01757758 -0.02810008 0.14320269 0.16053604 0.08820695 -0.00931921 -0.52421707 0.13672711 -0.21385969 0.05332497
-0.01800378 0.00332167 -0.07314213 0.04260256 -0.11707192 0.04370053 0.01699317 0.06979571 -0.04004013 0.04843283 0.08953891 -0.16129048 0.04586866 -0.01232025 -0.04206293 0.00774385 0.03971191 0.00391827 -0.10101401 -0.08066391 0.01150487 0.05346780 0.03365504 0.10071580 -0.04431776 -0.03121079 -0.01006232 -0.05401260 -0.11269028 -0.17920965 -0.08484174 0.09426382 -0.18530878 -0.05933452 -0.08958746 -0.01947445 0.02385552 0.06392910 0.04627627 0.00504575 0.06438924 0.00750282 0.02778181 -0.03792803 0.09967890 0.01143984 -0.35536957 0.00055172 0.10083063 -0.11667687 -0.03774001 0.01860014 -0.40157014 0.03445604 0.04046916 0.05035208 0.03447065 0.07571857 -0.00578979 0.06336506 -0.01848616 -0.03244121 -0.08304762 -0.25962275 0.00883539 -0.09264649 -0.05482071 0.03474056 -0.17146289 0.01738155 -0.17777048 -0.26223975 -0.14393091 -0.06076322 -0.29541427 0.08880953 -0.00144249 0.08565716 0.00895403 -0.09033412 0.01681906 0.06199501 0.04921103 0.21651651 -0.05083561 0.05277504 0.10078509 -0.01021470 0.07172523 -0.06954354 0.05618281 0.02530321 -0.11552164 -0.03139813 -0.03225170 -0.02182161 -0.02546477 0.02153422 0.05866037 0.11682571 -0.05799033 -0.03297103 0.06209857 -0.03970941 -0.06247779 -0.01481131 -0.24883442 -0.09204362 -0.09781347 0.05122449 0.04823014 -0.27063936 0.00881625 0.14792019 0.05795006 0.08865685 -0.09115479 0.04440113 0.06185139 0.03146070 -0.20273092 0.07635477 0.02453345 0.05364994 0.02325844 -0.34664142 -0.08732878 -0.18683796 0.01177360 -0.06378001 -0.05832868 0.06084100 0.02167835 0.05026612 -0.02990972 0.03431246 -0.03175269 -0.00180281 -0.29024029 0.05276550 -0.00571643 0.02917488 -0.00886787 -0.12665406 -0.02650579 -0.07287335 -0.04449498 -0.03412480 0.07524709 0.03692021 -0.02678283 0.03096692 0.09908238 -0.06969468 0.19207166 -0.21985410 -0.03737967 0.13765292 -0.02802876 -0.02347836 -0.08065638 -0.01088088 -0.05651009 0.05021196 0.20930250 -0.45219752 0.01708071 0.02849557 -0.10504320 0.00268745 0.02120928 0.04828643 0.07431457 -0.01017475 -0.45806947 -0.05282753 -0.31024924 -0.03049061 -0.15179712 -0.06041848 -0.02452806 -0.06998709 -0.07051309 0.03055421 -0.04485639 -0.42668790 -0.01591237 0.02947215 0.03780691 0.10483222 -0.12411549 -0.00506644 -0.09129657 0.06734850 0.04730340 0.02647355 0.04699759 -0.12700155 -0.35158369 -0.03181678 0.04765485 -0.01378562 0.03301985 -0.42305493 -0.02419571 -0.00613192 0.04921277 -0.05062510 0.07127007 -0.03927920 0.10339430 -0.00239124 -0.35830840 -0.01813391 0.03103072 0.06465786 -0.16485795 0.05408965 0.00596667 -0.10152248 0.10616850 -0.02114770 -0.04685125 0.03760737 -0.10824200 0.02183563 -0.02759809 -0.02320409 0.13363385 -0.12890634 -0.13788824 0.03897251 0.04919353 -0.23360634 0.05924926 -0.00218680 0.01502256 -0.05561190 -0.16440977 -0.03394520 0.03213611 -0.04368826 -0.07827272 -0.04285149 -0.00014843 -0.01848807 0.04086836 0.05165727 0.02246869 0.07013373 0.08081815 -0.07235722 -0.05597578 -0.01413234 -0.08086795 -0.05699126
0.10211535 0.10760124 0.05507313 0.08794416 0.05341501 -0.18626891 -0.08716099 -0.07866234 0.12396285 -0.37827712 0.16832013 0.17328705 -0.07100069 0.10151538 -0.09473607 0.06694398 -0.01792094 0.21445236 0.13161384 -0.09426033 0.14401154 0.07734192 0.18787012 -0.18521157 0.10541481 0.12296132 -0.10027234 0.04908884 0.13781121 0.12281018 0.08660040 0.06421144 0.13210139 0.07259499 -0.14680539 0.09336048 -0.01498694 0.06937847 0.25034195 0.00035844 0.11324257 0.11506804 0.05541820 -0.04576762 0.06649262 -0.02635182 0.06738447 0.16424210 0.11944974 -0.10793532 -0.14797656 0.07869112 0.23390837 -0.19789161 -0.01065416 0.14906739 0.09182400 -0.00972349 -0.02705287 0.13505691 0.13017952 0.14798915 0.24587473 0.13330208 0.13539609 -0.15633146 0.02145179 -0.04603841 0.17331158 0.08135438 0.02134651 0.05417167 0.15015602 0.18420357 0.18537839 0.08535849 -0.02746982 -0.02953500 -0.25833446 0.15794869 0.14129925 0.25732771 0.15925299 -0.03313354 0.10047814 -0.38653231 0.02893074 0.10789414 -0.41738376 -0.05812983 0.00785437 0.01631952 0.11973648 -0.06515669 0.00286576 0.03587116 0.13888423 0.07165188 0.10760168 -0.18292660 0.09881661 -0.18640859 -0.41501397 -0.07846366 0.05846670 0.03424087 0.06156119 0.03501486 0.00416288 -0.03036947 0.07955562 0.00417086 -0.03370740 0.05448744 0.02226313 0.05161683 0.08937914 0.15574762 0.00482637 -0.06088322 0.18094918 0.14197606 -0.20656067 0.18405218 -0.26737860 -0.01773247 -0.19113202 0.03338464 -0.11805210 0.04653135 -0.02660069 0.12277937 -0.02141588 0.07087659 0.00768943 0.05517860 0.20888358 0.00505900 0.15915166 -0.15393837 -0.08623216 0.17265090 0.02812713 0.14475796 0.03268830 0.10490860 0.15147282 -0.19319075 -0.41101754 -0.34800431 -0.17993908 -0.14645511 0.10858915 -0.02633603 -0.12203497 0.06906756 -0.01324028 -0.01998953 -0.07696237 0.14040260 -0.30248800 0.09373648 -0.00908497 -0.05082663 -0.14906034 0.13044111 0.02550614 0.05050740 0.05803924 -0.15608707 -0.14499560 0.16529967 -0.07716814 0.08378500 0.13179272 -0.30111337 0.01819481 -0.09509657 -0.04725418 -0.04302421 0.09727328 -0.03672124 -0.01650925 -0.23082276 -0.01212720 0.10020631 -0.04417437 -0.04355244 0.05365937 -0.19572964 0.08662997 0.01664495 0.10989109 0.09880795 0.18856457 0.09736624 0.06469922 0.20121412 0.03701952 -0.06798987 0.07994404 0.14803095 -0.13232630 0.14724900 -0.13154009 -0.04771667 0.09594721 -0.08815747 -0.02957297 -0.18927021 -0.07722997 0.28904065 -0.02832947 0.04196814 0.03228139 -0.05053948 0.08500703 -0.03192059 -0.29748505 -0.01263908 -0.17127092 -0.15032816 0.12569873 0.08918552 -0.11257017 0.02256387 0.07934573 0.02957630 -0.01062312 0.05442156 0.12876712 -0.01961894 -0.11429866 0.05990120 0.16844323 -0.16406488 0.07931971 -0.08137794 0.03335629 0.15603279 -0.17182109 0.03547866 0.18681568 -0.36877644 0.17694125 0.09326388 0.09179942 0.04203342 -0.09771889 -0.34181964 0.05130035 0.09411999 0.18055683 0.02028704 0.12612985 0.04995043
0.00641844 0.13240583 0.00770947 -0.23639549 0.09097413 0.03709633 0.05829303 0.01201614 -0.02496458 -0.03993933 -0.09507123 0.02282557 0.06183389 -0.06978322 -0.03158952 -0.07910813 -0.27730751 0.00071894 0.03322613 0.00899230 0.00683518 -0.01670423 -0.03971429 -0.30810735 -0.05657008 -0.10987978 -0.01069577 -0.02799233 -0.05084262 -0.00698834 0.02557560 -0.20767534 -0.13187540 0.02937347 0.00239117 -0.17669778 0.04250844 0.18479152 0.03051081 -0.00147989 -0.03495213 -0.03096716 -0.00873635 -0.10553516 -0.36501655 0.09410205 0.00466716 0.04185456 0.04099690 -0.18016708 0.07872494 -0.01064108 -0.15007745 -0.00810048 0.00093791 -0.08136220 0.03603177 -0.02605860 -0.03949503 -0.09326604 0.06483052 0.03274731 -0.00433394 0.00852165 -0.04589288 -0.02388587 0.02267310 -0.38746738 -0.03918834 0.05497931 0.06134403 -0.20301470 0.14234126 -0.00190627 -0.04253381 -0.02169513 -0.23148444 0.01356414 -0.36324760 0.07804660 -0.04799798 -0.06010896 0.02777746 -0.19960648 0.03216649 0.13992773 0.02177358 0.00844646 0.01466256 0.07612313 -0.01803097 0.01859387 0.08079721 -0.11568642 -0.11200878 0.04858892 -0.00153826 0.03284014 0.03286768 0.03074887 0.04066291 0.01785191 -0.18229820 -0.01761265 0.06334595 -0.23323447 -0.11873951 -0.14417389 -0.00217280 -0.24791387 0.00825897 0.07399719 -0.27346018 -0.32982421 0.06662263 -0.05046307 -0.01513031 -0.00742870 -0.01936682 0.11103601 0.06191540 0.00690982 0.01006692 -0.00390161 -0.26183411 -0.20188844 -0.04180904 0.03592309 -0.01403260 -0.15356140 -0.06175604 -0.01469736 -0.14852464 0.06145168 -0.23859732 0.06860048 -0.25451237 0.02153627 -0.14291102 0.04103362 -0.05708914 -0.12436935 0.11536939 0.06445111 -0.04356958 -0.04718328 -0.01331730 -0.05958935 0.05607082 0.00905429 -0.06629268 0.03806112 -0.00728639 0.06891558 0.01654497 0.02671054 0.02583508 -0.37141520 0.04175220 -0.03535490 -0.41963911 -0.01212656 0.12878439 0.04780044 -0.05998535 0.00581468 -0.04067031 0.01692231 0.09003928 -0.11873377 -0.21818557 -0.00766958 0.04843901 0.03390682 -0.00618409 -0.02994354 -0.00874646 0.03695241 -0.13617246 0.05865435 -0.00843084 -0.02195447 -0.28064138 0.19083734 -0.01010907 -0.09551089 0.03998207 0.06860863 -0.35694581 0.03602739 -0.10242255 0.02753258 -0.00994854 0.11176302 0.01313997 -0.18510753 -0.03543837 0.20648891 -0.06583799 -0.06140765 0.00119120 -0.08270662 0.00318839 -0.02551059 -0.34679240 -0.15344344 -0.00799233 0.00850143 0.03703605 0.00030179 -0.07349515 -0.04468462 -0.05518416 -0.05070057 0.09156704 0.01284365 -0.01674355 -0.01650476 -0.31013143 -0.09023814 0.05039482 -0.06209788 0.00701042 0.01605824 -0.04373132 -0.07509495 -0.03255672 -0.02092258 0.06603594 0.08190691 -0.03221446 0.12402763 0.02102834 0.04491840 -0.04858529 -0.34889242 -0.05641637 -0.02525179 0.00221630 -0.03131626 -0.01090427 -0.02501346 -0.01796869 -0.39012182 0.05127572 0.01816514 0.06195179 -0.02767015 -0.23537259 0.17171970 -0.02921759 -0.14030704 0.05223486 -0.04887529 0.05216149 0.01226694
-0.11353978 0.00658745 0.11658407 -0.17053491 0.16649511 -0.06419110 -0.08611120 -0.10707233 -0.08091924 0.06654794 -0.35942355 -0.17050584 -0.08299088 0.14051098 -0.09723154 -0.20475572 0.03176456 0.06269997 -0.17342626 -0.01796312 -0.00992752 -0.13458218 0.07170149 -0.17760956 -0.27346310 0.04735278 -0.00223047 -0.41107994 0.13379014 0.03669595 -0.01765347 0.00500607 0.08991581 0.03636042 0.00733828 0.03654510 0.00909397 0.17064674 -0.00004019 0.02123415 -0.25534090 -0.13940257 -0.03188593 -0.08464433 0.02422141 0.02788142 -0.00992350 0.02389250 0.04157687 -0.20926255 -0.07257368 -0.04342958 -0.01466382 -0.02206180 0.04424807 -0.27510306 0.04151066 -0.12436821 -0.36462247 0.17743577 0.07361738 -0.43872124 -0.23614462 -0.04596580 0.06647484 -0.16175462 -0.06201315 -0.30214664 0.02512117 0.04851367 -0.02678969 -0.07795650 -0.02855583 0.20807202 0.00327838 -0.02013867 -0.02347009 0.08218996 -0.26017663 -0.26253903 -0.12650071 -0.18293558 -0.13123518 0.04062574 0.01788648 0.02362589 -0.03552826 0.05208401 0.01882998 -0.08902721 -0.02831758 -0.05618348 -0.05473839 -0.12231529 -0.06569602 0.02310517 -0.40115720 0.00757838 0.10454492 -0.09007674 0.03926777 -0.43410209 -0.42046824 -0.07604741 -0.00025314 -0.08509230 -0.07381020 -0.02719915 0.00536594 0.10375530 0.06842866 -0.03405353 0.03621905 0.05620363 -0.06177238 0.05752850 0.06958837 -0.06094243 -0.01274349 0.04118487 0.00309577 -0.19222820 -0.04331888 -0.17772594 -0.33304840 -0.18514071 -0.07711042 0.09803888 -0.02260385 -0.12864591 0.02077714 0.05771505 -0.17275435 -0.13723949 -0.38146102 -0.08858532 -0.09076217 0.16289802 -0.19591306 -0.01917183 -0.41668832 -0.42554939 0.13119878 0.12498721 0.02007204 -0.04971517 0.08031189 -0.19734257 0.04036459 -0.27183208 -0.02172728 -0.02086687 0.09899700 -0.06867872 -0.00128943 0.08236825 -0.06721432 -0.00044746 0.14277364 0.09082000 -0.16698137 0.05326049 -0.01603820 0.17411156 -0.00301067 0.04885026 -0.28366295 -0.02931681 -0.16134192 -0.01909374 -0.17517723 -0.08442108 -0.19894639 -0.16932355 0.02387825 -0.11761140 -0.02464503 0.01986491 -0.12008803 -0.28156388 -0.01682015 -0.16843250 -0.09866457 0.06744710 -0.16741036 -0.00151783 -0.01673816 0.01787842 -0.03826033 -0.00645303 0.05895811 -0.03484060 -0.19557765 0.11857242 -0.17169829 0.10093649 -0.00221528 0.00907914 -0.03522562 0.06376374 0.05562940 0.10199659 -0.16760650 -0.02631563 0.01800341 -0.06566784 0.08504698 -0.09728770 -0.17886356 -0.09948548 -0.10377100 -0.11102051 0.01164440 -0.09932222 0.06589919 0.08158200 0.03474362 -0.05373564 -0.25659624 -0.14826053 0.06817181 -0.15625766 -0.01204074 0.00410170 -0.27460903 0.02014887 -0.09091235 0.01223658 0.04449954 -0.06376931 0.15049891 0.14137706 -0.08894132 -0.02306708 -0.26079395 -0.27490911 -0.03039733 -0.01624807 -0.01033158 0.08561175 -0.19247210 -0.00368790 0.04964857 -0.31689611 -0.10034856 0.06916913 0.01613605 0.09229150 0.06714262 0.17375238 0.07067131 0.09506036 -0.13015915 -0.04280093 -0.16097148 0.00267262
-0.11623128 0.00306579 0.05528669 -0.08644114 0.10395277 0.05374490 -0.05218628 -0.02384003 0.04411821 0.01863835 -0.20701778 -0.30695516 -0.06350241 -0.04743437 -0.23305374 -0.27669871 0.03476209 -0.08877684 -0.31858099 -0.08719953 -0.25302652 0.08040652 -0.06831913 0.17069185 -0.40946665 0.02809964 -0.00368933 0.07066439 -0.08112201 -0.12775774 -0.19543141 0.03006230 -0.21825902 -0.03971190 -0.11209943 -0.02468459 -0.07259689 -0.00939717 0.03808573 -0.10134684 -0.36879659 -0.15286510 -0.00085949 0.05196832 0.07699585 -0.00744097 -0.08769654 0.03339555 -0.21994624 0.10313086 0.00257284 0.05556471 -0.30232528 0.10417815 -0.01434273 -0.09159232 -0.06107569 0.04378943 0.11545742 0.05862576 -0.27518895 -0.16573423 -0.17291456 -0.00111448 -0.29844984 -0.16687757 -0.08238136 0.17348184 -0.05136335 -0.16309927 -0.02572929 0.07476600 -0.33666259 -0.08280979 -0.22454274 0.00672827 0.01960943 -0.03328361 0.12245629 -0.25557181 -0.26393515 0.00875945 -0.11255611 0.05993788 -0.16457115 0.12882754 0.06568450 -0.13354756 0.15378141 0.00541466 -0.11510520 -0.06099807 0.06788731 -0.16672984 0.01992043 -0.03983939 -0.33917576 -0.04393041 0.02953604 0.02791877 -0.20254077 0.19210538 0.11133403 -0.02373887 -0.12140452 -0.01977932 -0.02215731 0.09187814 -0.04123185 -0.05363800 0.09650014 -0.11794484 -0.04186272 0.00696014 0.13052976 -0.06011283 -0.06972084 -0.02907497 -0.07729310 0.03254478 -0.26194775 0.05503530 0.02392501 -0.09437854 0.10733299 0.11466998 -0.01353312 -0.01836597 0.02647260 -0.02482307 0.05877608 -0.07054027 0.05182176 -0.00479522 0.04010189 0.00273852 -0.03731837 0.11902396 -0.05348014 0.03767030 0.15346155 0.17622040 0.09856073 -0.10674591 -0.05819586 -0.07474469 -0.15005785 -0.13300326 0.13025135 0.09468081 -0.03401524 0.01856161 0.03188196 -0.06534173 0.09264252 0.02496438 -0.37911952 -0.10489947 0.00554944 -0.25867495 0.05902122 -0.03274760 0.02272758 0.02760509 0.11892168 -0.11105572 0.03916221 0.02391293 -0.07000197 -0.02594223 0.10157802 -0.06095035 -0.01096088 -0.19760293 -0.22723877 0.14170350 -0.07855021 -0.09051990 -0.01824550 -0.15504619 -0.02636909 -0.11939288 -0.06206923 0.16513972 -0.02724819 -0.17239469 -0.06042941 0.10269894 -0.00225232 0.04429065 -0.01074067 -0.09779409 -0.33822864 0.04787356 -0.15811750 -0.03908581 -0.04004854 -0.03347538 -0.11986227 -0.01908927 -0.19471142 0.02198220 0.11450922 -0.27067542 0.12403045 0.04453276 -0.14345521 -0.08199972 0.13288674 -0.07571818 0.11310489 -0.29712924 -0.04089932 -0.42791906 0.11013782 -0.06508830 -0.03364735 0.11870131 0.08302607 -0.22871755 0.10848045 -0.03812747 0.03371116 0.05572324 0.12448984 -0.01257751 -0.10349542 -0.12848912 -0.01520461 -0.19437595 -0.10955929 0.09845161 0.04364067 0.02483922 0.09868106 0.07757778 -0.01592458 0.02550194 -0.06059103 -0.05407051 -0.00001498 -0.07004271 -0.04572576 0.09571598 0.01563167 -0.02714579 -0.01685934 -0.05712080 -0.08126642 0.07948566 0.02402993 -0.07337437 -0.23446915 -0.05177772 -0.24486376 -0.07862446
-0.12793060 0.30115938 0.17579925 0.04139189 0.04156338 -0.06973688 -0.22267343 -0.07145736 0.25128835 -0.05506097 -0.04356345 -0.05698835 0.00880811 0.25820887 -0.09840088 -0.00029486 0.03046130 -0.13402553 0.14649995 0.02321211 -0.15452942 0.01731557 -0.16950685 0.36611789 -0.10683008 -0.27586728 -0.01200178 0.07951654 0.09600876 0.09869321 -0.00287996 0.12687637 0.01751480 0.13351904 0.11685658 0.01816718 -0.34946576 0.08249895 0.22521353 -0.03771719 0.03876095 -0.15352747 -0.03887786 0.05275908 -0.15575238 0.09243736 0.00940614 0.03976117 -0.17314227 -0.00645970 0.09699786 0.23317496 0.10661645 0.06695078 0.00556188 -0.01517844 -0.08072860 0.25773448 0.19848104 -0.12936474 0.32659343 0.01343809 0.16312906 -0.00895963 -0.08161562 0.06638619 -0.10024923 0.31236231 0.07062457 0.08603782 -0.07696012 0.08289742 0.03823004 -0.00158926 -0.04401096 0.14155917 -0.01895954 -0.17870499 0.37661278 -0.06007686 -0.41774374 0.40551138 -0.33411705 0.05554431 -0.14821039 0.17342967 0.09865545 -0.23000675 0.05566000 0.12109844 -0.27827099 -0.17646426 0.27592117 -0.14209202 0.10436749 -0.12867077 -0.06609105 -0.07737280 0.14449565 0.03614402 -0.15652983 0.26254809 0.07475659 0.08847962 -0.08289223 0.06728676 0.06541099 0.27748084 -0.17946008 -0.06011604 0.10358740 -0.06734940 0.02442243 -0.03643796 0.40024355 -0.23448037 0.19023597 -0.15388444 -0.20199966 -0.01781518 -0.03583515 0.18743603 -0.04766767 0.15743904 0.22295220 0.11643721 -0.08914309 -0.03542871 -0.03657956 0.13402800 0.09776213 -0.43592998 0.21343139 -0.10068200 0.14136592 -0.20348881 -0.02989206 0.00409807 -0.01923778 0.04246988 0.09260985 0.25975648 -0.01266778 0.07151368 -0.44223678 -0.15864788 0.03899025 0.03511753 0.09236048 0.18192755 0.05443020 0.10699578 -0.03116071 -0.09833019 0.17370570 -0.02952955 -0.12452562 0.05408173 0.04887548 0.04211389 0.07963826 0.06021151 0.13679734 0.04433034 0.01194483 0.06782145 0.15451863 0.01746603 0.15919597 -0.18388198 0.29704440 -0.17060889 -0.07293880 -0.26844651 -0.04478597 -0.00689062 0.03428543 -0.04500451 -0.02112595 0.22686814 0.18325987 0.10813348 0.18743102 0.25227752 0.19126698 0.05968737 0.09462358 0.04754266 0.03320197 0.08983712 0.11022617 -0.17505036 -0.20080879 0.03560103 -0.07348464 -0.04717270 0.05404839 0.11063757 0.14939380 -0.09814169 -0.07006226 -0.05588574 -0.02661614 0.01314406 0.12003735 -0.15050626 -0.04175624 0.04195391 0.04651934 0.09790681 -0.08429459 0.21778308 -0.00693990 -0.23285323 0.11531460 0.10807603 0.09749903 0.09897111 0.24549156 -0.20913179 -0.13652624 0.08749000 0.16744781 0.08394475 0.10577330 -0.25117463 -0.05305798 -0.32143536 0.09773029 -0.14061221 0.05694347 0.09166622 0.07598529 0.12511615 0.36102286 0.26236367 0.08433896 0.13630964 0.11853263 -0.11826271 0.00306340 0.06222355 -0.30104765 0.23194768 0.16922484 0.08066133 -0.19451679 -0.04191830 0.03960358 0.26948225 0.11040282 0.04276688 -0.21665049 -0.02087203 0.01111253 0.01817503
-0.02544287 0.00807969 0.20218508 0.01593719 0.02565650 -0.03421572 -0.00982541 -0.03065778 0.07043493 0.01719931 -0.11197907 -0.12554257 -0.17919965 0.01048254 -0.12579875 0.00140311 0.05049206 -0.06823292 -0.10688473 -0.16542432 -0.22327211 0.02182817 0.11158964 0.08141512 -0.00963663 0.05796672 -0.25177276 -0.13332681 0.03749462 0.07707230 0.13021746 0.09672814 0.11116003 0.17039418 -0.29795760 -0.02526762 -0.03129900 -0.05017205 -0.03533567 -0.01181998 0.05946118 -0.03834203 0.08232981 0.00766994 0.05954741 -0.08294987 -0.07719685 -0.09645985 0.11696415 -0.09975483 -0.33066565 -0.11169101 -0.03992262 -0.02531764 -0.06302542 0.06706554 -0.04722589 -0.04269107 0.02976459 0.01060605 -0.09454931 -0.08834065 -0.09858955 0.00563339 -0.03655864 -0.09765604 -0.41649488 0.03919925 0.00299657 -0.29558080 -0.40133297 -0.08310836 -0.05909441 -0.03270000 0.06244035 -0.00746525 0.03965181 -0.08909088 0.03647964 -0.25585842 -0.04619607 -0.10059921 -0.10314340 0.02268741 -0.03814425 -0.09316976 0.09900783 -0.10176386 0.06407213 -0.07836605 -0.08397823 -0.42757067 -0.00328773 -0.14540087 0.00047867 0.01978164 -0.21471816 0.02182717 0.03278131 -0.05987070 -0.02716168 0.01265080 0.03328448 -0.16866839 -0.02548829 0.04749084 -0.01275323 0.04152872 -0.10159153 -0.01881816 -0.12828635 -0.05289205 0.03118270 0.11266609 0.06055856 -0.15427890 0.00967250 -0.07506991 -0.00865800 0.06193544 -0.09536104 -0.00651191 -0.04707962 -0.02744479 0.12780070 -0.05282766 -0.18473127 0.04993193 -0.12269648 0.05578257 0.04825399 0.10319065 -0.00944449 -0.13411729 0.12875439 -0.09832222 0.14300066 -0.10531610 0.07098532 -0.05443224 0.02218318 -0.05996693 -0.09572706 -0.10344701 -0.04143393 0.07282329 0.07014634 -0.18622738 0.03720316 0.02141766 -0.24434321 -0.24400088 0.08131644 -0.33582309 -0.10287984 -0.04634876 -0.04671910 -0.02016872 -0.06766012 -0.27478495 0.12821335 0.05496336 -0.28333116 -0.02410410 0.00425740 -0.02707673 -0.05861701 -0.06749319 -0.14873846 0.00108998 0.09209207 0.05436921 -0.08965595 -0.24357662 -0.01431230 0.15182394 0.04802039 -0.40902251 -0.01078184 -0.09627569 0.08555134 -0.10549983 0.03393755 -0.12910494 -0.06990290 -0.01951809 -0.26823485 -0.03923716 0.08309891 -0.08347271 -0.12189489 -0.13204794 -0.21301889 -0.06140319 -0.06485595 0.03284532 0.09399927 0.03237309 0.02439414 -0.00270259 -0.22315587 0.11401412 -0.05946120 -0.09505814 0.06188785 0.08110742 -0.26005065 -0.17568180 -0.08843342 -0.02055839 0.11147885 -0.01169108 0.05387278 0.10245974 0.08203316 -0.31527519 0.07011304 -0.03227141 0.10742319 -0.16515724 -0.02344778 -0.08407782 -0.07147515 0.03748648 0.02435485 0.08154979 -0.11438023 0.04278563 -0.01015418 -0.04703911 0.09615705 -0.08789634 -0.05970988 -0.02676905 -0.04725169 0.07399845 0.05354014 -0.23752730 0.07193000 0.13300109 -0.05317877 -0.08884795 0.13534586 0.05069315 0.04588749 0.10139317 -0.02038827 0.04252069 0.00476517 -0.07991974 0.01448093 0.03069592 -0.00204386 -0.11618862 -0.02291439 -0.00035558
-0.08489887 -0.16266547 -0.09395236 -0.10664732 0.04257939 0.03453189 -0.07312720 0.00273690 -0.44433725 0.01883885 -0.24904642 -0.14011399 -0.10102999 -0.16855349 0.09101655 -0.17618939 -0.00379657 -0.17278409 -0.19232444 0.00399284 -0.02079009 0.10183518 -0.30693248 0.00831509 -0.38174859 -0.19286630 0.06886049 0.14164881 -0.25453445 -0.14227389 -0.15239440 -0.07536098 -0.14409527 -0.40952265 0.03607830 0.09501518 -0.15068319 -0.14590912 -0.04163552 -0.03991605 -0.24886879 0.04867749 -0.36276656 0.10920701 -0.07587035 -0.00211283 -0.05364028 0.04814671 -0.41884968 0.02966295 -0.03229676 0.00025438 -0.05427818 0.04434530 -0.09392124 -0.19162174 -0.08359823 0.07285195 0.09441147 -0.03950442 -0.10044805 0.21868280 -0.06074246 0.05303552 0.02825234 0.14907518 -0.05722128 0.02882921 -0.14313391 0.08684247 -0.02724131 -0.00469938 -0.16234902 -0.21557094 -0.20613287 0.07077759 -0.00133471 -0.02749187 -0.09085040 -0.09081604 -0.04827221 0.04452608 -0.05853144 -0.17852823 -0.10199843 0.05270481 -0.38162449 -0.08606218 -0.16602725 0.17020571 -0.06424065 -0.11702395 -0.19416730 0.08539318 0.02457758 0.07877369 -0.22675140 -0.26383838 0.00984227 0.07488903 -0.13576460 0.14445551 0.09043280 0.05189724 -0.33092502 0.02920355 0.02258487 -0.03756844 0.03181244 -0.11049008 0.18995653 -0.02921786 -0.15962857 -0.00270544 -0.24308786 -0.09930232 -0.09818411 0.03692422 -0.04290996 -0.23433419 0.02469025 -0.01086853 -0.03214911 -0.02184022 0.03461649 0.03182402 0.08071527 -0.23749298 0.02583249 0.04500867 0.06741695 -0.17045011 0.03109531 0.08601224 -0.12544979 0.08282087 -0.17484109 0.11124878 0.07075716 -0.21027362 0.05767017 0.02715142 -0.10227016 0.00218873 -0.05020567 -0.38737023 -0.10548679 0.00493112 -0.08920867 0.01344312 0.06394968 -0.00101225 -0.20105048 -0.05660293 -0.05230320 -0.26011562 -0.32199371 -0.00127842 0.15980701 -0.16534325 0.05887814 -0.24399044 0.05335368 -0.11118146 -0.08119338 -0.08717424 0.08096275 -0.07091679 -0.11926535 0.16276416 -0.05046544 -0.08348292 0.07079543 -0.11414985 0.02223760 -0.02434329 -0.10454830 0.03996011 0.15884565 -0.39849097 -0.17698406 0.24088280 0.24677558 0.07625800 0.15276475 -0.10287203 0.05148216 0.04006831 0.08784856 0.00456551 0.06781937 -0.03076884 -0.16935584 0.12138844 0.11165000 -0.10136302 -0.56096762 -0.03360204 -0.08561111 0.07062940 -0.03740256 -0.43030450 0.08013892 -0.10417390 0.00784758 0.10660426 -0.04383263 0.03230197 0.07269644 -0.04434103 -0.04125076 -0.21113919 -0.02712048 -0.35899010 -0.08155126 0.02190578 0.00641748 0.08382183 0.06510071 -0.29875812 0.06031880 0.01212792 -0.14378069 0.17794238 0.13041000 -0.22460552 0.08154490 -0.17330539 -0.19725542 -0.19363038 -0.36499345 -0.07411403 0.07984466 -0.14477490 0.03892301 0.06721739 0.02734683 0.09809936 0.07628068 -0.33469608 0.01819949 0.08891822 -0.35937819 0.01779133 -0.02756583 -0.15148658 -0.04354867 0.00923105 -0.02378989 0.09597518 -0.02629982 -0.15070851 0.13371472 -0.11190153 -0.21113540 0.11114679
-0.03667476 0.02904701 0.07000650 -0.07065780 0.10716879 0.12601101 -0.28054383 -0.18276969 -0.06340626 -0.05325561 -0.32118675 0.03473420 0.03389901 0.19295155 -0.03711186 -0.24523090 0.05766331 0.07495178 -0.36504444 0.04033605 0.01301380 -0.28145996 -0.00885239 -0.03361729 -0.23764940 -0.14696896 -0.06602231 -0.44616655 -0.00458669 0.01474543 0.05108198 0.00567688 -0.00305619 0.02821850 -0.03670179 -0.05353814 -0.06305578 -0.00989863 0.14721604 0.08917381 -0.30575055 -0.07819491 0.02007652 0.01223753 -0.00115526 0.01309727 0.01555860 0.08681429 -0.21429478 0.06332917 0.00446304 -0.06700788 0.02585300 -0.04455554 -0.06142011 -0.35880890 0.01397647 -0.15178336 -0.27484375 0.01325804 0.03818674 -0.43530723 -0.41299903 -0.11848595 0.02675231 0.00279562 -0.05867536 -0.30738553 0.03845537 0.06053264 0.01706913 0.12761918 0.02726094 0.17809190 0.08165968 0.20889732 0.02352600 0.03075507 -0.18794835 -0.25003588 -0.28847545 -0.37854460 -0.22056121 0.05269288 -0.21325031 -0.04931305 0.06762045 -0.10665553 -0.11255186 0.06959945 -0.12344468 -0.03997264 0.08639471 0.09942283 0.01449929 0.06057894 -0.29218897 0.08078417 0.14875267 -0.17425168 -0.06100557 -0.25128338 -0.34149393 0.01616785 0.01061914 0.01719347 0.01699116 0.03023917 -0.03163510 0.13198306 0.20207585 0.04522038 -0.04315330 0.01124328 -0.13234839 -0.01889552 0.06410385 0.08220338 -0.05071482 0.04143785 -0.02823650 -0.12665376 -0.05752933 -0.17719497 -0.17534025 0.05980124 -0.04701281 0.02516216 -0.12135185 -0.09852870 -0.01897057 -0.19603586 0.08926074 -0.08279948 -0.16270056 -0.04464414 -0.04620209 0.01548721 -0.13288759 0.06029196 -0.26562601 -0.52442867 0.04621489 0.09712978 -0.07610855 0.02796080 0.19579868 -0.05178352 0.08027539 -0.17433150 -0.02669000 0.07096830 0.00013314 -0.07019541 -0.01337883 0.08447602 -0.12198261 -0.04537155 0.22985800 0.03319541 -0.09305314 0.07581560 0.00395582 0.02546337 0.05846879 -0.00191783 -0.12086362 0.19024636 -0.21396981 0.02437687 -0.17684682 0.05788484 -0.15128729 -0.25016296 -0.04306752 -0.11304803 0.08246102 -0.00931998 0.02632008 -0.35447919 -0.00461689 0.00195328 0.17054725 0.04386819 -0.02870183 0.07852042 -0.02530720 0.11442521 -0.04717384 -0.03532910 0.04679346 -0.30053797 -0.12824747 0.09518302 -0.31940296 0.03760820 0.02024421 0.00383203 -0.02160767 -0.00664619 -0.12809083 0.03174791 -0.17832005 0.01399524 -0.03705053 0.00773672 -0.00681452 -0.02803547 -0.00775212 -0.21581830 -0.05644799 -0.08443858 -0.02201799 -0.23718499 -0.04644468 0.00151421 -0.01829303 0.03332716 0.00481013 -0.15924621 0.00364650 -0.12183472 -0.09045996 0.05896963 -0.09166255 -0.13243547 -0.19362965 -0.07993814 0.11932088 -0.05950864 0.01981640 0.19743007 -0.17726624 0.04068989 -0.11416133 -0.03447790 0.03372929 0.05963491 0.01167220 0.03440290 -0.02696120 0.08946610 0.07517119 -0.10680211 0.07613813 -0.02901794 0.19836280 -0.05780160 0.00781630 0.13641265 0.00121278 -0.03307620 -0.13641146 -0.09641717 -0.20491183 -0.04943497
-0.01606042 0.22226061 0.17757671 0.11787526 0.08590291 -0.01743536 -0.04519574 -0.00570119 0.32517564 0.02818418 0.03355226 -0.05364303 0.04847158 0.06650124 -0.30244493 -0.17432196 0.12712348 0.04665145 -0.08082379 0.04980677 -0.17347108 -0.04063020 0.03994810 0.07760765 0.01105973 0.19538972 -0.24325575 -0.12475578 0.15301986 0.12250862 -0.10352302 0.03156590 0.07517207 0.17297629 -0.31059596 0.04231402 0.18142235 0.23137400 -0.02664756 -0.22389212 0.07239930 0.04776285 0.12809618 0.06448559 0.01729394 0.00216346 -0.11244392 -0.05871595 0.22310302 -0.03389525 -0.33061284 -0.06481159 0.07010493 0.00396721 0.08304527 -0.05435775 0.03210322 0.01192760 0.02217828 0.05798115 0.11274213 -0.10685617 -0.10682314 -0.13033427 -0.00781455 -0.26011157 0.02057697 0.05754720 -0.20370927 -0.02705527 -0.00808114 -0.05074712 0.07237897 -0.07368125 0.09648585 -0.20640439 0.08764303 0.00412841 0.09068676 0.05587222 -0.07174711 -0.05635831 -0.02852057 0.18661672 0.08729060 0.00792049 0.19914532 0.03800588 0.04893294 -0.27789244 0.01209551 -0.14121753 0.13298815 -0.26403338 -0.31583270 0.02451911 -0.15260783 0.07147960 0.11316061 0.06708186 0.08021606 0.08779623 0.11603647 -0.37416998 0.11089946 -0.19052416 -0.13452964 0.00318753 0.11311260 0.03809094 -0.11433342 0.24209328 0.02643228 0.01743700 0.19753535 0.04524669 0.08547175 0.07274125 0.11996911 0.18933684 -0.08759696 0.09728148 0.01492971 0.04609615 0.12233475 -0.09900519 -0.20925239 0.02605337 0.01276552 0.02802361 0.09035515 0.24557976 -0.04236691 0.06355401 -0.09089164 0.06694221 -0.03005917 -0.06049527 -0.22444516 -0.05826754 -0.00808637 -0.10149026 0.12070285 -0.04886044 0.03292656 0.11782788 -0.02736202 -0.13180412 0.01099053 0.05109159 -0.16851531 -0.39097348 0.00612272 -0.09946300 0.10065844 -0.01570373 0.01756286 -0.08557356 -0.02011277 0.05208513 0.07032041 0.11224059 -0.11591089 0.07443380 0.05638474 -0.10189501 -0.05370983 0.06648201 0.14969490 0.09034856 0.31603646 -0.08315431 0.01714985 -0.23235255 -0.00542243 0.05797601 -0.07099318 -0.04017076 -0.18325086 0.15863390 0.04801710 -0.31993726 -0.25022322 -0.02449359 -0.24322234 -0.18800841 -0.11834435 -0.11415840 0.01147888 -0.03637881 -0.04815777 0.07239480 -0.08825248 -0.00962826 -0.03590140 0.14375667 0.15429087 0.04972623 0.01433110 0.01146270 -0.13577902 0.10430428 -0.00939682 -0.25080025 0.14634217 0.04436380 -0.13641001 -0.26253310 -0.04045956 0.10064971 -0.02421488 -0.11333004 -0.08248168 0.13866450 0.09847023 -0.33889565 0.07656171 -0.19547099 0.10878393 -0.06180501 0.05589752 -0.00098926 0.08739179 0.01012377 0.11515774 0.11827005 0.08352876 0.18346488 -0.02439725 -0.02397171 0.10420729 0.03336523 0.01234851 -0.18319251 0.18288735 0.08946884 -0.24880417 -0.18171141 0.12094314 0.14731003 0.00343644 -0.26238993 0.14718102 0.14769353 0.12475488 0.13309914 -0.06191977 0.06912354 -0.05229698 0.04868514 0.08681671 0.07265022 -0.21535522 0.11237717 -0.14547443 0.15463309
0.01182194 -0.05788760 -0.05802735 0.06525993 -0.27911863 -0.12719239 0.09211608 -0.14572397 0.00196451 -0.14024976 -0.00410199 0.06233493 -0.02379618 0.00235935 -0.00487979 0.01359241 -0.06310907 -0.01117093 0.22906205 0.00459701 0.23764060 0.03700672 -0.14936906 0.02009437 0.14952265 -0.09312478 -0.04056880 -0.05547014 0.06533641 -0.15502165 0.05102303 0.05851232 0.13775368 -0.07899155 -0.03256828 -0.00664809 0.04332110 -0.39150381 -0.15514369 0.06396998 0.10078409 0.13915013 -0.39037225 -0.05060327 -0.06727270 -0.36242637 -0.05763939 -0.25910014 0.14264469 -0.32282928 -0.07627304 -0.07516552 -0.08563030 -0.46082249 -0.18564129 0.22109953 -0.09615637 -0.04022419 0.10736920 -0.13573858 0.14175279 0.17821588 -0.00348240 -0.06153640 -0.01282578 0.08335777 0.05193460 0.15397324 -0.03535474 -0.11946100 0.00228757 -0.01089626 0.00706533 -0.26315311 -0.03526763 -0.19115919 -0.03509565 -0.27895027 0.07112930 0.32548591 0.05843580 0.06852726 -0.06347124 0.00791807 -0.00631259 -0.13474606 -0.35671350 -0.04081079 -0.14754879 -0.04334648 -0.11422730 0.04591081 -0.02490187 -0.02809317 -0.06820914 -0.12169249 0.16652760 -0.12451788 -0.27095649 -0.19858816 -0.06717761 -0.07756077 -0.06718379 0.15081659 0.14159390 0.14059781 0.05832876 -0.06761891 -0.14524202 -0.02395080 -0.33411816 0.04615232 -0.04729955 -0.03606009 0.09946654 0.03513851 0.10724222 0.01330422 0.04589900 -0.40554175 0.02872784 -0.03036468 -0.13985167 -0.06176788 -0.20552596 -0.10721956 0.19903558 -0.08784832 -0.19725613 0.21714780 -0.35534292 -0.03484353 -0.12563270 -0.08151346 0.20595090 0.01269561 0.07995793 -0.49245498 0.04664889 -0.08247547 0.02672862 0.23768413 -0.06914858 -0.22640876 0.07292032 -0.26597488 -0.04500687 0.11090823 -0.28608525 -0.06129113 -0.05787745 -0.05103619 0.10142834 0.10816063 -0.04320726 0.03325748 0.09159625 0.03825467 -0.39486587 -0.10496119 -0.08457647 -0.43820158 -0.18578275 -0.21816102 -0.11119659 -0.04270845 0.08181791 -0.18925665 0.14347360 0.15253930 -0.06501042 0.03173301 -0.16385777 -0.12750886 -0.03069488 -0.13040712 0.02089187 0.09991082 0.09959149 0.26969796 0.03254031 0.04327409 0.03459279 -0.22423981 0.09907133 -0.11147092 0.02118031 -0.25765362 0.05858675 -0.29303244 -0.09385233 -0.01091985 0.13282983 -0.43636623 0.13101745 -0.03387346 -0.28920388 -0.03351202 -0.04117115 -0.19638704 0.07177725 -0.44003239 -0.03049955 -0.13506536 0.03498540 0.07058854 0.19205245 0.01915565 -0.20086436 0.06390017 -0.23579599 0.07402293 -0.01262635 -0.00485241 -0.31961393 0.04328578 -0.04241344 0.11459583 -0.00863809 0.11554589 -0.27522659 0.14510082 0.13717946 0.05933171 -0.09675961 -0.07723439 0.01702678 0.02501209 -0.37847576 0.05855658 -0.14084257 -0.30917397 -0.16650724 -0.08605968 -0.03430438 -0.10417552 -0.21252261 -0.00177141 -0.01133371 -0.37950745 -0.08475880 0.00240615 -0.28234845 0.01841158 -0.03326500 -0.19419569 -0.18180814 -0.33861166 -0.01884163 -0.19699728 -0.36483264 0.02820732 -0.01572157 0.34433690 -0.00105218 0.07324722
-0.06102208 0.08003750 -0.00469432 0.04515785 -0.02336873 -0.08086748 -0.02702186 -0.35485169 -0.12534937 0.00088923 -0.13206801 -0.00039101 -0.14751302 -0.04069878 0.04056516 -0.04951541 -0.03384569 -0.01771554 0.10496067 -0.09103998 0.13548838 0.11131358 -0.09707981 -0.43540740 -0.05978886 -0.10300726 -0.01454973 -0.02417107 0.18156102 0.02825071 -0.10600153 0.01901015 -0.01486642 -0.07335065 -0.10797641 0.08371505 -0.09374896 0.10048071 0.06073903 0.08390753 0.04003298 -0.08669615 0.00492836 -0.10551486 -0.01306460 -0.06415390 -0.02724758 -0.00049522 -0.12014205 -0.14538631 -0.01000488 -0.14462350 0.01491940 -0.08156484 -0.05825240 -0.09377626 -0.05591404 -0.36361000 -0.10366330 -0.06398090 -0.05503500 0.08260158 -0.03712056 -0.10055964 0.07220585 -0.02458808 0.01337970 -0.24584880 -0.07332471 -0.00877197 0.00303746 0.02209680 0.02355121 -0.09922661 0.05297007 0.08975572 -0.01758115 -0.35779950 -0.23289192 -0.12886620 -0.04619303 -0.22835369 -0.02350681 -0.06585001 0.08863808 -0.14796025 0.00011304 -0.02810101 -0.03258949 0.02283358 -0.15363380 -0.02770509 0.01531853 -0.04228534 0.10748962 -0.06469347 0.00741345 0.05652534 -0.01034757 -0.53333431 0.01890968 -0.19788781 -0.27831998 0.00076800 -0.02042551 0.00543094 0.05644748 -0.12661999 0.02956368 0.12527087 0.07366703 0.00335775 0.03589559 -0.00140330 -0.08906025 -0.07710870 0.05392183 0.16298735 -0.07125977 -0.00021504 -0.01652391 -0.01741533 -0.40713701 -0.32879311 -0.37456974 0.09455975 -0.06195920 -0.04141233 -0.50344014 -0.07265035 -0.03424342 -0.11957875 -0.12218554 -0.28994370 -0.26780215 -0.13175204 0.14449014 0.03463447 -0.12880936 -0.13061243 -0.17506894 -0.16943419 -0.09132718 0.12073874 -0.06488159 -0.15277056 0.01288366 -0.08134615 -0.24797152 -0.24792781 -0.03544640 0.06344847 -0.14278494 -0.00217338 -0.23167619 0.05930648 -0.01737081 0.00280902 0.01998922 -0.08964499 -0.09135737 0.01481714 0.01430558 -0.08465241 -0.02938409 -0.03521121 -0.17397678 -0.07132479 0.12391299 0.10039416 -0.24490596 -0.01301047 -0.55114740 -0.08488142 0.08040918 -0.07388099 0.01825147 0.03128910 0.07152165 -0.07832085 -0.04640062 0.01972835 -0.05126582 -0.01780367 0.02167018 0.04914761 0.00833979 0.02812050 -0.01498354 -0.55771017 -0.05084911 -0.12108292 -0.08326181 -0.05336142 -0.01719135 -0.02385241 -0.14857616 0.06719130 0.08341907 -0.07543880 -0.10428803 -0.10612214 -0.43603516 -0.03648636 -0.12028870 -0.09515291 0.05270515 -0.00743554 -0.31261379 0.04919061 -0.20512424 0.01357806 -0.05216319 -0.09938557 0.03831709 0.04049270 -0.00818400 0.15153396 -0.35032725 -0.03103255 -0.21401492 -0.10896772 -0.05810719 -0.14916046 -0.13990936 -0.16996513 0.06436798 -0.08200658 -0.08735162 -0.00046513 -0.04296156 -0.04935387 -0.41701114 0.00229942 -0.22727247 -0.27341542 0.13318922 0.07228395 0.05691371 -0.09393551 -0.25205636 0.16442995 -0.11534923 -0.24435160 0.06345200 0.05619935 -0.08709145 0.01524945 0.04163953 -0.10186126 0.01631305 0.06009132 0.04050566 0.05034697 0.02640089 0.02803748
-0.04209584 0.07881255 0.09404736 0.31697679 -0.14192049 -0.22418778 0.03758863 0.05281138 0.03790993 -0.19489563 0.01085649 0.06375186 -0.10642143 -0.44562477 0.00248234 -0.03997409 -0.03949623 -0.32348347 0.15729368 -0.07435028 -0.15020846 0.27028647 -0.05458378 -0.57943827 0.08005079 0.22006865 -0.06822006 0.25438365 -0.06212276 -0.16294667 0.03643809 0.08386643 0.00389825 0.00446359 -0.15671624 -0.01999071 -0.00604303 -0.08241340 -0.12063488 -0.08257502 0.06906386 -0.25695655 -0.06489380 -0.13382404 0.00821456 -0.31678885 -0.08282759 -0.24185619 0.06733795 -0.35519099 0.00007341 -0.13950028 -0.02632755 -0.04317290 -0.24960379 -0.06113486 -0.13717970 -0.12919635 -0.06407841 -0.05442459 -0.06719975 0.16554855 0.00874507 -0.04468998 -0.04028178 -0.00940534 0.08680553 -0.40813264 -0.04247781 -0.02165844 -0.02530964 -0.27577382 -0.01198031 -0.52717137 -0.15071669 -0.20483378 -0.10224984 -0.24871129 -0.29663056 0.03811241 -0.02635059 -0.28603956 -0.00034669 -0.08607108 0.08025041 -0.02127336 -0.11286383 0.07370621 -0.12475590 -0.11783785 -0.05852110 -0.00600709 -0.04600479 -0.02396699 -0.20324789 -0.01619136 -0.03165654 -0.10642019 -0.26760259 -0.12157950 0.10288304 -0.06043342 -0.09466227 -0.15546609 -0.10032312 -0.04898840 0.05387662 -0.39735129 0.09924054 0.13367873 -0.37079364 -0.09451970 -0.06308919 -0.11250564 -0.06043526 -0.12465180 0.00942366 0.11729847 -0.10780893 -0.02138347 -0.11014809 -0.11409707 -0.28665972 0.05236086 -0.21768315 -0.23386981 -0.05696326 -0.22301343 0.02473621 -0.02594472 -0.05133916 -0.02714604 -0.53272164 0.12901922 -0.17495082 -0.00815426 0.29575136 -0.34810957 0.02780867 -0.23562212 0.07968683 -0.18023102 -0.27217111 -0.07983319 0.01415265 -0.04234505 -0.04296913 0.07099133 -0.30469012 -0.05334160 -0.03614291 -0.15417215 -0.10250784 0.01598630 -0.11897039 -0.21501330 0.01297456 0.02862736 -0.44890615 0.01488737 -0.22369199 -0.14794277 -0.12364782 -0.14796026 -0.24951878 -0.04176709 -0.13859649 -0.22896649 0.18353689 -0.10743013 -0.20805880 -0.04990710 -0.05626415 -0.07077846 -0.11495017 0.10144985 -0.08508587 -0.03207128 -0.05962364 0.05653724 -0.31307927 0.01718216 -0.17745721 -0.18566485 0.01098519 0.00620412 -0.04692570 -0.10526995 -0.00283516 -0.20018294 -0.01335063 -0.04646951 0.01458792 -0.21274856 0.02506410 0.16468287 -0.04666346 0.05308907 0.01506363 -0.06138445 -0.04420196 -0.08564680 -0.02423655 -0.06336346 -0.16330963 0.12724990 -0.10932006 -0.02248871 -0.10332916 0.12729323 0.16303501 0.09623990 -0.00454262 0.05896590 0.02844034 0.04911733 -0.04289772 0.10972212 -0.35162863 0.06549077 -0.16012932 0.04098725 -0.24439506 -0.05380160 -0.30592838 0.02045309 -0.09346256 -0.06627923 -0.22747165 -0.06360674 -0.17221920 -0.05493027 -0.05659817 -0.21249723 -0.05877247 -0.61240095 -0.07675174 0.03516491 0.03946662 -0.12913612 -0.16187733 0.08400818 -0.08661281 -0.25771856 -0.10627581 -0.30266652 -0.37072179 -0.15565810 -0.05859275 -0.26501799 -0.19565529 0.06883271 0.00415052 0.01286608 0.07162456 0.12084983
-0.03139471 -0.19296023 -0.04325176 -0.13768999 -0.10633038 -0.02491322 -0.00132689 0.04588814 -0.23923005 -0.02976554 -0.03411466 0.08994208 0.08588184 0.08898890 0.08700762 -0.02033546 -0.13191272 -0.05104994 -0.03722764 0.09318049 0.25322145 -0.09790534 -0.22374415 0.01756978 0.00751964 -0.15855506 0.09960180 0.07734981 -0.32056060 -0.38957366 0.01752669 -0.11743741 -0.31071511 -0.19836353 0.09604874 -0.17227952 0.06116175 -0.02199496 0.11476118 0.01008356 -0.09287976 0.00117421 -0.27107191 -0.03422891 -0.15224978 -0.06685877 -0.22467850 0.00839958 -0.07526737 -0.06237790 0.07749100 0.12393469 -0.26388302 0.00433280 0.10509340 -0.11568128 0.13777287 0.04904091 -0.03127471 0.03232288 0.05764576 0.02971189 -0.05000579 -0.13388552 0.07265349 0.03928678 0.06771483 0.00892682 -0.10987796 0.03097626 0.06539258 -0.20775133 0.01476605 -0.11373594 -0.28331625 0.09712187 -0.02150091 0.11181615 0.07563435 -0.02815288 0.14028804 0.07806727 0.14008556 -0.05813151 -0.07593291 0.09996970 -0.19862618 -0.01915888 -0.07540911 0.05564715 0.06591486 0.03181605 -0.14213452 0.09790091 0.11678962 -0.10806853 0.13666594 0.03925459 0.02170507 0.13521504 -0.00993958 -0.10207521 -0.01073121 0.10805399 -0.05547963 -0.00853852 -0.20449810 0.06107363 -0.03752072 -0.09847207 0.20802900 -0.16970138 -0.09363730 -0.04818259 -0.07447926 0.06394991 -0.25338760 -0.09390444 0.00229453 -0.11303505 -0.08069170 0.07863153 0.06676442 0.02274070 0.00947374 -0.08241641 0.13994896 -0.05700690 0.16764323 -0.17189181 -0.05499907 -0.01484682 0.09960394 0.08482751 0.00292747 0.02912482 -0.09340242 0.13579437 -0.24154322 0.15548004 -0.03909013 -0.01759755 0.11305363 0.02338444 0.00952878 -0.27382490 -0.06438346 0.08707899 0.09207375 0.04842260 0.03741819 0.12169059 -0.06646550 0.10100577 0.06177475 0.13670237 -0.07893540 -0.10395311 0.00699937 0.03728233 -0.06812204 -0.17629509 0.02873935 0.03919909 -0.03038811 -0.28055903 0.04756355 0.12436837 0.08492675 -0.02163865 -0.03234007 0.02668300 0.04807588 0.11268370 -0.21448866 0.02968979 -0.19579819 0.11791559 -0.00320123 0.05544882 0.00116122 0.09476275 0.00243574 0.13019244 0.09550316 -0.22097871 0.04980790 0.00296929 -0.09837937 0.12620673 -0.26249874 0.14156848 0.16780744 -0.04295800 0.14680102 0.00162186 -0.23551728 -0.29879558 -0.24000609 -0.09535665 0.08356240 -0.19120000 0.03407174 -0.28820261 -0.01041238 0.00475709 0.11774494 -0.00153532 0.07433201 -0.05484238 -0.05682112 0.02303879 -0.31312028 -0.09841947 -0.14020920 0.07875699 -0.04387713 0.05998788 0.05854832 0.05405769 0.12316199 0.01131432 -0.08041891 -0.01683121 -0.15554105 -0.03114024 0.06924246 -0.04633964 0.03475063 -0.21408872 -0.20193616 0.12371239 0.03430302 -0.01362642 0.12147012 0.10426930 -0.01668398 0.13650523 -0.26135597 -0.26283360 -0.03427686 0.03085804 -0.17536637 -0.01050136 0.01437046 0.01171851 0.01643958 -0.03825065 0.07789922 0.09666153 0.00646459 -0.27639025 0.10958506 -0.01099705 -0.04143155 0.02813272
-0.01841958 -0.00138842 -0.01587496 -0.35789090 -0.09215136 0.15969898 -0.25630298 -0.22930609 0.07224025 0.12079079 0.09256051 0.20616513 -0.02479720 -0.00986577 0.14473492 0.11234417 0.07871215 0.09729296 -0.17408396 -0.14371519 0.01522772 -0.19398142 0.08913264 0.23141487 0.03665441 -0.09906666 -0.03926908 -0.03196782 0.02556987 -0.06965270 -0.01236949 0.17887530 0.21830231 0.06226552 -0.03064998 0.01007326 0.07102810 -0.04644370 0.07124227 0.00408972 0.06762942 -0.28637233 -0.12569787 0.07105689 -0.05463554 0.02456878 0.03070937 0.00247479 -0.05635192 0.36961967 -0.07483092 0.22595577 0.18855345 -0.04147859 -0.40846920 0.23045541 -0.29072702 -0.05368666 0.12340429 0.02885739 0.03016374 -0.02762025 -0.14385067 0.00797791 -0.04896819 0.12099873 0.05152413 0.11286768 0.01315994 0.06540307 0.02240198 0.27091882 0.02502506 0.20429130 0.04755707 0.03403050 -0.02676014 -0.17288859 0.13946167 -0.21103095 -0.10090342 0.18742180 -0.09365048 0.01781709 -0.34685898 0.06642509 -0.03463492 -0.46629870 -0.00772003 0.13565332 -0.25917608 0.03435240 0.10090848 -0.06635722 0.02699017 -0.16899507 0.09952560 -0.23184641 0.06154189 -0.18746182 -0.45687512 0.22831482 0.11752091 0.07839290 -0.01960677 0.01663481 0.04617946 0.33219311 -0.29350334 -0.28945121 0.01327384 0.05774385 -0.04718328 -0.02880450 0.04832552 -0.00597502 0.08608373 -0.41295800 -0.06996983 -0.02989342 0.10431075 0.22463374 0.11450382 -0.33384201 0.24749666 0.28230721 0.02269487 0.10664742 -0.18055762 0.20795168 -0.05102037 -0.08253328 0.42398721 -0.27086380 0.15949088 -0.32178268 -0.05006536 -0.02312274 0.03385521 0.14248531 0.19029990 0.14835267 -0.00346571 -0.15630476 0.04355109 0.07836146 0.07423583 0.08607800 0.06319664 0.07270736 0.01345899 0.02388596 0.03304657 -0.02174504 -0.09085764 0.14445248 0.10720654 -0.08868921 0.01376778 0.14941679 0.13102549 0.07136963 0.03225810 -0.25050190 0.09872510 0.13818835 0.26146117 -0.07757521 0.06823899 -0.29720107 0.01101438 0.02477644 -0.29525906 -0.04218833 0.01212686 -0.06521216 0.06803647 -0.02800994 0.06341508 0.17272642 -0.02254364 0.09823342 0.16514049 0.03106550 0.11250402 0.14851063 0.00512906 0.05217217 -0.10712794 0.01981518 -0.04883141 0.02883056 0.14550778 0.03115075 -0.35392171 -0.31647891 -0.00164702 -0.04939244 0.08788150 -0.06976922 0.17617916 -0.06432915 0.15489644 0.10935371 0.38562533 0.03774645 0.10378054 -0.04199268 0.25952929 -0.17389217 -0.01963723 0.04458974 0.08806396 0.15817840 -0.07063174 -0.00232712 0.11594756 0.00540507 0.23841204 0.08409566 -0.02610217 0.09717600 -0.00647848 0.16336845 0.32183188 -0.02837241 -0.28421494 -0.01130943 -0.09310780 -0.05982110 0.03994136 0.12469070 -0.09801008 0.10147274 -0.00843820 0.29781932 0.11835092 0.09432893 0.00851447 -0.10882148 0.06888676 0.04801745 0.00793748 0.29187560 0.08646002 0.08280354 -0.08529314 -0.05828862 -0.09318628 0.14152384 -0.15059337 -0.16054831 -0.00604660 -0.00293825 0.00570816 -0.37135977
0.06438581 -0.22508337 -0.00054154 -0.22806992 -0.13438712 0.21375498 -0.10731555 -0.41561627 0.09499223 0.00771967 -0.06118897 -0.00951970 -0.12808694 0.00485896 0.05102226 -0.01544270 -0.09496339 0.03267453 0.00730452 -0.54319042 -0.04458943 -0.16555651 0.10804463 -0.01802962 0.06114637 -0.13973187 -0.04336762 -0.13692419 -0.10602049 -0.04229209 0.13993339 -0.00989986 0.27282509 0.10158981 -0.04661182 -0.18822862 -0.11392505 -0.08614630 -0.08851384 -0.01658108 -0.04515553 -0.10108859 -0.03146132 0.05156200 0.00083427 0.11041430 0.05705804 -0.04001893 -0.04550327 -0.05296098 -0.05052214 -0.00508207 0.09650725 -0.07602365 -0.39389610 -0.10353661 -0.33254284 -0.27753749 0.18237562 -0.27371028 -0.00837544 -0.04758276 0.04404622 -0.03717912 -0.12048825 0.09136051 -0.13692407 -0.05674240 -0.01041874 -0.06896260 -0.06037624 0.13502757 -0.16883580 0.11451837 0.10796678 -0.14346090 0.01202163 -0.31274641 -0.08769416 -0.17829248 0.02593501 -0.04447340 -0.00337773 -0.02144956 -0.04206170 -0.18748663 -0.08504595 -0.05021792 0.03802270 0.11029976 -0.19768764 -0.09438961 0.03316765 0.08087694 -0.01711502 -0.18252417 -0.03223549 -0.25081998 -0.01211081 -0.49026841 -0.06500882 0.08484422 0.02069062 0.06556351 0.05069230 0.24883439 0.02573311 -0.14014187 -0.14297411 -0.43127820 0.07968638 -0.01698103 -0.28296220 -0.09455745 -0.15948880 -0.14112626 -0.00419047 -0.26309043 -0.20369181 0.00928473 0.19700728 0.01290514 -0.02557199 -0.23421900 0.08737332 -0.13742702 0.09344561 0.19424087 -0.43159437 0.22890066 -0.16396829 -0.09241357 -0.08828834 -0.40369359 0.00080877 -0.36643910 -0.23855519 -0.08292728 -0.18921463 0.10599697 -0.14701271 -0.15765958 -0.09205713 -0.07611809 -0.11102730 -0.06418429 -0.09966679 -0.00747139 0.05249446 0.07726060 -0.09392111 -0.12442922 0.01162750 -0.14405696 -0.19518077 0.24566464 0.04943641 0.07240873 -0.03713040 0.04752020 -0.05105249 0.11537940 0.02426574 -0.36746302 0.10598832 -0.06936971 -0.02560664 -0.33008799 -0.00594307 -0.09951726 -0.07864401 0.25031635 -0.53360903 -0.01327766 0.00105137 0.10150520 -0.00590760 -0.13967559 0.13453160 -0.10845230 0.05031470 -0.05566469 0.08216400 -0.20918621 0.00937055 0.14021754 -0.14988875 -0.19304504 0.15950984 -0.19641580 -0.01465222 -0.11113797 -0.03316757 -0.09544364 -0.22234800 -0.39367276 -0.09873739 -0.03283238 0.02568278 -0.03297533 -0.11090370 -0.06820909 0.03152113 -0.02567639 0.02450198 0.15775594 0.04267327 -0.01654055 -0.03985922 -0.19282918 0.05855239 0.04417283 0.00103480 -0.03799965 -0.13910292 0.09124332 -0.09566322 -0.15161048 -0.00026622 0.03989398 -0.09888273 -0.03684399 0.00425794 0.30064720 0.01076867 0.00457207 -0.27926853 0.01640207 -0.01150651 -0.04503134 -0.00671121 -0.04490007 -0.30235079 -0.01351688 -0.14879467 -0.03404891 -0.07077591 -0.05971209 -0.05436042 -0.02872493 0.05582424 -0.19981217 0.12864709 -0.00386940 -0.31807116 0.24554697 0.10274715 -0.14928319 -0.08245000 -0.16622844 -0.21140608 -0.12622577 0.25847450 -0.18843940 0.11248945 -0.12346070
