0.05290373 0.06784867 0.11559363 -0.09316829 -0.28206548 0.06084959 -0.07537737 -0.02860395 -0.29429141 0.04550049 -0.13725768 0.13879758 -0.08113625 -0.12667570 -0.03846317 -0.18006182 -0.06247452 0.11172632 0.05244724 0.08028202 -0.01625599 0.07701080 -0.25834280 -0.24051628 0.10133646 -0.22772616 0.09454181 0.02006984 -0.42230922 -0.05247915 -0.00600615 0.19031517 -0.39134225 0.02701115 0.11353645 0.20273541 0.09620082 -0.11711457 0.11100901 -0.05851379 -0.03357501 0.03893353 0.00917366 0.11886144 0.00135606 -0.27714625 -0.05954828 0.02901974 0.10291335 0.06824041 -0.15309811 0.00942189 -0.01692443 -0.23670326 0.00949623 -0.15369135 -0.00115230 0.05086989 0.00132963 -0.05962714 -0.06885997 0.11850683 -0.11602026 -0.10701491 -0.12908015 -0.01452910 0.08142117 0.02222428 -0.09650651 0.11481043 -0.06474252 -0.14186864 0.12138807 0.05788951 -0.08965174 0.08893827 0.09785657 -0.07775899 -0.06732102 -0.03885905 0.07966785 0.08769547 -0.08403504 0.08739021 0.08156963 -0.06946704 -0.07193050 0.12215514 0.10922948 0.18057150 -0.25023344 0.15619610 -0.21709318 -0.14867814 0.04561604 -0.25392413 0.00879048 -0.14219196 -0.06978211 -0.03586351 0.12647909 -0.11869613 -0.02451921 0.16908237 -0.07499760 -0.07183885 -0.07774120 -0.05235282 -0.01360798 0.03981856 -0.19886899 -0.11587629 0.00036068 0.06718626 -0.25171095 -0.00431838 -0.09657652 -0.24988925 0.00301632 -0.23065408 0.07688086 -0.06663611 -0.16835605 -0.09227607 -0.07701530 0.16029060 0.07647022 0.04172355
-0.11258197 0.06648242 -0.16957836 -0.09611957 0.03512944 -0.03959725 0.05574888 0.05956636 -0.07975177 0.03249263 -0.21516585 -0.15349363 0.04042559 0.01859443 0.24607238 0.15633473 0.07765061 -0.12937485 0.03751584 -0.02713661 -0.14712237 -0.30033752 0.14165232 -0.16269615 0.07604330 0.12004354 0.07414687 0.03020279 0.14806077 -0.28121045 0.04213633 -0.23977329 -0.12091947 -0.02668660 -0.00521172 0.05878474 -0.13897915 0.06283796 -0.10326758 0.12963104 0.14069532 -0.13691555 -0.07045356 0.16637054 0.07107259 0.06620358 -0.03385502 -0.05279943 -0.05589971 0.01682056 -0.22248164 0.02900035 0.22145298 0.15105322 -0.12038586 0.11498138 0.05667630 -0.05074004 -0.08618732 -0.02193226 -0.16147017 -0.02167815 0.05455978 0.25261018 -0.07917803 0.18947957 -0.09297132 0.05913945 -0.11386715 -0.00864141 -0.00886410 0.15812874 0.01306456 -0.21770748 0.09225210 -0.13655226 0.18186769 -0.11285818 -0.08706339 -0.07514653 -0.08055368 0.07169502 0.01926375 -0.01385520 0.05009959 0.07329301 0.06196462 -0.20958011 -0.19051604 0.00557419 0.10589627 0.05014303 0.02213165 -0.18438405 -0.12768246 0.00331408 -0.20854160 -0.01027360 0.00322645 0.08374755 -0.14364271 -0.02629640 -0.15736550 0.12090434 -0.17416321 0.02570138 0.05257553 0.05910937 0.20805840 -0.13219708 0.05222830 0.13593195 0.10992295 -0.14164254 -0.19815660 -0.04688352 0.08919497 0.07183810 -0.08214689 0.09711685 -0.42029512 0.07427806 -0.00234143 0.25976557 0.09940433 -0.14188883 -0.08634324 0.14496686
-0.01927600 -0.01429684 0.18186289 -0.00034745 -0.31633773 -0.10044745 0.03340695 0.08496286 0.04394114 0.08381699 -0.05768214 0.14389613 0.00934475 0.19063012 -0.21130194 0.20494449 0.04202011 0.00777943 0.05691781 0.07907458 0.04447308 0.03547920 0.08172535 -0.03550228 -0.02659179 0.12214912 -0.13047527 -0.10329737 -0.13567221 0.19132753 -0.05094314 0.14978792 0.20445837 0.06959060 0.03034613 0.02970299 -0.00640889 -0.06251158 0.02444531 -0.13847348 0.15548603 -0.00621249 0.10942764 0.21404254 0.11502758 0.15020412 -0.00391577 -0.08210072 0.13592692 -0.03129898 -0.29771772 0.05598502 0.07221364 -0.04522849 -0.01955278 0.19602849 -0.06042158 -0.02455268 0.10113706 0.04500998 -0.28924897 0.01437713 -0.11919466 -0.00661652 0.07121418 0.17661136 0.01145862 0.07145663 -0.04859575 0.00310471 -0.00382137 -0.03363082 0.08068645 -0.02766207 0.01306696 -0.04009328 0.15959509 0.16975339 -0.03681333 0.01838910 -0.21699691 -0.10141277 -0.12810543 0.08184234 -0.07426299 0.01904985 -0.05820348 -0.19356576 -0.43840256 0.11771471 -0.35356537 0.13053730 -0.02048504 -0.07028101 -0.00155776 0.10581201 0.09066422 0.01985190 0.00830325 0.15167309 0.00091312 -0.02709883 -0.09398244 0.09434234 0.17064124 -0.24970838 0.05803220 -0.02164153 0.07119271 -0.11269096 0.09991856 0.17597061 0.03258121 0.03447803 -0.19618101 0.00748298 -0.04789221 -0.30143064 0.01170336 0.02956551 -0.21597910 -0.37554872 -0.05876609 -0.19365321 -0.23160526 -0.01999788 -0.09120639 -0.12157051
0.03434384 -0.07104576 0.09237507 0.09745644 0.18438500 0.06907956 -0.00963945 0.08696609 0.13254163 -0.01504620 -0.16032542 0.16920973 0.08849216 0.03491031 -0.07299051 -0.15056612 -0.00365930 0.05441229 -0.12263642 0.05596317 -0.18682733 -0.08802538 0.04946651 0.08035800 -0.01189901 0.07055858 0.12322742 0.20924054 0.20458622 0.04556479 0.03978103 -0.05394505 -0.00510870 0.01764419 -0.08566341 0.13035281 -0.14047235 -0.09283007 -0.04895046 -0.10998988 -0.02773848 -0.01320268 -0.33092850 -0.07321250 0.03908468 -0.17962106 0.05714765 0.02122976 0.03747086 0.02697558 -0.16816123 0.10332707 0.13288519 -0.10665093 -0.01236098 -0.01268671 0.05055329 -0.07126831 0.07472280 -0.05874243 -0.03270305 0.09402578 -0.20977852 -0.08297258 0.16952972 -0.19308744 0.04931961 -0.07473098 0.02586577 -0.13012747 -0.02378805 0.12690920 0.10894943 -0.20908681 0.04706664 -0.22452402 -0.22676294 0.15551189 -0.06795607 -0.02679583 0.11684490 -0.01713795 -0.12557636 -0.08837773 0.03548271 0.09440638 0.08649980 -0.18708931 -0.13619660 -0.05321728 -0.15310812 -0.00985854 -0.02393522 0.09290690 -0.11788939 0.22766624 -0.13794209 -0.04743790 -0.00966177 -0.17869990 -0.05806021 0.17475830 0.02678788 -0.02468842 0.22550066 0.16789168 0.08888929 0.15998988 0.09664550 -0.01672201 -0.12810263 -0.18608148 0.09155889 0.00926070 0.09584060 0.02613988 0.02585684 0.07830773 0.05658101 -0.24521972 -0.07829142 -0.15874268 0.01642153 -0.25350767 -0.03265835 0.05046796 -0.01498957 -0.06126023
0.09296025 -0.01893971 -0.19367705 -0.05190016 0.15308158 -0.15583044 0.15880029 -0.10094086 -0.04259601 -0.01290098 -0.02318252 -0.31906876 0.02235402 -0.20954370 0.14043872 -0.00946476 -0.06173594 -0.22484651 0.06402599 -0.26793858 0.02008810 0.00694166 0.12238064 0.13055374 -0.27247566 -0.02557059 -0.01030001 0.09532955 0.13226096 0.03912977 0.08734566 -0.22674397 0.02129062 0.03381375 -0.21735093 -0.13868861 0.04885938 0.16039467 -0.21950905 0.06834739 -0.20427626 0.02256648 0.05737528 -0.24088043 -0.29351634 0.05225722 -0.06168037 0.06603790 -0.06798840 0.02779067 -0.03846185 -0.31521213 0.35019544 0.11993948 -0.01982699 0.07849079 -0.03703967 -0.00587852 -0.41540352 0.00626304 -0.20811604 -0.27295890 0.01928116 0.05296316 -0.41884089 -0.06688283 -0.48950377 0.10334669 -0.00460139 0.04528049 -0.02131642 0.14016797 -0.32774553 0.06111594 0.09962891 0.24219485 0.00137274 -0.18410778 0.05321994 0.06759592 -0.13320859 0.05874830 -0.02345345 0.06595019 -0.05230498 -0.03096284 -0.06058175 0.08411133 0.06428482 0.06331498 -0.28233859 0.15031761 0.02479978 -0.00864872 -0.31908855 0.02157330 0.08941396 0.05569948 0.00592355 0.09075066 0.09466572 -0.39675876 -0.06654607 -0.23593044 -0.46902427 -0.12891521 0.04622068 -0.06273326 0.22702259 0.08511283 0.05200321 -0.05679647 -0.27168527 0.03444544 0.13151138 -0.01157554 -0.02534098 0.08642084 0.09730688 0.09909291 -0.05512275 -0.03611442 0.08119661 -0.15908384 0.08379056 -0.34541866 0.08393338 0.13892014
-0.10534259 0.02124186 -0.04360526 -0.22283089 -0.04152245 0.10690121 -0.18637249 0.02128586 0.28318655 0.03335667 0.00043773 0.05728061 0.00473756 -0.11547440 0.01757410 0.06019194 0.04463346 0.09488019 0.00004540 -0.21471940 0.09328944 0.09270412 0.02422256 0.06389415 -0.07526531 -0.06732606 0.08153975 -0.25752997 0.23686025 0.07822101 0.06344468 -0.18161249 0.08829318 -0.21068697 -0.07250702 0.08681227 0.03027017 -0.17458756 -0.03982881 0.19614834 0.06987724 -0.06499808 -0.14339156 0.04592167 0.06219145 -0.41625500 0.05304724 0.06051923 -0.21855670 -0.00923705 0.16422522 0.04076095 -0.31764966 0.16899890 -0.06938070 0.02537623 -0.07122050 0.07744637 0.06799181 0.02815713 0.14715648 -0.12195075 0.08075444 0.08735449 -0.00059118 0.00913401 0.11485493 0.00005685 0.03662815 -0.12120577 0.05656131 -0.38207784 0.19617386 0.03246555 -0.10638712 -0.24711001 -0.03664618 -0.05648955 -0.08784944 0.07953110 0.14648299 0.04288674 0.09629520 -0.00915546 -0.04526205 0.06158732 -0.00730729 0.16451731 -0.07884451 -0.20073387 0.30442417 -0.44755459 -0.00368253 0.07243464 0.19411232 -0.13727932 -0.01686371 -0.04026936 0.02642425 -0.45691931 -0.01891681 0.20985641 -0.10073465 -0.00985539 0.07810806 0.06675790 0.03680805 -0.38036373 0.06937473 0.07924744 0.04338939 -0.26724955 0.01389149 0.03503826 0.17606342 0.01021296 -0.18862393 0.14467448 0.05064456 -0.00992111 0.14684281 0.14245033 -0.04774422 0.11455545 -0.05728137 0.12177005 -0.00220139 0.03989322
0.04740217 0.17737699 -0.08311018 0.16685939 -0.23996197 0.07930797 -0.07195877 0.07568108 -0.17658839 0.12028961 0.16659573 -0.29754832 -0.03314135 -0.00800242 -0.02138571 0.09770902 0.08837419 -0.04550163 0.09354756 -0.08144586 0.12858652 -0.02044293 0.05451827 -0.23252481 0.04348642 -0.00377720 0.06345046 0.13993196 -0.38269165 0.15422957 -0.36710390 0.15978447 -0.28172621 -0.23180650 -0.03639457 -0.20393181 0.09671245 -0.13635401 -0.22152472 -0.03440824 -0.01544218 0.03640667 0.01380037 -0.04865175 -0.02879876 0.08296181 0.06518283 -0.08794512 -0.17947753 -0.08795348 0.18025991 -0.24195911 -0.18927471 -0.05771172 0.01039793 -0.17574796 0.05241091 0.07920827 -0.13368200 -0.09981761 0.09056112 -0.12043361 0.01858478 -0.00981148 -0.20721832 -0.07558205 0.19003956 0.02900211 -0.09602597 0.10197800 -0.04921181 -0.29652080 -0.18502989 -0.01035893 -0.12995631 -0.08588810 0.06166673 -0.24073046 0.00815423 -0.08416331 0.07986709 0.13518471 0.06823345 -0.03323521 0.03324463 -0.29202810 -0.09030312 0.10814428 0.03577805 0.12289678 0.23237658 -0.05492755 -0.01510919 -0.12168377 -0.17295721 0.00149866 0.03065025 0.02767326 0.05808889 -0.31686857 -0.18744506 -0.07192214 -0.16864793 -0.09050057 -0.28880322 0.00649054 -0.07958989 -0.01351794 -0.10403479 0.03936688 0.11753448 0.16740154 0.03485939 0.06374252 -0.21887439 0.06611482 0.14888193 -0.17248534 0.08712474 0.07788963 0.13004968 0.03769821 0.06253435 -0.30250204 -0.30240366 0.13079172 0.06624956 0.09616974
0.00334940 0.13398357 0.07570682 0.06900494 0.08590488 -0.22290109 0.05220869 -0.02036960 0.10842549 -0.37268987 0.04812393 -0.06654689 0.00152125 0.13028058 0.13038598 -0.05934444 -0.20671766 -0.04036964 -0.18125284 -0.01565996 -0.08823156 -0.04447599 -0.04864004 0.06576543 -0.07249639 0.11429191 0.24298015 -0.00351192 -0.28927511 0.01747199 0.04451117 -0.00196042 0.11681288 0.07306100 -0.02134973 -0.08846801 0.03103063 -0.08430135 0.11448137 0.07454661 -0.09427039 -0.02406581 0.14727652 0.06467713 0.05434382 0.10545169 -0.07636957 -0.06449135 0.00712127 -0.04691909 0.03259934 -0.00133044 -0.00076577 0.02388655 -0.03522608 -0.19189659 -0.01137095 -0.12513538 -0.01012774 -0.04444823 -0.05458229 -0.05840152 -0.02605276 0.33655381 0.19511366 0.16238695 -0.16122149 -0.28425056 -0.02865901 0.19786137 0.04064692 0.11688134 -0.16813068 0.00865277 -0.03429126 0.20724134 0.00459336 0.28033182 0.08218592 0.01626016 -0.38965058 0.05940748 -0.16767520 -0.10234219 -0.07802741 0.04513187 0.01635449 0.12930299 0.06465983 -0.11007915 0.00018157 0.02108602 -0.00522339 -0.24123503 0.09854300 0.10704662 -0.22523923 -0.04521138 -0.04745624 0.03370538 0.08962657 0.19903743 -0.02874896 -0.01304399 0.22297113 0.04700537 0.07255728 0.02981476 -0.03668154 0.00328752 0.14186847 0.08957253 0.04594905 -0.14354828 0.02890906 -0.20057043 -0.04019634 -0.06675632 -0.10386987 0.04035361 -0.17132270 0.08768114 -0.04686360 0.14996479 0.09089860 0.00122101 0.01749744 0.06528068
0.05770110 0.06860207 0.01926435 -0.24801859 -0.28546119 -0.10083244 0.04172001 0.08033482 -0.17340785 -0.00346938 -0.15916602 -0.31791678 0.05059809 0.14762110 -0.03177989 -0.21971476 0.09749265 0.09055891 0.09011655 0.11369936 0.08323714 -0.00781797 -0.03295465 0.08888608 0.08295450 0.07697517 -0.20249242 -0.16065511 -0.18314886 -0.14741234 0.09558837 0.10546236 0.01150006 0.09308703 0.10856169 -0.29463243 0.07935315 0.15330581 0.06945854 -0.13608874 -0.16836350 0.08916332 -0.05746961 -0.42064404 0.05267343 0.10291190 0.05579044 0.09459019 -0.02519102 0.06126987 0.03400157 0.09945457 -0.05579968 -0.09874471 0.08964276 -0.14283426 -0.04847359 0.12830463 0.04210772 0.08822226 -0.19831651 -0.04758021 -0.00363063 -0.27907413 -0.12238893 -0.38127658 0.03642334 -0.00487479 0.09639940 -0.18751475 -0.07230491 0.00344141 -0.22191122 0.04414860 0.03296831 -0.20245805 0.03505204 -0.19708101 0.04089807 -0.04051045 0.06669764 -0.31627810 0.08748734 0.08960281 -0.07389729 -0.04143849 -0.07766597 -0.27163002 -0.11954037 -0.29721639 -0.01637323 0.04243750 0.06642934 0.13286687 -0.01995753 0.00327070 0.03681908 0.03043284 0.10849579 -0.18024167 -0.08725405 -0.10061946 -0.01129253 -0.13677955 -0.11095010 0.00172814 -0.15677811 0.04783797 -0.01353087 0.00317576 -0.08853080 -0.27729389 0.06645089 0.07957088 0.10277951 0.05162753 0.08802114 0.09521349 0.08117314 0.07901154 -0.01649213 0.01854663 0.06056559 -0.22110383 -0.06951606 0.06635395 0.07611413 -0.27467856
0.03755445 -0.33381274 -0.41020969 0.07400311 0.17616028 -0.22645296 -0.01294566 0.04120503 0.16473997 -0.30744082 0.05383047 0.20683052 -0.04417777 -0.31684232 0.07326076 -0.06293578 -0.02355884 0.05333184 0.00383761 0.04464531 -0.11742572 0.07158041 0.00742101 0.00237678 -0.00814614 -0.25029600 -0.33349612 -0.25620797 0.24315183 -0.32847047 0.09692321 0.14864087 -0.12805215 0.10353557 -0.00870438 0.02839646 0.04354261 -0.08167193 -0.02866538 -0.07121055 -0.15698038 -0.11950480 0.01682146 -0.29248974 -0.25228176 -0.08413321 0.04734644 0.05770409 0.13839252 -0.06626704 0.03825752 0.09730866 -0.17150015 -0.15047704 0.06102605 0.15504029 -0.00286993 -0.18043081 -0.02742411 0.02252453 0.22288559 0.06635604 0.12753192 -0.18921176 -0.10189781 -0.28308770 -0.12717862 -0.10056626 -0.01180928 0.02108816 0.02519211 -0.12001705 0.11894092 0.00362433 -0.08291487 0.14234905 -0.28520831 -0.27123886 -0.05188569 0.04118893 -0.03189486 -0.07020540 -0.03841383 -0.24684775 0.02567941 -0.06420544 0.04222012 0.00783220 -0.06464468 0.13953748 0.04191830 0.04012154 0.04442446 0.09057731 0.01456593 0.03467191 0.11658494 -0.00114125 -0.07531010 0.16955064 0.06554755 -0.00673683 0.09167671 -0.18102200 -0.35169348 0.03017662 0.03215832 -0.02781700 -0.26088405 0.03777330 -0.16375664 -0.08689296 -0.14093699 0.03265077 0.09740324 -0.07236677 -0.00382125 0.07964025 0.05035531 0.08352693 0.09684984 0.02823910 -0.02910088 0.04154940 0.07174832 -0.03564841 0.07342090 0.10426847
