0.07646424
0.10790247
0.00527980
-0.05656013
-0.08002649
-0.06528649
0.06138500
-0.10161041
-0.06874881
-0.07098855
-0.06827067
0.08954017
-0.11330678
0.10462195
0.06826949
-0.13460074
-0.06379248
0.10667268
-0.01824029
-0.12360970
-0.09418625
0.09217737
0.06546899
-0.07934701
0.12370034
-0.10115024
0.08147757
-0.11448930
0.11806671
0.08850710
0.09417643
-0.11865187
-0.04719878
0.11600222
-0.06565540
-0.09878828
0.09778289
0.10105401
-0.13470919
0.10549483
-0.06689423
0.04918412
-0.05243847
0.09555628
-0.10893905
0.07949109
-0.07654938
-0.15323901
-0.08012182
-0.13739362
-0.02674367
0.00954239
-0.02804620
-0.07470041
0.03104566
0.11312623
-0.00771412
-0.04810294
0.07645582
-0.15618095
-0.10214616
0.09754052
-0.07696570
0.11364157
-0.16591014
-0.20192666
0.05545341
-0.10134195
0.06383535
0.10569077
0.07351290
0.00312458
-0.08500554
-0.14409284
0.12983608
0.07704140
-0.00290097
0.09443981
0.07147296
0.05941198
0.10465988
-0.13601454
0.04588532
0.03873472
-0.04103322
-0.13512619
-0.14223236
0.01332533
-0.09001052
-0.03184750
-0.09170832
0.08920873
-0.02293862
0.09479190
-0.10065968
0.07742529
0.01567664
0.09813865
-0.08875464
-0.07383835
0.07913131
0.07426639
0.04006075
0.06508229
-0.09536298
-0.02993716
-0.13476934
-0.06667165
0.00751146
-0.08683474
-0.09818158
0.08853763
0.06048324
-0.07315446
-0.12846042
-0.10742369
-0.06842282
-0.08069371
-0.12177189
-0.12309808
0.05751540
-0.07742954
-0.06513168
-0.03258840
0.09175834
0.10079739
0.07700530
0.07804745
-0.06251431
-0.04596431
0.08838480
-0.12409415
0.05079306
-0.04631673
-0.10174692
0.08713397
0.01862702
0.08428757
0.07601173
-0.12373216
-0.16346452
0.10393074
0.06367162
0.04946939
-0.10681839
0.09558188
0.11125399
-0.13685781
0.10470087
0.10449460
-0.12041733
0.09633573
0.09894434
0.09508462
0.06209173
0.05801748
-0.03407494
-0.13977970
0.09131429
0.07302917
-0.13936684
-0.05598843
0.13715300
-0.01971219
-0.06805156
-0.11687339
0.05181244
-0.01615988
0.08631010
-0.04221210
0.03614959
0.08558285
0.08511005
-0.11352491
0.07795490
-0.12081857
-0.09883228
0.07509719
0.10250886
-0.10318845
-0.09814616
0.09065565
0.09661014
-0.09777542
-0.09690972
0.05816184
-0.10774218
0.00462495
-0.06529786
0.09980391
0.05555472
0.09800868
-0.13404365
-0.03827774
-0.09528328
0.05234180
-0.04514637
-0.00275083
-0.15184236
-0.01481481
-0.10838021
-0.14055194
0.11533830
-0.09418860
-0.09802859
-0.04544946
-0.09101659
-0.12771089
-0.05584518
-0.11081605
-0.10616054
-0.10750936
0.11275975
0.04299868
-0.05547817
0.02747277
0.00263940
0.12479216
0.10076024
0.03097987
-0.07241175
0.08819861
0.08643071
-0.14734118
-0.17266570
-0.07728587
0.06354868
0.10483495
0.06906747
0.07472038
-0.02040050
-0.06285910
-0.09027585
0.05767216
0.01018846
-0.09663325
-0.11159813
0.10947137
0.03303549
0.08929253
-0.07858039
0.07966632
0.06785881
-0.03219398
0.05636849
-0.02937904
-0.00707495
-0.13363819
-0.08324938
-0.09660533
0.09014364
0.10363378
0.06217500
0.07787044
-0.06769371
0.01218949
-0.11818705
-0.11953855
-0.01665489
0.02691307
0.11057252
0.09825730
0.06429584
0.06585711
-0.15622708
0.09186195
-0.02969227
-0.10107519
-0.10600407
-0.09848502
0.00678091
-0.10702241
-0.05273392
-0.06464319
-0.08097424
0.02316310
-0.15889326
0.11557469
0.12757005
0.09999440
0.09830423
0.09920526
-0.15372580
-0.06794488
-0.08938461
-0.07542793
-0.02451027
0.06269784
-0.10101188
0.10027783
-0.15608317
0.06618000
0.09303578
-0.15632735
-0.15466857
0.09541742
0.07211044
-0.13614948
-0.07998691
-0.03932891
-0.09366088
-0.10338706
-0.09971581
0.06001373
-0.02930084
-0.13212430
-0.10494673
-0.17432478
0.08448911
-0.06742683
-0.03115226
-0.06786337
-0.05759242
0.08083709
0.08711885
-0.01315120
0.08842842
0.09291587
-0.00370750
-0.07055930
-0.15982574
0.10656190
-0.07433343
0.03609543
0.02022787
0.08365447
0.08375018
0.08472291
0.12138128
-0.14220533
-0.13814783
-0.07999046
-0.08031910
0.12948340
0.07005565
-0.19544053
-0.00316156
-0.08985666
0.05448444
-0.13670160
-0.05962373
0.08830827
0.05121284
0.05422401
0.11153844
0.14396954
0.12500645
-0.11865276
-0.07048144
-0.06393255
-0.10697871
0.06833111
0.06660357
0.10160234
-0.04851427
0.07074898
-0.09257728
-0.14321251
-0.06019273
-0.11677505
0.08318026
-0.05525361
0.09168003
-0.09993566
0.08958083
0.05448291
0.05067652
-0.10535649
-0.10726356
-0.12319475
-0.14614210
-0.12820478
0.06688796
0.09919705
0.07466908
0.02819722
0.14922786
0.06781037
-0.10622495
0.09777326
-0.11846094
0.07978661
-0.03092412
-0.17015834
0.09992714
0.10064626
-0.07412589
0.00224109
0.11649070
-0.11912633
-0.06590954
0.05731152
0.10254969
0.11908188
0.01137395
-0.09883562
0.03767632
0.10626652
-0.02399037
-0.05834921
-0.08841106
-0.01784374
0.05992552
-0.11292315
0.09973361
0.10425954
-0.05300046
-0.10950039
-0.06745741
0.01214128
-0.02212347
-0.08450624
-0.04351993
-0.06544522
-0.09971332
0.07204344
-0.04098815
0.11124516
0.10215432
0.07463224
-0.11423092
-0.04614745
-0.08470282
-0.10076266
-0.11595155
0.09956014
0.08936377
-0.07118279
-0.02507677
0.00281748
0.11836091
-0.13405116
0.09715356
-0.04884657
-0.03294531
0.10351830
0.09357404
-0.03387142
0.00331354
-0.10791843
0.10326400
-0.11100354
-0.11948247
0.01983660
0.04435702
-0.05947360
-0.13751818
-0.00508388
-0.02449422
-0.11291832
-0.07359540
-0.13655674
0.08668061
-0.07344594
-0.13215104
0.04719848
-0.08522626
-0.10439044
0.04082489
0.05839611
-0.07120107
0.02007403
0.08016852
0.04482386
0.10274968
-0.11335688
0.05994479
0.08626459
0.10196400
0.07947548
0.04434979
-0.13732649
0.04086894
-0.10858179
-0.12454190
-0.11947281
0.08628589
-0.00955331
0.07346775
-0.13691373
-0.11290716
0.02925614
-0.12395603
-0.03794613
-0.08167672
-0.06468223
0.11109383
-0.12502129
-0.12404923
-0.06512581
-0.08445562
0.09112690
-0.04554703
-0.00993074
0.07534174
-0.06699064
-0.10519690
0.04026093
-0.07912260
0.06462246
0.04018147
0.09166820
0.10068019
-0.14177677
-0.15135279
0.08279572
-0.03807376
-0.07937437
-0.10161620
-0.05559943
-0.14657111
-0.09586436
-0.07314210
-0.01478853
0.07210082
0.09747592
0.09926708
-0.10835239
0.09358323
-0.11410867
0.10382747
-0.01641160
0.09888186
0.10498171
0.05190121
0.08441584
0.06726313
0.05652336
0.08112112
0.10608645
0.11291716
0.04596975
-0.00206753
-0.03763059
0.08352738
0.05217126
-0.09313218
-0.13116550
-0.13447666
0.05604284
-0.05599228
0.09501732
-0.06004482
-0.12154280
-0.10128893
0.05486764
-0.09591968
-0.06146501
0.04284796
0.00685909
-0.13931169
-0.05028170
-0.08433372
-0.06199205
-0.12882468
-0.15126851
0.09039754
0.10147746
-0.12445911
0.02316733
-0.07080439
0.07972891
0.10971127
0.12035153
0.03476394
0.11692540
0.10801665
0.09787776
0.10680204
0.06680264
-0.08203207
-0.01225995
-0.05259588
-0.03895643
-0.10652816
-0.09807388
0.07956672
-0.01381772
-0.12403683
0.07729368
-0.08040877
-0.10704515
0.05894972
-0.15484168
-0.01918171
0.09165052
0.02519226
-0.00056941
0.06847703
-0.09517337
0.03857264
-0.01616415
0.01430147
0.08094782
-0.13886112
0.07171319
-0.07802936
-0.06889296
-0.10036355
0.07671466
-0.14414182
-0.11652252
-0.12972453
-0.09384342
-0.09050643
0.10242444
0.11166393
-0.12795934
0.11591385
0.09138228
-0.01361732
0.10427815
0.07878384
-0.15561089
-0.03482305
-0.05209973
-0.11870342
0.06600823
-0.05784685
-0.09256723
0.05417297
0.11408118
-0.10731503
-0.15573776
-0.08855625
-0.08529806
-0.11961179
-0.08739977
-0.10635334
0.04662364
-0.09096967
0.04116946
-0.04389018
-0.13957728
0.10787112
-0.12190879
-0.09419356
-0.10998572
-0.10700163
-0.19210373
0.08146544
-0.08937797
-0.10458050
0.09589129
-0.11931384
0.08638136
-0.11207777
0.08508815
0.08665940
-0.11044626
-0.09262832
0.08068088
-0.12573083
-0.01836508
-0.07626142
0.04484509
0.08112260
-0.09973626
-0.04478040
-0.12106289
-0.15464695
-0.06950698
-0.08597165
-0.07275408
-0.03752803
-0.03958455
-0.06296048
0.09302895
-0.10504338
0.04671651
0.11218190
-0.07459242
0.10313114
-0.06962992
-0.07300572
0.08848867
-0.02517495
-0.07105005
0.03340094
-0.01550158
0.07887410
-0.12485535
0.08493542
0.09126471
0.11933513
-0.16987669
0.08558358
-0.10886074
-0.11137760
-0.12010527
-0.06279594
-0.09099793
-0.12059793
-0.04901972
0.13346970
-0.07405606
0.10197816
-0.03426322
-0.11070272
0.03197446
0.09012421
-0.00445743
0.09725501
-0.02763927
-0.15789016
-0.16506816
-0.02600745
-0.11212277
-0.08869576
-0.14200790
0.05708362
-0.10102423
-0.01196456
0.06769990
-0.12947984
0.08819765
0.08837570
-0.01794301
-0.13741685
0.04699080
0.09522609
0.08824671
0.03504726
0.06162241
0.09083420
0.07798347
0.02796311
-0.14547615
0.06901929
0.06869892
0.06632498
0.05999094
0.07170619
0.08131368
-0.15147582
0.09613211
-0.02302737
-0.03534407
0.09736477
-0.05414090
-0.11753333
-0.06991829
0.09363388
0.07668691
-0.09556411
-0.09858297
0.00847012
0.01649994
-0.13046555
-0.07625209
-0.14037451
-0.11376698
0.05909838
0.08632214
-0.02967117
0.05581659
-0.13881315
-0.12140751
0.09758263
0.03344757
0.10979556
-0.14138781
-0.08928875
-0.04322893
-0.06886678
-0.11469139
0.07728836
0.00910343
0.10315911
-0.07733651
-0.12306570
-0.01410182
-0.06239387
-0.05548083
-0.15939192
-0.10502434
-0.11148084
-0.02983871
-0.08941301
0.08788768
0.04496725
-0.06918158
0.07187576
0.08750714
-0.13602461
-0.12975176
-0.00544245
0.03639662
-0.02981414
-0.09286957
-0.04412320
0.11352828
-0.11502685
0.09442057
0.09359511
-0.09886394
0.12389808
0.11027424
-0.08097053
-0.09748435
0.09015635
-0.09262175
-0.00065025
-0.08547772
-0.10798037
0.08126669
-0.07148898
-0.14164850
0.09481295
-0.04806719
-0.04124596
0.10131087
-0.11485411
0.10678418
0.09967229
0.04585921
-0.05484032
0.10490631
0.00606648
0.09331665
0.01907622
0.10233499
-0.07691870
-0.09973711
0.02632840
-0.09987506
-0.14271490
-0.18349791
0.08843806
-0.01169121
0.10312669
-0.12980264
0.06149254
0.07134723
0.15028201
-0.09881981
-0.13536732
0.11245970
-0.13745579
-0.06294997
-0.08732724
0.08135306
0.12398394
-0.08108332
-0.16351217
0.10838155
0.07524536
-0.09039798
-0.09296178
0.06909693
0.06769837
-0.10911061
0.11191663
-0.03872364
0.09673116
0.02492844
0.04084990
-0.03514877
0.00891671
0.08876282
0.06905242
-0.10686874
0.10882462
-0.01657988
0.00006987
-0.15372996
-0.06320995
-0.06675091
-0.08626979
-0.11559658
-0.07561092
0.08207358
-0.04729479
-0.08413818
-0.13127585
0.07536097
0.07542569
0.08106068
0.07729857
0.10966429
0.07952778
-0.10937745
-0.07698660
-0.10912916
-0.01261678
-0.00244644
0.09150071
-0.09421106
-0.11009470
0.05162664
-0.07286641
0.12059306
-0.08484268
0.11540784
0.07545157
0.04988688
-0.05571335
0.08246187
-0.12571831
0.01980326
-0.02256246
0.06195769
-0.16082561
-0.09064625
-0.07658825
-0.13407016
-0.20144673
-0.01407672
0.03984382
-0.11628776
-0.15052447
-0.10633460
0.00773435
-0.07870209
0.11667621
-0.10534623
0.06602507
0.08169246
-0.09187207
0.01461862
0.07034536
-0.13939610
-0.06094592
-0.17246997
0.09950936
-0.01436452
0.06193408
0.06841677
0.06932454
-0.12797382
0.12769198
0.02421681
-0.12116916
0.10497703
0.07633202
0.05348784
-0.13696750
0.06360454
-0.12121414
-0.07633056
-0.17310616
0.04008596
-0.12605254
-0.06646633
0.08882873
-0.09333602
0.12582712
0.09856624
0.07911284
0.10137381
0.07797571
0.11981675
-0.16966748
0.07444884
0.06837086
-0.23021670
-0.05520062
-0.14351691
0.07419338
0.14903508
0.05825995
0.09452291
0.10657464
0.07700323
-0.12435989
0.01485988
0.07854999
-0.13714853
0.08566773
-0.00785859
-0.04906051
0.05236800
0.06677119
-0.06928351
-0.14547665
0.03055039
0.04930582
0.07313789
-0.13370493
0.05086271
-0.03075487
-0.15552501
0.01720031
-0.13429721
-0.10822986
0.12494013
0.08477643
-0.03662590
-0.08925675
-0.13923851
-0.13837524
0.06196714
0.09958447
-0.08237989
-0.13801338
0.10377698
-0.14506018
0.06585422
-0.09154149
-0.00331570
0.06806715
-0.12931553
0.09883738
0.07953146
-0.13466516
-0.17120074
0.05699592
-0.07219306
0.01382073
0.08722570
0.09846828
-0.11851359
0.04800569
0.05719939
-0.05823347
0.00826447
0.08959547
0.09443946
0.10398626
0.10942505
0.07783674
-0.04447053
0.02065180
0.07421276
0.01422239
-0.08565199
0.11354245
0.09176264
0.10961170
0.09640966
0.03709131
-0.08062223
0.07188209
0.08650316
-0.05670606
-0.14546166
-0.19730274
-0.03575569
-0.09679167
0.08207197
0.07183599
-0.00195405
0.01073322
0.06321595
-0.08960506
-0.05364481
-0.16423766
-0.13991880
-0.03713471
-0.11386925
0.06401139
0.06435435
0.12626484
0.07028371
-0.09532142
-0.08943610
-0.11978289
0.07113526
0.02284082
-0.11231742
0.07284588
0.10300563
0.13868657
0.08739337
-0.09162258
0.09232218
0.11359031
-0.10476401
0.12617655
-0.19022653
-0.00084558
0.02084824
0.09776618
0.08844849
0.02746745
-0.08482249
-0.02950196
-0.07964247
-0.05965819
0.10943411
-0.11671387
-0.09513960
0.07719815
0.01385487
-0.12625805
-0.07308103
-0.10399675
-0.02594417
0.05682258
0.06399791
-0.04678481
-0.05058593
0.08588497
0.07934912
-0.13072962
0.05996848
0.09355941
-0.11427256
-0.12285279
-0.08543682
-0.09422608
-0.12667114
-0.14401197
0.04060305
-0.09838656
-0.09776118
0.05097904
0.05210512
-0.09465296
0.08787899
0.08295562
0.08057377
0.08920038
0.00436391
0.06002464
0.07530113
-0.14634810
-0.13300845
-0.12288773
-0.12610377
-0.18527630
-0.10850786
0.06590911
-0.02046315
0.08644427
-0.08818247
-0.00438434
0.08869202
0.10679422
0.09532188
0.09719887
-0.07661308
-0.19330433
-0.11292273
-0.06709397
0.10506161
0.08400489
-0.05417008
-0.05816139
0.06492089
0.08533400
-0.06349770
0.07494234
-0.14160654
-0.05291248
-0.11668171
-0.10283429
-0.06585332
0.08065201
-0.13057126
-0.10883039
-0.12490365
-0.13274345
0.09251043
0.10421713
-0.14675739
-0.00376777
0.10150396
0.05763536
0.06481832
0.03259690
-0.05530944
0.07916182
0.11229981
0.04968849
-0.05846576
-0.14755659
-0.09928979
0.06851070
0.09030916
-0.14446919
-0.02079451
0.09066056
-0.04158578
0.05097624
0.02936654
-0.08910634
0.02305855
-0.13035442
0.08863834
-0.11468337
-0.12808433
-0.10280668
-0.10903713
0.09240858
-0.03893861
-0.13719903
-0.09009370
0.06235328
-0.18420586
0.07020682
-0.10900608
-0.05418621
0.07787305
0.11149652
-0.02081612
0.06150948
0.15066013
-0.06593323
-0.10676398
0.06505255
0.04293194
-0.13190190
0.06699511
-0.10582419
-0.11924873
-0.13053747
0.04754973
0.09091839
-0.13107893
0.04877035
-0.14467658
-0.03990716
-0.01543790
0.09654082
-0.09658846
0.03823924
-0.08923304
0.09778660
0.06765401
0.07994200
-0.15340158
-0.09449920
0.06663723
0.08408031
0.08680416
-0.07017874
-0.15100831
-0.14463221
-0.03146407
0.04334387
-0.13708845
-0.02343410
0.07381298
-0.15512627
-0.16717790
-0.04507999
-0.08558090
-0.08654034
-0.06100176
0.09963306
-0.01497851
-0.13223957
-0.12057541
0.01315814
0.10168011
0.06317271
0.06845118
0.09348981
0.06054424
0.09521972
-0.13310289
0.06745619
0.08129964
0.13610496
-0.10304540
0.07240408
0.08012629
-0.03010539
0.11598307
0.05373186
0.05693392
-0.16702968
0.06917535
-0.14500095
-0.06700668
0.09224524
0.04745114
-0.19869862
-0.10934480
-0.09172960
0.05183962
-0.12592191
0.07771073
0.11052511
0.00199807
0.07148223
-0.01668205
0.09009919
0.10025518
