0.09747560 0.13206466 0.11631034 0.08601387 0.03796687 0.01775339 0.07072613 -0.13091516 -0.09863255 0.01282317 0.09308506 0.16095299 0.00325157 0.03695408 -0.12395671 -0.14540903 0.02305091 -0.07491593 -0.11025406 0.09539363 0.16390783 -0.02254689 -0.01637314 -0.13992351 -0.13870336 0.10874129 0.07748189 -0.12485825 0.10773940 -0.02169287 -0.08057563 -0.05281003 0.01969891 -0.05944859 -0.11371820 -0.08370540 0.08822525 -0.10462927 0.08028499 -0.04930965 0.12267013 -0.02375698 -0.03897432 0.03718457 0.03921795 -0.08220474 -0.08958434 -0.07015327 -0.08910724 0.09048699 0.09685829 0.16215929 -0.09598079 0.04150238 -0.01015706 -0.16948590 -0.14525457 0.09794916 0.22240786 0.00922608 0.01635160 0.13994142 -0.12039851 -0.08951735 -0.08273702 0.11406291 -0.16309468 0.02027871 -0.16336139 -0.02601683 0.01201691 0.10824574 -0.06763560 -0.05999799 0.12843572 -0.12704477 0.00565031 -0.00008153 -0.14098801 -0.02705053 -0.01277664 0.02009207 0.03583902 -0.02040376 0.05722921 -0.01266926 -0.00108772 -0.03279411 -0.10534751 0.03771701 -0.02521920 -0.03814627 -0.17185952 -0.14980601 -0.14037713 0.14995444 0.01094081 0.13924584 0.04060252 -0.13432285 0.10468835 -0.00945428 0.01538940 0.12601978 -0.09227546 0.07833114 -0.10511822 0.08837539 0.16859639 0.16263629 -0.09241802 -0.05490768 0.13458988 -0.11615383 0.11169115 -0.15189558 -0.11635640 0.11063219 -0.11257743 -0.12093840 -0.08543184 -0.15489893 0.00156236 0.09278058 0.06077433 0.13164730 -0.14060614 0.13882267
0.00391745 -0.15734433 -0.28061196 0.07012440 0.08213085 0.08327974 -0.09053986 0.11843967 0.06386212 -0.14542893 0.17946552 -0.01569129 -0.13115002 -0.00697053 -0.07820500 -0.00728139 -0.10150621 -0.02302638 0.14471366 0.12586805 -0.04293745 -0.14490089 0.01770540 -0.14903589 -0.02851694 -0.16104794 0.06810720 -0.13299815 -0.05984538 -0.08830802 0.08242701 0.05119368 -0.08467992 0.13813652 0.09725939 -0.00931514 -0.11432490 -0.01094204 -0.16664751 0.02719953 -0.04784510 -0.14134395 -0.14755303 -0.21681289 -0.07346268 -0.02624449 -0.08729369 0.12810011 0.10993809 -0.10561861 -0.01413858 0.00069576 -0.01960503 0.00828863 -0.26871520 -0.18069617 0.02872545 -0.08635448 -0.07504563 -0.11785077 0.11840191 -0.11769475 0.12814316 -0.03240775 0.05075603 0.20943303 -0.08811814 0.14001824 0.00957342 0.05176792 0.13965771 0.14539663 0.12572242 0.02611728 -0.03583876 -0.01075978 0.12729265 0.14001410 0.03621611 0.10984435 -0.02383653 -0.04737553 0.01810567 -0.24108066 0.04363712 -0.13287380 0.16820215 0.10370705 -0.02750898 -0.18497202 0.01248609 0.13354854 -0.22134998 -0.07284867 0.03297492 -0.03808910 0.10196949 0.16771311 0.03641217 -0.13768137 -0.07207368 -0.09934476 0.15762857 -0.08998240 0.08239543 -0.12961008 -0.17470242 0.05232918 0.10206413 0.03294870 0.08426421 0.02024613 0.15596546 0.09747422 0.07091402 0.09594767 0.02866445 0.14994507 -0.12724820 0.14213073 0.08582354 0.08241121 -0.16313633 -0.04538034 0.10049357 -0.13436188 -0.08807264 -0.01456913
0.16668262 0.04999156 -0.08239944 -0.17435291 -0.12335235 -0.17522511 -0.14156626 -0.18252333 0.04580718 0.05373032 0.10554496 -0.11333831 -0.04989336 -0.09116884 -0.17811888 -0.22692752 0.02490476 -0.07948175 0.10765646 -0.17947648 -0.12066481 0.09531319 0.17112476 0.00112440 -0.07382451 -0.25597820 0.04925772 0.11144563 0.10770640 0.19168511 -0.10734699 -0.08741765 -0.18439536 -0.08486849 0.11481228 0.11597457 0.12308387 -0.12176545 0.01139292 -0.19746441 0.13362096 -0.14887340 -0.06614972 0.07481116 0.05791273 0.10777692 0.00933587 -0.13990007 -0.14518431 0.10859597 -0.20217003 -0.17413990 0.13723297 -0.05487311 0.10096283 0.09173256 0.02523016 -0.14929000 -0.13689567 0.02382934 -0.03642672 -0.09110972 0.00192435 0.07648874 0.02450915 -0.01735310 0.16059269 -0.08564305 0.13024527 0.11015154 -0.03060522 -0.10955861 0.15577897 0.07174976 0.01873554 -0.00093356 0.14676304 -0.03558312 -0.05156350 0.07501552 0.14553477 0.13229540 0.05972588 -0.08604473 -0.08676231 0.12596361 0.12585284 0.10964951 -0.22500959 0.10886475 -0.01616367 -0.15951695 -0.00544855 -0.08260378 -0.15107562 0.12523808 -0.07551105 -0.06256753 -0.03594354 -0.07972613 -0.12936652 -0.06370050 0.04211078 0.09902724 0.03876866 0.13282830 -0.00001297 -0.01623344 -0.24524578 0.01000732 -0.22367989 -0.15971331 -0.14072521 -0.17929874 -0.07769553 -0.03672738 -0.04454919 0.06050950 -0.10596055 -0.08767497 0.06612395 -0.20040189 -0.11342264 0.13357821 -0.18539251 -0.09803826 0.08127686 -0.15973835
-0.09131420 0.12457229 0.04046775 -0.13478760 0.15128371 -0.22747630 0.18388303 -0.14446910 0.02478657 -0.11539510 -0.00110448 0.18312073 -0.01493971 -0.15469247 -0.09367463 0.11864007 -0.09911533 -0.11577001 -0.10650831 -0.20635961 -0.00986165 -0.12020884 -0.02319715 0.02096231 -0.07540365 -0.17461728 0.12623516 0.10765517 -0.06620040 -0.15870391 0.07619900 0.06187041 0.12958042 0.05866432 -0.09798835 0.13064004 0.03339473 -0.19266525 -0.12874046 0.09387975 -0.13847367 0.08509962 0.11529744 -0.09326113 0.09635764 -0.11810719 0.08818014 -0.19173892 -0.01231680 0.05259744 0.02691058 -0.06023379 0.13498010 -0.22689456 -0.13745445 -0.02132791 0.05307318 -0.09600815 0.09982345 0.03715951 -0.02646603 0.13150018 -0.04206700 0.04830248 0.13242671 -0.17661451 0.06210684 -0.06390709 0.15573828 -0.16115454 -0.03000335 -0.23542507 0.13719144 0.10592896 0.02856561 0.01533444 0.10697630 -0.04426323 -0.11351484 0.08612306 -0.09522782 -0.13818303 -0.17592724 0.01843752 -0.24404046 0.00227711 -0.11523466 -0.11010048 0.09671590 0.07781654 0.13248543 0.13852794 0.12553990 -0.17972952 -0.16818954 -0.09552959 -0.12196603 -0.14343911 0.15640524 0.01922180 0.10451992 -0.16701090 -0.03376493 -0.14363872 0.04806263 -0.09835131 -0.03771966 0.08233746 -0.00912204 -0.05933667 0.09393357 0.06800219 0.13026233 -0.19732368 -0.16434084 0.04370689 0.11703925 -0.18419518 -0.04720214 0.14793673 -0.03572169 -0.05142426 -0.01987791 0.14264594 -0.17530565 0.05646043 -0.05768753 -0.05566505
0.03273875 -0.04422598 -0.15842782 -0.06334395 -0.05869845 0.05267644 0.16184527 0.09260025 -0.03175707 0.12963735 -0.22431624 -0.18797152 0.12891081 0.09433058 0.06638563 0.07814303 0.09938202 0.16017652 -0.14555798 -0.18100101 0.12406663 0.11805912 -0.06574101 0.12172922 -0.11031967 -0.01128349 0.10111722 -0.07638559 -0.18878192 0.10619035 -0.23404405 0.02582877 -0.10897861 0.14187753 -0.11051986 0.01119370 -0.08518602 0.12501976 0.01322007 0.07617093 0.00529567 -0.18026383 -0.13591829 -0.16194983 0.31974354 -0.07094563 0.07757723 -0.10574427 -0.17173214 -0.06938862 -0.09766677 0.14499454 0.00980183 0.09894011 0.05964293 0.11026981 -0.07342410 0.08850180 0.06721681 -0.21528208 0.12481267 -0.09232749 -0.18987498 0.12655805 -0.03279750 -0.17921878 -0.12095398 0.11821973 -0.12809631 0.09366991 0.15237080 -0.02738382 0.05979852 0.03391947 -0.16659811 -0.00943624 -0.11579504 0.16689430 -0.08309941 0.02315613 -0.07053475 -0.04363476 -0.01228865 0.12652208 -0.11880665 0.11817329 0.03217861 -0.09529662 0.06164787 0.08520625 -0.01089097 -0.04706404 0.13325812 0.07081221 0.07101635 0.05455451 -0.04410842 -0.13382652 -0.16517928 0.10814249 -0.09321120 0.11724664 0.16440082 0.13063712 0.10731389 0.09037099 -0.20251229 -0.00841087 -0.09643962 -0.04980603 -0.10817832 -0.01219985 -0.08833785 -0.01870629 0.01940058 -0.30265120 -0.04439484 -0.13061190 0.09324157 0.13680941 -0.00482566 0.10988564 -0.14313976 -0.12045340 -0.11612806 0.11392058 -0.03807516 -0.15286586
-0.17810954 -0.02641979 0.05846242 0.08595318 -0.04087834 0.00433797 -0.16183761 -0.11321705 -0.23942637 -0.09518329 -0.05588797 0.07389720 0.09423853 -0.10152098 -0.14216498 0.12194309 0.02467410 -0.08196267 -0.08088392 -0.05085450 -0.21201381 0.13921376 0.09994394 0.11830112 0.09891728 -0.01188252 0.00323422 -0.04988163 -0.00789221 -0.10009030 -0.04158800 0.07515807 0.09121553 -0.03718895 -0.12772247 -0.16645247 -0.12771522 0.11444370 0.09897330 -0.12632146 -0.20834969 -0.05028071 0.08629853 0.14042026 0.05794550 0.01465803 0.07607064 -0.07698493 0.12147147 -0.12564705 -0.22902426 -0.02660976 -0.18615603 -0.16870704 -0.16465662 -0.00025660 0.04307547 0.09405380 -0.08139034 -0.12350982 0.06290913 0.03145782 0.12491313 -0.06078175 0.06939244 0.12597919 0.01445279 -0.05784237 -0.09554239 0.20118888 -0.05403164 -0.13280722 -0.04301069 -0.16231759 0.14863156 -0.14762071 -0.00935624 -0.00743838 -0.18259083 -0.07124656 -0.06257815 0.12714717 0.18510054 -0.14684790 0.15585212 0.04416943 0.05892849 -0.03369372 0.10926728 0.10858159 0.10773669 -0.19915779 -0.07390793 0.12099043 0.09855755 -0.07189242 0.03360108 -0.12750380 -0.10487240 0.15590486 0.12293209 -0.13021410 0.00457134 -0.16894032 0.08834356 -0.09175176 0.08036491 0.12607865 -0.22439170 -0.08215965 0.02582569 -0.23030867 -0.04800384 0.08983298 0.13232094 0.09782719 0.10466223 -0.15206347 -0.12648387 -0.15200867 -0.03484570 -0.09891382 0.06506608 -0.14168938 -0.13056017 0.02278063 0.04507701 -0.05435478
-0.18927950 -0.02918054 0.10209874 0.02316204 -0.00869797 0.11312416 0.14450552 0.15696530 -0.25560910 -0.05093284 -0.10791716 0.09043555 -0.05804463 0.14933486 -0.18871053 -0.03734107 -0.23414792 -0.06619235 0.12926517 -0.16271375 0.13534436 -0.15392278 -0.10797592 0.14150809 0.03138223 0.11089863 -0.00331347 -0.10765027 0.11191941 -0.01242426 0.15371114 -0.13522351 0.10056270 -0.14149232 0.15206562 0.01911280 0.11703144 0.14870302 -0.04219121 -0.13361935 0.10437978 0.36638552 -0.13440061 -0.01078675 -0.12382672 0.11244723 -0.10999744 0.04473538 -0.10008797 -0.19350971 0.15317705 -0.07026532 -0.07321611 -0.13822998 0.12712464 0.09381633 -0.12842380 -0.01321789 0.30619738 0.10287178 0.05836890 -0.00685354 0.11858841 -0.13495769 -0.09137093 0.14127173 0.10970484 -0.11582363 -0.15599717 -0.11786611 0.09988261 0.15346372 -0.00478098 0.03038134 0.12823734 0.12814286 -0.01974274 -0.05176558 -0.11130037 -0.05744873 0.13022248 -0.01943166 -0.01166213 0.11059484 0.07697730 -0.15288280 -0.11525780 0.08415432 -0.14781220 -0.05535390 -0.08368409 0.01961496 0.13591640 0.08854815 0.02584013 -0.18349372 0.08961831 -0.11193868 -0.04406219 0.11062980 0.02904106 0.13682513 -0.10189924 0.11733583 0.04679994 -0.18400195 -0.08252112 -0.12599440 0.15619174 -0.04570846 -0.12016845 0.22882126 -0.26603606 0.10272709 0.06807019 0.06171616 0.04332463 0.09444185 0.01100816 0.15009187 -0.03974451 -0.23077084 -0.03253167 -0.13069406 -0.19416277 -0.08617643 0.08715029 -0.00524415
0.07771754 -0.15079142 0.01697936 -0.14763826 0.09790822 -0.20008698 0.08046693 -0.17386153 0.02568378 0.16111305 -0.15773851 -0.08557735 0.15055259 -0.32825723 0.12949795 -0.18899855 0.11259551 0.15269783 -0.04876171 0.13424735 0.00382288 0.02084488 0.07246116 0.02185486 -0.11742996 0.02248412 -0.16575328 0.06370685 -0.09199757 0.12006801 0.16193505 -0.09390003 -0.06302639 0.12309266 -0.08650920 0.07398506 -0.05980208 0.06598639 0.11795890 0.14250246 -0.14434947 0.12926079 0.07678083 0.08761630 0.05893742 -0.11198125 -0.19616216 0.16338149 0.08837805 -0.04290831 -0.04746383 0.07279290 0.13577230 0.15627137 0.02016401 -0.10656738 -0.09532476 0.12227180 0.12485180 0.05023307 -0.17708708 -0.15554726 0.00543508 -0.15922762 0.01846434 -0.27634653 0.06700143 -0.19030565 0.02722483 0.08913583 -0.23307417 -0.11127833 0.06789295 0.04470348 -0.21381521 0.11833722 0.10189605 -0.22514187 0.11466853 -0.15916237 -0.00910065 0.10759760 0.16311421 0.12747730 0.12376840 -0.17678660 0.01348117 0.12978147 0.01041644 -0.06621303 0.12220699 -0.00176723 0.14946960 -0.01361388 -0.21392356 -0.13905984 0.15190107 0.06077109 -0.05490952 -0.00932467 -0.13379495 -0.12951839 -0.11928497 -0.10068417 -0.02737636 -0.10582374 0.01336221 0.00021524 0.05767453 0.16204302 -0.19807869 0.02426979 0.04880540 -0.03650709 -0.08397838 -0.15168713 -0.16757557 -0.12401150 0.12794712 -0.06830461 0.12687588 0.13035853 -0.19259278 -0.02500495 -0.06347499 -0.15332009 -0.07815599 0.14642170
0.01554325 0.08331358 -0.16540617 0.14527601 -0.16973500 0.06921411 -0.01153416 0.01049910 0.06760773 -0.21429418 -0.15241984 -0.11747022 -0.14702545 -0.22006574 0.05933835 0.10413548 0.11343975 -0.10611980 -0.05043486 0.10802842 -0.17218891 -0.08111978 -0.18539916 0.03597193 0.10090178 -0.20283370 -0.01357546 0.04932195 0.11217392 0.12317931 0.00201780 -0.23109345 0.06168020 -0.16654670 0.09752030 -0.00619843 0.11614639 0.07488368 0.10962865 0.14764419 -0.15264843 -0.06207503 0.07804152 -0.08789979 -0.05547964 -0.03888978 0.07806891 0.01306669 0.07214213 -0.00449553 -0.18401805 -0.08512981 0.07298487 0.09372441 -0.18768613 -0.15662070 -0.16976689 -0.19321516 -0.14577413 -0.19625969 -0.07792857 0.10930964 -0.09451469 0.10290220 0.12983282 -0.07696621 0.10455398 0.12155171 0.00967005 -0.04311253 -0.13832194 0.10490662 -0.10537151 -0.15788180 0.07998549 0.11913709 0.11508344 -0.16278748 0.09819347 -0.18839368 -0.01224861 0.01263408 -0.17800745 0.03065667 -0.17427844 0.01009081 -0.07188755 -0.03848326 0.07639527 0.10159967 -0.04600607 -0.01658869 -0.14900459 0.08692143 0.07889815 -0.10238388 0.01971135 0.11558948 0.11399867 0.07209610 -0.16649951 0.11980303 -0.02292485 -0.14956169 -0.01627753 0.04267110 0.04107597 -0.16273153 -0.13383754 -0.10179435 0.08668981 -0.17210926 0.00172790 0.09088817 0.08086979 0.02202734 0.08358874 0.10872906 0.15647329 -0.12859283 -0.10892891 -0.09924833 0.06769446 0.08161302 0.08231645 0.07612499 -0.07480075 -0.11121534
0.04807423 -0.14303115 0.03213206 0.11853995 -0.17444609 -0.05861533 -0.16168101 0.06951772 0.14172478 0.11915190 0.01791732 -0.10623839 0.14742590 0.11161923 0.07854367 0.09814808 0.06155855 0.13031143 0.19834472 -0.08464240 0.02144666 0.12564373 -0.04522025 -0.21578296 0.16067050 0.15913376 -0.26946813 -0.06532544 -0.18533835 -0.00028937 0.14456017 -0.00370050 -0.10388505 0.15640943 -0.18477255 -0.11152761 -0.17048171 -0.12779111 -0.08649696 0.10756113 0.09165099 0.14430678 0.04884206 0.08612427 -0.16236381 -0.00675110 0.09340293 0.10635473 -0.21086872 -0.00916465 0.17795639 0.11601023 -0.01620163 0.08987771 0.07137944 0.15421477 -0.03285242 -0.07431387 -0.04504533 0.03703486 -0.25038719 -0.06420484 0.00109392 0.12002249 -0.16619225 0.11511472 -0.11793818 0.12738495 0.11261541 -0.11740609 -0.00451679 -0.00155306 -0.03932299 -0.10249856 -0.20120148 -0.20315941 -0.21450661 0.06832442 0.11527751 0.05021568 -0.02000603 -0.01867464 0.04223402 -0.22073618 0.01495599 0.11286551 -0.03910672 -0.12409210 -0.02522766 -0.19523905 0.11993585 0.07315427 0.00171426 -0.08748849 0.08794499 0.02876379 -0.21232875 -0.13374364 0.14664787 0.10580666 -0.12044978 0.11109563 -0.12350404 -0.01083535 -0.21273553 0.00492703 0.08057091 0.06762928 -0.04040719 -0.19431105 -0.08369654 0.08106685 0.03575081 -0.00952628 -0.21919896 0.14186898 -0.14656039 -0.13556342 0.05448213 -0.06411748 -0.12658337 0.09603327 0.04819900 0.11759104 0.10670161 0.08268100 0.10227429 0.13240530
